{"learner":{"attributes":{"best_iteration":"124","best_score":"1.9790456521795308","scikit_learn":"{\"_estimator_type\": \"regressor\"}"},"feature_names":["PTS_ROLL_3","PTS_ROLL_5","PTS_ROLL_10","PTS_LAG_1","PTS_LAG_2","PTS_LAG_3","MIN_ROLL_3","MIN_ROLL_5","MIN_ROLL_10","MIN_LAG_1","MIN_LAG_2","MIN_LAG_3","PTS_SEASON_AVG","PTS_STD_5","IS_HOME","DAYS_REST","GAME_NUM","OPP_DEF_AVG","OPP_DEF_ROLL_5","OPP_DEF_ROLL_10","OPP_DEF_REG","OPP_GAMES_PLAYED"],"feature_types":["float","float","float","float","float","float","float","float","float","float","float","float","float","float","int","float","int","float","float","float","float","int"],"gradient_booster":{"model":{"cats":{"enc":[],"feature_segments":[],"sorted_idx":[]},"gbtree_model_param":{"num_parallel_tree":"1","num_trees":"155"},"iteration_indptr":[0,1,2,3,4,5,6,7,8,9,10,11,12,13,14,15,16,17,18,19,20,21,22,23,24,25,26,27,28,29,30,31,32,33,34,35,36,37,38,39,40,41,42,43,44,45,46,47,48,49,50,51,52,53,54,55,56,57,58,59,60,61,62,63,64,65,66,67,68,69,70,71,72,73,74,75,76,77,78,79,80,81,82,83,84,85,86,87,88,89,90,91,92,93,94,95,96,97,98,99,100,101,102,103,104,105,106,107,108,109,110,111,112,113,114,115,116,117,118,119,120,121,122,123,124,125,126,127,128,129,130,131,132,133,134,135,136,137,138,139,140,141,142,143,144,145,146,147,148,149,150,151,152,153,154,155],"tree_info":[0,0,0,0,0,0,0,0,0,0,0,0,0,0,0,0,0,0,0,0,0,0,0,0,0,0,0,0,0,0,0,0,0,0,0,0,0,0,0,0,0,0,0,0,0,0,0,0,0,0,0,0,0,0,0,0,0,0,0,0,0,0,0,0,0,0,0,0,0,0,0,0,0,0,0,0,0,0,0,0,0,0,0,0,0,0,0,0,0,0,0,0,0,0,0,0,0,0,0,0,0,0,0,0,0,0,0,0,0,0,0,0,0,0,0,0,0,0,0,0,0,0,0,0,0,0,0,0,0,0,0,0,0,0,0,0,0,0,0,0,0,0,0,0,0,0,0,0,0,0,0,0,0,0,0],"trees":[{"base_weights":[-2.341249E-2,-2.633189E-1,2.793808E-1,-3.6278683E-1,-1.15163215E-1,1.311305E-1,3.9795852E-1,-4.1142097E-1,-3.0267906E-1,-1.5787785E-1,-2.3880256E-2,6.552324E-2,2.0385626E-1,3.2313976E-1,4.4117954E-1,-4.3650907E-1,-3.7043074E-1,-3.495606E-1,-2.6057652E-1,-2.8251263E-1,-1.3243626E-1,-1.3567251E-1,3.2651902E-3,4.361099E-4,1.0250372E-1,1.573359E-1,2.4245828E-1,2.523548E-1,3.4434742E-1,4.0774772E-1,4.6556425E-1,-4.4712877E-1,-4.0098706E-1,-3.9232284E-1,-3.3855352E-1,-3.7290812E-1,-2.8540587E-1,-2.752004E-1,-1.7492917E-1,-3.0332524E-1,-2.0880681E-1,-1.4625995E-1,-0E0,-2.990196E-1,-1.1339523E-1,-2.757649E-2,7.6997116E-2,-4.8493408E-2,4.2613637E-2,6.907257E-2,1.6152263E-1,1.1430527E-1,2.1283185E-1,2.0811346E-1,2.7482823E-1,2.2544435E-1,3.907767E-1,2.841596E-1,3.5883906E-1,2.35E-1,4.1204175E-1,4.507818E-1,4.8085502E-1,-2.3501713E-2,-2.1797521E-2,-2.0126857E-2,4.166667E-3,-2.0747863E-2,-1.8636031E-2,-1.4754099E-2,-1.7901491E-2,-1.4735772E-2,-1.8968172E-2,-1.4523185E-2,4.6875E-3,-1.5321523E-2,-1.180404E-2,-1.2541807E-2,-5.9436276E-3,-1.7017828E-2,-1.3290114E-2,-1.1314984E-2,9.615385E-4,-8.722386E-3,-4.9678273E-3,4.8951054E-4,-1.6666668E-2,9.375E-3,-1.6842106E-2,-1.3409092E-2,-4.3410854E-3,-2.9449018E-3,1.3520971E-3,7.1331523E-3,2.046131E-3,-1.5104167E-2,-1.8226601E-3,-2.4615384E-3,3.7720264E-3,4.090712E-3,-1.9160584E-3,4.044118E-3,9.294013E-3,-1.5151516E-3,6.2362435E-3,4.464286E-3,1.112703E-2,4.3956046E-3,1.07819075E-2,1.174594E-2,1.6047297E-2,5.721393E-3,1.2543154E-2,-1.0000001E-2,2.0173268E-2,-2.3809525E-3,1.4622057E-2,-4.545455E-3,1.800941E-2,-4.6875E-3,1.4705883E-2,1.9882709E-2,2.2064542E-2,2.12E-2,2.2910958E-2,2.4159258E-2,2.0913461E-2],"categories":[],"categories_nodes":[],"categories_segments":[],"categories_sizes":[],"default_left":[0,0,0,0,0,0,0,0,0,0,0,0,0,0,0,0,0,0,0,0,0,0,0,0,0,0,0,0,0,0,0,0,0,0,0,0,0,0,0,0,0,0,0,0,0,0,0,0,0,0,0,0,0,0,0,0,0,0,0,0,0,0,0,0,0,0,0,0,0,0,0,0,0,0,0,0,0,0,0,0,0,0,0,0,0,0,0,0,0,0,0,0,0,0,0,0,0,0,0,0,0,0,0,0,0,0,0,0,0,0,0,0,0,0,0,0,0,0,0,0,0,0,0,0,0,0,0],"id":0,"left_children":[1,3,5,7,9,11,13,15,17,19,21,23,25,27,29,31,33,35,37,39,41,43,45,47,49,51,53,55,57,59,61,63,65,67,69,71,73,75,77,79,81,83,85,87,89,91,93,95,97,99,101,103,105,107,109,111,113,115,117,119,121,123,125,-1,-1,-1,-1,-1,-1,-1,-1,-1,-1,-1,-1,-1,-1,-1,-1,-1,-1,-1,-1,-1,-1,-1,-1,-1,-1,-1,-1,-1,-1,-1,-1,-1,-1,-1,-1,-1,-1,-1,-1,-1,-1,-1,-1,-1,-1,-1,-1,-1,-1,-1,-1,-1,-1,-1,-1,-1,-1,-1,-1,-1,-1,-1,-1],"loss_changes":[4.4478013E3,5.0339478E2,4.7576367E2,5.962451E1,5.350772E1,5.7385834E1,4.8486572E1,1.1453735E1,1.7959656E1,2.9607391E1,1.3280075E1,1.5226341E1,1.0206772E1,8.184631E0,7.578491E0,2.461792E0,2.864502E0,6.3703003E0,5.991394E0,2.366539E0,1.4217667E1,3.0773783E0,8.011209E0,4.7341905E0,7.9482117E0,6.16066E0,3.4069977E0,4.657547E0,3.593567E0,2.8903809E0,1.0270996E0,1.1728516E0,1.2504883E0,9.7229004E-1,1.3810883E0,1.4867859E0,2.2479324E0,4.957428E0,2.9742756E0,1.622818E0,1.4084911E0,9.279709E0,2.401865E0,1.9400997E0,3.0780878E0,4.2510552E0,2.4554129E0,3.2315667E0,3.718152E0,3.52944E0,2.8487778E0,2.2051582E0,1.3355408E0,1.3522339E0,2.8712997E0,2.9879036E0,1.6249008E0,2.2862244E0,2.1024475E0,1.9710665E0,1.4775391E0,3.6621094E-1,1.9018555E-1,0E0,0E0,0E0,0E0,0E0,0E0,0E0,0E0,0E0,0E0,0E0,0E0,0E0,0E0,0E0,0E0,0E0,0E0,0E0,0E0,0E0,0E0,0E0,0E0,0E0,0E0,0E0,0E0,0E0,0E0,0E0,0E0,0E0,0E0,0E0,0E0,0E0,0E0,0E0,0E0,0E0,0E0,0E0,0E0,0E0,0E0,0E0,0E0,0E0,0E0,0E0,0E0,0E0,0E0,0E0,0E0,0E0,0E0,0E0,0E0,0E0,0E0,0E0,0E0],"parents":[2147483647,0,0,1,1,2,2,3,3,4,4,5,5,6,6,7,7,8,8,9,9,10,10,11,11,12,12,13,13,14,14,15,15,16,16,17,17,18,18,19,19,20,20,21,21,22,22,23,23,24,24,25,25,26,26,27,27,28,28,29,29,30,30,31,31,32,32,33,33,34,34,35,35,36,36,37,37,38,38,39,39,40,40,41,41,42,42,43,43,44,44,45,45,46,46,47,47,48,48,49,49,50,50,51,51,52,52,53,53,54,54,55,55,56,56,57,57,58,58,59,59,60,60,61,61,62,62],"right_children":[2,4,6,8,10,12,14,16,18,20,22,24,26,28,30,32,34,36,38,40,42,44,46,48,50,52,54,56,58,60,62,64,66,68,70,72,74,76,78,80,82,84,86,88,90,92,94,96,98,100,102,104,106,108,110,112,114,116,118,120,122,124,126,-1,-1,-1,-1,-1,-1,-1,-1,-1,-1,-1,-1,-1,-1,-1,-1,-1,-1,-1,-1,-1,-1,-1,-1,-1,-1,-1,-1,-1,-1,-1,-1,-1,-1,-1,-1,-1,-1,-1,-1,-1,-1,-1,-1,-1,-1,-1,-1,-1,-1,-1,-1,-1,-1,-1,-1,-1,-1,-1,-1,-1,-1,-1,-1],"split_conditions":[1.13E1,7.4E0,1.62E1,5E0,1.013253E1,1.3181034E1,1.923913E1,1.4E1,1.8E1,1.6E1,1.9E1,2.66E1,1.4E1,1.40414505E1,2.26E1,4E0,4.3333335E0,7.7906976E0,8.958333E0,9.5E0,1.3666667E1,1.61E1,1.2816326E1,1.0286586E1,1.37E1,3E1,1.5310811E1,2.02E1,1.64E1,2.1E1,2.5483051E1,1.3333334E0,1.1818182E1,4.5333333E0,1.27E1,1.1E1,1.3E2,7.3333335E0,3.9115214E0,7E0,1.1E1,2.7E1,1E1,1.22E1,5E0,1.1E1,1.26E2,1.2E1,2.18E1,4E0,1E1,2.06E1,9E0,1.087967E2,1.149E2,1.4333333E1,8.842105E0,1.0866102E2,1.052E2,1.1114573E2,2.19E1,1.094E2,1.4635573E1,-4E-1,-4E-1,-3.5E-1,5E-2,-3.5E-1,-3E-1,-2E-1,-2.5E-1,-2.5E-1,-3E-1,-2.5E-1,1.5E-1,-2E-1,-1.5E-1,-1.5E-1,-1E-1,-2.5E-1,-2E-1,-2E-1,5E-2,-1E-1,-5E-2,5E-2,-2.5E-1,1E-1,-1.5E-1,-2E-1,-5E-2,0E0,5E-2,1E-1,5E-2,-3E-1,0E0,0E0,1E-1,1E-1,0E0,1E-1,1.5E-1,0E0,1.5E-1,1E-1,2E-1,1.25E-1,2E-1,2.5E-1,3E-1,1.5E-1,2.5E-1,-5E-2,5E-1,-2.5E-2,3E-1,-2.5E-2,4E-1,-5E-2,4.75E-1,5E-1,6E-1,6E-1,7E-1,9.0000004E-1,9.0000004E-1],"split_indices":[2,2,2,2,12,12,12,9,9,9,9,7,2,12,2,2,1,12,12,2,0,8,12,12,2,9,12,2,1,9,12,0,12,12,8,16,18,0,13,4,2,9,15,8,0,0,16,9,7,15,12,7,0,17,19,0,12,20,17,20,12,18,13,0,0,0,0,0,0,0,0,0,0,0,0,0,0,0,0,0,0,0,0,0,0,0,0,0,0,0,0,0,0,0,0,0,0,0,0,0,0,0,0,0,0,0,0,0,0,0,0,0,0,0,0,0,0,0,0,0,0,0,0,0,0,0,0],"split_type":[0,0,0,0,0,0,0,0,0,0,0,0,0,0,0,0,0,0,0,0,0,0,0,0,0,0,0,0,0,0,0,0,0,0,0,0,0,0,0,0,0,0,0,0,0,0,0,0,0,0,0,0,0,0,0,0,0,0,0,0,0,0,0,0,0,0,0,0,0,0,0,0,0,0,0,0,0,0,0,0,0,0,0,0,0,0,0,0,0,0,0,0,0,0,0,0,0,0,0,0,0,0,0,0,0,0,0,0,0,0,0,0,0,0,0,0,0,0,0,0,0,0,0,0,0,0,0],"sum_hessian":[6.1227E4,3.4161E4,2.7066E4,2.0438E4,1.3723E4,1.2029E4,1.5037E4,1.1294E4,9.144E3,9.348E3,4.375E3,6.325E3,5.704E3,5.509E3,9.528E3,7E3,4.294E3,4.323E3,4.821E3,1.583E3,7.765E3,8.54E2,3.521E3,2.292E3,4.033E3,2.589E3,3.115E3,1.273E3,4.236E3,4.026E3,5.502E3,5.38E3,1.62E3,2.539E3,1.755E3,3.166E3,1.157E3,4.116E3,7.05E2,1.232E3,3.51E2,7.031E3,7.34E2,1.01E2,7.53E2,2.483E3,1.038E3,1.061E3,1.231E3,2.576E3,1.457E3,1.46E3,1.129E3,1.515E3,1.6E3,1.068E3,2.05E2,8.26E2,3.41E3,9.9E1,3.927E3,2.813E3,2.689E3,1.751E3,3.629E3,1.615E3,5E0,1.169E3,1.37E3,5.48E2,1.207E3,2.45E2,2.921E3,1.142E3,1.5E1,2.285E3,1.831E3,2.98E2,4.07E2,6.16E2,6.16E2,3.26E2,2.5E1,4.39E3,2.641E3,7.14E2,2E1,7E0,9.4E1,1.09E2,6.44E2,1.578E3,9.05E2,3.67E2,6.71E2,4.7E1,1.014E3,3.24E2,9.07E2,2.303E3,2.73E2,3.39E2,1.118E3,9.8E1,1.362E3,8.3E1,1.046E3,9E1,1.425E3,8.61E2,7.39E2,2E2,8.68E2,4E0,2.01E2,2E1,8.06E2,1E1,3.4E3,1.5E1,8.4E1,2.642E3,1.285E3,6.24E2,2.189E3,2.586E3,1.03E2],"tree_param":{"num_deleted":"0","num_feature":"22","num_nodes":"127","size_leaf_vector":"1"}},{"base_weights":[4.0953394E-4,-2.0836918E-1,3.0125156E-1,-3.319248E-1,-6.228049E-2,1.5839766E-1,4.0669307E-1,-3.9946213E-1,-2.771855E-1,-1.7825717E-1,-3.0826662E-2,8.3426274E-2,2.1311074E-1,3.3928213E-1,4.4240588E-1,-4.2973137E-1,-3.5910425E-1,-3.199547E-1,-2.1978737E-1,-2.1459125E-1,-1.2429577E-1,-6.2273875E-2,4.3259297E-2,-2.2296544E-2,1.0984109E-1,1.5767635E-1,2.433283E-1,2.7947238E-1,3.584106E-1,4.1605318E-1,4.7086194E-1,-4.301043E-1,1.6666668E-2,-3.751218E-1,-2.8528973E-1,-3.490313E-1,-2.8530973E-1,-2.3659585E-1,-1.1814024E-1,-2.6715687E-1,-1.6497695E-1,-1.7335473E-1,-8.58396E-2,-8.805449E-2,-1.2246213E-2,4.462294E-3,9.6507356E-2,-1.118421E-1,8.208956E-3,6.815992E-2,1.6699736E-1,1.0789766E-1,1.927616E-1,2.2782199E-1,3.336207E-1,2.3571429E-1,3.2619864E-1,3.115E-1,3.7518013E-1,3.795036E-1,4.2847335E-1,4.5653254E-1,4.8220712E-1,-2.2209786E-2,-2.030914E-2,-1.97601E-2,-1.6931819E-2,-1.595092E-2,-9.72973E-3,-1.3258787E-2,-1.7877094E-2,-1.4507398E-2,-1.8181818E-3,-1.366774E-2,-9.58193E-3,-1.2126866E-2,-4.302103E-3,-1.5055467E-2,-1.0576923E-2,-8.93386E-3,1.369863E-3,-2.0000001E-2,-8.180301E-3,-1.6216217E-2,-3.707349E-3,-6.9357017E-3,-2.9175447E-3,-2.8763973E-4,-1.6532259E-2,7.3874294E-4,-9.772728E-3,-3.2846716E-3,5.5648396E-3,-1.012931E-2,-8.8495575E-4,1.2459807E-3,-1.0204082E-2,2.6929483E-3,8.061594E-3,6.993783E-3,1.2273902E-2,6.2839673E-3,1.3719512E-3,7.940161E-3,1.3275434E-2,8.833151E-3,1.2333468E-2,1.1188812E-2,1.8436072E-2,8.122744E-3,1.46186445E-2,-1.875E-2,1.6523236E-2,-1.875E-2,1.5697092E-2,1.2608695E-2,1.9017657E-2,-0E0,1.9252641E-2,2.143642E-2,-1.25E-2,2.284826E-2,6.25E-3,2.4129651E-2,-0E0],"categories":[],"categories_nodes":[],"categories_segments":[],"categories_sizes":[],"default_left":[0,0,0,0,0,0,0,0,0,0,0,0,0,0,0,0,0,0,0,0,0,0,0,0,0,0,0,0,0,0,0,0,0,0,0,0,0,0,0,0,0,0,0,0,0,0,0,0,0,0,0,0,0,0,0,0,0,0,0,0,0,0,0,0,0,0,0,0,0,0,0,0,0,0,0,0,0,0,0,0,0,0,0,0,0,0,0,0,0,0,0,0,0,0,0,0,0,0,0,0,0,0,0,0,0,0,0,0,0,0,0,0,0,0,0,0,0,0,0,0,0,0,0,0,0],"id":1,"left_children":[1,3,5,7,9,11,13,15,17,19,21,23,25,27,29,31,33,35,37,39,41,43,45,47,49,51,53,55,57,59,61,63,-1,65,67,69,71,73,75,77,79,81,83,85,87,89,91,93,95,97,99,101,103,105,107,109,111,113,115,117,119,121,123,-1,-1,-1,-1,-1,-1,-1,-1,-1,-1,-1,-1,-1,-1,-1,-1,-1,-1,-1,-1,-1,-1,-1,-1,-1,-1,-1,-1,-1,-1,-1,-1,-1,-1,-1,-1,-1,-1,-1,-1,-1,-1,-1,-1,-1,-1,-1,-1,-1,-1,-1,-1,-1,-1,-1,-1,-1,-1,-1,-1,-1,-1],"loss_changes":[3.8342632E3,6.504501E2,3.766394E2,7.206836E1,6.02361E1,4.3552765E1,3.4487793E1,1.052002E1,2.641034E1,6.8806534E0,3.027142E1,1.2521896E1,1.0246704E1,5.6053467E0,6.8546143E0,1.5627441E0,4.327881E0,6.124878E0,7.8466797E0,5.443161E0,2.6641197E0,1.1762676E1,7.9985995E0,2.4511921E0,8.534073E0,3.767353E0,5.4851837E0,2.4032745E0,2.8528137E0,2.057251E0,5.135498E-1,1.5003052E0,0E0,2.1219177E0,1.9966431E0,2.29953E0,3.392044E0,6.4819336E0,2.5984879E0,1.8624573E0,2.8644943E0,1.3110771E0,2.2011833E0,9.049122E0,6.4135427E0,4.6230574E0,3.9222498E0,1.9442003E0,2.381921E0,2.754509E0,3.183998E0,1.2827425E0,3.0976791E0,3.2279968E0,2.1537552E0,2.5674934E0,1.8708954E0,1.7940445E0,1.6705017E0,2.6303253E0,7.373047E-1,2.3162842E-1,4.6539307E-1,0E0,0E0,0E0,0E0,0E0,0E0,0E0,0E0,0E0,0E0,0E0,0E0,0E0,0E0,0E0,0E0,0E0,0E0,0E0,0E0,0E0,0E0,0E0,0E0,0E0,0E0,0E0,0E0,0E0,0E0,0E0,0E0,0E0,0E0,0E0,0E0,0E0,0E0,0E0,0E0,0E0,0E0,0E0,0E0,0E0,0E0,0E0,0E0,0E0,0E0,0E0,0E0,0E0,0E0,0E0,0E0,0E0,0E0,0E0,0E0,0E0,0E0],"parents":[2147483647,0,0,1,1,2,2,3,3,4,4,5,5,6,6,7,7,8,8,9,9,10,10,11,11,12,12,13,13,14,14,15,15,16,16,17,17,18,18,19,19,20,20,21,21,22,22,23,23,24,24,25,25,26,26,27,27,28,28,29,29,30,30,31,31,33,33,34,34,35,35,36,36,37,37,38,38,39,39,40,40,41,41,42,42,43,43,44,44,45,45,46,46,47,47,48,48,49,49,50,50,51,51,52,52,53,53,54,54,55,55,56,56,57,57,58,58,59,59,60,60,61,61,62,62],"right_children":[2,4,6,8,10,12,14,16,18,20,22,24,26,28,30,32,34,36,38,40,42,44,46,48,50,52,54,56,58,60,62,64,-1,66,68,70,72,74,76,78,80,82,84,86,88,90,92,94,96,98,100,102,104,106,108,110,112,114,116,118,120,122,124,-1,-1,-1,-1,-1,-1,-1,-1,-1,-1,-1,-1,-1,-1,-1,-1,-1,-1,-1,-1,-1,-1,-1,-1,-1,-1,-1,-1,-1,-1,-1,-1,-1,-1,-1,-1,-1,-1,-1,-1,-1,-1,-1,-1,-1,-1,-1,-1,-1,-1,-1,-1,-1,-1,-1,-1,-1,-1,-1,-1,-1,-1],"split_conditions":[1.2E1,7.2E0,1.66E1,4.3E0,1.8E1,1.2920213E1,1.923913E1,3E0,1.9E1,9.028571E0,1.0888889E1,2.3E1,2.8E1,1.6333334E1,2.37E1,9.628084E0,2.2E1,6.2689075E0,9.666667E0,1.4E1,8E0,2.9E1,1.2816326E1,1.098E2,1.38E1,1.38E1,1.84E1,1.5945946E1,1.7E1,1.93E1,2.5483051E1,9E0,1.6750002E-1,3.7416575E0,5.516854E0,2E1,1.3E2,6.6666665E0,1.1152847E2,7.5633802E0,1.08E1,2E0,1.04E2,8.6E0,2.5E1,6E0,8.7E0,1E0,9.884331E0,3.6E1,1.196E2,1.9E1,3E0,1.102E2,4.3817806E0,1.31E2,9.78E1,1.052E2,1.026E2,1.8E1,1.402E2,3.34E1,2.18E2,-3.8000003E-1,-3.35E-1,-3.3249998E-1,-3.3E-1,-2.4000001E-1,-1.8875001E-1,-2.35E-1,-2.85E-1,-2.375E-1,-5.999999E-2,-2.3249999E-1,-1.4499998E-1,-1.9250003E-1,-9.250002E-2,-2.8625E-1,-1.875E-1,-1.4499998E-1,2.750001E-2,-3.3875E-1,-9.749999E-2,-2.4749999E-1,-5E-2,-9.749999E-2,-4.4999983E-2,0E0,-2.9749998E-1,4.4999983E-2,-1E-1,-5.000019E-3,9.749999E-2,-1.5E-1,0E0,4.4999983E-2,-1.5250002E-1,5E-2,1.4499998E-1,1.4250003E-1,1.9499998E-1,1.4250003E-1,4.250002E-2,1.4250003E-1,2.4000001E-1,1.875E-1,2.4000001E-1,2.35E-1,3.8750002E-1,1.8000002E-1,2.4250002E-1,-1.4875002E-1,3.35E-1,-4.875002E-2,3.375E-1,2.5625E-1,4.3000004E-1,1.249981E-3,4.25E-1,5.65E-1,-3.000002E-2,6.65E-1,2.1999998E-1,8.55E-1,1.0500002E-1],"split_indices":[2,2,2,2,9,12,12,0,9,12,12,9,9,0,2,13,9,12,0,9,4,9,12,18,2,2,12,12,3,2,12,9,0,13,12,21,18,12,20,12,2,0,18,2,15,15,2,14,13,9,18,5,15,18,13,16,18,17,18,9,18,2,15,0,0,0,0,0,0,0,0,0,0,0,0,0,0,0,0,0,0,0,0,0,0,0,0,0,0,0,0,0,0,0,0,0,0,0,0,0,0,0,0,0,0,0,0,0,0,0,0,0,0,0,0,0,0,0,0,0,0,0,0,0,0],"split_type":[0,0,0,0,0,0,0,0,0,0,0,0,0,0,0,0,0,0,0,0,0,0,0,0,0,0,0,0,0,0,0,0,0,0,0,0,0,0,0,0,0,0,0,0,0,0,0,0,0,0,0,0,0,0,0,0,0,0,0,0,0,0,0,0,0,0,0,0,0,0,0,0,0,0,0,0,0,0,0,0,0,0,0,0,0,0,0,0,0,0,0,0,0,0,0,0,0,0,0,0,0,0,0,0,0,0,0,0,0,0,0,0,0,0,0,0,0,0,0,0,0,0,0,0,0],"sum_hessian":[6.1044E4,3.6036E4,2.5008E4,1.9523E4,1.6513E4,1.0621E4,1.4387E4,8.737E3,1.0786E4,3.522E3,1.2991E4,4.482E3,6.139E3,4.986E3,9.401E3,4.987E3,3.75E3,6.178E3,4.608E3,2.103E3,1.419E3,9.12E3,3.871E3,8.96E2,3.586E3,2.168E3,3.971E3,1.212E3,3.774E3,4.889E3,4.512E3,4.985E3,2E0,3.078E3,6.72E2,3.354E3,2.824E3,3.953E3,6.55E2,1.019E3,1.084E3,6.22E2,7.97E2,6.018E3,3.102E3,2.24E3,1.631E3,2.27E2,6.69E2,2.075E3,1.511E3,8.98E2,1.27E3,3.392E3,5.79E2,6.29E2,5.83E2,9.99E2,2.775E3,1.248E3,3.641E3,2.012E3,2.5E3,3.126E3,1.859E3,1.979E3,1.099E3,4.88E2,1.84E2,3.12E2,3.042E3,2.77E3,5.4E1,2.172E3,1.781E3,1.33E2,5.22E2,6.3E2,3.89E2,1.012E3,7.2E1,2.4E1,5.98E2,3.6E1,7.61E2,2.223E3,3.795E3,3.041E3,6.1E1,2.131E3,1.09E2,1.36E2,1.495E3,1.15E2,1.12E2,6.21E2,4.8E1,1.8E3,2.75E2,1.125E3,3.86E2,7.35E2,1.63E2,8.68E2,4.02E2,9.16E2,2.476E3,1.42E2,4.37E2,2.76E2,3.53E2,3E0,5.8E2,3E0,9.96E2,1.14E2,2.661E3,1.8E1,1.23E3,3.64E3,1E0,2.009E3,3E0,2.498E3,2E0],"tree_param":{"num_deleted":"0","num_feature":"22","num_nodes":"125","size_leaf_vector":"1"}},{"base_weights":[-2.395278E-3,-2.236989E-1,2.7549326E-1,-3.4088323E-1,-8.500064E-2,1.3953489E-1,3.9498302E-1,-4.0119183E-1,-2.8576612E-1,-1.8810943E-1,-5.3011846E-2,7.50811E-2,2.0666344E-1,3.587218E-1,4.504473E-1,-4.3120906E-1,-3.610228E-1,-3.2606608E-1,-2.3845981E-1,-2.1086885E-1,-7.5E-2,-1.1338248E-1,-1.662628E-2,4.256966E-2,1.503586E-1,1.4867793E-1,2.4084976E-1,3.0831677E-1,3.8528177E-1,4.1671714E-1,4.6408296E-1,-4.4739777E-1,-4.1247872E-1,-3.752831E-1,-2.9605263E-1,-3.5351625E-1,-2.8315324E-1,-2.567291E-1,-1.772461E-1,-2.5655565E-1,-1.7197835E-1,-1.8473895E-1,-1.344086E-3,-1.4112903E-1,-6.4615384E-2,-3.369918E-2,9.84375E-2,4.978355E-3,8.178943E-2,1.2681159E-2,1.7292784E-1,9.2735045E-2,2.0606327E-1,2.2752644E-1,3.3035713E-1,2.4107143E-1,3.2955042E-1,3.619159E-1,3.9916083E-1,3.7353435E-1,4.407583E-1,4.570699E-1,4.874864E-1,-2.2773894E-2,-2.0741759E-2,-2.1825766E-2,-1.9586613E-2,-1.9003144E-2,-1.5679825E-2,-1.506647E-2,9.375E-3,-1.22676585E-2,-1.8170858E-2,-1.4426927E-2,-0E0,-1.7113402E-2,-1.2125085E-2,-1.0331325E-2,-2.5641026E-3,-1.5844299E-2,-1.1375523E-2,-1.2339332E-2,-7.4509806E-3,-9.876544E-3,1.4285715E-2,7.994186E-4,-1.03448285E-2,-9.538836E-3,-5.6500277E-3,-2.8846154E-3,-1.6875E-2,-1.507301E-3,-1.2871288E-2,4.255319E-3,1.3602941E-2,-1.7156864E-3,2.1026074E-3,-4.700855E-3,4.5779687E-3,-4.054054E-3,3.7650603E-3,8.092485E-3,1.570248E-2,5.399061E-3,-3.0660378E-3,1.0628342E-2,-1.1764706E-2,-7.4074077E-3,1.152309E-2,1.7038539E-2,-6.25E-3,1.0396975E-2,1.6375E-2,-6.6666673E-3,1.662275E-2,1.8190343E-2,-9.375E-3,2.0008424E-2,6.6666673E-3,1.9140625E-2,5.6818184E-3,-1.25E-2,2.2082543E-2,-1.25E-2,2.2868773E-2,6.25E-3,2.4426857E-2],"categories":[],"categories_nodes":[],"categories_segments":[],"categories_sizes":[],"default_left":[0,0,0,0,0,0,0,0,0,0,0,0,0,0,0,0,0,0,0,0,0,0,0,0,0,0,0,0,0,0,0,0,0,0,0,0,0,0,0,0,0,0,0,0,0,0,0,0,0,0,0,0,0,0,0,0,0,0,0,0,0,0,0,0,0,0,0,0,0,0,0,0,0,0,0,0,0,0,0,0,0,0,0,0,0,0,0,0,0,0,0,0,0,0,0,0,0,0,0,0,0,0,0,0,0,0,0,0,0,0,0,0,0,0,0,0,0,0,0,0,0,0,0,0,0,0,0],"id":2,"left_children":[1,3,5,7,9,11,13,15,17,19,21,23,25,27,29,31,33,35,37,39,41,43,45,47,49,51,53,55,57,59,61,63,65,67,69,71,73,75,77,79,81,83,85,87,89,91,93,95,97,99,101,103,105,107,109,111,113,115,117,119,121,123,125,-1,-1,-1,-1,-1,-1,-1,-1,-1,-1,-1,-1,-1,-1,-1,-1,-1,-1,-1,-1,-1,-1,-1,-1,-1,-1,-1,-1,-1,-1,-1,-1,-1,-1,-1,-1,-1,-1,-1,-1,-1,-1,-1,-1,-1,-1,-1,-1,-1,-1,-1,-1,-1,-1,-1,-1,-1,-1,-1,-1,-1,-1,-1,-1],"loss_changes":[3.7613867E3,5.533622E2,4.404453E2,6.1230225E1,5.1424118E1,5.486853E1,2.8861816E1,1.0467041E1,1.8311768E1,9.488525E0,2.6144482E1,1.5835495E1,1.2280304E1,1.1569824E1,2.428711E0,1.3427734E0,3.3854675E0,6.0323486E0,4.9210205E0,5.415924E0,5.0111647E0,6.0474396E0,1.459542E1,6.666478E0,6.0632057E0,7.3870583E0,4.584076E0,4.229828E0,1.7085571E0,1.5493774E0,4.4207764E-1,5.187988E-1,9.9990845E-1,7.922058E-1,1.8017883E0,3.3067017E0,3.1046295E0,4.0766754E0,3.7791023E0,2.400406E0,2.8194313E0,1.5549192E0,1.3286432E0,3.9613E0,3.0504808E0,5.1346836E0,2.1988297E0,3.3664348E0,3.8097E0,1.6266109E0,2.570938E0,2.754674E0,3.3165321E0,3.7878876E0,2.4325294E0,2.0165596E0,3.124527E0,2.291504E0,9.041748E-1,1.3960876E0,7.6086426E-1,7.9125977E-1,2.889557E-1,0E0,0E0,0E0,0E0,0E0,0E0,0E0,0E0,0E0,0E0,0E0,0E0,0E0,0E0,0E0,0E0,0E0,0E0,0E0,0E0,0E0,0E0,0E0,0E0,0E0,0E0,0E0,0E0,0E0,0E0,0E0,0E0,0E0,0E0,0E0,0E0,0E0,0E0,0E0,0E0,0E0,0E0,0E0,0E0,0E0,0E0,0E0,0E0,0E0,0E0,0E0,0E0,0E0,0E0,0E0,0E0,0E0,0E0,0E0,0E0,0E0,0E0,0E0,0E0],"parents":[2147483647,0,0,1,1,2,2,3,3,4,4,5,5,6,6,7,7,8,8,9,9,10,10,11,11,12,12,13,13,14,14,15,15,16,16,17,17,18,18,19,19,20,20,21,21,22,22,23,23,24,24,25,25,26,26,27,27,28,28,29,29,30,30,31,31,32,32,33,33,34,34,35,35,36,36,37,37,38,38,39,39,40,40,41,41,42,42,43,43,44,44,45,45,46,46,47,47,48,48,49,49,50,50,51,51,52,52,53,53,54,54,55,55,56,56,57,57,58,58,59,59,60,60,61,61,62,62],"right_children":[2,4,6,8,10,12,14,16,18,20,22,24,26,28,30,32,34,36,38,40,42,44,46,48,50,52,54,56,58,60,62,64,66,68,70,72,74,76,78,80,82,84,86,88,90,92,94,96,98,100,102,104,106,108,110,112,114,116,118,120,122,124,126,-1,-1,-1,-1,-1,-1,-1,-1,-1,-1,-1,-1,-1,-1,-1,-1,-1,-1,-1,-1,-1,-1,-1,-1,-1,-1,-1,-1,-1,-1,-1,-1,-1,-1,-1,-1,-1,-1,-1,-1,-1,-1,-1,-1,-1,-1,-1,-1,-1,-1,-1,-1,-1,-1,-1,-1,-1,-1,-1,-1,-1,-1,-1,-1],"split_conditions":[1.13E1,6.9E0,1.66E1,4.3E0,1.8E1,1.3181034E1,2.28E1,3E0,1.8E1,1.0724771E1,8.7E0,1.38E1,2.8E1,1.7306667E1,2.2965986E1,1E0,2.2E1,6.48E0,7.9076924E0,1.4E1,7.8E0,2.7E1,1.2816326E1,1.0814815E1,2.3E1,1.4E1,1.8891891E1,1.66E1,1.8666666E1,1.12866745E2,2.9438356E1,5.470588E0,9E0,1E1,1E1,1.8E1,1.3E2,4.4E0,2.5E1,1.112E2,7.5E0,1.1988061E2,2.48E2,7.3428574E0,1.3E1,2.4E1,1.5E1,2.68E1,1.7E1,1.1309677E2,2.8E2,1.6333334E1,2.7E1,8.4E0,1E1,1.5945946E1,1.0758079E2,4.5E1,2.03E2,1.12746735E2,1.42E1,1.1666667E1,3E0,-3.6325002E-1,-3.135E-1,-3.6100003E-1,-3.1574997E-1,-3.1350002E-1,-2.6350003E-1,-2.705E-1,1.6943751E-1,-2.2325002E-1,-2.7075002E-1,-2.25625E-1,-9.499979E-3,-2.279375E-1,-1.8275003E-1,-1.7775002E-1,-5.8999967E-2,-2.375E-1,-1.7812501E-1,-1.8024997E-1,-1.3275003E-1,-1.3512503E-1,1.274375E-1,5.000019E-3,-1.9000001E-1,-1.4762501E-1,-9.012499E-2,-4.7499992E-2,-2.8262502E-1,-4.274998E-2,-1.9274998E-1,9.012499E-2,1.92625E-1,-2.5000095E-3,4.4999983E-2,-7.481251E-2,9.249997E-2,-6.7124985E-2,5.012503E-2,1.3537502E-1,2.86625E-1,8.762503E-2,-5.962496E-2,1.8037501E-1,-9.5875E-2,-4.5749974E-2,2.23E-1,3.2062504E-1,-1.7174998E-1,2.1349998E-1,2.6825E-1,-4.390626E-2,3.2081252E-1,4.0375E-1,-1.0125003E-1,4.8925E-1,7.525001E-2,5.0850004E-1,3.8674998E-1,-1.324997E-2,5.585E-1,-6.324997E-2,7.1225005E-1,8.6225003E-1,9.6225005E-1],"split_indices":[2,2,2,2,9,12,2,0,9,12,2,2,9,12,12,3,9,12,12,9,1,9,12,12,9,2,12,1,0,20,12,12,9,3,0,21,18,1,7,18,2,20,16,12,15,15,0,7,9,17,21,0,3,1,15,12,20,11,15,20,1,0,3,0,0,0,0,0,0,0,0,0,0,0,0,0,0,0,0,0,0,0,0,0,0,0,0,0,0,0,0,0,0,0,0,0,0,0,0,0,0,0,0,0,0,0,0,0,0,0,0,0,0,0,0,0,0,0,0,0,0,0,0,0,0,0,0],"split_type":[0,0,0,0,0,0,0,0,0,0,0,0,0,0,0,0,0,0,0,0,0,0,0,0,0,0,0,0,0,0,0,0,0,0,0,0,0,0,0,0,0,0,0,0,0,0,0,0,0,0,0,0,0,0,0,0,0,0,0,0,0,0,0,0,0,0,0,0,0,0,0,0,0,0,0,0,0,0,0,0,0,0,0,0,0,0,0,0,0,0,0,0,0,0,0,0,0,0,0,0,0,0,0,0,0,0,0,0,0,0,0,0,0,0,0,0,0,0,0,0,0,0,0,0,0,0,0],"sum_hessian":[6.1161E4,3.4047E4,2.7114E4,1.8454E4,1.5593E4,1.2684E4,1.443E4,8.809E3,9.645E3,3.691E3,1.1902E4,6.472E3,6.212E3,8.73E3,5.7E3,5.036E3,3.773E3,5.205E3,4.44E3,3.072E3,6.19E2,4.475E3,7.427E3,4.521E3,1.951E3,2.306E3,3.906E3,3.017E3,5.713E3,1.65E3,4.05E3,2.689E3,2.347E3,3.09E3,6.83E2,3.17E3,2.035E3,3.417E3,1.023E3,1.41E3,1.662E3,2.48E2,3.71E2,2.851E3,1.624E3,6.468E3,9.59E2,2.309E3,2.212E3,2.75E2,1.676E3,1.169E3,1.137E3,3.403E3,5.03E2,7.27E2,2.29E3,2.139E3,3.574E3,5.96E2,1.054E3,3.132E3,9.18E2,2.144E3,5.45E2,1.078E3,1.269E3,2.863E3,2.27E2,6.76E2,7E0,2.68E2,2.902E3,1.997E3,3.8E1,4.84E2,2.933E3,8.29E2,1.94E2,4.55E2,9.55E2,3.88E2,1.274E3,2.42E2,6E0,3.43E2,2.8E1,1.029E3,1.822E3,1.585E3,3.9E1,6.368E3,1E2,8.92E2,6.7E1,1.121E3,1.188E3,1.16E2,2.096E3,1.1E2,1.65E2,1.556E3,1.2E2,1.064E3,1.05E2,1.121E3,1.6E1,2.6E1,3.377E3,4.92E2,1.1E1,5.28E2,1.99E2,1.4E1,2.276E3,2.132E3,7E0,3.56E3,1.4E1,5.75E2,2.1E1,1E0,1.053E3,1E0,3.131E3,3E0,9.15E2],"tree_param":{"num_deleted":"0","num_feature":"22","num_nodes":"127","size_leaf_vector":"1"}},{"base_weights":[-1.4278446E-3,-2.08826E-1,2.6785108E-1,-3.240882E-1,-7.69063E-2,1.1036082E-1,3.5870212E-1,-3.6957487E-1,-2.5228006E-1,-1.539855E-1,-2.4847809E-4,7.79752E-2,2.4520767E-1,2.868926E-1,4.211053E-1,-4.0514153E-1,-3.344517E-1,-3.049787E-1,-1.9350533E-1,-2.8162748E-1,-1.2274565E-1,-3.5815425E-2,1.0405471E-1,-6.208426E-3,1.1204884E-1,2.2894737E-1,4.0828404E-1,2.1870477E-1,3.241052E-1,3.77996E-1,4.4265443E-1,-3.7383178E-1,-4.201647E-1,-3.49261E-1,-2.3310345E-1,-3.3764297E-1,-2.6718214E-1,-2.3760858E-1,-1.3241525E-1,-3.557423E-1,-2.5965488E-1,-1.6142736E-1,-7.563749E-2,-9.476662E-2,-3.6054596E-3,-2.3419203E-3,1.3201727E-1,-2.3666666E-1,1.0208927E-2,9.1502465E-2,1.6721854E-1,-2.6666668E-1,2.3319575E-1,-0E0,4.2331287E-1,1.9060284E-1,2.6281455E-1,2.9162854E-1,3.487117E-1,2.1839081E-1,3.8262507E-1,4.2541108E-1,4.642857E-1,-1.9462302E-2,-6.422018E-3,-2.167856E-2,-1.8582726E-2,-1.925239E-2,-1.645049E-2,-1.2574184E-2,4.8076926E-4,-1.6944721E-2,1.875E-2,-1.4528302E-2,-9.656399E-3,-1.2073863E-2,5.6818184E-3,-8.046941E-3,1.0044643E-3,-1.1111111E-2,-1.8690096E-2,-1.5357143E-2,-1.13667585E-2,-1.01013305E-2,-6.426011E-3,-3.492259E-3,-1.7213115E-2,-5.403499E-3,-1.3571428E-3,-6.178978E-4,4.052198E-3,-1.4435695E-3,1.06382985E-2,4.9636806E-3,1.1879896E-2,-1.892857E-2,-5.5555557E-3,1.0689135E-3,-8.82353E-3,-6.0185185E-4,5.367793E-3,6.2683285E-3,1.0072377E-2,-0E0,-2.2222223E-2,1.200847E-2,-1.7045456E-3,1.875E-2,-1.875E-2,-1.25E-2,2.1450618E-2,1.1327292E-2,7.284768E-3,9.122807E-3,1.4575412E-2,1.0794298E-2,1.5669223E-2,1.5446036E-2,1.8346056E-2,2.1428572E-2,3.773585E-3,-1.0000001E-2,1.9174675E-2,2.128439E-2,-1.25E-2,2.3232514E-2,-1.25E-2],"categories":[],"categories_nodes":[],"categories_segments":[],"categories_sizes":[],"default_left":[0,0,0,0,0,0,0,0,0,0,0,0,0,0,0,0,0,0,0,0,0,0,0,0,0,0,0,0,0,0,0,0,0,0,0,0,0,0,0,0,0,0,0,0,0,0,0,0,0,0,0,0,0,0,0,0,0,0,0,0,0,0,0,0,0,0,0,0,0,0,0,0,0,0,0,0,0,0,0,0,0,0,0,0,0,0,0,0,0,0,0,0,0,0,0,0,0,0,0,0,0,0,0,0,0,0,0,0,0,0,0,0,0,0,0,0,0,0,0,0,0,0,0,0,0,0,0],"id":3,"left_children":[1,3,5,7,9,11,13,15,17,19,21,23,25,27,29,31,33,35,37,39,41,43,45,47,49,51,53,55,57,59,61,63,65,67,69,71,73,75,77,79,81,83,85,87,89,91,93,95,97,99,101,103,105,107,109,111,113,115,117,119,121,123,125,-1,-1,-1,-1,-1,-1,-1,-1,-1,-1,-1,-1,-1,-1,-1,-1,-1,-1,-1,-1,-1,-1,-1,-1,-1,-1,-1,-1,-1,-1,-1,-1,-1,-1,-1,-1,-1,-1,-1,-1,-1,-1,-1,-1,-1,-1,-1,-1,-1,-1,-1,-1,-1,-1,-1,-1,-1,-1,-1,-1,-1,-1,-1,-1],"loss_changes":[3.4029275E3,5.2335864E2,3.7928418E2,5.9908936E1,9.484681E1,4.2341736E1,7.521631E1,1.3910522E1,2.2015778E1,3.18815E1,2.9863474E1,2.2440529E1,4.886368E0,1.9771973E1,8.18689E0,2.468567E0,8.418152E0,4.5469666E0,9.053627E0,2.4692612E0,1.1708328E1,1.139825E1,6.0903835E0,8.534241E0,6.297371E0,3.6626892E0,1.0369892E0,3.3760834E0,3.9395142E0,2.1358643E0,2.0367432E0,6.830429E0,2.2868652E0,3.4526978E0,3.2368088E0,1.9205933E0,2.967392E0,2.6867142E0,6.162794E0,7.777748E-1,1.798027E0,4.6914673E0,4.4913483E0,1.9051666E0,2.877891E0,2.4429028E0,5.580366E0,2.630476E0,4.394967E0,6.665592E0,2.1378975E0,7.1111107E-1,3.169464E0,1.125E0,7.32769E-1,2.6980667E0,2.4209137E0,3.534546E0,1.9676208E0,2.5810328E0,1.5530701E0,7.3168945E-1,8.051758E-1,0E0,0E0,0E0,0E0,0E0,0E0,0E0,0E0,0E0,0E0,0E0,0E0,0E0,0E0,0E0,0E0,0E0,0E0,0E0,0E0,0E0,0E0,0E0,0E0,0E0,0E0,0E0,0E0,0E0,0E0,0E0,0E0,0E0,0E0,0E0,0E0,0E0,0E0,0E0,0E0,0E0,0E0,0E0,0E0,0E0,0E0,0E0,0E0,0E0,0E0,0E0,0E0,0E0,0E0,0E0,0E0,0E0,0E0,0E0,0E0,0E0,0E0,0E0,0E0],"parents":[2147483647,0,0,1,1,2,2,3,3,4,4,5,5,6,6,7,7,8,8,9,9,10,10,11,11,12,12,13,13,14,14,15,15,16,16,17,17,18,18,19,19,20,20,21,21,22,22,23,23,24,24,25,25,26,26,27,27,28,28,29,29,30,30,31,31,32,32,33,33,34,34,35,35,36,36,37,37,38,38,39,39,40,40,41,41,42,42,43,43,44,44,45,45,46,46,47,47,48,48,49,49,50,50,51,51,52,52,53,53,54,54,55,55,56,56,57,57,58,58,59,59,60,60,61,61,62,62],"right_children":[2,4,6,8,10,12,14,16,18,20,22,24,26,28,30,32,34,36,38,40,42,44,46,48,50,52,54,56,58,60,62,64,66,68,70,72,74,76,78,80,82,84,86,88,90,92,94,96,98,100,102,104,106,108,110,112,114,116,118,120,122,124,126,-1,-1,-1,-1,-1,-1,-1,-1,-1,-1,-1,-1,-1,-1,-1,-1,-1,-1,-1,-1,-1,-1,-1,-1,-1,-1,-1,-1,-1,-1,-1,-1,-1,-1,-1,-1,-1,-1,-1,-1,-1,-1,-1,-1,-1,-1,-1,-1,-1,-1,-1,-1,-1,-1,-1,-1,-1,-1,-1,-1,-1,-1,-1,-1],"split_conditions":[1.16E1,6.8E0,1.4369047E1,4.8E0,8.842105E0,1.66E1,2.0013762E1,3E0,6.6153846E0,1.6E1,1.2816326E1,9.680851E0,2.28E1,1.58E1,2.16E1,8.8E1,8.08421E0,1.8E1,2.06E1,1.3E1,2.4E1,2.2E1,2.29E1,1.6E1,1.3255814E1,1.6E1,2.8333334E1,3.2E1,1.86E1,2.4E1,2.5483051E1,8.1E1,6.2689075E0,1.1E1,2.46E1,2.96E1,1.1659717E2,1.31E2,1.0888889E1,7E0,7.8E0,8.2E0,1.8E1,1.06E1,1.1883051E2,1.1927041E2,1.5697369E1,7.9076924E0,7E0,2.3333334E1,2.9E1,6E0,1.1E1,2.6666666E1,1.9E1,1.72E2,1.102E2,1.092E2,3.14E1,1E1,1.18E1,4.4666668E1,4.5E1,-3.4283754E-1,-2.0346873E-1,-3.474625E-1,-2.977E-1,-3.1184372E-1,-2.5032496E-1,-2.0246248E-1,2.2562505E-3,-2.572125E-1,1.1888752E-1,-2.1673751E-1,-1.6923752E-1,-1.8074374E-1,1.1847501E-1,-1.2580626E-1,1.7700005E-2,-2.1279685E-1,-2.607156E-1,-2.097125E-1,-1.6428123E-1,-1.6911255E-1,-9.061246E-2,-7.173753E-2,-2.2742812E-1,-8.5618734E-2,-3.609371E-2,-2.3750307E-3,4.9887516E-2,-1.18812565E-2,1.8512969E-1,8.099375E-2,2.0586252E-1,-2.6131248E-1,-1.1875E-1,9.387541E-3,-1.0136876E-1,-2.6124956E-3,8.812499E-2,8.599377E-2,1.6685005E-1,-3.5843372E-3,-1.5889375E-1,2.045844E-1,-4.0626528E-5,3.5458443E-1,-1.2677498E-1,-2.0791559E-1,5.0458443E-1,1.8099375E-1,1.1935005E-1,1.6947503E-1,2.6185003E-1,2.1197502E-1,2.9293752E-1,3.424594E-1,3.924594E-1,4.3481246E-1,1.0354998E-1,-4.048938E-1,4.5209375E-1,5.56325E-1,-3.988625E-1,7.6413757E-1,-7.336245E-2],"split_indices":[1,1,12,1,12,1,12,1,12,9,12,12,1,1,1,21,12,9,8,10,6,9,8,9,12,10,6,9,1,6,12,21,12,9,8,8,20,18,12,1,1,1,15,1,20,17,12,12,15,6,9,4,15,6,9,21,18,18,8,5,1,6,6,0,0,0,0,0,0,0,0,0,0,0,0,0,0,0,0,0,0,0,0,0,0,0,0,0,0,0,0,0,0,0,0,0,0,0,0,0,0,0,0,0,0,0,0,0,0,0,0,0,0,0,0,0,0,0,0,0,0,0,0,0,0,0,0],"split_type":[0,0,0,0,0,0,0,0,0,0,0,0,0,0,0,0,0,0,0,0,0,0,0,0,0,0,0,0,0,0,0,0,0,0,0,0,0,0,0,0,0,0,0,0,0,0,0,0,0,0,0,0,0,0,0,0,0,0,0,0,0,0,0,0,0,0,0,0,0,0,0,0,0,0,0,0,0,0,0,0,0,0,0,0,0,0,0,0,0,0,0,0,0,0,0,0,0,0,0,0,0,0,0,0,0,0,0,0,0,0,0,0,0,0,0,0,0,0,0,0,0,0,0,0,0,0,0],"sum_hessian":[6.093E4,3.442E4,2.651E4,1.8369E4,1.6051E4,9.699E3,1.6811E4,1.1243E4,7.126E3,8.003E3,8.048E3,7.822E3,1.877E3,7.819E3,8.992E3,5.581E3,5.662E3,3.755E3,3.371E3,1.572E3,6.431E3,6.002E3,2.046E3,2.254E3,5.568E3,1.709E3,1.68E2,2.763E3,5.056E3,3.003E3,5.989E3,1.818E3,3.763E3,4.938E3,7.24E2,2.01E3,1.745E3,1.956E3,1.415E3,3.56E2,1.216E3,3.53E3,2.901E3,2.12E3,3.882E3,4.26E2,1.62E3,1.49E2,2.105E3,4.059E3,1.509E3,1.4E1,1.695E3,6E0,1.62E2,1.691E3,1.072E3,2.185E3,2.871E3,8.6E1,2.917E3,3.344E3,2.645E3,1.71E3,1.08E2,2.942E3,8.21E2,1.778E3,3.16E3,6.73E2,5.1E1,2.007E3,3E0,1.324E3,4.21E2,1.935E3,2.1E1,1.192E3,2.23E2,4.4E1,3.12E2,4.89E2,7.27E2,1.578E3,1.952E3,2.841E3,6E1,1.771E3,3.49E2,3.519E3,3.63E2,3.8E2,4.6E1,1.238E3,3.82E2,6.9E1,8E1,1.987E3,1.18E2,5.39E2,3.52E3,6.81E2,8.28E2,6E0,8E0,1.652E3,4.3E1,3E0,3E0,1E0,1.61E2,9.37E2,7.54E2,2.84E2,7.88E2,4.9E2,1.695E3,9.07E2,1.964E3,3.4E1,5.2E1,4E0,2.913E3,3.343E3,1E0,2.644E3,1E0],"tree_param":{"num_deleted":"0","num_feature":"22","num_nodes":"127","size_leaf_vector":"1"}},{"base_weights":[-2.8778162E-4,-2.0650549E-1,2.520569E-1,-3.116883E-1,-6.801191E-2,1.1216296E-1,3.5870335E-1,-3.844204E-1,-2.6637945E-1,-1.3436764E-1,-1.7293857E-3,-1.11431316E-1,1.3372254E-1,2.7044085E-1,4.0455437E-1,-4.023986E-1,-3.4177798E-1,-3.0188978E-1,-2.251198E-1,-2.2940181E-1,-1.03432454E-1,-4.0988546E-2,8.5035525E-2,-1.891348E-1,-4.0366974E-2,8.76781E-2,2.0045403E-1,2.5132704E-1,3.550205E-1,3.49433E-1,4.2126438E-1,-4.1869158E-1,-3.5802025E-1,-3.8648295E-1,-3.173759E-1,-3.5461873E-1,-2.836713E-1,-2.5167704E-1,-1.3647246E-1,-2.7932099E-1,-1.6853933E-1,-1.3612421E-1,-3.935939E-2,-9.208861E-2,-1.721601E-2,5.7417583E-2,2.0092379E-1,-2.0520833E-1,2.5E-1,-1.1618257E-1,1.9672131E-2,3.6063883E-2,1.10186644E-1,6.3253015E-2,2.1788639E-1,1.9730942E-1,2.8164443E-1,3.276099E-1,4.3373495E-1,3.5132855E-1,-9.090909E-2,4.0815127E-1,4.6251994E-1,-2.204301E-2,-1.993431E-2,-1.798913E-2,1.0000001E-2,-2.064632E-2,-1.565534E-2,-1.6007835E-2,1.4285715E-2,-1.9650001E-2,-1.685368E-2,-1.427345E-2,1.8518519E-3,-1.4948097E-2,-1.1327839E-2,-8.181331E-3,-2.8726708E-3,-1.1163896E-2,-1.6077898E-2,-1.462585E-2,-7.022901E-3,-8.483666E-3,-4.5921644E-3,-2.1745076E-3,2.3333333E-2,-7.01074E-3,-1.884253E-3,-9.31677E-3,-4.4008647E-4,3.8645037E-3,-3.4136546E-3,7.854985E-3,1.6990291E-2,-1.1735941E-2,-1.7361112E-3,2.2499999E-2,-0E0,6.451613E-3,-7.5829388E-3,-0E0,2.3076924E-2,-1.9370461E-3,2.8122957E-3,4.623705E-3,7.997427E-3,-1.0869565E-2,3.8340339E-3,7.103219E-3,1.2026263E-2,7.0258616E-3,1.1532587E-2,1.1139029E-2,1.4882867E-2,1.1574074E-2,1.7724868E-2,2.2676991E-2,1.1458334E-2,1.7272929E-2,2.3798076E-2,-2.0000001E-2,7.1428576E-3,2.0422831E-2,-1.6666668E-2,2.3176251E-2,-6.25E-3],"categories":[],"categories_nodes":[],"categories_segments":[],"categories_sizes":[],"default_left":[0,0,0,0,0,0,0,0,0,0,0,0,0,0,0,0,0,0,0,0,0,0,0,0,0,0,0,0,0,0,0,0,0,0,0,0,0,0,0,0,0,0,0,0,0,0,0,0,0,0,0,0,0,0,0,0,0,0,0,0,0,0,0,0,0,0,0,0,0,0,0,0,0,0,0,0,0,0,0,0,0,0,0,0,0,0,0,0,0,0,0,0,0,0,0,0,0,0,0,0,0,0,0,0,0,0,0,0,0,0,0,0,0,0,0,0,0,0,0,0,0,0,0,0,0,0,0],"id":4,"left_children":[1,3,5,7,9,11,13,15,17,19,21,23,25,27,29,31,33,35,37,39,41,43,45,47,49,51,53,55,57,59,61,63,65,67,69,71,73,75,77,79,81,83,85,87,89,91,93,95,97,99,101,103,105,107,109,111,113,115,117,119,121,123,125,-1,-1,-1,-1,-1,-1,-1,-1,-1,-1,-1,-1,-1,-1,-1,-1,-1,-1,-1,-1,-1,-1,-1,-1,-1,-1,-1,-1,-1,-1,-1,-1,-1,-1,-1,-1,-1,-1,-1,-1,-1,-1,-1,-1,-1,-1,-1,-1,-1,-1,-1,-1,-1,-1,-1,-1,-1,-1,-1,-1,-1,-1,-1,-1],"loss_changes":[3.1644792E3,4.874536E2,4.0795508E2,6.2572876E1,6.3536545E1,5.704741E1,6.2686646E1,5.4572754E0,1.7106445E1,2.1199417E1,2.462435E1,5.740711E0,3.3138992E1,8.491913E0,9.25708E0,3.5579834E0,2.2456818E0,5.9485474E0,1.2739716E1,5.336632E0,1.1406357E1,6.044365E0,7.196203E0,3.559351E0,2.4830716E0,7.416191E0,1.052182E1,7.0404663E0,1.9637375E0,2.0193176E0,4.047119E0,1.4851074E0,1.4330444E0,1.3492355E0,2.4561462E0,9.537506E-1,2.7116394E0,4.890167E0,2.6791553E0,2.2290192E0,2.7475586E0,5.342926E0,3.8705785E0,4.131528E0,4.8337746E0,4.5512495E0,2.5820198E0,2.4067936E0,9.000001E-1,2.1160977E0,2.6511981E0,2.9325316E0,3.9048386E0,1.8933312E0,6.673996E0,2.9234734E0,2.54747E0,1.7995682E0,9.048767E-1,1.5701904E0,8.51948E-1,1.4832764E0,1.1687012E0,0E0,0E0,0E0,0E0,0E0,0E0,0E0,0E0,0E0,0E0,0E0,0E0,0E0,0E0,0E0,0E0,0E0,0E0,0E0,0E0,0E0,0E0,0E0,0E0,0E0,0E0,0E0,0E0,0E0,0E0,0E0,0E0,0E0,0E0,0E0,0E0,0E0,0E0,0E0,0E0,0E0,0E0,0E0,0E0,0E0,0E0,0E0,0E0,0E0,0E0,0E0,0E0,0E0,0E0,0E0,0E0,0E0,0E0,0E0,0E0,0E0,0E0,0E0,0E0],"parents":[2147483647,0,0,1,1,2,2,3,3,4,4,5,5,6,6,7,7,8,8,9,9,10,10,11,11,12,12,13,13,14,14,15,15,16,16,17,17,18,18,19,19,20,20,21,21,22,22,23,23,24,24,25,25,26,26,27,27,28,28,29,29,30,30,31,31,32,32,33,33,34,34,35,35,36,36,37,37,38,38,39,39,40,40,41,41,42,42,43,43,44,44,45,45,46,46,47,47,48,48,49,49,50,50,51,51,52,52,53,53,54,54,55,55,56,56,57,57,58,58,59,59,60,60,61,61,62,62],"right_children":[2,4,6,8,10,12,14,16,18,20,22,24,26,28,30,32,34,36,38,40,42,44,46,48,50,52,54,56,58,60,62,64,66,68,70,72,74,76,78,80,82,84,86,88,90,92,94,96,98,100,102,104,106,108,110,112,114,116,118,120,122,124,126,-1,-1,-1,-1,-1,-1,-1,-1,-1,-1,-1,-1,-1,-1,-1,-1,-1,-1,-1,-1,-1,-1,-1,-1,-1,-1,-1,-1,-1,-1,-1,-1,-1,-1,-1,-1,-1,-1,-1,-1,-1,-1,-1,-1,-1,-1,-1,-1,-1,-1,-1,-1,-1,-1,-1,-1,-1,-1,-1,-1,-1,-1,-1,-1],"split_conditions":[1.0888889E1,7.2E0,1.58E1,3.6E0,2.4333334E1,1.9333334E1,1.8157206E1,5.42029E0,6.3207545E0,1.6E1,1.3333333E1,8E0,1.40414505E1,2.12E1,2E1,1.3E1,1.116E2,1.1E1,2.2333334E1,7.8536587E0,8.842105E0,7.5633802E0,1.66E1,1.1988061E2,1.7E1,2.5E1,1.02E1,1.4258064E1,2.6E1,4.5E1,2.674299E1,1.8708287E0,5.683309E0,3.3333333E0,2.54E1,4.103896E0,2E1,1.4E1,3E1,5.3197746E0,7.8E0,1.58E2,1.74E1,2.9E1,2E1,4E0,1.198E2,1.3934783E1,6E0,1.3E1,1.4E1,9E0,1.3181034E1,1.0925775E2,2.6E1,3E1,2.8666666E1,1.03E2,4E1,2.5255709E1,1.7333334E1,4.4666668E1,2.06E2,-3.3032686E-1,-3.277144E-1,-2.831831E-1,8.622527E-3,-2.8115517E-1,-2.4952121E-1,-2.5873944E-1,6.4061575E-2,-3.2949534E-1,-2.513581E-1,-2.0590062E-1,1.1172121E-1,-2.4892059E-1,-1.6032219E-1,-1.1757226E-1,-5.4703474E-2,-1.5561883E-1,-2.4880795E-1,-2.0385809E-1,-1.1055634E-1,-1.3108812E-1,-8.095999E-2,-4.133153E-2,3.8856298E-1,-9.358187E-2,-4.1538145E-2,-1.0376718E-1,-7.5944425E-3,5.547438E-2,-4.4791102E-2,1.2598017E-1,2.717614E-1,-1.7439404E-1,-4.000025E-2,1.4469348E-1,-9.0182545E-3,3.7074994E-2,-9.228096E-2,-1.287961E-3,2.4313061E-1,-5.0495625E-2,4.7981262E-2,8.346873E-2,1.2669407E-1,-1.4336844E-1,6.7800336E-2,1.1843782E-1,2.0375752E-1,1.4160518E-1,1.9910517E-1,2.2450101E-1,2.7918854E-1,2.1903954E-1,3.9104113E-1,5.293552E-1,3.315239E-1,3.6095777E-1,6.040329E-1,-1.291857E-1,4.3333593E-1,5.183213E-1,-2.2430685E-1,7.759307E-1,-2.406931E-2],"split_indices":[12,1,1,1,6,6,12,12,12,9,0,1,12,1,1,9,18,9,6,12,12,12,1,20,9,9,1,12,0,11,12,13,13,0,7,12,3,9,9,13,1,21,1,9,9,15,18,12,5,11,1,1,12,20,7,9,6,21,3,12,0,6,15,0,0,0,0,0,0,0,0,0,0,0,0,0,0,0,0,0,0,0,0,0,0,0,0,0,0,0,0,0,0,0,0,0,0,0,0,0,0,0,0,0,0,0,0,0,0,0,0,0,0,0,0,0,0,0,0,0,0,0,0,0,0,0,0],"split_type":[0,0,0,0,0,0,0,0,0,0,0,0,0,0,0,0,0,0,0,0,0,0,0,0,0,0,0,0,0,0,0,0,0,0,0,0,0,0,0,0,0,0,0,0,0,0,0,0,0,0,0,0,0,0,0,0,0,0,0,0,0,0,0,0,0,0,0,0,0,0,0,0,0,0,0,0,0,0,0,0,0,0,0,0,0,0,0,0,0,0,0,0,0,0,0,0,0,0,0,0,0,0,0,0,0,0,0,0,0,0,0,0,0,0,0,0,0,0,0,0,0,0,0,0,0,0,0],"sum_hessian":[6.0809E4,3.3463E4,2.7346E4,1.9018E4,1.4445E4,1.183E4,1.5516E4,7.297E3,1.1721E4,7.218E3,7.227E3,1.04E3,1.079E4,5.307E3,1.0209E4,5.127E3,2.17E3,6.296E3,5.425E3,1.771E3,5.447E3,4.976E3,2.251E3,4.96E2,5.44E2,6.386E3,4.404E3,4.332E3,9.75E2,2.38E3,7.829E3,3.744E3,1.383E3,7.61E2,1.409E3,1.612E3,4.684E3,4.173E3,1.252E3,9.71E2,8E2,3.606E3,1.841E3,1.579E3,3.397E3,1.819E3,4.32E2,4.79E2,1.7E1,2.4E2,3.04E2,1.94E3,4.446E3,4.97E2,3.907E3,1.56E3,2.772E3,7.27E2,2.48E2,2.37E3,1E1,5.949E3,1.88E3,1.766E3,1.978E3,1.379E3,4E0,5.56E2,2.05E2,1.403E3,6E0,4.99E2,1.113E3,4.658E3,2.6E1,1.444E3,2.729E3,9.31E2,3.21E2,4.2E2,5.51E2,1.46E2,6.54E2,2.05E3,1.556E3,1.827E3,1.4E1,8.37E2,7.42E2,1.6E2,3.237E3,1.571E3,2.48E2,3.3E2,1.02E2,4.08E2,7.1E1,9E0,8E0,3E1,2.1E2,2.92E2,1.2E1,4.12E2,1.528E3,3.281E3,1.165E3,2.2E1,4.75E2,9E2,3.007E3,5.79E2,9.81E2,5.96E2,2.176E3,1.61E2,5.66E2,2.25E2,2.3E1,2.267E3,1.03E2,4E0,6E0,5.947E3,2E0,1.877E3,3E0],"tree_param":{"num_deleted":"0","num_feature":"22","num_nodes":"127","size_leaf_vector":"1"}},{"base_weights":[-3.2952044E-3,-2.1821949E-1,2.4051143E-1,-3.2463682E-1,-1.022294E-1,1.1613978E-1,3.6233595E-1,-3.8969672E-1,-2.7589425E-1,-1.6085272E-1,-4.734801E-2,6.501662E-2,1.8545423E-1,2.9704496E-1,4.0282467E-1,-4.1347408E-1,-3.4798327E-1,-3.017076E-1,-2.454894E-1,-2.010881E-1,-8.968195E-2,-1.0210623E-1,-9.3240095E-3,1.9724557E-2,1.1555497E-1,5.8884297E-2,1.965486E-1,2.2079918E-1,3.133671E-1,3.7644586E-1,4.3308327E-1,-4.4342333E-1,-3.9505956E-1,-3.5455656E-1,-2.5146198E-1,-1.9791667E-1,-3.087964E-1,-2.496547E-1,-4.3956045E-2,-2.2717005E-1,-1.5288518E-1,-9.737543E-2,1.7763157E-1,-1.1547499E-1,3.1879194E-2,-2.1086408E-2,1.3445379E-1,-7.3529415E-2,3.425951E-2,-5.0531916E-2,1.240756E-1,-9.638554E-2,9.079602E-2,1.8664488E-1,2.7586207E-1,2.0221445E-1,3.529412E-1,2.1617647E-1,3.211566E-1,3.4652367E-1,3.8821974E-1,-1.25E-1,4.33519E-1,-2.2222223E-2,-0E0,-1.9860227E-2,-8.62069E-3,-1.9816643E-2,-1.6871428E-2,-6.048387E-3,-1.6136363E-2,-1.350365E-2,-7.3749996E-3,-1.6355613E-2,-1.3203235E-2,-1.4322101E-2,-1.1713914E-2,9.375E-3,-6.25E-3,-1.51571175E-2,-1.0550997E-2,-7.846385E-3,7.954545E-3,-6.9136294E-3,-2.9788013E-3,1.9736842E-3,1.5384616E-2,-9.522251E-3,-4.478791E-3,-1.5789473E-2,2.7678572E-3,-1.6103274E-3,2.3887975E-3,-0E0,8.421053E-3,-1.25E-2,-1.691332E-3,1.1240434E-3,4.938811E-3,-8.928572E-3,4.3956046E-3,4.8730844E-3,7.976343E-3,-6.7307698E-3,2.0833334E-2,5.489418E-3,-1.0000001E-2,7.4614063E-3,1.0368371E-2,-5.5555557E-3,1.40599E-2,5.6962026E-3,1.1776527E-2,2.0535715E-2,1.0416667E-2,1.3820424E-2,-4.385965E-3,1.3914893E-2,1.6884083E-2,9.183674E-3,1.7618865E-2,1.3978495E-2,1.955767E-2,1.25E-2,-1.6666668E-2,2.169777E-2,-6.25E-3],"categories":[],"categories_nodes":[],"categories_segments":[],"categories_sizes":[],"default_left":[0,0,0,0,0,0,0,0,0,0,0,0,0,0,0,0,0,0,0,0,0,0,0,0,0,0,0,0,0,0,0,0,0,0,0,0,0,0,0,0,0,0,0,0,0,0,0,0,0,0,0,0,0,0,0,0,0,0,0,0,0,0,0,0,0,0,0,0,0,0,0,0,0,0,0,0,0,0,0,0,0,0,0,0,0,0,0,0,0,0,0,0,0,0,0,0,0,0,0,0,0,0,0,0,0,0,0,0,0,0,0,0,0,0,0,0,0,0,0,0,0,0,0,0,0,0,0],"id":5,"left_children":[1,3,5,7,9,11,13,15,17,19,21,23,25,27,29,31,33,35,37,39,41,43,45,47,49,51,53,55,57,59,61,63,65,67,69,71,73,75,77,79,81,83,85,87,89,91,93,95,97,99,101,103,105,107,109,111,113,115,117,119,121,123,125,-1,-1,-1,-1,-1,-1,-1,-1,-1,-1,-1,-1,-1,-1,-1,-1,-1,-1,-1,-1,-1,-1,-1,-1,-1,-1,-1,-1,-1,-1,-1,-1,-1,-1,-1,-1,-1,-1,-1,-1,-1,-1,-1,-1,-1,-1,-1,-1,-1,-1,-1,-1,-1,-1,-1,-1,-1,-1,-1,-1,-1,-1,-1,-1],"loss_changes":[3.1883809E3,3.9913843E2,4.3189722E2,5.3374634E1,4.978055E1,4.9980667E1,3.7950073E1,7.0181885E0,7.4957886E0,2.1407303E1,1.6643562E1,1.8586578E1,8.396851E0,6.7954407E0,6.9296875E0,2.3584595E0,1.5782166E0,3.7736206E0,3.7111206E0,5.9735565E0,5.5782623E0,5.8717155E0,7.9834747E0,5.809232E0,5.4376717E0,2.4069366E0,4.27269E0,2.3255157E0,3.3684082E0,1.5405884E0,1.059021E0,7.8829956E-1,1.2944641E0,1.625061E0,1.5512104E0,1.1824923E0,3.9093323E0,2.3901062E0,1.7304258E0,3.738388E0,2.1449966E0,4.0559025E0,1.353492E0,5.767151E0,2.4499202E0,3.3425455E0,1.6304288E0,4.0412264E0,2.8148003E0,3.3482435E0,3.4291573E0,1.6840439E0,2.2421625E0,3.766037E0,1.2887459E0,2.4969711E0,9.0861416E-1,6.2476892E0,2.88208E0,1.2240753E0,9.7558594E-1,3.9583334E-1,1.060669E0,0E0,0E0,0E0,0E0,0E0,0E0,0E0,0E0,0E0,0E0,0E0,0E0,0E0,0E0,0E0,0E0,0E0,0E0,0E0,0E0,0E0,0E0,0E0,0E0,0E0,0E0,0E0,0E0,0E0,0E0,0E0,0E0,0E0,0E0,0E0,0E0,0E0,0E0,0E0,0E0,0E0,0E0,0E0,0E0,0E0,0E0,0E0,0E0,0E0,0E0,0E0,0E0,0E0,0E0,0E0,0E0,0E0,0E0,0E0,0E0,0E0,0E0,0E0,0E0],"parents":[2147483647,0,0,1,1,2,2,3,3,4,4,5,5,6,6,7,7,8,8,9,9,10,10,11,11,12,12,13,13,14,14,15,15,16,16,17,17,18,18,19,19,20,20,21,21,22,22,23,23,24,24,25,25,26,26,27,27,28,28,29,29,30,30,31,31,32,32,33,33,34,34,35,35,36,36,37,37,38,38,39,39,40,40,41,41,42,42,43,43,44,44,45,45,46,46,47,47,48,48,49,49,50,50,51,51,52,52,53,53,54,54,55,55,56,56,57,57,58,58,59,59,60,60,61,61,62,62],"right_children":[2,4,6,8,10,12,14,16,18,20,22,24,26,28,30,32,34,36,38,40,42,44,46,48,50,52,54,56,58,60,62,64,66,68,70,72,74,76,78,80,82,84,86,88,90,92,94,96,98,100,102,104,106,108,110,112,114,116,118,120,122,124,126,-1,-1,-1,-1,-1,-1,-1,-1,-1,-1,-1,-1,-1,-1,-1,-1,-1,-1,-1,-1,-1,-1,-1,-1,-1,-1,-1,-1,-1,-1,-1,-1,-1,-1,-1,-1,-1,-1,-1,-1,-1,-1,-1,-1,-1,-1,-1,-1,-1,-1,-1,-1,-1,-1,-1,-1,-1,-1,-1,-1,-1,-1,-1,-1],"split_conditions":[1.08E1,6.5E0,1.66E1,3.6E0,2.2333334E1,1.37E1,2.02E1,3.2E0,1.7E1,8.842105E0,8.7E0,1.1878049E1,9.738636E0,1.4369047E1,2.45E1,5.6666665E0,8E0,1.8E1,1.8E1,9E0,1.9E1,1.6E1,1.3484536E1,6E0,1.9666666E1,1.1666667E1,1.8642857E1,2.14E1,1.065E2,2.0013762E1,1.7E1,1.3E1,1.1E1,4.4E0,8.3E1,4.59375E0,6.6153846E0,1.12232E2,4.965517E0,1.2666667E1,2.7E1,1.8333334E1,1.14E2,6.7116566E0,1E0,1.3666667E1,1.1173418E2,1.8666666E1,1.3E1,1.2E1,2.9E1,3.1333334E1,9.613793E0,1.3E1,2.24E1,1.39E2,1.3181034E1,1.1365385E2,1.6333334E1,1.68E1,1.014E2,1.6333334E1,4.5E1,-3.1688604E-1,-3.822553E-2,-3.0930996E-1,-1.7824112E-1,-3.1014106E-1,-2.6370367E-1,-1.8029957E-1,-2.2724676E-1,-2.2026472E-1,-1.8893185E-1,-2.4560562E-1,-2.019342E-1,-1.6503392E-1,-1.6331522E-1,7.692623E-2,-7.239594E-2,-2.4232927E-1,-1.5208554E-1,-1.20027445E-1,6.796618E-2,-7.9514936E-2,-4.82306E-2,2.9147149E-3,1.5550998E-1,-1.3946123E-1,-7.344985E-2,-1.4344883E-1,5.0688125E-2,-3.664589E-2,4.6394397E-2,1.0166884E-3,8.3496384E-2,-1.8647113E-1,-1.636734E-2,1.6681386E-2,8.700686E-2,-6.922784E-2,4.4783473E-2,7.92953E-2,1.2954532E-1,-1.1530872E-1,4.3677002E-1,1.1207805E-1,-1.7410532E-1,1.2423892E-1,1.7337E-1,-1.7086971E-1,2.6131958E-1,9.5362E-2,2.2977495E-1,3.5517812E-1,2.0576243E-1,2.8863487E-1,-2.7625894E-2,2.7322814E-1,3.1847817E-1,2.1882851E-1,3.8849846E-1,4.5659468E-1,4.6448117E-1,5.2371347E-1,-4.2269477E-1,6.424052E-1,-5.8478978E-2],"split_indices":[2,2,2,1,6,2,2,2,6,12,2,12,12,12,2,6,3,21,3,3,3,3,12,3,6,0,12,1,19,12,1,11,3,12,21,12,12,17,12,6,8,6,18,12,4,0,17,6,2,2,6,6,12,3,7,21,12,17,0,1,18,0,6,0,0,0,0,0,0,0,0,0,0,0,0,0,0,0,0,0,0,0,0,0,0,0,0,0,0,0,0,0,0,0,0,0,0,0,0,0,0,0,0,0,0,0,0,0,0,0,0,0,0,0,0,0,0,0,0,0,0,0,0,0,0,0,0],"split_type":[0,0,0,0,0,0,0,0,0,0,0,0,0,0,0,0,0,0,0,0,0,0,0,0,0,0,0,0,0,0,0,0,0,0,0,0,0,0,0,0,0,0,0,0,0,0,0,0,0,0,0,0,0,0,0,0,0,0,0,0,0,0,0,0,0,0,0,0,0,0,0,0,0,0,0,0,0,0,0,0,0,0,0,0,0,0,0,0,0,0,0,0,0,0,0,0,0,0,0,0,0,0,0,0,0,0,0,0,0,0,0,0,0,0,0,0,0,0,0,0,0,0,0,0,0,0,0],"sum_hessian":[6.0845E4,3.2338E4,2.8507E4,1.6864E4,1.5474E4,1.4107E4,1.44E4,7.22E3,9.644E3,7.481E3,7.993E3,8.12E3,5.987E3,5.515E3,8.885E3,4.593E3,2.627E3,5.211E3,4.433E3,4.778E3,2.703E3,3.275E3,4.718E3,4.283E3,3.837E3,4.83E2,5.504E3,9.75E2,4.54E3,4.754E3,4.131E3,1.74E3,2.853E3,2.457E3,1.7E2,3.35E2,4.876E3,4.343E3,9E1,3.098E3,1.68E3,2.628E3,7.5E1,2.978E3,2.97E2,4.362E3,3.56E2,5.77E2,3.706E3,1.87E2,3.65E3,8.2E1,4.01E2,4.896E3,6.08E2,8.57E2,1.18E2,3.39E2,4.201E3,1.351E3,3.403E3,3E0,4.128E3,1.736E3,4E0,2.825E3,2.8E1,7.08E2,1.749E3,6.1E1,1.09E2,1.36E2,1.99E2,3.455E3,1.421E3,1.275E3,3.068E3,2.3E1,6.7E1,5.4E2,2.558E3,1.659E3,2.1E1,1.261E3,1.367E3,3.7E1,3.8E1,7.63E2,2.215E3,1.8E1,2.79E2,3.756E3,6.06E2,7.2E1,2.84E2,1.05E2,4.72E2,3.135E3,5.71E2,9.7E1,9E1,2.087E3,1.563E3,7.7E1,5E0,3.77E2,2.4E1,1.748E3,3.148E3,8E0,6E2,2.36E2,6.21E2,8.3E1,3.5E1,2.83E2,5.6E1,1.174E3,3.027E3,4.8E1,1.303E3,9.2E1,3.311E3,1E0,2E0,4.125E3,3E0],"tree_param":{"num_deleted":"0","num_feature":"22","num_nodes":"127","size_leaf_vector":"1"}},{"base_weights":[-4.0882872E-3,-1.9940111E-1,2.453823E-1,-3.2045484E-1,-9.141657E-2,1.3327931E-1,3.603992E-1,-3.7886167E-1,-2.735396E-1,-1.5363972E-1,-3.0597748E-2,7.3786706E-2,1.8911584E-1,3.2095474E-1,4.150722E-1,-4.0787542E-1,-3.5266912E-1,-3.2572678E-1,-2.4448305E-1,-1.8412189E-1,-8.342562E-2,-1.2173359E-1,-1.17367795E-2,1.3226366E-2,1.0649016E-1,1.637541E-1,2.4672592E-1,2.876167E-1,3.508772E-1,3.955995E-1,4.4547564E-1,-4.345648E-1,-3.84062E-1,-3.537199E-1,1.875E-1,-3.419153E-1,-2.9545453E-1,-2.5572294E-1,-1.5503876E-1,-2.29342E-1,-1.5143567E-1,-1.1868687E-1,-4.645015E-2,-1.3953489E-1,-2.1097047E-2,-3.3880726E-2,5.9477486E-2,-1.5384616E-1,2.4260629E-2,1.0845987E-2,1.18040964E-1,8.55615E-2,1.73908E-1,8.163265E-2,2.5878513E-1,2.931665E-1,5.7471264E-2,3.0247813E-1,3.6064842E-1,3.9612883E-1,-1.6666668E-2,4.4588944E-1,-0E0,-2.2988014E-2,-2.0981263E-2,-1.9245703E-2,-0E0,-1.8247822E-2,-1.5095728E-2,-6.25E-3,2.0000001E-2,-1.7226791E-2,9.09091E-3,4.6875E-3,-1.5040651E-2,-1.24693755E-2,-1.9976636E-2,-8.605852E-3,-0E0,-1.2530356E-2,-7.508993E-3,-1.0697675E-2,-6.8922094E-3,-7.2781653E-3,-2.4088542E-3,-5.5072466E-3,-1.1989796E-3,-1.25E-2,-6.1422414E-3,9.950249E-4,-1.2162163E-2,-4.1523683E-3,-8.662509E-4,-3.697183E-3,3.5434258E-3,-1.9354839E-2,-4.4247787E-3,9.6470595E-4,1.4375E-2,-1.0833333E-2,1.3310186E-3,4.4075963E-3,7.1882643E-3,-2.293578E-3,5.84989E-3,8.291918E-3,1.1877594E-2,-2.4038463E-4,1.4204546E-2,1.1365462E-2,1.5541444E-2,1.3865714E-2,1.6562501E-2,-1.818182E-2,5.844156E-3,1.5241228E-2,-1.6666668E-2,1.5911514E-2,1.8845363E-2,1.864151E-2,2.0546116E-2,2.1510152E-2,2.322531E-2,1.25E-2,-1.25E-2],"categories":[],"categories_nodes":[],"categories_segments":[],"categories_sizes":[],"default_left":[0,0,0,0,0,0,0,0,0,0,0,0,0,0,0,0,0,0,0,0,0,0,0,0,0,0,0,0,0,0,0,0,0,0,0,0,0,0,0,0,0,0,0,0,0,0,0,0,0,0,0,0,0,0,0,0,0,0,0,0,0,0,0,0,0,0,0,0,0,0,0,0,0,0,0,0,0,0,0,0,0,0,0,0,0,0,0,0,0,0,0,0,0,0,0,0,0,0,0,0,0,0,0,0,0,0,0,0,0,0,0,0,0,0,0,0,0,0,0,0,0,0,0,0,0],"id":6,"left_children":[1,3,5,7,9,11,13,15,17,19,21,23,25,27,29,31,33,35,37,39,41,43,45,47,49,51,53,55,57,59,61,63,65,67,69,71,73,75,77,79,81,83,85,87,89,91,93,95,97,99,101,103,105,107,109,111,113,115,117,119,-1,121,123,-1,-1,-1,-1,-1,-1,-1,-1,-1,-1,-1,-1,-1,-1,-1,-1,-1,-1,-1,-1,-1,-1,-1,-1,-1,-1,-1,-1,-1,-1,-1,-1,-1,-1,-1,-1,-1,-1,-1,-1,-1,-1,-1,-1,-1,-1,-1,-1,-1,-1,-1,-1,-1,-1,-1,-1,-1,-1,-1,-1,-1,-1],"loss_changes":[2.9736262E3,4.4742285E2,3.454912E2,4.4117188E1,6.846535E1,4.507367E1,2.8391357E1,5.3171387E0,1.3496521E1,1.9125153E1,1.5728319E1,1.3016628E1,1.018869E1,7.5682983E0,3.1036377E0,1.9959106E0,2.2140503E0,1.4666748E0,5.7461243E0,9.181076E0,3.5264854E0,2.8078594E0,1.1960139E1,4.2548943E0,4.713871E0,3.846939E0,4.235428E0,4.6349487E0,1.8048096E0,1.4384766E0,3.972473E-1,4.081726E-1,5.913391E-1,2.08844E0,5.8125E-1,2.914566E0,2.3681717E0,4.557007E0,1.7078285E0,4.3627625E0,3.0481644E0,2.6195278E0,1.8923435E0,2.426899E0,2.163306E0,4.7074842E0,2.739368E0,2.1455016E0,2.823626E0,1.6602377E0,2.915203E0,2.323289E0,2.1710663E0,2.5739484E0,3.1924744E0,2.0549011E0,2.2191372E0,1.1250381E0,2.1987E0,1.0131226E0,0E0,4.2892456E-1,2.5E-1,0E0,0E0,0E0,0E0,0E0,0E0,0E0,0E0,0E0,0E0,0E0,0E0,0E0,0E0,0E0,0E0,0E0,0E0,0E0,0E0,0E0,0E0,0E0,0E0,0E0,0E0,0E0,0E0,0E0,0E0,0E0,0E0,0E0,0E0,0E0,0E0,0E0,0E0,0E0,0E0,0E0,0E0,0E0,0E0,0E0,0E0,0E0,0E0,0E0,0E0,0E0,0E0,0E0,0E0,0E0,0E0,0E0,0E0,0E0,0E0,0E0,0E0],"parents":[2147483647,0,0,1,1,2,2,3,3,4,4,5,5,6,6,7,7,8,8,9,9,10,10,11,11,12,12,13,13,14,14,15,15,16,16,17,17,18,18,19,19,20,20,21,21,22,22,23,23,24,24,25,25,26,26,27,27,28,28,29,29,30,30,31,31,32,32,33,33,34,34,35,35,36,36,37,37,38,38,39,39,40,40,41,41,42,42,43,43,44,44,45,45,46,46,47,47,48,48,49,49,50,50,51,51,52,52,53,53,54,54,55,55,56,56,57,57,58,58,59,59,61,61,62,62],"right_children":[2,4,6,8,10,12,14,16,18,20,22,24,26,28,30,32,34,36,38,40,42,44,46,48,50,52,54,56,58,60,62,64,66,68,70,72,74,76,78,80,82,84,86,88,90,92,94,96,98,100,102,104,106,108,110,112,114,116,118,120,-1,122,124,-1,-1,-1,-1,-1,-1,-1,-1,-1,-1,-1,-1,-1,-1,-1,-1,-1,-1,-1,-1,-1,-1,-1,-1,-1,-1,-1,-1,-1,-1,-1,-1,-1,-1,-1,-1,-1,-1,-1,-1,-1,-1,-1,-1,-1,-1,-1,-1,-1,-1,-1,-1,-1,-1,-1,-1,-1,-1,-1,-1,-1,-1],"split_conditions":[1.14E1,6.3E0,1.73E1,3.6E0,8.7E0,1.38E1,2.3E1,2.6E0,1.4E1,2.5E1,1.8E1,1.09765625E1,1.6073864E1,1.923913E1,2.72E1,6E0,1.2920213E1,1.1E1,2.9E1,7.1314287E0,8.2E0,1.175E1,1.1612904E1,4E0,2.3E1,1.0072917E1,2.56E1,1.4E1,3.02E1,4.4666668E1,2.08E2,3.3333333E0,5.6666665E0,1.8E1,3.9E0,1.2033557E1,6.3333335E0,1E1,7.2111025E0,9E0,1.3E1,8.958333E0,7.4E0,1.2666667E1,1.1E1,2.2666666E1,4E0,2.16E1,3.52E1,1.6666666E1,1.3181034E1,1.32E1,1.23E2,1.175E2,1.159E2,2E1,1.2033557E1,4.2E1,1.11E2,3.4333332E1,-2.1016753E-1,2.8333334E1,2.4333334E1,-3.9310375E-1,-2.9809687E-1,-2.9808974E-1,-8.260784E-2,-2.6598206E-1,-2.0864676E-1,-8.265672E-2,8.8000916E-2,-2.6427212E-1,1.1106217E-1,7.5504065E-2,-2.2061823E-1,-1.7184797E-1,-2.7938348E-1,-1.253747E-1,3.2617569E-3,-1.8034928E-1,-1.1242318E-1,-1.8294142E-1,-1.0350447E-1,-1.1626263E-1,-3.883014E-2,-8.123799E-2,-3.287387E-2,-1.7771278E-1,-9.506293E-2,4.6293023E-3,-2.0181425E-1,-7.352605E-2,-9.359884E-3,-5.0560523E-2,4.6949673E-2,-2.663787E-1,-4.67613E-2,1.0519028E-2,1.8516432E-1,-1.3472377E-1,2.986741E-2,7.533055E-2,1.15704946E-1,-4.4449188E-2,6.9105886E-2,1.4159143E-1,1.9840674E-1,-3.546667E-3,1.5383998E-1,2.2703059E-1,2.8587517E-1,2.6057073E-1,3.384845E-1,-7.142144E-2,7.657414E-2,3.0841085E-1,-1.6630153E-1,3.7459952E-1,4.228393E-1,4.652849E-1,5.2047247E-1,5.803944E-1,8.0501384E-1,5.179724E-1,-5.4986145E-2],"split_indices":[2,2,2,1,2,2,2,2,9,9,9,12,12,12,2,6,12,9,9,12,1,12,12,3,8,12,8,15,7,6,15,6,0,9,2,12,6,15,13,0,9,12,2,6,2,6,3,7,8,6,12,1,18,19,19,2,12,10,19,6,0,12,0,0,0,0,0,0,0,0,0,0,0,0,0,0,0,0,0,0,0,0,0,0,0,0,0,0,0,0,0,0,0,0,0,0,0,0,0,0,0,0,0,0,0,0,0,0,0,0,0,0,0,0,0,0,0,0,0,0,0,0,0,0,0],"split_type":[0,0,0,0,0,0,0,0,0,0,0,0,0,0,0,0,0,0,0,0,0,0,0,0,0,0,0,0,0,0,0,0,0,0,0,0,0,0,0,0,0,0,0,0,0,0,0,0,0,0,0,0,0,0,0,0,0,0,0,0,0,0,0,0,0,0,0,0,0,0,0,0,0,0,0,0,0,0,0,0,0,0,0,0,0,0,0,0,0,0,0,0,0,0,0,0,0,0,0,0,0,0,0,0,0,0,0,0,0,0,0,0,0,0,0,0,0,0,0,0,0,0,0,0,0],"sum_hessian":[6.1027E4,3.4229E4,2.6798E4,1.6137E4,1.8092E4,1.3572E4,1.3226E4,7.185E3,8.952E3,8.942E3,9.15E3,6.572E3,7E3,7.687E3,5.539E3,3.402E3,3.783E3,3.198E3,5.754E3,6.234E3,2.708E3,1.568E3,7.582E3,2.305E3,4.267E3,4.863E3,2.137E3,3.641E3,4.046E3,3.385E3,2.154E3,1.596E3,1.806E3,3.776E3,7E0,2.077E3,1.121E3,5.11E3,6.44E2,2.613E3,3.621E3,1.385E3,1.323E3,1.332E3,2.36E2,5.784E3,1.798E3,1.42E2,2.163E3,4.6E2,3.807E3,5.6E2,4.303E3,1.46E2,1.991E3,3.555E3,8.6E1,6.85E2,3.361E3,3.383E3,2E0,2.152E3,2E0,5.83E2,1.013E3,1.802E3,4E0,3.098E3,6.78E2,3E0,4E0,2.067E3,1E1,1.5E1,1.106E3,4.897E3,2.13E2,5.8E2,6.4E1,2.058E3,5.55E2,6.44E2,2.977E3,1.002E3,3.83E2,3.44E2,9.79E2,1.73E2,1.159E3,2E2,3.6E1,1.456E3,4.328E3,1.41E2,1.657E3,3E1,1.12E2,2.124E3,3.9E1,2.9E1,4.31E2,1.763E3,2.044E3,1.08E2,4.52E2,3.822E3,4.81E2,1.03E2,4.3E1,1.244E3,7.47E2,2.516E3,1.039E3,1E1,7.6E1,6.83E2,2E0,9.37E2,2.424E3,1.324E3,2.059E3,1.181E3,9.71E2,1E0,1E0],"tree_param":{"num_deleted":"0","num_feature":"22","num_nodes":"125","size_leaf_vector":"1"}},{"base_weights":[-3.4721082E-3,-1.9409382E-1,2.346046E-1,-3.0461648E-1,-8.465204E-2,1.1577476E-1,3.3672E-1,-3.6190015E-1,-2.612213E-1,-1.4131914E-1,-3.3299696E-2,6.9077946E-2,1.677071E-1,2.731293E-1,3.7700504E-1,-4.050926E-1,-3.3453318E-1,-2.9406843E-1,-2.1912919E-1,-1.6744485E-1,-5.45163E-2,-1.1811024E-1,-1.4032192E-2,4.1143823E-2,1.1627907E-1,5.1580697E-2,1.8077718E-1,2.3497894E-1,3.0582047E-1,3.4172565E-1,4.0165967E-1,-4.060606E-1,1.875E-2,-3.7319067E-1,-3.1291565E-1,-2.9775175E-1,-6.395349E-2,-2.4908173E-1,-1.8682133E-1,-2.1367362E-1,-1.322279E-1,-8.188021E-2,1.084991E-2,-2.653846E-1,-1.0545335E-1,-3.800114E-2,4.8829097E-2,-1.8500948E-2,6.146878E-2,-7.070707E-2,1.240969E-1,1.5053763E-2,1.7518248E-1,1.676607E-1,2.5468165E-1,1.9900721E-1,2.6128817E-1,2.7233738E-1,3.3414486E-1,3.0641025E-1,3.5808384E-1,3.882134E-1,4.4600165E-1,-2.1531008E-2,-1.9244723E-2,-2.2499999E-2,-1.8304795E-2,-1.7033493E-2,-1.4837286E-2,-1.6190922E-2,-1.4000634E-2,-1.3194445E-2,3.921569E-3,-1.44948065E-2,-1.0513393E-2,-1.0307279E-2,-4.700855E-3,-1.4265734E-2,-9.378172E-3,-9.5833335E-3,-5.9254095E-3,-6.752137E-3,-1.9727892E-3,-5.1334704E-4,8.208956E-3,-2.0089285E-2,-8E-3,-7.324365E-3,-3.6592507E-3,-4.958986E-3,-8.5393834E-4,1.4659018E-3,5.9225513E-3,-5.057252E-3,4.4136192E-4,1.0893246E-3,4.6647233E-3,1.4062501E-2,-6.845238E-3,5.988798E-3,2.1212121E-2,-4.8214286E-3,3.1441718E-3,5.825243E-3,1.7142858E-2,6.9026346E-3,9.689842E-3,1.0098253E-2,1.6206397E-2,9.319961E-3,1.724138E-2,1.170314E-2,1.6173245E-2,6.887755E-3,1.4112904E-2,1.6830167E-2,-0E0,-1.25E-2,1.5450644E-2,9.09091E-3,1.8094657E-2,1.9432722E-2,-1.6666668E-2,2.2735761E-2,1.8881118E-2],"categories":[],"categories_nodes":[],"categories_segments":[],"categories_sizes":[],"default_left":[0,0,0,0,0,0,0,0,0,0,0,0,0,0,0,0,0,0,0,0,0,0,0,0,0,0,0,0,0,0,0,0,0,0,0,0,0,0,0,0,0,0,0,0,0,0,0,0,0,0,0,0,0,0,0,0,0,0,0,0,0,0,0,0,0,0,0,0,0,0,0,0,0,0,0,0,0,0,0,0,0,0,0,0,0,0,0,0,0,0,0,0,0,0,0,0,0,0,0,0,0,0,0,0,0,0,0,0,0,0,0,0,0,0,0,0,0,0,0,0,0,0,0,0,0],"id":7,"left_children":[1,3,5,7,9,11,13,15,17,19,21,23,25,27,29,31,33,35,37,39,41,43,45,47,49,51,53,55,57,59,61,63,-1,65,67,69,71,73,75,77,79,81,83,85,87,89,91,93,95,97,99,101,103,105,107,109,111,113,115,117,119,121,123,-1,-1,-1,-1,-1,-1,-1,-1,-1,-1,-1,-1,-1,-1,-1,-1,-1,-1,-1,-1,-1,-1,-1,-1,-1,-1,-1,-1,-1,-1,-1,-1,-1,-1,-1,-1,-1,-1,-1,-1,-1,-1,-1,-1,-1,-1,-1,-1,-1,-1,-1,-1,-1,-1,-1,-1,-1,-1,-1,-1,-1,-1],"loss_changes":[2.7644805E3,4.0916284E2,3.286322E2,4.1744507E1,4.946219E1,3.0350357E1,3.721411E1,8.4366455E0,1.3180908E1,1.8316864E1,1.4572772E1,8.68955E0,8.986557E0,6.9784546E0,7.6169434E0,2.272705E0,3.5978088E0,4.5393066E0,4.0207214E0,1.0083481E1,3.3475003E0,3.0495377E0,1.0954195E1,5.024815E0,3.5917091E0,2.7107542E0,5.121109E0,2.420929E0,2.7930298E0,2.0127563E0,2.9522705E0,1.2923889E0,0E0,7.011719E-1,1.1810913E0,2.3568115E0,2.4689257E0,3.3893585E0,3.6139984E0,4.9670715E0,2.854309E0,2.96953E0,1.7922055E0,1.80441E0,2.0045547E0,6.7349515E0,2.7228317E0,2.3813658E0,3.901639E0,2.3450801E0,3.0008163E0,2.48552E0,1.3079648E0,3.4764252E0,2.8669739E0,1.9727898E0,2.4736252E0,1.8289871E0,1.3497009E0,1.7715607E0,1.6161499E0,1.4119263E0,5.510254E-1,0E0,0E0,0E0,0E0,0E0,0E0,0E0,0E0,0E0,0E0,0E0,0E0,0E0,0E0,0E0,0E0,0E0,0E0,0E0,0E0,0E0,0E0,0E0,0E0,0E0,0E0,0E0,0E0,0E0,0E0,0E0,0E0,0E0,0E0,0E0,0E0,0E0,0E0,0E0,0E0,0E0,0E0,0E0,0E0,0E0,0E0,0E0,0E0,0E0,0E0,0E0,0E0,0E0,0E0,0E0,0E0,0E0,0E0,0E0,0E0,0E0,0E0],"parents":[2147483647,0,0,1,1,2,2,3,3,4,4,5,5,6,6,7,7,8,8,9,9,10,10,11,11,12,12,13,13,14,14,15,15,16,16,17,17,18,18,19,19,20,20,21,21,22,22,23,23,24,24,25,25,26,26,27,27,28,28,29,29,30,30,31,31,33,33,34,34,35,35,36,36,37,37,38,38,39,39,40,40,41,41,42,42,43,43,44,44,45,45,46,46,47,47,48,48,49,49,50,50,51,51,52,52,53,53,54,54,55,55,56,56,57,57,58,58,59,59,60,60,61,61,62,62],"right_children":[2,4,6,8,10,12,14,16,18,20,22,24,26,28,30,32,34,36,38,40,42,44,46,48,50,52,54,56,58,60,62,64,-1,66,68,70,72,74,76,78,80,82,84,86,88,90,92,94,96,98,100,102,104,106,108,110,112,114,116,118,120,122,124,-1,-1,-1,-1,-1,-1,-1,-1,-1,-1,-1,-1,-1,-1,-1,-1,-1,-1,-1,-1,-1,-1,-1,-1,-1,-1,-1,-1,-1,-1,-1,-1,-1,-1,-1,-1,-1,-1,-1,-1,-1,-1,-1,-1,-1,-1,-1,-1,-1,-1,-1,-1,-1,-1,-1,-1,-1,-1,-1,-1,-1,-1],"split_conditions":[1.13E1,6.5E0,1.65E1,3.6E0,8.7E0,1.37E1,2.02E1,6E0,1.8E1,2.7E1,1.9666666E1,1.2920213E1,1.02047615E1,1.7306667E1,2.2142857E1,9E0,2.5E0,1.1118812E1,5.8E0,7.3428574E0,9.028571E0,1.1666667E1,1.1272727E1,2.4E1,1.9666666E1,3.5E1,2.2E1,3.1333334E1,3.2333332E1,1.11E2,2.92E1,2.1E0,3.607963E-1,1E0,4.4E0,1.1E1,1.12453125E2,5.516854E0,3E1,1.4E1,1.4E1,8E0,1.1825487E2,7.6E1,8.842105E0,7E0,1.1735647E2,1E1,1.138E2,1.074E2,2.0205883E1,1.36E1,1.1783562E2,1.4369047E1,1.157E2,1.1919617E2,1.171E2,2.1E1,4.6E1,5E0,1.68E1,4.4666668E1,3.79E1,-3.7344858E-1,-2.8282568E-1,-2.8068018E-1,-2.813804E-1,-2.4758516E-1,-2.0479853E-1,-2.4934004E-1,-1.7751542E-1,-1.6337143E-1,8.617993E-2,-1.7916961E-1,-1.404902E-1,-1.4416805E-1,-5.942581E-2,-2.130888E-1,-1.4073697E-1,-1.5566216E-1,-8.3214454E-2,-1.10957004E-1,-3.584223E-2,-2.9768301E-2,5.5872727E-2,-2.2681542E-1,-2.2375374E-1,-1.02283336E-1,-3.7047815E-2,-8.004618E-2,-1.5936567E-2,2.6283145E-2,7.182818E-2,-8.473344E-2,2.912116E-3,2.47782E-2,7.336833E-2,2.6898408E-1,-9.9254705E-2,1.0505857E-1,3.344212E-1,-6.040745E-2,3.9763164E-2,7.857883E-2,2.8592858E-1,1.0850944E-1,1.7350617E-1,1.990296E-1,2.3720793E-1,1.6537896E-1,2.7874193E-1,2.243319E-1,2.7992454E-1,1.3223486E-1,2.5785157E-1,3.437154E-1,4.728229E-2,-4.900966E-2,3.3968088E-1,2.2596121E-1,3.8927004E-1,5.0137466E-1,-1.9965914E-1,7.3849416E-1,6.147632E-1],"split_indices":[2,2,2,1,2,2,2,9,9,9,6,12,12,12,12,3,2,12,1,12,12,6,12,6,6,10,3,6,6,18,2,2,0,2,12,9,17,12,9,9,9,1,20,16,12,3,20,1,18,18,12,1,17,12,19,20,19,9,11,4,1,6,8,0,0,0,0,0,0,0,0,0,0,0,0,0,0,0,0,0,0,0,0,0,0,0,0,0,0,0,0,0,0,0,0,0,0,0,0,0,0,0,0,0,0,0,0,0,0,0,0,0,0,0,0,0,0,0,0,0,0,0,0,0,0],"split_type":[0,0,0,0,0,0,0,0,0,0,0,0,0,0,0,0,0,0,0,0,0,0,0,0,0,0,0,0,0,0,0,0,0,0,0,0,0,0,0,0,0,0,0,0,0,0,0,0,0,0,0,0,0,0,0,0,0,0,0,0,0,0,0,0,0,0,0,0,0,0,0,0,0,0,0,0,0,0,0,0,0,0,0,0,0,0,0,0,0,0,0,0,0,0,0,0,0,0,0,0,0,0,0,0,0,0,0,0,0,0,0,0,0,0,0,0,0,0,0,0,0,0,0,0,0],"sum_hessian":[6.0913E4,3.3828E4,2.7085E4,1.683E4,1.6998E4,1.2519E4,1.4566E4,7.251E3,9.579E3,8.08E3,8.918E3,6.593E3,5.926E3,5.652E3,8.914E3,2.807E3,4.444E3,5.377E3,4.202E3,6.21E3,1.87E3,1.65E3,7.268E3,4.143E3,2.45E3,6E2,5.326E3,2.612E3,3.04E3,3.673E3,5.241E3,2.804E3,3E0,1.588E3,2.856E3,5.292E3,8.5E1,2.177E3,2.025E3,2.683E3,3.527E3,1.318E3,5.52E2,1.29E2,1.521E3,5.262E3,2.006E3,1.053E3,3.09E3,9.8E1,2.352E3,4.64E2,1.36E2,4.526E3,8E2,1.107E3,1.505E3,1.398E3,1.642E3,1.169E3,2.504E3,4.029E3,1.212E3,1.289E3,1.515E3,1.29E2,1.459E3,1.044E3,1.812E3,2.136E3,3.156E3,3.5E1,5E1,1.058E3,1.119E3,1.675E3,3.5E2,7.14E2,1.969E3,6.59E2,2.868E3,5.84E2,7.34E2,4.86E2,6.6E1,5.5E1,7.4E1,6.68E2,8.53E2,1.34E3,3.922E3,1.568E3,4.38E2,2.61E2,7.92E2,1.376E3,1.714E3,1.5E1,8.3E1,2.32E3,3.2E1,1.39E2,3.25E2,1.02E2,3.4E1,2.125E3,2.401E3,4.57E2,3.43E2,1.021E3,8.6E1,1.05E3,4.55E2,9.7E1,1.301E3,1.63E3,1.2E1,5E0,1.164E3,5.4E1,2.45E3,4.027E3,2E0,1.07E3,1.42E2],"tree_param":{"num_deleted":"0","num_feature":"22","num_nodes":"125","size_leaf_vector":"1"}},{"base_weights":[-4.2364546E-3,-1.9860622E-1,2.1520533E-1,-3.008775E-1,-9.772267E-2,9.616235E-2,3.223187E-1,-3.614574E-1,-2.571E-1,-1.622647E-1,-5.0852846E-2,3.7751373E-2,1.3556185E-1,2.5725615E-1,3.643707E-1,-3.8767707E-1,-3.1042758E-1,-2.8580424E-1,-2.1475887E-1,-1.95316E-1,-1.0054348E-1,-7.573831E-2,2.3698688E-2,-8.665339E-2,5.0311934E-2,1.0637873E-1,1.8249115E-1,2.0872642E-1,2.842133E-1,3.350546E-1,4.0004846E-1,-4.1435826E-1,-3.621823E-1,-3.1219938E-1,2.0833334E-2,-2.8776065E-1,-3.409091E-2,-1.9963089E-1,-3.082061E-1,-2.56167E-1,-1.6186675E-1,-1.1395881E-1,4.0865384E-2,-1.0292718E-1,-3.598748E-2,2.379536E-3,7.61347E-2,-4.1322313E-2,-2.0357142E-1,2.7754176E-2,1.0562891E-1,6.748008E-2,1.3243154E-1,1.3530928E-1,2.1064815E-1,1.2860893E-1,2.2614942E-1,2.6940402E-1,3.302603E-1,9.210526E-2,3.3683473E-1,3.894276E-1,4.3609023E-1,-2.1675846E-2,-1.9335939E-2,-1.2831858E-2,-1.8375576E-2,-1.3478818E-2,-1.6699802E-2,-1.4555493E-2,-7.2265626E-3,-1.4705883E-2,6.25E-3,-1.0931133E-2,-7.0488723E-3,-8.712121E-3,-1.633987E-2,-1.4227643E-2,-9.473684E-3,-8.468469E-3,1.6203703E-3,-7.3352093E-3,-3.5297242E-3,-7.102273E-4,1.6666668E-2,-7.917888E-3,-4.253145E-3,-1.4293324E-3,-1.885246E-2,-1.9208038E-3,2.1830143E-3,4.2728637E-3,-1.4705883E-2,-1.1413044E-2,-7.075472E-4,2.8846154E-3,-1.3043478E-2,1.5894708E-3,-1.1160715E-2,5.4583624E-3,-1.818182E-2,-2.306273E-4,4.7034766E-3,1.1627907E-3,7.0413672E-3,4.735495E-3,8.808291E-3,8.725578E-3,1.3003664E-2,3.4246575E-3,1.0429448E-2,1.0453579E-2,1.4924243E-2,1.2836957E-2,1.5928451E-2,8.5227275E-3,1.6894197E-2,9.166667E-3,-1.1111111E-2,1.5116691E-2,1.7517434E-2,1.8697772E-2,2.1048851E-2,2.190194E-2,-6.25E-3],"categories":[],"categories_nodes":[],"categories_segments":[],"categories_sizes":[],"default_left":[0,0,0,0,0,0,0,0,0,0,0,0,0,0,0,0,0,0,0,0,0,0,0,0,0,0,0,0,0,0,0,0,0,0,0,0,0,0,0,0,0,0,0,0,0,0,0,0,0,0,0,0,0,0,0,0,0,0,0,0,0,0,0,0,0,0,0,0,0,0,0,0,0,0,0,0,0,0,0,0,0,0,0,0,0,0,0,0,0,0,0,0,0,0,0,0,0,0,0,0,0,0,0,0,0,0,0,0,0,0,0,0,0,0,0,0,0,0,0,0,0,0,0,0,0],"id":8,"left_children":[1,3,5,7,9,11,13,15,17,19,21,23,25,27,29,31,33,35,37,39,41,43,45,47,49,51,53,55,57,59,61,63,65,67,-1,69,71,73,75,77,79,81,83,85,87,89,91,93,95,97,99,101,103,105,107,109,111,113,115,117,119,121,123,-1,-1,-1,-1,-1,-1,-1,-1,-1,-1,-1,-1,-1,-1,-1,-1,-1,-1,-1,-1,-1,-1,-1,-1,-1,-1,-1,-1,-1,-1,-1,-1,-1,-1,-1,-1,-1,-1,-1,-1,-1,-1,-1,-1,-1,-1,-1,-1,-1,-1,-1,-1,-1,-1,-1,-1,-1,-1,-1,-1,-1,-1],"loss_changes":[2.6026343E3,3.3382397E2,3.654281E2,4.2519897E1,4.9273224E1,3.1238213E1,4.1181763E1,8.8949585E0,1.1279236E1,1.3960251E1,1.751349E1,8.551748E0,1.1083481E1,7.6932373E0,9.447754E0,2.874939E0,3.0828247E0,2.7272644E0,5.273651E0,9.040588E0,4.5423927E0,7.6449776E0,2.641396E0,2.6521986E0,6.1975193E0,5.059166E0,4.0991516E0,2.9301987E0,2.5071106E0,2.1465454E0,1.4100342E0,9.793396E-1,1.18927E0,2.034668E0,0E0,2.6035461E0,1.8569518E0,3.5905914E0,1.2481079E0,2.9391556E0,4.206192E0,3.0923004E0,3.354822E0,4.1474686E0,7.2486515E0,2.832605E0,2.3826485E0,1.8405838E0,2.110839E0,3.5829995E0,2.4290447E0,3.849575E0,2.7410812E0,1.9141006E0,3.4267044E0,1.8175845E0,2.0870743E0,1.7152252E0,1.0656815E0,1.1304095E0,2.2243652E0,1.4031677E0,1.0726471E0,0E0,0E0,0E0,0E0,0E0,0E0,0E0,0E0,0E0,0E0,0E0,0E0,0E0,0E0,0E0,0E0,0E0,0E0,0E0,0E0,0E0,0E0,0E0,0E0,0E0,0E0,0E0,0E0,0E0,0E0,0E0,0E0,0E0,0E0,0E0,0E0,0E0,0E0,0E0,0E0,0E0,0E0,0E0,0E0,0E0,0E0,0E0,0E0,0E0,0E0,0E0,0E0,0E0,0E0,0E0,0E0,0E0,0E0,0E0,0E0,0E0,0E0],"parents":[2147483647,0,0,1,1,2,2,3,3,4,4,5,5,6,6,7,7,8,8,9,9,10,10,11,11,12,12,13,13,14,14,15,15,16,16,17,17,18,18,19,19,20,20,21,21,22,22,23,23,24,24,25,25,26,26,27,27,28,28,29,29,30,30,31,31,32,32,33,33,35,35,36,36,37,37,38,38,39,39,40,40,41,41,42,42,43,43,44,44,45,45,46,46,47,47,48,48,49,49,50,50,51,51,52,52,53,53,54,54,55,55,56,56,57,57,58,58,59,59,60,60,61,61,62,62],"right_children":[2,4,6,8,10,12,14,16,18,20,22,24,26,28,30,32,34,36,38,40,42,44,46,48,50,52,54,56,58,60,62,64,66,68,-1,70,72,74,76,78,80,82,84,86,88,90,92,94,96,98,100,102,104,106,108,110,112,114,116,118,120,122,124,-1,-1,-1,-1,-1,-1,-1,-1,-1,-1,-1,-1,-1,-1,-1,-1,-1,-1,-1,-1,-1,-1,-1,-1,-1,-1,-1,-1,-1,-1,-1,-1,-1,-1,-1,-1,-1,-1,-1,-1,-1,-1,-1,-1,-1,-1,-1,-1,-1,-1,-1,-1,-1,-1,-1,-1,-1,-1,-1,-1,-1,-1],"split_conditions":[1.08E1,6.3E0,1.62E1,3.7E0,2.1E1,1.26E1,2E1,3E0,1.8E1,8.842105E0,1.0365853E1,1.8E1,1.4369047E1,1.5945946E1,2.45E1,6E0,1.09765625E1,1.2033557E1,4E0,1.4E1,1.3827434E1,1E1,1.2816326E1,1.184E2,1.2816326E1,2.8E1,1.126E2,1.4333333E1,1.186E2,1.6E1,2.9438356E1,1.162E2,1.5E1,3.8E1,3.3816528E-2,1.2E1,1.11858025E2,2.7E1,3.7E1,7.5633802E0,2.09E2,9E0,1.222E2,6.6666665E0,2.1E1,2.8E1,2.56E2,4E0,4.1231055E0,2.4E1,1.219444E2,1E1,1.0990395E2,1.4666667E1,3.2E1,3.22E1,8.848729E0,2.09E1,1.5E1,2.3287878E1,1.111E2,1.158914E2,2.06E2,-2.7286592E-1,-2.7222216E-1,-1.9739026E-1,-2.668897E-1,-2.2445992E-1,-2.3178895E-1,-2.0455948E-1,-1.5430842E-1,-1.7503975E-1,8.078599E-2,-1.3577347E-1,-1.1512647E-1,-1.2796783E-1,-2.1995528E-1,-1.9801922E-1,-1.6425204E-1,-1.161231E-1,3.3053875E-2,-9.6214294E-2,-5.443125E-2,-1.8427372E-2,1.9433804E-1,-1.2112718E-1,-6.665664E-2,-3.2124043E-2,-2.4634878E-1,-2.9299116E-2,4.1503478E-2,6.6984944E-2,-1.7290919E-1,-1.569212E-1,-2.8936578E-2,1.687789E-2,-1.5850993E-1,2.3760272E-2,-1.6469932E-1,8.655033E-2,-1.2898512E-1,-1.5594483E-3,7.504566E-2,2.9045725E-2,1.178956E-1,8.2651906E-2,1.703115E-1,1.4740334E-1,2.1628201E-1,5.3017855E-2,1.8527293E-1,1.9437616E-1,2.6870796E-1,2.3628998E-1,3.1078348E-1,2.5732428E-1,3.2727313E-1,2.8300563E-1,-6.1296035E-2,3.308482E-1,3.8803795E-1,4.7774467E-1,5.641926E-1,7.278385E-1,-8.916154E-2],"split_indices":[2,2,2,2,9,2,2,0,9,12,12,9,12,12,2,9,12,12,15,9,12,0,12,19,12,10,19,0,19,9,12,18,21,16,0,3,20,9,21,12,16,4,18,12,15,9,16,4,13,15,20,3,20,0,9,8,13,12,16,12,19,20,15,0,0,0,0,0,0,0,0,0,0,0,0,0,0,0,0,0,0,0,0,0,0,0,0,0,0,0,0,0,0,0,0,0,0,0,0,0,0,0,0,0,0,0,0,0,0,0,0,0,0,0,0,0,0,0,0,0,0,0,0,0,0],"split_type":[0,0,0,0,0,0,0,0,0,0,0,0,0,0,0,0,0,0,0,0,0,0,0,0,0,0,0,0,0,0,0,0,0,0,0,0,0,0,0,0,0,0,0,0,0,0,0,0,0,0,0,0,0,0,0,0,0,0,0,0,0,0,0,0,0,0,0,0,0,0,0,0,0,0,0,0,0,0,0,0,0,0,0,0,0,0,0,0,0,0,0,0,0,0,0,0,0,0,0,0,0,0,0,0,0,0,0,0,0,0,0,0,0,0,0,0,0,0,0,0,0,0,0,0,0],"sum_hessian":[6.1017E4,3.2357E4,2.866E4,1.6067E4,1.629E4,1.3575E4,1.5085E4,6.737E3,9.33E3,6.852E3,9.438E3,5.469E3,8.106E3,5.925E3,9.16E3,4.446E3,2.291E3,5.557E3,3.773E3,4.461E3,2.391E3,7.076E3,2.362E3,5.01E2,4.968E3,5E3,3.106E3,2.119E3,3.806E3,5.034E3,4.126E3,2.165E3,2.281E3,2.286E3,5E0,5.514E3,4.3E1,3.25E3,5.23E2,1.58E3,2.881E3,2.184E3,2.07E2,4.201E3,2.875E3,1.68E3,6.82E2,3.62E2,1.39E2,3.53E3,1.438E3,2.007E3,2.993E3,1.163E3,1.943E3,3.8E2,1.739E3,2.885E3,9.21E2,3.7E1,4.997E3,3.196E3,9.3E2,1.27E3,8.95E2,1.12E2,2.169E3,7.78E2,1.508E3,5.387E3,1.27E2,1.6E1,2.7E1,2.453E3,7.97E2,6.5E1,4.58E2,1.106E3,4.74E2,2.774E3,1.07E2,1.243E3,9.41E2,1.75E2,3.2E1,1.022E3,3.179E3,2.815E3,6E1,8.45E2,8.35E2,6.66E2,1.6E1,4.5E1,3.17E2,2.5E1,1.14E2,3.475E3,5.5E1,1.428E3,1E1,5.41E2,1.466E3,2.14E2,2.779E3,5.85E2,5.78E2,1.125E3,8.18E2,2.18E2,1.62E2,1.41E3,3.29E2,2.299E3,5.86E2,4.3E1,8.78E2,2.9E1,8E0,1.413E3,3.584E3,2.153E3,1.043E3,9.27E2,3E0],"tree_param":{"num_deleted":"0","num_feature":"22","num_nodes":"125","size_leaf_vector":"1"}},{"base_weights":[-3.5238392E-3,-1.8994966E-1,2.0724936E-1,-2.8631037E-1,-8.4775865E-2,9.829513E-2,3.1343952E-1,-3.5197142E-1,-2.3658764E-1,-1.6952007E-1,-5.943792E-2,5.514614E-2,1.5462404E-1,2.5778815E-1,3.6621422E-1,-3.7794685E-1,-3.0547056E-1,-2.552153E-1,-1.7141522E-1,-2.1880762E-1,-1.2803304E-1,-9.721019E-2,-2.398374E-2,9.477826E-3,7.9639226E-2,5.2675586E-2,1.6561258E-1,2.2074972E-1,2.7985075E-1,3.4432578E-1,4.0528882E-1,-4.1912293E-1,-3.60348E-1,-3.58076E-1,-2.8031585E-1,-2.966462E-1,-2.3881015E-1,-2.1140036E-1,-1.2791829E-1,1.8181819E-1,-2.2139765E-1,-2.5373134E-1,-1.1341393E-1,-1.2104307E-1,-4.9270075E-2,-4.9401198E-2,1.3726282E-2,-8.6009175E-2,2.7107159E-2,8.736477E-2,-4.1533545E-2,3.90625E-2,3.9130434E-1,1.484375E-1,2.066217E-1,-9.52381E-2,2.2319725E-1,2.3833592E-1,2.9678038E-1,3.4882456E-1,2.2950819E-1,2.7272728E-1,4.0792495E-1,-1.8920455E-2,-2.1875E-2,-1.8141933E-2,-3.4482758E-3,-1.805721E-2,1.875E-2,-1.4383562E-2,-7.3684207E-3,-1.6533637E-2,-1.3618051E-2,-1.1571745E-2,-1.6560914E-2,-1.3643294E-2,-9.275731E-3,9.821429E-3,-6.843157E-3,-1.6666668E-2,1.6666668E-2,-1.1136927E-2,1.875E-2,-1.4583333E-2,3.4090912E-3,-8.911483E-3,-4.6401517E-3,-6.6843256E-3,-2.9024768E-3,1.764706E-2,-2.6419559E-3,-2.258199E-3,-1.2337662E-2,-1.1166254E-3,2.4034674E-3,-9.738373E-3,-7.54717E-4,-1.6746412E-3,2.449568E-3,3.8613507E-3,7.2859116E-3,-1.3636365E-2,-7.117438E-4,-1.8867925E-3,5.2083335E-3,-1.25E-2,2.1590909E-2,6.2720403E-3,8.606771E-3,5.147059E-3,1.1208752E-2,-9.722223E-3,1.875E-2,1.0882936E-2,1.7892158E-2,-2.0000001E-2,1.2031982E-2,1.8518519E-3,1.4946963E-2,1.6364314E-2,1.8273326E-2,1.35E-2,2.2058825E-3,1.509434E-2,-1.6666668E-2,2.0413635E-2,-1.25E-2],"categories":[],"categories_nodes":[],"categories_segments":[],"categories_sizes":[],"default_left":[0,0,0,0,0,0,0,0,0,0,0,0,0,0,0,0,0,0,0,0,0,0,0,0,0,0,0,0,0,0,0,0,0,0,0,0,0,0,0,0,0,0,0,0,0,0,0,0,0,0,0,0,0,0,0,0,0,0,0,0,0,0,0,0,0,0,0,0,0,0,0,0,0,0,0,0,0,0,0,0,0,0,0,0,0,0,0,0,0,0,0,0,0,0,0,0,0,0,0,0,0,0,0,0,0,0,0,0,0,0,0,0,0,0,0,0,0,0,0,0,0,0,0,0,0,0,0],"id":9,"left_children":[1,3,5,7,9,11,13,15,17,19,21,23,25,27,29,31,33,35,37,39,41,43,45,47,49,51,53,55,57,59,61,63,65,67,69,71,73,75,77,79,81,83,85,87,89,91,93,95,97,99,101,103,105,107,109,111,113,115,117,119,121,123,125,-1,-1,-1,-1,-1,-1,-1,-1,-1,-1,-1,-1,-1,-1,-1,-1,-1,-1,-1,-1,-1,-1,-1,-1,-1,-1,-1,-1,-1,-1,-1,-1,-1,-1,-1,-1,-1,-1,-1,-1,-1,-1,-1,-1,-1,-1,-1,-1,-1,-1,-1,-1,-1,-1,-1,-1,-1,-1,-1,-1,-1,-1,-1,-1],"loss_changes":[2.3974578E3,3.2810425E2,3.3129553E2,5.507959E1,3.323355E1,3.4349533E1,4.249768E1,8.676697E0,1.1632629E1,7.2575836E0,1.5960751E1,8.95442E0,6.859619E0,5.7090454E0,6.2246094E0,3.2301636E0,3.3586884E0,5.0118103E0,3.6966515E0,1.7284851E0,3.530651E0,6.5877E0,5.8954105E0,4.7090397E0,4.8817787E0,2.7413645E0,3.8671417E0,2.0637817E0,3.0371704E0,2.3869019E0,8.2040405E-1,8.752136E-1,2.3525085E0,2.0292816E0,1.691391E0,1.6593018E0,3.5776978E0,1.7218399E0,3.0093517E0,9.69697E-1,1.376648E0,2.474475E0,2.303938E0,3.0617752E0,2.7719564E0,3.061141E0,3.068514E0,3.3597429E0,3.1327562E0,2.8868637E0,1.9715488E0,2.883869E0,7.0553374E-1,2.1059875E0,2.9452438E0,1.0525794E0,1.876709E0,1.9873657E0,1.7480164E0,1.5270996E0,1.3618317E0,1.0726132E0,6.99646E-1,0E0,0E0,0E0,0E0,0E0,0E0,0E0,0E0,0E0,0E0,0E0,0E0,0E0,0E0,0E0,0E0,0E0,0E0,0E0,0E0,0E0,0E0,0E0,0E0,0E0,0E0,0E0,0E0,0E0,0E0,0E0,0E0,0E0,0E0,0E0,0E0,0E0,0E0,0E0,0E0,0E0,0E0,0E0,0E0,0E0,0E0,0E0,0E0,0E0,0E0,0E0,0E0,0E0,0E0,0E0,0E0,0E0,0E0,0E0,0E0,0E0,0E0,0E0,0E0],"parents":[2147483647,0,0,1,1,2,2,3,3,4,4,5,5,6,6,7,7,8,8,9,9,10,10,11,11,12,12,13,13,14,14,15,15,16,16,17,17,18,18,19,19,20,20,21,21,22,22,23,23,24,24,25,25,26,26,27,27,28,28,29,29,30,30,31,31,32,32,33,33,34,34,35,35,36,36,37,37,38,38,39,39,40,40,41,41,42,42,43,43,44,44,45,45,46,46,47,47,48,48,49,49,50,50,51,51,52,52,53,53,54,54,55,55,56,56,57,57,58,58,59,59,60,60,61,61,62,62],"right_children":[2,4,6,8,10,12,14,16,18,20,22,24,26,28,30,32,34,36,38,40,42,44,46,48,50,52,54,56,58,60,62,64,66,68,70,72,74,76,78,80,82,84,86,88,90,92,94,96,98,100,102,104,106,108,110,112,114,116,118,120,122,124,126,-1,-1,-1,-1,-1,-1,-1,-1,-1,-1,-1,-1,-1,-1,-1,-1,-1,-1,-1,-1,-1,-1,-1,-1,-1,-1,-1,-1,-1,-1,-1,-1,-1,-1,-1,-1,-1,-1,-1,-1,-1,-1,-1,-1,-1,-1,-1,-1,-1,-1,-1,-1,-1,-1,-1,-1,-1,-1,-1,-1,-1,-1,-1,-1],"split_conditions":[1.08E1,6.5E0,1.65E1,3.6E0,1.7E1,1.36E1,2.13E1,3.2E0,2.3E1,7.8E0,8.7E0,2.5E1,2.2E1,1.81E1,2.64E1,5.2E0,7E0,1.1E1,4.27785E0,1.3038405E0,1E1,2.7E1,2.8E1,1.8E1,5E0,1.86E1,1.9E1,7E0,1.82E1,9E0,1.3E1,8.3E1,1.1E1,3.2E1,9E0,4.4E0,7E0,6.4E1,4.3358965E0,4E0,2.98E1,6E0,1.5E1,2.37E2,1E0,1.5E1,1.02E1,1.7E1,6E0,2.43E2,3.9E1,1.134958E2,1.2E1,1.49E1,1.10791664E2,2.6E1,1.1971913E2,2.18E1,1.6E1,1.1332321E2,3.6E1,2.72E2,5.3E1,-2.52382E-1,-3.4113285E-1,-2.5256172E-1,-1.0518279E-1,-2.6155168E-1,1.884673E-1,-2.0036893E-1,-1.3806717E-1,-2.3109512E-1,-2.2695668E-1,-1.4935513E-1,-2.4045801E-1,-1.5704031E-1,-1.271322E-1,2.8570319E-2,-1.2107303E-1,-3.157992E-1,3.8220502E-2,-1.5843049E-1,1.0487094E-1,-1.9835258E-1,3.3908036E-2,-1.2361541E-1,-7.924032E-2,-1.0020778E-1,-4.7180463E-2,2.0421055E-1,-4.2124845E-2,-3.22052E-2,-1.0679052E-1,-2.9524399E-2,3.8634516E-2,-1.3053484E-1,-1.4310456E-2,-1.7188502E-2,3.6165502E-2,6.93871E-2,9.3950324E-2,-1.0719688E-1,-1.3075042E-2,-1.3786125E-2,7.7017404E-2,-9.009218E-2,3.387327E-1,9.989858E-2,1.5397659E-1,8.2172014E-2,1.9293284E-1,-8.0158286E-2,2.0177169E-1,1.9092731E-1,3.275002E-1,-2.5526905E-1,2.248417E-1,5.2747488E-2,2.955098E-1,3.7509853E-1,4.3201762E-1,3.5629636E-1,1.4462948E-3,3.453153E-1,-1.0749727E-1,5.914466E-1,-2.5447655E-2],"split_indices":[2,2,2,1,9,2,2,2,9,2,2,9,9,2,2,7,9,9,13,13,10,9,9,10,15,1,3,16,1,15,4,21,3,11,3,2,15,21,13,9,8,4,11,21,3,15,1,9,3,21,16,17,4,2,17,4,20,7,9,20,7,21,9,0,0,0,0,0,0,0,0,0,0,0,0,0,0,0,0,0,0,0,0,0,0,0,0,0,0,0,0,0,0,0,0,0,0,0,0,0,0,0,0,0,0,0,0,0,0,0,0,0,0,0,0,0,0,0,0,0,0,0,0,0,0,0,0],"split_type":[0,0,0,0,0,0,0,0,0,0,0,0,0,0,0,0,0,0,0,0,0,0,0,0,0,0,0,0,0,0,0,0,0,0,0,0,0,0,0,0,0,0,0,0,0,0,0,0,0,0,0,0,0,0,0,0,0,0,0,0,0,0,0,0,0,0,0,0,0,0,0,0,0,0,0,0,0,0,0,0,0,0,0,0,0,0,0,0,0,0,0,0,0,0,0,0,0,0,0,0,0,0,0,0,0,0,0,0,0,0,0,0,0,0,0,0,0,0,0,0,0,0,0,0,0,0,0],"sum_hessian":[6.1012E4,3.2376E4,2.8636E4,1.6895E4,1.5481E4,1.4135E4,1.4501E4,7.278E3,9.617E3,3.562E3,1.1919E4,8.005E3,6.13E3,7.061E3,7.44E3,4.665E3,2.613E3,7.477E3,2.14E3,1.626E3,1.936E3,5.77E3,6.149E3,2.795E3,5.21E3,5.97E2,5.533E3,2.64E3,4.421E3,4.775E3,2.665E3,1.39E3,3.275E3,8.41E2,1.772E3,2.116E3,5.361E3,1.113E3,1.027E3,1E1,1.616E3,2E2,1.736E3,3.853E3,1.917E3,3.673E3,2.476E3,4.35E2,2.36E3,4.898E3,3.12E2,5.75E2,2.2E1,3.903E3,1.63E3,2E1,2.62E3,1.285E3,3.136E3,4.593E3,1.82E2,5.4E1,2.611E3,4.39E2,9.51E2,3.247E3,2.8E1,8.38E2,3E0,1.678E3,9.4E1,8.76E2,1.24E3,4.968E3,3.93E2,3.27E2,7.86E2,2.7E1,1E3,2E0,8E0,1.613E3,3E0,1.79E2,2.1E1,4.17E2,1.319E3,3.208E3,6.45E2,1.6E1,1.901E3,3.597E3,7.6E1,1.208E3,1.268E3,1.71E2,2.64E2,6.26E2,1.734E3,4.175E3,7.23E2,3.2E1,2.8E2,2.64E2,3.11E2,1E0,2.1E1,1.984E3,1.919E3,2.37E2,1.393E3,1.7E1,3E0,2.519E3,1.01E2,4E0,1.281E3,2.6E1,3.11E3,2.011E3,2.582E3,1.49E2,3.3E1,5.2E1,2E0,2.61E3,1E0],"tree_param":{"num_deleted":"0","num_feature":"22","num_nodes":"127","size_leaf_vector":"1"}},{"base_weights":[-3.424938E-3,-1.7146525E-1,2.119807E-1,-2.801874E-1,-7.500275E-2,1.13693066E-1,3.2040897E-1,-3.381579E-1,-2.3311229E-1,-1.6053101E-1,-4.698575E-2,6.875417E-2,1.6536398E-1,2.685709E-1,3.574609E-1,-3.9234003E-1,-3.152559E-1,-2.7467677E-1,-2.1005762E-1,-3.227513E-1,-1.5335351E-1,-9.6060395E-2,-1.1294801E-2,2.925532E-2,1.04600914E-1,8.590047E-2,1.7713833E-1,2.1149553E-1,2.8010887E-1,3.3793923E-1,4.1200617E-1,-4.130866E-1,-3.418124E-1,-3.3745643E-1,-2.862958E-1,-1.7110266E-1,-2.8394637E-1,-1.9641015E-1,-2.8490353E-1,-3.508772E-1,-5.263158E-2,-1.8113208E-1,-1.18586384E-1,-1.3157056E-1,-5.354421E-2,-3.7448173E-3,-1.3727678E-1,-4.219745E-2,4.448217E-2,1.089943E-1,-1.16883114E-1,1.01886794E-1,-1.7E-1,1.4840843E-1,1.9837622E-1,1.545699E-1,2.5142857E-1,2.815346E-1,-8.3333336E-2,2.2727273E-2,3.391512E-1,4.1247433E-1,-1.25E-2,-2.073939E-2,4.166667E-3,-1.7612688E-2,-6.451613E-3,-1.7013034E-2,-3.90625E-3,-1.6441686E-2,-1.2772162E-2,-1.4182693E-2,-4.84375E-3,-1.5988125E-2,-1.2969382E-2,-1.0362302E-2,-5.6205033E-3,-1.4707637E-2,-5.1136366E-3,-1.8791948E-2,-8.695653E-3,1.0416667E-2,-2.1875E-2,-8.532193E-3,-1.6060606E-2,-9.031101E-3,-5.056932E-3,-9.483794E-3,-5.526658E-3,4.5751636E-3,-3.125E-3,-1.306015E-3,1.225416E-3,1.4583333E-2,-7.4370713E-3,-1.0000001E-2,-1.0379062E-3,-5.7420495E-4,2.8886555E-3,3.851744E-3,6.7321183E-3,-7.534247E-3,2.0000001E-2,1.3461539E-3,8.682266E-3,-1.5625E-2,-1.8518519E-3,9.14903E-3,5.890358E-3,8.292513E-3,1.1179194E-2,3.7087915E-3,1.1518325E-2,-4.166667E-3,1.3139764E-2,1.35825155E-2,1.6574202E-2,-1.0000001E-2,1.875E-2,-7.8125E-3,2.1428572E-2,1.7078884E-2,1.0747664E-2,1.9556893E-2,2.1545894E-2],"categories":[],"categories_nodes":[],"categories_segments":[],"categories_sizes":[],"default_left":[0,0,0,0,0,0,0,0,0,0,0,0,0,0,0,0,0,0,0,0,0,0,0,0,0,0,0,0,0,0,0,0,0,0,0,0,0,0,0,0,0,0,0,0,0,0,0,0,0,0,0,0,0,0,0,0,0,0,0,0,0,0,0,0,0,0,0,0,0,0,0,0,0,0,0,0,0,0,0,0,0,0,0,0,0,0,0,0,0,0,0,0,0,0,0,0,0,0,0,0,0,0,0,0,0,0,0,0,0,0,0,0,0,0,0,0,0,0,0,0,0,0,0,0,0],"id":10,"left_children":[1,3,5,7,9,11,13,15,17,19,21,23,25,27,29,31,33,35,37,39,41,43,45,47,49,51,53,55,57,59,61,63,65,67,69,71,73,75,77,79,81,83,85,87,89,91,93,95,97,99,101,103,105,107,109,111,113,115,117,119,121,123,-1,-1,-1,-1,-1,-1,-1,-1,-1,-1,-1,-1,-1,-1,-1,-1,-1,-1,-1,-1,-1,-1,-1,-1,-1,-1,-1,-1,-1,-1,-1,-1,-1,-1,-1,-1,-1,-1,-1,-1,-1,-1,-1,-1,-1,-1,-1,-1,-1,-1,-1,-1,-1,-1,-1,-1,-1,-1,-1,-1,-1,-1,-1],"loss_changes":[2.2088755E3,3.5950476E2,2.849679E2,4.3901245E1,4.3522644E1,3.256447E1,2.4325684E1,8.835449E0,8.467865E0,5.1690598E0,2.3968475E1,1.0623306E1,6.0897827E0,3.4336243E0,7.753174E0,2.1032104E0,3.1694946E0,2.9958649E0,5.79393E0,1.4174328E0,4.12558E0,8.692173E0,7.536493E0,3.8882165E0,3.8407707E0,3.470046E0,3.4375E0,1.9979362E0,2.3081055E0,2.0796509E0,7.0718384E-1,1.3123169E0,1.3519974E0,2.0605469E0,2.8177338E0,2.1697307E0,2.4757996E0,4.3885193E0,1.4580994E0,6.9000053E-1,1.9994519E0,3.4492035E0,2.04908E0,3.8160973E0,3.4143348E0,4.7274313E0,2.2465038E0,2.1204858E0,2.1912851E0,3.1520195E0,1.4055862E0,4.2718563E0,9.357871E-1,2.5376244E0,2.6390839E0,2.24973E0,2.019596E0,2.0783386E0,1.0375E0,1.6649758E0,1.5668945E0,5.98053E-1,0E0,0E0,0E0,0E0,0E0,0E0,0E0,0E0,0E0,0E0,0E0,0E0,0E0,0E0,0E0,0E0,0E0,0E0,0E0,0E0,0E0,0E0,0E0,0E0,0E0,0E0,0E0,0E0,0E0,0E0,0E0,0E0,0E0,0E0,0E0,0E0,0E0,0E0,0E0,0E0,0E0,0E0,0E0,0E0,0E0,0E0,0E0,0E0,0E0,0E0,0E0,0E0,0E0,0E0,0E0,0E0,0E0,0E0,0E0,0E0,0E0,0E0,0E0],"parents":[2147483647,0,0,1,1,2,2,3,3,4,4,5,5,6,6,7,7,8,8,9,9,10,10,11,11,12,12,13,13,14,14,15,15,16,16,17,17,18,18,19,19,20,20,21,21,22,22,23,23,24,24,25,25,26,26,27,27,28,28,29,29,30,30,31,31,32,32,33,33,34,34,35,35,36,36,37,37,38,38,39,39,40,40,41,41,42,42,43,43,44,44,45,45,46,46,47,47,48,48,49,49,50,50,51,51,52,52,53,53,54,54,55,55,56,56,57,57,58,58,59,59,60,60,61,61],"right_children":[2,4,6,8,10,12,14,16,18,20,22,24,26,28,30,32,34,36,38,40,42,44,46,48,50,52,54,56,58,60,62,64,66,68,70,72,74,76,78,80,82,84,86,88,90,92,94,96,98,100,102,104,106,108,110,112,114,116,118,120,122,124,-1,-1,-1,-1,-1,-1,-1,-1,-1,-1,-1,-1,-1,-1,-1,-1,-1,-1,-1,-1,-1,-1,-1,-1,-1,-1,-1,-1,-1,-1,-1,-1,-1,-1,-1,-1,-1,-1,-1,-1,-1,-1,-1,-1,-1,-1,-1,-1,-1,-1,-1,-1,-1,-1,-1,-1,-1,-1,-1,-1,-1,-1,-1],"split_conditions":[1.14E1,6.3E0,1.76E1,3.6E0,1.8333334E1,1.42E1,2.13E1,5.6666665E0,1.4E1,8.333333E0,8.7E0,2.8E1,2.4E1,2.8E1,2.82E1,1.175E2,3.2E0,2.4E1,4E0,2.62E2,7.9E0,2.5E1,6E0,2E1,1E1,3.18E1,1.55E1,1.13079865E2,2E2,1.62E1,4.4666668E1,5E0,4.4E0,1.1E1,1.1300857E2,9E0,4.4E0,8.666667E0,8.4E0,7E0,3E0,8E0,1.2E1,1.107E2,1.057E2,1.02E1,2.6E1,1.6E1,6E0,1.26E1,2.83E2,1.5E1,1.56E1,3.1E1,1.134E2,1.9E1,1.064E2,1.203E2,2.04E1,1.1540909E2,1.8E1,2.92E1,-3.8693085E-1,-2.5276017E-1,5.1279664E-2,-2.4650069E-1,-1.8733035E-1,-2.3882161E-1,-5.51275E-2,-2.0725381E-1,-1.7287122E-1,-1.976438E-1,-1.3451858E-1,-2.2471511E-1,-1.8591793E-1,-1.353226E-1,-7.684994E-2,-1.991998E-1,-3.1464625E-2,-2.3466285E-1,-1.6465615E-1,9.711637E-2,-3.9015588E-1,-1.2951484E-1,-2.148263E-1,-1.2389169E-1,-7.576847E-2,-1.3711122E-1,-7.625931E-2,7.487526E-2,-4.805727E-2,-2.3131108E-2,1.665597E-2,1.3026996E-1,-8.4631756E-2,-1.1941407E-1,-9.999228E-3,-4.203081E-3,4.5670748E-2,6.591773E-2,1.1378026E-1,-5.7757642E-2,1.7396486E-1,2.4513006E-2,1.6027665E-1,-1.582243E-1,-1.6320778E-2,1.3775884E-1,1.0268755E-1,1.4897585E-1,2.0163928E-1,9.421506E-2,2.5485513E-1,-6.6045046E-2,2.2643828E-1,2.564531E-1,3.185539E-1,-7.818282E-2,4.7054836E-1,-1.367754E-1,4.7950584E-1,3.9322472E-1,2.0855883E-1,4.7284633E-1,6.118743E-1],"split_indices":[2,2,2,1,6,2,2,6,9,6,2,9,9,9,1,19,2,21,15,21,2,9,15,10,15,7,2,20,15,1,6,0,2,3,20,9,2,0,1,5,0,15,10,19,19,2,21,6,3,2,21,4,1,10,19,4,19,19,2,17,15,2,0,0,0,0,0,0,0,0,0,0,0,0,0,0,0,0,0,0,0,0,0,0,0,0,0,0,0,0,0,0,0,0,0,0,0,0,0,0,0,0,0,0,0,0,0,0,0,0,0,0,0,0,0,0,0,0,0,0,0,0,0,0,0],"split_type":[0,0,0,0,0,0,0,0,0,0,0,0,0,0,0,0,0,0,0,0,0,0,0,0,0,0,0,0,0,0,0,0,0,0,0,0,0,0,0,0,0,0,0,0,0,0,0,0,0,0,0,0,0,0,0,0,0,0,0,0,0,0,0,0,0,0,0,0,0,0,0,0,0,0,0,0,0,0,0,0,0,0,0,0,0,0,0,0,0,0,0,0,0,0,0,0,0,0,0,0,0,0,0,0,0,0,0,0,0,0,0,0,0,0,0,0,0,0,0,0,0,0,0,0,0],"sum_hessian":[6.1022E4,3.428E4,2.6742E4,1.6115E4,1.8165E4,1.4028E4,1.2714E4,7.219E3,8.896E3,4.481E3,1.3684E4,7.504E3,6.524E3,5.303E3,7.411E3,2.14E3,5.079E3,3.17E3,5.726E3,1.88E2,4.293E3,5.761E3,7.923E3,3.571E3,3.933E3,8.43E2,5.681E3,8.95E2,4.408E3,5.463E3,1.948E3,1.512E3,6.28E2,2.869E3,2.21E3,2.62E2,2.908E3,4.846E3,8.8E2,1.7E2,1.8E1,2.384E3,1.909E3,3.138E3,2.623E3,7.476E3,4.47E2,6.27E2,2.944E3,3.857E3,7.6E1,7.94E2,4.9E1,2.418E3,3.263E3,3.71E2,5.24E2,4.391E3,1.7E1,2.1E1,5.442E3,1.947E3,1E0,1.507E3,5E0,5.98E2,3E1,2.838E3,3.1E1,9.25E2,1.285E3,1.03E2,1.59E2,1.178E3,1.73E3,4.291E3,5.55E2,8.37E2,4.3E1,1.48E2,2.2E1,1.1E1,7E0,2.22E3,1.64E2,4.17E2,1.492E3,8.32E2,2.306E3,1.52E2,2.471E3,4.172E3,3.304E3,1.1E1,4.36E2,7.4E1,5.53E2,5.65E2,2.379E3,1.719E3,2.138E3,7.2E1,4E0,3.89E2,4.05E2,2.3E1,2.6E1,1.133E3,1.285E3,1.428E3,1.835E3,1.81E2,1.9E2,1.7E1,5.07E2,3.671E3,7.2E2,1.4E1,3E0,1.5E1,6E0,5.336E3,1.06E2,9.13E2,1.034E3],"tree_param":{"num_deleted":"0","num_feature":"22","num_nodes":"125","size_leaf_vector":"1"}},{"base_weights":[-3.3153342E-3,-1.872304E-1,1.7944439E-1,-2.714259E-1,-9.263791E-2,7.143324E-2,2.8762773E-1,-3.398095E-1,-2.2355616E-1,-1.4238566E-1,-5.2764136E-2,3.1552836E-2,1.23585336E-1,2.2742265E-1,3.3065602E-1,-3.9287433E-1,-3.1544733E-1,-2.6501566E-1,-1.9900706E-1,-1.7724116E-1,-1.0779099E-1,-1.1023177E-1,-3.628706E-2,-4.9657535E-2,4.0677533E-2,1.10490486E-1,2.0689656E-1,1.938962E-1,2.5261563E-1,3.0061594E-1,3.6963823E-1,-4.153132E-1,-3.55414E-1,-3.2923833E-1,-2.574201E-1,-2.7896994E-1,-2.2712934E-1,-2.0873511E-1,-1.2003058E-1,-1.84514E-1,-1.119403E-2,-2.2570533E-1,-9.468381E-2,-1.1903323E-1,1.7391304E-2,-6.577287E-2,-5.159787E-3,-3.1210987E-2,-2.4342105E-1,1.9306026E-2,6.1348144E-2,3.799186E-2,1.21169634E-1,-1.9444445E-1,2.148526E-1,1.5916272E-1,2.2365737E-1,2.2778785E-1,2.908199E-1,2.6412094E-1,3.1268203E-1,3.545865E-1,4.1289023E-1,-2.083656E-2,1.6666668E-2,-1.8244125E-2,1.2500001E-3,-1.8188776E-2,-1.5825262E-2,-1.6293105E-2,-1.1158433E-2,-1.0156251E-2,-1.4305556E-2,-1.5923567E-2,-1.0440252E-2,-1.1236685E-2,-8.292853E-3,-8.607785E-3,-3.2710282E-3,-9.817933E-3,-6.068465E-3,-2.4E-3,2.2499999E-2,-1.4046392E-2,-6.944445E-3,-5.9357965E-3,-3.114821E-3,-6.3881665E-3,-2.118644E-4,-1.0606061E-2,5.421687E-3,-4.6457066E-3,-5.0480774E-4,-1.8966645E-3,1.4397019E-3,-2.8143276E-3,5.7203392E-3,1.0000001E-2,-1.3541668E-2,-3.557745E-4,2.1674142E-3,-1.2583892E-4,3.6319073E-3,-6.854839E-3,2.6997041E-3,5.4870895E-3,9.366485E-3,9.375E-3,-2.2727273E-2,9.681881E-3,1.5468749E-2,2.6041668E-4,8.582409E-3,4.494382E-3,1.1605206E-2,9.860483E-3,1.3677639E-2,1.2815339E-2,1.8421052E-2,7.2289156E-3,1.3617021E-2,1.4248537E-2,1.657742E-2,1.7773913E-2,-1.875E-2,-6.25E-3,2.0732325E-2],"categories":[],"categories_nodes":[],"categories_segments":[],"categories_sizes":[],"default_left":[0,0,0,0,0,0,0,0,0,0,0,0,0,0,0,0,0,0,0,0,0,0,0,0,0,0,0,0,0,0,0,0,0,0,0,0,0,0,0,0,0,0,0,0,0,0,0,0,0,0,0,0,0,0,0,0,0,0,0,0,0,0,0,0,0,0,0,0,0,0,0,0,0,0,0,0,0,0,0,0,0,0,0,0,0,0,0,0,0,0,0,0,0,0,0,0,0,0,0,0,0,0,0,0,0,0,0,0,0,0,0,0,0,0,0,0,0,0,0,0,0,0,0,0,0,0,0],"id":11,"left_children":[1,3,5,7,9,11,13,15,17,19,21,23,25,27,29,31,33,35,37,39,41,43,45,47,49,51,53,55,57,59,61,63,65,67,69,71,73,75,77,79,81,83,85,87,89,91,93,95,97,99,101,103,105,107,109,111,113,115,117,119,121,123,125,-1,-1,-1,-1,-1,-1,-1,-1,-1,-1,-1,-1,-1,-1,-1,-1,-1,-1,-1,-1,-1,-1,-1,-1,-1,-1,-1,-1,-1,-1,-1,-1,-1,-1,-1,-1,-1,-1,-1,-1,-1,-1,-1,-1,-1,-1,-1,-1,-1,-1,-1,-1,-1,-1,-1,-1,-1,-1,-1,-1,-1,-1,-1,-1],"loss_changes":[2.0479956E3,2.4184143E2,3.5708478E2,5.251941E1,2.8364357E1,3.1805275E1,3.947693E1,8.426453E0,9.569458E0,7.653488E0,7.5153236E0,6.4251785E0,7.206848E0,5.3287964E0,1.03133545E1,1.5982666E0,3.546814E0,1.7938995E0,4.5401154E0,3.8237228E0,4.918125E0,1.9891338E0,5.6653194E0,3.1234617E0,3.4414673E0,4.430931E0,2.9123688E0,2.792633E0,3.3788147E0,2.1336975E0,2.3729858E0,1.5115051E0,2.8366547E0,1.495697E0,1.9808311E0,1.3300629E0,1.5252686E0,3.5909271E0,1.8503838E0,2.2461243E0,2.296209E0,1.4903393E0,2.2326622E0,1.6580658E0,2.4259694E0,4.789365E0,3.343901E0,2.9312491E0,9.779601E-1,2.4351559E0,2.8562021E0,2.0723343E0,3.754486E0,1.8734217E0,1.7087631E0,2.432598E0,1.6412506E0,3.0331573E0,3.7274475E0,1.1957245E0,1.880188E0,2.0057373E0,9.8986816E-1,0E0,0E0,0E0,0E0,0E0,0E0,0E0,0E0,0E0,0E0,0E0,0E0,0E0,0E0,0E0,0E0,0E0,0E0,0E0,0E0,0E0,0E0,0E0,0E0,0E0,0E0,0E0,0E0,0E0,0E0,0E0,0E0,0E0,0E0,0E0,0E0,0E0,0E0,0E0,0E0,0E0,0E0,0E0,0E0,0E0,0E0,0E0,0E0,0E0,0E0,0E0,0E0,0E0,0E0,0E0,0E0,0E0,0E0,0E0,0E0,0E0,0E0,0E0,0E0],"parents":[2147483647,0,0,1,1,2,2,3,3,4,4,5,5,6,6,7,7,8,8,9,9,10,10,11,11,12,12,13,13,14,14,15,15,16,16,17,17,18,18,19,19,20,20,21,21,22,22,23,23,24,24,25,25,26,26,27,27,28,28,29,29,30,30,31,31,32,32,33,33,34,34,35,35,36,36,37,37,38,38,39,39,40,40,41,41,42,42,43,43,44,44,45,45,46,46,47,47,48,48,49,49,50,50,51,51,52,52,53,53,54,54,55,55,56,56,57,57,58,58,59,59,60,60,61,61,62,62],"right_children":[2,4,6,8,10,12,14,16,18,20,22,24,26,28,30,32,34,36,38,40,42,44,46,48,50,52,54,56,58,60,62,64,66,68,70,72,74,76,78,80,82,84,86,88,90,92,94,96,98,100,102,104,106,108,110,112,114,116,118,120,122,124,126,-1,-1,-1,-1,-1,-1,-1,-1,-1,-1,-1,-1,-1,-1,-1,-1,-1,-1,-1,-1,-1,-1,-1,-1,-1,-1,-1,-1,-1,-1,-1,-1,-1,-1,-1,-1,-1,-1,-1,-1,-1,-1,-1,-1,-1,-1,-1,-1,-1,-1,-1,-1,-1,-1,-1,-1,-1,-1,-1,-1,-1,-1,-1,-1],"split_conditions":[1.02E1,6.3E0,1.61E1,3.4E0,2.1E1,1.31E1,2.02E1,5.6666665E0,1.4E1,7.8E0,7.4E0,1.8E1,2.2E1,3.1666666E1,2.48E1,1.163E2,1.8E1,1.184E2,2.9E1,2.09E2,1.2666667E1,1.5E1,2.6E1,9.502631E0,1.142E2,2.2E1,2.1333334E1,1.76E1,1.87E1,1.105E2,2.99E1,5E0,1.77E2,6E0,2.5E0,1.2E1,6E0,1.16582275E2,5.3E0,1.2E1,2.4333334E1,7.2E0,1.13E2,1.1929749E2,9.333333E0,1.169E2,1E0,1.24E1,1.6E1,1.15E1,9.6E0,1.064E2,1.218E2,7.436397E0,1.204E2,1.052E2,7E0,1.1506198E2,1.173E2,2.6E1,3.4E1,4.1E1,6E0,-2.4521232E-1,3.640346E-1,-2.4765603E-1,1.5398216E-2,-2.2816812E-1,-2.0491968E-1,-1.9970195E-1,-1.5059547E-1,-2.1327558E-1,-2.065445E-1,-2.2531433E-1,-1.6324641E-1,-1.3797088E-1,-1.1183484E-1,-1.364744E-1,-5.404048E-2,-1.4129439E-1,-9.632082E-2,-5.6099296E-2,1.17709495E-1,-1.6475058E-1,-8.258362E-2,-8.431657E-2,-4.5829296E-2,-9.594212E-2,-1.1775494E-3,-8.590136E-2,5.294323E-2,-6.459947E-2,-7.915354E-3,-2.9151678E-2,1.4856196E-2,-4.4193126E-2,6.987744E-2,1.6669853E-1,-1.9929281E-1,-4.1661263E-3,3.0689621E-2,-4.310274E-3,5.758643E-2,-5.6586266E-2,4.3819904E-2,9.1721825E-2,1.4965896E-1,2.4388123E-2,-1.4123595E-1,1.63236E-1,1.9809413E-1,2.246132E-2,1.6339245E-1,7.3066115E-2,1.985846E-1,1.7399918E-1,2.4397497E-1,2.31391E-1,3.1454247E-1,1.18558936E-1,3.0239192E-1,3.0984297E-1,3.5486084E-1,4.4393715E-1,-1.1871939E-1,-1.7593766E-2,6.0596484E-1],"split_indices":[2,2,2,1,9,2,2,6,9,2,2,9,3,6,2,19,9,19,9,16,6,5,6,13,19,9,6,2,2,19,2,0,16,9,2,16,10,17,2,4,6,1,16,17,0,19,14,2,16,2,1,19,18,13,19,18,3,17,19,10,9,0,3,0,0,0,0,0,0,0,0,0,0,0,0,0,0,0,0,0,0,0,0,0,0,0,0,0,0,0,0,0,0,0,0,0,0,0,0,0,0,0,0,0,0,0,0,0,0,0,0,0,0,0,0,0,0,0,0,0,0,0,0,0,0,0,0],"split_type":[0,0,0,0,0,0,0,0,0,0,0,0,0,0,0,0,0,0,0,0,0,0,0,0,0,0,0,0,0,0,0,0,0,0,0,0,0,0,0,0,0,0,0,0,0,0,0,0,0,0,0,0,0,0,0,0,0,0,0,0,0,0,0,0,0,0,0,0,0,0,0,0,0,0,0,0,0,0,0,0,0,0,0,0,0,0,0,0,0,0,0,0,0,0,0,0,0,0,0,0,0,0,0,0,0,0,0,0,0,0,0,0,0,0,0,0,0,0,0,0,0,0,0,0,0,0,0],"sum_hessian":[6.0928E4,3.0368E4,3.056E4,1.6066E4,1.4302E4,1.5293E4,1.5267E4,6.613E3,9.453E3,6.362E3,7.94E3,8.667E3,6.626E3,6.366E3,8.901E3,2.076E3,4.537E3,3.512E3,5.941E3,3.167E3,3.195E3,1.768E3,6.172E3,8.75E2,7.792E3,5.728E3,8.98E2,2.735E3,3.631E3,5.032E3,3.869E3,1.292E3,7.84E2,3.662E3,8.75E2,2.562E3,9.5E2,5.288E3,6.53E2,3.034E3,1.33E2,3.18E2,2.877E3,1.654E3,1.14E2,3.169E3,3.003E3,8E2,7.5E1,3.832E3,3.96E3,7.36E2,4.992E3,1.7E1,8.81E2,1.265E3,1.47E3,2.205E3,1.426E3,1.256E3,3.776E3,2.877E3,9.92E2,1.29E3,2E0,7.65E2,1.9E1,9.79E2,2.683E3,2.89E2,5.86E2,2.23E2,2.339E3,1.56E2,7.94E2,3.848E3,1.44E3,3.33E2,3.2E2,2.553E3,4.81E2,1.24E2,9E0,1.93E2,1.25E2,1.65E3,1.227E3,1.537E3,1.17E2,3.2E1,8.2E1,2.13E3,1.039E3,1.528E3,1.475E3,6.83E2,1.17E2,4E0,7.1E1,1.826E3,2.006E3,5.95E2,3.365E3,6.1E1,6.75E2,4.259E3,7.33E2,7E0,1E1,7.22E2,1.59E2,9.5E1,1.17E3,8.8E1,1.382E3,1.325E3,8.8E2,9.9E2,4.36E2,8.2E1,1.174E3,1.536E3,2.24E3,2.874E3,3E0,3E0,9.89E2],"tree_param":{"num_deleted":"0","num_feature":"22","num_nodes":"127","size_leaf_vector":"1"}},{"base_weights":[-2.9744345E-3,-1.604129E-1,1.9839403E-1,-2.6391405E-1,-6.9552585E-2,1.072266E-1,2.993781E-1,-3.471357E-1,-2.2637063E-1,-1.3372761E-1,-3.740125E-2,7.079202E-2,1.5474047E-1,2.6928914E-1,3.616147E-1,-3.8971293E-1,-3.1618157E-1,-2.527337E-1,-1.8864186E-1,-1.4558715E-1,-3.794643E-2,-8.144178E-2,-9.060176E-3,2.3515983E-2,8.8698514E-2,1.3173272E-1,1.963628E-1,2.3830003E-1,2.9577464E-1,3.4582543E-1,4.1239753E-1,-3.926321E-1,-1.6071428E-1,-3.3140033E-1,-2.5223613E-1,-2.6137942E-1,-1.8495935E-1,-2.533708E-1,-1.7282431E-1,-1.6920096E-1,-1.0712554E-1,-2.652106E-2,-2.65625E-1,-9.712543E-2,-4.0304184E-2,-2.2238165E-3,-1.2089202E-1,-4.9492385E-2,3.9510295E-2,-8.72093E-2,9.1340244E-2,-1.25E-2,1.3623264E-1,1.994879E-1,-8E-2,2.2418648E-1,2.974934E-1,2.516129E-1,3.0926085E-1,3.4636077E-1,-1.6666668E-2,1.1764706E-1,4.171875E-1,-1.9747797E-2,-7.954545E-3,2.9411765E-3,-2.2916667E-2,-1.5535982E-2,-1.79397E-2,-1.4118304E-2,-6.4732144E-3,-1.434024E-2,-1.1901198E-2,-9.623431E-3,3.4090912E-3,-1.746795E-2,-1.1632654E-2,-8.278289E-3,-1.5895953E-2,-8.081451E-3,-1.403302E-2,-1.0508475E-2,-4.4940645E-3,2.6627218E-3,-2.7484144E-3,-1.6666668E-2,4.166667E-3,-5.384859E-3,9.548611E-4,-5.149331E-4,-6.231884E-3,-5.365315E-4,4.1403784E-3,-1.6447369E-2,-5.0128535E-3,-6.806283E-3,1.5931374E-3,6.9805197E-3,1.5054744E-3,1.0526316E-2,-8.455883E-3,4.6841637E-3,-4.391892E-3,-2.5462962E-3,1.5384616E-2,1.03165945E-2,6.3318457E-3,1.107218E-2,7.7908593E-3,5.357143E-3,-1.4583333E-2,1.1308587E-2,-6.944445E-3,8.4459465E-3,1.5547446E-2,1.2719705E-2,-2.0000001E-2,-9.375E-3,1.551504E-2,1.627945E-2,1.8279241E-2,2.1428572E-2,-4.545455E-3,2.095089E-2,-6.25E-3],"categories":[],"categories_nodes":[],"categories_segments":[],"categories_sizes":[],"default_left":[0,0,0,0,0,0,0,0,0,0,0,0,0,0,0,0,0,0,0,0,0,0,0,0,0,0,0,0,0,0,0,0,0,0,0,0,0,0,0,0,0,0,0,0,0,0,0,0,0,0,0,0,0,0,0,0,0,0,0,0,0,0,0,0,0,0,0,0,0,0,0,0,0,0,0,0,0,0,0,0,0,0,0,0,0,0,0,0,0,0,0,0,0,0,0,0,0,0,0,0,0,0,0,0,0,0,0,0,0,0,0,0,0,0,0,0,0,0,0,0,0,0,0,0,0],"id":12,"left_children":[1,3,5,7,9,11,13,15,17,19,21,23,25,27,29,31,33,35,37,39,41,43,45,47,49,51,53,55,57,59,61,63,65,67,69,71,73,75,77,79,81,83,85,87,89,91,93,95,97,99,101,103,105,107,109,111,113,115,117,119,-1,121,123,-1,-1,-1,-1,-1,-1,-1,-1,-1,-1,-1,-1,-1,-1,-1,-1,-1,-1,-1,-1,-1,-1,-1,-1,-1,-1,-1,-1,-1,-1,-1,-1,-1,-1,-1,-1,-1,-1,-1,-1,-1,-1,-1,-1,-1,-1,-1,-1,-1,-1,-1,-1,-1,-1,-1,-1,-1,-1,-1,-1,-1,-1],"loss_changes":[1.9345573E3,3.2203607E2,2.4647083E2,4.9940186E1,3.762571E1,2.4351486E1,2.3690674E1,6.4335938E0,1.0928223E1,6.908821E0,1.5166853E1,6.742363E0,5.822418E0,6.9609985E0,3.1745605E0,1.3340454E0,2.7249756E0,3.756256E0,4.6075897E0,4.900818E0,1.7410367E0,3.0658855E0,5.6533766E0,2.5592594E0,2.6930046E0,2.5563126E0,1.8918381E0,3.2357635E0,2.6707458E0,1.2651062E0,1.3288879E0,1.0567932E0,1.8564428E0,1.2073822E0,2.0312462E0,3.3497314E0,1.4159889E0,1.6886253E0,3.7956696E0,2.7852936E0,3.6468868E0,1.4576074E0,7.8385425E-1,4.233616E0,3.3262854E0,5.042611E0,1.795929E0,2.7812734E0,1.6868122E0,2.1328883E0,2.3982658E0,1.4921119E0,2.541397E0,2.0250473E0,1.0215477E0,2.3351135E0,1.2588425E0,2.0680542E0,1.8823547E0,1.1428223E0,0E0,1.1413294E0,1.0050354E0,0E0,0E0,0E0,0E0,0E0,0E0,0E0,0E0,0E0,0E0,0E0,0E0,0E0,0E0,0E0,0E0,0E0,0E0,0E0,0E0,0E0,0E0,0E0,0E0,0E0,0E0,0E0,0E0,0E0,0E0,0E0,0E0,0E0,0E0,0E0,0E0,0E0,0E0,0E0,0E0,0E0,0E0,0E0,0E0,0E0,0E0,0E0,0E0,0E0,0E0,0E0,0E0,0E0,0E0,0E0,0E0,0E0,0E0,0E0,0E0,0E0,0E0],"parents":[2147483647,0,0,1,1,2,2,3,3,4,4,5,5,6,6,7,7,8,8,9,9,10,10,11,11,12,12,13,13,14,14,15,15,16,16,17,17,18,18,19,19,20,20,21,21,22,22,23,23,24,24,25,25,26,26,27,27,28,28,29,29,30,30,31,31,32,32,33,33,34,34,35,35,36,36,37,37,38,38,39,39,40,40,41,41,42,42,43,43,44,44,45,45,46,46,47,47,48,48,49,49,50,50,51,51,52,52,53,53,54,54,55,55,56,56,57,57,58,58,59,59,61,61,62,62],"right_children":[2,4,6,8,10,12,14,16,18,20,22,24,26,28,30,32,34,36,38,40,42,44,46,48,50,52,54,56,58,60,62,64,66,68,70,72,74,76,78,80,82,84,86,88,90,92,94,96,98,100,102,104,106,108,110,112,114,116,118,120,-1,122,124,-1,-1,-1,-1,-1,-1,-1,-1,-1,-1,-1,-1,-1,-1,-1,-1,-1,-1,-1,-1,-1,-1,-1,-1,-1,-1,-1,-1,-1,-1,-1,-1,-1,-1,-1,-1,-1,-1,-1,-1,-1,-1,-1,-1,-1,-1,-1,-1,-1,-1,-1,-1,-1,-1,-1,-1,-1,-1,-1,-1,-1,-1],"split_conditions":[1.14E1,6.3E0,1.76E1,2.8E0,2E1,1.44E1,2.45E1,6E0,1.6666666E1,1.0333333E1,8.7E0,2.5E1,1.7333334E1,2.04E1,2.99E1,1.294E2,3.7E0,1E1,4.1E0,8.2E0,8E0,1.36E2,6E0,6E0,9.98E1,2.1E1,1.98E2,1.204E2,1.094E2,4.4666668E1,1.3E1,2.09E2,1.193543E2,7.7E1,1.8E1,4.3E0,2E1,2.9E0,9E0,8E0,1.2666667E1,4.32435E0,1.8E1,3.1E1,1.2E1,1.221E2,1.9E1,2.3E1,2.4E1,7.1E1,5.2E1,7E0,8E0,1.97E2,3.3E1,4.5E1,1.4E1,2E2,2.1666666E1,1.13967125E2,-2.5609553E-1,2.2333334E1,4.3666668E1,-2.3931566E-1,-1.9105498E-1,4.0435698E-2,-3.0868208E-1,-2.150472E-1,-2.2098301E-1,-1.9027148E-1,-9.629221E-2,-2.0196477E-1,-1.6256629E-1,-1.3461725E-1,1.7613888E-2,-1.8634251E-1,-1.4759527E-1,-1.0467801E-1,-2.0346868E-1,-1.2173059E-1,-1.7502923E-1,-1.3979916E-1,-6.6317774E-2,2.5662184E-2,-4.361372E-2,-1.2886725E-1,1.6755773E-2,-7.7770926E-2,1.6812658E-2,-1.3475872E-2,-7.2439745E-2,-6.993461E-3,4.8707392E-2,-1.7257872E-1,-5.398774E-2,-9.1727875E-2,3.776164E-2,7.890215E-2,2.2158194E-2,1.0600388E-1,-8.8662915E-2,7.2006464E-2,-4.357319E-2,-2.3901273E-2,2.0685159E-1,1.6646925E-1,1.08986616E-1,2.0366636E-1,1.3558702E-1,2.1579833E-1,-7.668986E-2,2.2216463E-1,-7.268391E-2,1.2823763E-1,2.4530642E-1,2.5720844E-1,-6.941273E-2,-7.4271634E-2,3.152585E-1,3.7532115E-1,4.5270172E-1,8.281908E-1,-1.52692795E-2,5.758268E-1,-3.5126973E-2],"split_indices":[2,2,2,1,6,2,2,6,6,0,2,6,0,1,2,18,2,3,2,2,15,16,15,3,18,6,15,18,18,6,3,16,20,16,10,2,10,2,15,15,6,13,4,6,5,19,10,10,16,16,15,15,5,21,11,11,0,15,6,20,0,0,6,0,0,0,0,0,0,0,0,0,0,0,0,0,0,0,0,0,0,0,0,0,0,0,0,0,0,0,0,0,0,0,0,0,0,0,0,0,0,0,0,0,0,0,0,0,0,0,0,0,0,0,0,0,0,0,0,0,0,0,0,0,0],"split_type":[0,0,0,0,0,0,0,0,0,0,0,0,0,0,0,0,0,0,0,0,0,0,0,0,0,0,0,0,0,0,0,0,0,0,0,0,0,0,0,0,0,0,0,0,0,0,0,0,0,0,0,0,0,0,0,0,0,0,0,0,0,0,0,0,0,0,0,0,0,0,0,0,0,0,0,0,0,0,0,0,0,0,0,0,0,0,0,0,0,0,0,0,0,0,0,0,0,0,0,0,0,0,0,0,0,0,0,0,0,0,0,0,0,0,0,0,0,0,0,0,0,0,0,0,0],"sum_hessian":[6.1019E4,3.4245E4,2.6774E4,1.6008E4,1.8237E4,1.4072E4,1.2702E4,4.974E3,1.1034E4,6.086E3,1.2151E4,7.966E3,6.106E3,8.566E3,4.136E3,2.089E3,2.885E3,6.492E3,4.542E3,5.415E3,6.71E2,4.757E3,7.394E3,2.189E3,5.777E3,3.935E3,2.171E3,3.952E3,4.614E3,3.161E3,9.75E2,2.062E3,2.7E1,2.327E3,5.58E2,5.755E3,7.37E2,8.89E2,3.653E3,3.353E3,2.062E3,6.4E2,3.1E1,3.443E3,1.314E3,6.969E3,4.25E2,3.93E2,1.796E3,8.5E1,5.692E3,1.19E2,3.816E3,2.147E3,2.4E1,3.195E3,7.57E2,1.084E3,3.53E3,3.159E3,2E0,1.6E1,9.59E2,2.041E3,2.1E1,1.6E1,1.1E1,1.333E3,9.94E2,4.47E2,1.11E2,2.75E3,3.005E3,7.16E2,2.1E1,1.55E2,7.34E2,3.481E3,1.72E2,3.142E3,2.11E2,2.94E2,1.768E3,1.68E2,4.72E2,2.6E1,5E0,3.156E3,2.87E2,9.7E2,3.44E2,6.336E3,6.33E2,3.7E1,3.88E2,1.9E2,2.03E2,1.53E2,1.643E3,1.8E1,6.7E1,5.619E3,7.3E1,1.07E2,1.2E1,4.57E2,3.359E3,1.426E3,7.21E2,1.3E1,1.1E1,3.178E3,1.7E1,7.3E1,6.84E2,1.08E3,4E0,7E0,3.523E3,1.527E3,1.632E3,6E0,1E1,9.56E2,3E0],"tree_param":{"num_deleted":"0","num_feature":"22","num_nodes":"125","size_leaf_vector":"1"}},{"base_weights":[-3.8506284E-3,-1.6633151E-1,1.791089E-1,-2.6233724E-1,-7.939876E-2,9.380297E-2,2.854069E-1,-3.2696646E-1,-2.1298209E-1,-1.1631255E-1,-2.5456918E-2,4.5921866E-2,1.342523E-1,2.4947277E-1,3.467161E-1,-3.4156272E-1,-2.3063782E-1,-2.5983655E-1,-1.8432243E-1,-1.5910491E-1,-7.6220684E-2,-4.037214E-2,5.882353E-2,3.6157025E-3,7.388434E-2,1.046885E-1,1.6906384E-1,2.2711046E-1,2.8166667E-1,3.3103997E-1,4.0923566E-1,-3.703441E-1,-3.1398106E-1,-4.4791666E-1,-2.1780987E-1,-1.6606498E-1,-2.6832893E-1,-1.7766596E-1,-3.251029E-1,-1.65635E-1,5.3475937E-3,-1.0415282E-1,-3.7847698E-2,-6.507479E-2,5.6152344E-3,7.280081E-2,-2.244898E-1,-2.2866704E-2,4.631295E-2,8.290535E-2,-4.769737E-2,7.187651E-2,1.3081954E-1,1.3288866E-1,2.0397022E-1,1.9962773E-1,2.4961744E-1,2.3207301E-1,2.965667E-1,3.3734939E-1,2.2274882E-1,3.3445945E-1,4.2264152E-1,-1.7240193E-2,-1.986101E-2,-1.8220793E-2,-1.4527695E-2,-2.3404256E-2,1.25E-2,-9.375E-3,-1.4415323E-2,-9.727626E-3,9.52381E-3,-1.40152965E-2,-9.60145E-3,-9.562239E-3,-5.4814382E-3,-1.714602E-2,-4.166667E-3,-9.685177E-3,-6.940392E-3,-4.4715446E-3,9.230769E-3,-8.802083E-3,-4.5239036E-3,-2.7179623E-3,3.5344828E-3,-5.709586E-3,-2.301674E-3,6.4000003E-3,-1.1694387E-4,2.3123324E-3,7.684426E-3,1.25E-2,-1.4204546E-2,-6.424581E-3,-5.5727555E-4,3.748126E-4,5.2130045E-3,2.6039388E-3,6.094183E-3,-6.0913707E-3,4.398148E-3,-4.3956046E-3,3.9586485E-3,6.30887E-3,1.778846E-2,-8.75E-3,6.8005184E-3,-2.2222223E-3,1.0476916E-2,-0E0,1.0228898E-2,3.5714285E-4,1.280943E-2,1.4776632E-2,9.643606E-3,1.5026167E-2,4.901961E-3,1.5713802E-2,1.7674474E-2,1.1771845E-2,-1.25E-2,1.7881945E-2,-2.0000001E-2,2.1273887E-2,9.09091E-3],"categories":[],"categories_nodes":[],"categories_segments":[],"categories_sizes":[],"default_left":[0,0,0,0,0,0,0,0,0,0,0,0,0,0,0,0,0,0,0,0,0,0,0,0,0,0,0,0,0,0,0,0,0,0,0,0,0,0,0,0,0,0,0,0,0,0,0,0,0,0,0,0,0,0,0,0,0,0,0,0,0,0,0,0,0,0,0,0,0,0,0,0,0,0,0,0,0,0,0,0,0,0,0,0,0,0,0,0,0,0,0,0,0,0,0,0,0,0,0,0,0,0,0,0,0,0,0,0,0,0,0,0,0,0,0,0,0,0,0,0,0,0,0,0,0,0,0],"id":13,"left_children":[1,3,5,7,9,11,13,15,17,19,21,23,25,27,29,31,33,35,37,39,41,43,45,47,49,51,53,55,57,59,61,63,65,67,69,71,73,75,77,79,81,83,85,87,89,91,93,95,97,99,101,103,105,107,109,111,113,115,117,119,121,123,125,-1,-1,-1,-1,-1,-1,-1,-1,-1,-1,-1,-1,-1,-1,-1,-1,-1,-1,-1,-1,-1,-1,-1,-1,-1,-1,-1,-1,-1,-1,-1,-1,-1,-1,-1,-1,-1,-1,-1,-1,-1,-1,-1,-1,-1,-1,-1,-1,-1,-1,-1,-1,-1,-1,-1,-1,-1,-1,-1,-1,-1,-1,-1,-1],"loss_changes":[1.8142649E3,2.6975665E2,2.6027484E2,4.8925415E1,3.377771E1,3.0840576E1,2.806897E1,9.2699585E0,1.1650909E1,1.7267654E1,8.668558E0,8.629607E0,8.867035E0,5.7394104E0,4.4904785E0,4.4658203E0,2.349636E0,2.586563E0,5.011032E0,5.2317963E0,5.5717697E0,6.6551123E0,4.12281E0,3.2846868E0,4.8210583E0,3.9955673E0,4.97715E0,2.8957214E0,2.36969E0,2.506897E0,8.0293274E-1,1.7980957E0,3.3843994E0,7.926636E-1,1.7215729E0,2.8505425E0,2.7133026E0,4.75264E0,1.0181999E0,3.5009155E0,3.193777E0,2.9430923E0,3.9339614E0,3.5589848E0,1.9939499E0,2.1171713E0,1.4567487E0,2.218392E0,2.500459E0,4.906864E0,3.067894E0,2.4238539E0,2.669117E0,1.8970566E0,2.7964401E0,2.1236572E0,4.163162E0,1.8510475E0,1.9609985E0,1.2180176E0,1.3244953E0,2.6626587E0,4.656372E-1,0E0,0E0,0E0,0E0,0E0,0E0,0E0,0E0,0E0,0E0,0E0,0E0,0E0,0E0,0E0,0E0,0E0,0E0,0E0,0E0,0E0,0E0,0E0,0E0,0E0,0E0,0E0,0E0,0E0,0E0,0E0,0E0,0E0,0E0,0E0,0E0,0E0,0E0,0E0,0E0,0E0,0E0,0E0,0E0,0E0,0E0,0E0,0E0,0E0,0E0,0E0,0E0,0E0,0E0,0E0,0E0,0E0,0E0,0E0,0E0,0E0,0E0,0E0,0E0],"parents":[2147483647,0,0,1,1,2,2,3,3,4,4,5,5,6,6,7,7,8,8,9,9,10,10,11,11,12,12,13,13,14,14,15,15,16,16,17,17,18,18,19,19,20,20,21,21,22,22,23,23,24,24,25,25,26,26,27,27,28,28,29,29,30,30,31,31,32,32,33,33,34,34,35,35,36,36,37,37,38,38,39,39,40,40,41,41,42,42,43,43,44,44,45,45,46,46,47,47,48,48,49,49,50,50,51,51,52,52,53,53,54,54,55,55,56,56,57,57,58,58,59,59,60,60,61,61,62,62],"right_children":[2,4,6,8,10,12,14,16,18,20,22,24,26,28,30,32,34,36,38,40,42,44,46,48,50,52,54,56,58,60,62,64,66,68,70,72,74,76,78,80,82,84,86,88,90,92,94,96,98,100,102,104,106,108,110,112,114,116,118,120,122,124,126,-1,-1,-1,-1,-1,-1,-1,-1,-1,-1,-1,-1,-1,-1,-1,-1,-1,-1,-1,-1,-1,-1,-1,-1,-1,-1,-1,-1,-1,-1,-1,-1,-1,-1,-1,-1,-1,-1,-1,-1,-1,-1,-1,-1,-1,-1,-1,-1,-1,-1,-1,-1,-1,-1,-1,-1,-1,-1,-1,-1,-1,-1,-1,-1],"split_conditions":[1.08E1,6.1E0,1.76E1,3.4E0,8.842105E0,1.2816326E1,2.3287878E1,1.8E1,1.4E1,2.1E1,1.2816326E1,1.0072917E1,1.49E1,2.11E1,2.9438356E1,3.8333333E0,1.3333334E0,2.5E1,1E1,2.05E2,2.8E1,2.7E1,2.52E2,2.84E1,5E0,2.8E1,1.6073864E1,1.1339532E2,1.094E2,7E0,1.1098742E2,9.9E1,1.8E0,8.625E0,1.174E2,1.3E1,7.9076924E0,7.6666665E0,1.2E1,7.4E0,2.18E1,1.074E2,1.16E1,7.2E0,6.6E0,6.228965E0,4.3333335E0,1.073E2,1.166E2,1.3E1,1.155625E2,1.94E1,2.0551723E1,1.0758079E2,2.34E1,7E0,1.065E2,3.4E1,1.6E1,2.48E1,4.3E1,8E0,5.4E1,-2.0917968E-1,-2.3743482E-1,-2.0545779E-1,-1.8462925E-1,-2.150433E-1,1.7874637E-1,-1.3410763E-1,-1.7158233E-1,-1.6414995E-1,1.01996355E-1,-1.911735E-1,-1.5109316E-1,-1.2492106E-1,-8.023687E-2,-2.2835277E-1,-1.5530673E-1,-1.2946783E-1,-9.57304E-2,-9.0933956E-2,8.404501E-2,-1.2710992E-1,-6.835606E-2,-3.6163665E-2,5.8741808E-2,-8.466401E-2,-3.2217648E-2,9.910565E-2,-1.3019562E-3,3.0982113E-2,7.802272E-2,9.849334E-2,-1.4193244E-1,-6.802118E-2,-5.7082656E-3,5.7999133E-3,6.414037E-2,4.0239003E-2,9.866338E-2,-7.651746E-2,5.078082E-2,-3.442638E-2,6.152773E-2,1.0523095E-1,2.743919E-1,-1.4623609E-1,1.15456104E-1,-9.772825E-3,1.8830779E-1,-9.007788E-3,1.9459157E-1,1.3482857E-2,2.2567537E-1,2.7122074E-1,2.2210434E-1,3.0340168E-1,1.3216805E-1,3.699378E-1,4.3392134E-1,2.862091E-1,-1.2155237E-1,4.7219107E-1,-1.8693323E-1,5.7219106E-1,6.221911E-1],"split_indices":[2,2,2,1,12,12,12,9,9,9,12,12,2,2,12,12,2,21,15,16,9,9,16,7,15,9,12,20,18,15,17,21,1,12,19,5,12,12,5,2,7,18,1,1,1,13,1,19,18,2,17,7,12,20,7,4,19,7,15,2,4,15,5,0,0,0,0,0,0,0,0,0,0,0,0,0,0,0,0,0,0,0,0,0,0,0,0,0,0,0,0,0,0,0,0,0,0,0,0,0,0,0,0,0,0,0,0,0,0,0,0,0,0,0,0,0,0,0,0,0,0,0,0,0,0,0,0],"split_type":[0,0,0,0,0,0,0,0,0,0,0,0,0,0,0,0,0,0,0,0,0,0,0,0,0,0,0,0,0,0,0,0,0,0,0,0,0,0,0,0,0,0,0,0,0,0,0,0,0,0,0,0,0,0,0,0,0,0,0,0,0,0,0,0,0,0,0,0,0,0,0,0,0,0,0,0,0,0,0,0,0,0,0,0,0,0,0,0,0,0,0,0,0,0,0,0,0,0,0,0,0,0,0,0,