{"learner":{"attributes":{"best_iteration":"157","best_score":"0.6538201775081824","scikit_learn":"{\"_estimator_type\": \"regressor\"}"},"feature_names":["PTS_ROLL_3","PTS_ROLL_5","PTS_ROLL_10","PTS_LAG_1","PTS_LAG_2","PTS_LAG_3","MIN_ROLL_3","MIN_ROLL_5","MIN_ROLL_10","MIN_LAG_1","MIN_LAG_2","MIN_LAG_3","PTS_SEASON_AVG","PTS_STD_5","IS_HOME","DAYS_REST","GAME_NUM","OPP_DEF_AVG","OPP_DEF_ROLL_5","OPP_DEF_ROLL_10","OPP_DEF_REG","OPP_GAMES_PLAYED"],"feature_types":["float","float","float","float","float","float","float","float","float","float","float","float","float","float","int","float","int","float","float","float","float","int"],"gradient_booster":{"model":{"cats":{"enc":[],"feature_segments":[],"sorted_idx":[]},"gbtree_model_param":{"num_parallel_tree":"1","num_trees":"188"},"iteration_indptr":[0,1,2,3,4,5,6,7,8,9,10,11,12,13,14,15,16,17,18,19,20,21,22,23,24,25,26,27,28,29,30,31,32,33,34,35,36,37,38,39,40,41,42,43,44,45,46,47,48,49,50,51,52,53,54,55,56,57,58,59,60,61,62,63,64,65,66,67,68,69,70,71,72,73,74,75,76,77,78,79,80,81,82,83,84,85,86,87,88,89,90,91,92,93,94,95,96,97,98,99,100,101,102,103,104,105,106,107,108,109,110,111,112,113,114,115,116,117,118,119,120,121,122,123,124,125,126,127,128,129,130,131,132,133,134,135,136,137,138,139,140,141,142,143,144,145,146,147,148,149,150,151,152,153,154,155,156,157,158,159,160,161,162,163,164,165,166,167,168,169,170,171,172,173,174,175,176,177,178,179,180,181,182,183,184,185,186,187,188],"tree_info":[0,0,0,0,0,0,0,0,0,0,0,0,0,0,0,0,0,0,0,0,0,0,0,0,0,0,0,0,0,0,0,0,0,0,0,0,0,0,0,0,0,0,0,0,0,0,0,0,0,0,0,0,0,0,0,0,0,0,0,0,0,0,0,0,0,0,0,0,0,0,0,0,0,0,0,0,0,0,0,0,0,0,0,0,0,0,0,0,0,0,0,0,0,0,0,0,0,0,0,0,0,0,0,0,0,0,0,0,0,0,0,0,0,0,0,0,0,0,0,0,0,0,0,0,0,0,0,0,0,0,0,0,0,0,0,0,0,0,0,0,0,0,0,0,0,0,0,0,0,0,0,0,0,0,0,0,0,0,0,0,0,0,0,0,0,0,0,0,0,0,0,0,0,0,0,0,0,0,0,0,0,0,0,0,0,0,0,0],"trees":[{"base_weights":[-6.2296655E-2,-3.0218384E-1,3.541188E-2,-4.2588913E-1,-1.9672868E-1,-3.729632E-2,7.829217E-2,-5.0537074E-1,-3.2297525E-1,-3.0282304E-1,-1.5887439E-1,-1.3756269E-1,-1.0648471E-2,5.2116666E-2,8.934158E-2,-6.073191E-1,-4.7024816E-1,-4.0994218E-1,-2.9491085E-1,-3.8730767E-1,-2.6468894E-1,-2.0259856E-1,-1.19341776E-1,-1.8593931E-1,-8.800715E-2,-5.1895387E-2,9.375731E-3,-1.672297E-2,5.751825E-2,7.967678E-2,9.4849825E-2,-6.206426E-1,-5.114094E-1,-4.9024475E-1,-3.6837456E-1,-5.043478E-1,-3.7966615E-1,-3.288331E-1,-2.5365052E-1,-2.4380952E-1,-4.0902364E-1,-3.0981818E-1,-2.2357455E-1,-1.8118492E-1,-3.0797872E-1,-1.3532773E-1,-5.4297403E-2,-3.5099337E-1,-1.698849E-1,-1.3703148E-1,-5.5544548E-2,-8.903924E-2,-9.682373E-3,-1.0999012E-2,2.7680745E-2,-1.18965514E-1,2.577566E-2,2.9763667E-2,6.358784E-2,-2.4999999E-1,7.994848E-2,9.493103E-2,-2.2499999E-2,-3.163587E-2,-2.5601853E-2,-5.4999995E-3,-2.6821429E-2,-2.7959442E-2,-2.318774E-2,-2.2488263E-2,-1.591808E-2,-2.6497463E-2,1.6933138E-10,-2.4514925E-2,-1.7538022E-2,-1.806489E-2,-1.41258165E-2,-1.6592262E-2,-1.1182127E-2,-8.958333E-3,-1.8676471E-2,-1.8079545E-2,-2.4767933E-2,-1.5165441E-2,-4.05E-2,-1.2839623E-2,-8.851174E-3,-1.0704509E-2,-7.7299224E-3,-2.9655172E-2,-1.4598881E-2,-1.0380067E-2,-5.866191E-3,-2.230878E-3,-1.4821428E-2,-1.3903508E-2,-2.8026316E-2,-8.278424E-3,-2.7647058E-2,-3.75E-2,-6.5634437E-3,-2.062363E-3,-9.484536E-3,-4.118747E-3,-1.3417721E-2,-2.767622E-4,-1.0921053E-2,-2.0208335E-2,-4.3306095E-4,1.4037612E-3,-2.125E-2,-1.4920634E-2,-8.482141E-4,1.502404E-3,-2.125E-2,1.7003746E-3,-1.275E-2,-2.125E-2,3.194692E-3,-3E-2,3.7500001E-3,3.0248503E-3,4.19172E-3,3.5E-3,4.763698E-3],"categories":[],"categories_nodes":[],"categories_segments":[],"categories_sizes":[],"default_left":[0,0,0,0,0,0,0,0,0,0,0,0,0,0,0,0,0,0,0,0,0,0,0,0,0,0,0,0,0,0,0,0,0,0,0,0,0,0,0,0,0,0,0,0,0,0,0,0,0,0,0,0,0,0,0,0,0,0,0,0,0,0,0,0,0,0,0,0,0,0,0,0,0,0,0,0,0,0,0,0,0,0,0,0,0,0,0,0,0,0,0,0,0,0,0,0,0,0,0,0,0,0,0,0,0,0,0,0,0,0,0,0,0,0,0,0,0,0,0,0,0,0,0,0,0],"id":0,"left_children":[1,3,5,7,9,11,13,15,17,19,21,23,25,27,29,31,33,35,37,39,41,43,45,47,49,51,53,55,57,59,61,63,65,67,69,71,73,75,77,79,81,83,85,87,89,91,93,95,97,99,101,103,105,107,109,111,113,115,117,119,121,123,-1,-1,-1,-1,-1,-1,-1,-1,-1,-1,-1,-1,-1,-1,-1,-1,-1,-1,-1,-1,-1,-1,-1,-1,-1,-1,-1,-1,-1,-1,-1,-1,-1,-1,-1,-1,-1,-1,-1,-1,-1,-1,-1,-1,-1,-1,-1,-1,-1,-1,-1,-1,-1,-1,-1,-1,-1,-1,-1,-1,-1,-1,-1],"loss_changes":[1.4351354E3,2.3109302E2,1.356499E2,6.653467E1,3.8378174E1,4.3125404E1,7.9108124E0,1.6181885E1,8.5581665E0,8.000198E0,1.2168884E1,8.108185E0,1.0533656E1,3.0225601E0,1.016861E0,1.184082E0,6.79657E0,2.2808685E0,3.6844482E0,2.3309097E0,3.1518097E0,7.499222E0,3.8471794E0,4.4822083E0,2.6596708E0,6.5343685E0,3.2025387E0,2.5754056E0,1.2674446E0,6.462898E-1,5.848007E-1,1.0228271E0,1.4373894E0,4.963928E0,2.1607666E0,2.672783E0,1.9354324E0,2.1143188E0,2.7861252E0,8.135505E-1,2.58918E0,2.4404068E0,1.3647957E0,2.4033203E0,2.3999748E0,3.846733E0,1.7047734E0,2.1513863E0,2.4944305E0,2.2575884E0,1.929282E0,2.6272316E0,1.6885713E0,3.7319033E0,8.1961656E-1,3.1798048E0,8.1972384E-1,1.6449646E0,9.514065E-1,7.2749996E-1,5.230522E-1,9.806824E-2,0E0,0E0,0E0,0E0,0E0,0E0,0E0,0E0,0E0,0E0,0E0,0E0,0E0,0E0,0E0,0E0,0E0,0E0,0E0,0E0,0E0,0E0,0E0,0E0,0E0,0E0,0E0,0E0,0E0,0E0,0E0,0E0,0E0,0E0,0E0,0E0,0E0,0E0,0E0,0E0,0E0,0E0,0E0,0E0,0E0,0E0,0E0,0E0,0E0,0E0,0E0,0E0,0E0,0E0,0E0,0E0,0E0,0E0,0E0,0E0,0E0,0E0,0E0],"parents":[2147483647,0,0,1,1,2,2,3,3,4,4,5,5,6,6,7,7,8,8,9,9,10,10,11,11,12,12,13,13,14,14,15,15,16,16,17,17,18,18,19,19,20,20,21,21,22,22,23,23,24,24,25,25,26,26,27,27,28,28,29,29,30,30,31,31,32,32,33,33,34,34,35,35,36,36,37,37,38,38,39,39,40,40,41,41,42,42,43,43,44,44,45,45,46,46,47,47,48,48,49,49,50,50,51,51,52,52,53,53,54,54,55,55,56,56,57,57,58,58,59,59,60,60,61,61],"right_children":[2,4,6,8,10,12,14,16,18,20,22,24,26,28,30,32,34,36,38,40,42,44,46,48,50,52,54,56,58,60,62,64,66,68,70,72,74,76,78,80,82,84,86,88,90,92,94,96,98,100,102,104,106,108,110,112,114,116,118,120,122,124,-1,-1,-1,-1,-1,-1,-1,-1,-1,-1,-1,-1,-1,-1,-1,-1,-1,-1,-1,-1,-1,-1,-1,-1,-1,-1,-1,-1,-1,-1,-1,-1,-1,-1,-1,-1,-1,-1,-1,-1,-1,-1,-1,-1,-1,-1,-1,-1,-1,-1,-1,-1,-1,-1,-1,-1,-1,-1,-1,-1,-1,-1,-1],"split_conditions":[6.7E0,1.3E1,1.12E1,3.7E0,3.9E0,1.7E1,1.42E1,1.6E0,5E0,2.6E0,1.76E1,8.08421E0,7.8536587E0,1.8E1,1.6985714E1,4.8421054E0,5.985507E0,4.103896E0,5.1E0,1.083E2,1.4E1,4E0,8.333333E0,1.14E1,1.3E1,8.4E0,2.46E1,9.613793E0,9.493902E0,8.6E0,3.2E2,8.2E0,3.1E0,5.6E0,1E0,6.6E0,2.6E0,4.3333335E0,1.104E2,3.6666667E0,3E0,2.03E2,3.2710855E0,1.7E1,3.652174E0,4.904762E0,1.2E1,1.65E1,2.01E2,9.78E1,5E0,9E0,6.9E1,9.78E1,1.923913E1,7.7E1,2.9E1,1.94E2,1.48E1,1.44E1,2.72E1,2.5E1,0E0,-1E-1,-1E-1,-1E-1,-1E-1,-1E-1,-1E-1,-1E-1,-1E-1,-1E-1,-8.5E-2,-1E-1,-1E-1,-1E-1,-1E-1,-1E-1,-1E-1,-1E-1,-1E-1,-1E-1,-1E-1,-1E-1,-1E-1,-1E-1,-1E-1,-1E-1,-1E-1,-1E-1,-1E-1,-1E-1,-1E-1,0E0,-1E-1,-1E-1,-1E-1,-1E-1,-1E-1,-1E-1,-1E-1,0E0,-1E-1,0E0,-1E-1,0E0,-1E-1,-1E-1,0E0,5E-2,-1E-1,-1E-1,0E0,5E-2,-1E-1,5E-2,-1E-1,-1E-1,1.5E-1,-1E-1,5E-2,1.5E-1,2.5E-1,2E-1,5E-1],"split_indices":[2,9,2,2,2,9,2,2,9,2,7,12,12,9,12,12,12,12,2,19,7,15,0,7,9,2,7,12,12,1,15,8,8,7,5,1,1,1,18,0,15,15,13,9,12,12,15,8,15,18,15,15,15,18,12,16,4,15,7,2,7,7,0,0,0,0,0,0,0,0,0,0,0,0,0,0,0,0,0,0,0,0,0,0,0,0,0,0,0,0,0,0,0,0,0,0,0,0,0,0,0,0,0,0,0,0,0,0,0,0,0,0,0,0,0,0,0,0,0,0,0,0,0,0,0],"split_type":[0,0,0,0,0,0,0,0,0,0,0,0,0,0,0,0,0,0,0,0,0,0,0,0,0,0,0,0,0,0,0,0,0,0,0,0,0,0,0,0,0,0,0,0,0,0,0,0,0,0,0,0,0,0,0,0,0,0,0,0,0,0,0,0,0,0,0,0,0,0,0,0,0,0,0,0,0,0,0,0,0,0,0,0,0,0,0,0,0,0,0,0,0,0,0,0,0,0,0,0,0,0,0,0,0,0,0,0,0,0,0,0,0,0,0,0,0,0,0,0,0,0,0,0,0],"sum_hessian":[6.1227E4,1.772E4,4.3507E4,8.153E3,9.567E3,1.614E4,2.7367E4,4.598E3,3.555E3,2.514E3,7.053E3,3.388E3,1.2752E4,8.125E3,1.9242E4,1.174E3,3.424E3,8.64E2,2.691E3,7.79E2,1.735E3,3.347E3,3.706E3,1.713E3,1.675E3,4.167E3,8.585E3,5.91E2,7.534E3,6.991E3,1.2251E4,1.026E3,1.48E2,2.859E3,5.65E2,2.06E2,6.58E2,1.473E3,1.218E3,1.04E2,6.75E2,8.24E2,9.11E2,2.784E3,5.63E2,2.974E3,7.32E2,1.5E2,1.563E3,6.66E2,1.009E3,2.216E3,1.951E3,4.063E3,4.522E3,1.73E2,4.18E2,1.353E3,6.181E3,5E0,6.986E3,1.225E4,1E0,9.19E2,1.07E2,9E0,1.39E2,7.88E2,2.071E3,2.12E2,3.53E2,1.96E2,1E1,1.33E2,5.25E2,8.62E2,6.11E2,3.35E2,8.83E2,7.1E1,3.3E1,4.39E2,2.36E2,8.15E2,9E0,5.29E2,3.82E2,1.241E3,1.543E3,2.8E1,5.35E2,5.91E2,2.383E3,7.05E2,2.7E1,1.13E2,3.7E1,1.547E3,1.6E1,5E0,6.61E2,9.13E2,9.6E1,2.138E3,7.8E1,1.914E3,3.7E1,2.3E1,4.04E3,4.519E3,3E0,6.2E1,1.11E2,4.15E2,3E0,1.334E3,1.9E1,3E0,6.178E3,2E0,3E0,1.166E3,5.82E3,1.69E2,1.2081E4],"tree_param":{"num_deleted":"0","num_feature":"22","num_nodes":"125","size_leaf_vector":"1"}},{"base_weights":[-1.80457E-2,-1.9918624E-1,3.652002E-2,-3.260768E-1,-1.356794E-1,-3.5412326E-2,7.158756E-2,-3.8239187E-1,-2.7381536E-1,-1.92639E-1,-9.661896E-2,-6.0734797E-2,-5.269901E-3,3.9850112E-2,8.812946E-2,-4.3230125E-1,-3.2639924E-1,-2.602827E-1,-3.8867188E-1,-2.4990475E-1,-1.5259193E-1,-9.16438E-2,-3.1885245E-1,-1.5462345E-1,-4.7249585E-2,-2.1913506E-2,2.3759285E-2,1.8216595E-2,5.350136E-2,7.7752545E-2,9.514069E-2,-4.7377276E-1,-3.7018633E-1,-2.754159E-1,-3.7763157E-1,-2.9372746E-1,-2.024783E-1,-4.747826E-1,-3.161972E-1,-2.8957894E-1,-1.8929711E-1,-1.6936325E-1,-5.818713E-2,-1.4528795E-1,-7.740518E-2,-3.5221237E-1,4.5000003E-3,-2.7490637E-1,-1.1340996E-1,-4.436688E-2,-1.8835616E-1,-1.9503865E-2,-1.7285714E-1,3.6567587E-2,-5.6628017E-3,-3.9852936E-2,2.9480597E-2,4.6481483E-2,7.2778724E-2,2.1851854E-2,7.960722E-2,9.5221154E-2,-2.2499999E-2,-1.5492424E-2,-2.5506873E-2,-1.5567484E-2,-2.4462026E-2,-1.21375E-2,-1.8274648E-2,-2.1165311E-2,-1.3628048E-2,-2.0896552E-2,-1.395012E-2,-9.302486E-3,-1.7083334E-2,-2.523585E-2,-5.4999995E-3,-1.7906977E-2,4.6428572E-3,-1.198364E-2,-1.7088745E-2,-8.31132E-3,-1.5670104E-2,-1.1094092E-2,-7.640411E-3,-2.536873E-3,-3.3749998E-2,-5.91557E-3,-1.2468085E-2,-5.455439E-3,-3.0046443E-3,-2.9807692E-2,-1.3806819E-2,-2.0689655E-3,-1.5104602E-2,-6.556671E-3,1.494253E-3,-3.3090021E-3,-1.4858873E-3,-3.2916665E-2,-7.2592585E-3,-2.3384613E-3,-5.8625714E-4,-3.142857E-2,-6.015625E-3,-2.2077921E-3,2.0093734E-3,-2.3985237E-3,8.481264E-4,-1.2403846E-2,-1.1287756E-3,-2.169312E-3,1.6812427E-3,2.3500312E-3,-1.05E-2,-2.2499999E-2,3.666478E-3,-3.970588E-3,1.8143462E-3,3.2633336E-3,4.1427924E-3,3.0970152E-3,4.778895E-3],"categories":[],"categories_nodes":[],"categories_segments":[],"categories_sizes":[],"default_left":[0,0,0,0,0,0,0,0,0,0,0,0,0,0,0,0,0,0,0,0,0,0,0,0,0,0,0,0,0,0,0,0,0,0,0,0,0,0,0,0,0,0,0,0,0,0,0,0,0,0,0,0,0,0,0,0,0,0,0,0,0,0,0,0,0,0,0,0,0,0,0,0,0,0,0,0,0,0,0,0,0,0,0,0,0,0,0,0,0,0,0,0,0,0,0,0,0,0,0,0,0,0,0,0,0,0,0,0,0,0,0,0,0,0,0,0,0,0,0,0,0,0,0],"id":1,"left_children":[1,3,5,7,9,11,13,15,17,19,21,23,25,27,29,31,33,35,37,39,41,43,45,47,49,51,53,55,57,59,61,63,65,67,69,71,73,75,77,79,81,83,85,87,89,91,-1,93,95,97,99,101,103,105,107,109,111,113,115,117,119,121,-1,-1,-1,-1,-1,-1,-1,-1,-1,-1,-1,-1,-1,-1,-1,-1,-1,-1,-1,-1,-1,-1,-1,-1,-1,-1,-1,-1,-1,-1,-1,-1,-1,-1,-1,-1,-1,-1,-1,-1,-1,-1,-1,-1,-1,-1,-1,-1,-1,-1,-1,-1,-1,-1,-1,-1,-1,-1,-1,-1,-1],"loss_changes":[6.0337994E2,1.1383728E2,1.1834265E2,1.3766174E1,2.0939636E1,1.1735884E1,1.6554382E1,6.1913757E0,3.7037964E0,8.747589E0,6.1513405E0,1.0572296E1,3.392719E0,3.190895E0,1.500946E0,2.9029388E0,2.6960526E0,4.1801453E0,1.4475327E0,3.7323685E0,3.5636406E0,4.1660805E0,1.695693E0,5.1690063E0,2.9643078E0,1.6199114E0,9.645585E-1,2.7372556E0,8.932781E-1,8.655243E-1,5.8538055E-1,4.092163E0,3.2309647E0,1.5031433E0,2.4377213E0,2.420082E0,1.7817764E0,1.2002296E0,2.4695072E0,2.3927383E0,1.7402611E0,1.6319542E0,1.5372602E0,3.1879501E0,2.366722E0,1.9324446E0,0E0,1.6825752E0,1.9924917E0,2.2869253E0,2.8666687E0,9.313736E-1,1.600549E0,5.227833E-1,7.4457765E-1,2.44075E0,1.0595925E0,6.569748E-1,5.418329E-1,3.9755338E-1,3.7176132E-1,1.4091492E-1,0E0,0E0,0E0,0E0,0E0,0E0,0E0,0E0,0E0,0E0,0E0,0E0,0E0,0E0,0E0,0E0,0E0,0E0,0E0,0E0,0E0,0E0,0E0,0E0,0E0,0E0,0E0,0E0,0E0,0E0,0E0,0E0,0E0,0E0,0E0,0E0,0E0,0E0,0E0,0E0,0E0,0E0,0E0,0E0,0E0,0E0,0E0,0E0,0E0,0E0,0E0,0E0,0E0,0E0,0E0,0E0,0E0,0E0,0E0,0E0,0E0],"parents":[2147483647,0,0,1,1,2,2,3,3,4,4,5,5,6,6,7,7,8,8,9,9,10,10,11,11,12,12,13,13,14,14,15,15,16,16,17,17,18,18,19,19,20,20,21,21,22,22,23,23,24,24,25,25,26,26,27,27,28,28,29,29,30,30,31,31,32,32,33,33,34,34,35,35,36,36,37,37,38,38,39,39,40,40,41,41,42,42,43,43,44,44,45,45,47,47,48,48,49,49,50,50,51,51,52,52,53,53,54,54,55,55,56,56,57,57,58,58,59,59,60,60,61,61],"right_children":[2,4,6,8,10,12,14,16,18,20,22,24,26,28,30,32,34,36,38,40,42,44,46,48,50,52,54,56,58,60,62,64,66,68,70,72,74,76,78,80,82,84,86,88,90,92,-1,94,96,98,100,102,104,106,108,110,112,114,116,118,120,122,-1,-1,-1,-1,-1,-1,-1,-1,-1,-1,-1,-1,-1,-1,-1,-1,-1,-1,-1,-1,-1,-1,-1,-1,-1,-1,-1,-1,-1,-1,-1,-1,-1,-1,-1,-1,-1,-1,-1,-1,-1,-1,-1,-1,-1,-1,-1,-1,-1,-1,-1,-1,-1,-1,-1,-1,-1,-1,-1,-1,-1],"split_conditions":[1.64E1,9.4E0,9.9E0,3.652174E0,4E0,7.8536587E0,1.36E1,1.6666666E0,1E1,1E1,3.4E1,1.4E1,2.5E1,1.0365853E1,1.6985714E1,2.4096386E0,9.4E1,3.8E0,1.134958E2,5.660606E0,5.6666665E0,4.59375E0,1.84E1,4.9E0,1.9E1,5.7E1,3E0,6E0,3.2E1,9.333333E0,3.2E2,2.3E1,8.7E0,6E0,2.02E2,1.3333334E0,7E0,1.63E2,4.3333335E0,3E0,5.6302752E0,2.6E0,2.7E1,4E0,5E0,9.1E1,1.05E-1,1.1039387E2,1.74E2,6.3333335E0,2.6E1,4E0,3.3E1,1.024E2,8.958333E0,4E0,1.9E1,3.62E1,3E0,9.613793E0,2.72E1,2.44E1,0E0,-9.5E-2,-9.5E-2,-9.5E-2,-9.5E-2,-9.5E-2,-9.5E-2,-9.5E-2,-9.5E-2,-9.5E-2,-9.5E-2,-9.5E-2,-9.5E-2,-9.5E-2,-9.5E-2,-9.5E-2,5.0000013E-3,-9.5E-2,-9.5E-2,-9.5E-2,-9.5E-2,-9.5E-2,-9.5E-2,-9.5E-2,-1E-1,-9.5E-2,-9.5E-2,-9.5E-2,-9.5E-2,-9.5E-2,-9.5E-2,-9.5E-2,-9.5E-2,-9.5E-2,5.0000013E-3,-9.5E-2,0E0,-9.5E-2,-9.5E-2,-9.5E-2,0E0,-1E-1,-1E-1,-2.4999976E-3,4.7500003E-2,-2.4999976E-3,4.7500003E-2,-1E-1,-2.4999976E-3,-2.4999908E-4,5E-2,9.7500004E-2,-1.0750001E-1,-2.4999976E-3,1.4550002E-1,-9.5E-2,9.1E-2,1.425E-1,2.375E-1,1.4E-1,4.25E-1],"split_indices":[7,7,2,12,0,12,2,0,15,9,15,9,7,12,12,12,21,2,17,12,2,12,8,2,15,15,15,3,9,0,15,21,8,15,21,2,15,16,0,15,13,2,9,15,3,15,0,20,16,0,15,3,16,18,12,5,7,7,0,12,7,7,0,0,0,0,0,0,0,0,0,0,0,0,0,0,0,0,0,0,0,0,0,0,0,0,0,0,0,0,0,0,0,0,0,0,0,0,0,0,0,0,0,0,0,0,0,0,0,0,0,0,0,0,0,0,0,0,0,0,0,0,0],"split_type":[0,0,0,0,0,0,0,0,0,0,0,0,0,0,0,0,0,0,0,0,0,0,0,0,0,0,0,0,0,0,0,0,0,0,0,0,0,0,0,0,0,0,0,0,0,0,0,0,0,0,0,0,0,0,0,0,0,0,0,0,0,0,0,0,0,0,0,0,0,0,0,0,0,0,0,0,0,0,0,0,0,0,0,0,0,0,0,0,0,0,0,0,0,0,0,0,0,0,0,0,0,0,0,0,0,0,0,0,0,0,0,0,0,0,0,0,0,0,0,0,0,0,0],"sum_hessian":[6.1044E4,1.4131E4,4.6913E4,4.712E3,9.419E3,1.5375E4,3.1538E4,2.265E3,2.447E3,3.83E3,5.589E3,8.355E3,7.02E3,1.0807E4,2.0731E4,1.194E3,1.071E3,2.192E3,2.55E2,1.574E3,2.256E3,5.468E3,1.21E2,1.048E3,7.307E3,4.462E3,2.558E3,4.182E3,6.625E3,8.364E3,1.2367E4,7.12E2,4.82E2,5.4E2,5.31E2,1.386E3,8.06E2,1.14E2,1.41E2,9.49E2,6.25E2,1.915E3,3.41E2,1.145E3,4.323E3,1.12E2,9E0,2.66E2,7.82E2,7.162E3,1.45E2,4.393E3,6.9E1,1.782E3,7.76E2,6.79E2,3.503E3,4.859E3,1.766E3,2.69E2,8.095E3,1.2366E4,1E0,1.31E2,5.81E2,3.25E2,1.57E2,3.99E2,1.41E2,3.68E2,1.63E2,1.44E2,1.242E3,7.23E2,8.3E1,1.05E2,9E0,1.28E2,1.3E1,4.88E2,4.61E2,5.29E2,9.6E1,4.56E2,1.459E3,3.38E2,3E0,9.11E2,2.34E2,1.525E3,2.798E3,2.5E1,8.7E1,2.8E1,2.38E2,6.96E2,8.6E1,2.876E3,4.286E3,1.1E1,1.34E2,9.74E2,3.419E3,6E0,6.3E1,7.6E1,1.706E3,2.7E2,5.06E2,5.1E1,6.28E2,1.88E2,3.315E3,4.85E3,9E0,1E0,1.765E3,3.3E1,2.36E2,1.499E3,6.596E3,1.33E2,1.2233E4],"tree_param":{"num_deleted":"0","num_feature":"22","num_nodes":"123","size_leaf_vector":"1"}},{"base_weights":[-1.5661681E-2,-1.9729477E-1,3.8120367E-2,-3.2144028E-1,-1.3078022E-1,-1.7937692E-2,7.854981E-2,-4.0453961E-1,-2.8208998E-1,-2.086267E-1,-8.949226E-2,-1.3133386E-1,-1.0173975E-2,5.3137053E-2,9.007901E-2,-4.1899517E-1,-2.1339285E-1,-3.0448964E-1,-1.990085E-1,-2.363939E-1,-1.5294676E-1,-1.4667451E-1,-6.661176E-2,-2.2394821E-1,-1.01355575E-1,-3.4113996E-2,1.4271678E-2,-3.440233E-2,5.6784716E-2,8.105694E-2,9.493309E-2,-4.7408694E-1,-3.8248008E-1,-1.8396226E-1,-6.285714E-1,-2.5224012E-1,-3.4339368E-1,-2.1958266E-1,-4.4047613E-2,-2.8760684E-1,-2.1056387E-1,-1.4548981E-1,-4.9545452E-1,-1.3993958E-1,-3.911111E-1,-5.7727624E-2,-1.4340909E-1,-2.9834253E-1,-1.1782945E-1,-1.4510204E-1,-5.553191E-2,-4.7596645E-2,1.8830951E-3,4.129847E-3,3.248855E-2,-3.6E-2,-2.4188787E-2,3.1653322E-2,6.552912E-2,5.622271E-2,8.504131E-2,9.501428E-2,-2.2499999E-2,-1.707627E-2,-2.5360262E-2,-1.625866E-2,-2.1856822E-2,-3.3749998E-2,-8.155339E-3,-3.75E-2,2.5000002E-3,-1.0707851E-2,-1.6926471E-2,-2.1436403E-2,-1.5275096E-2,-7.898305E-3,-1.3708206E-2,-2.0833334E-2,-7.594935E-4,-5.405404E-4,-1.5127628E-2,-1.9135801E-2,-9.99243E-3,-9.826388E-3,-5.425E-3,-3.138889E-2,4E-3,-9.958763E-3,-5.7643037E-3,-7.8125E-3,-2.5166666E-2,-3.5037107E-3,-7.252357E-4,-1.925926E-2,-6.364734E-3,-1.7181208E-2,-4.242424E-3,-2.1578947E-2,-3.1531528E-3,-9.397994E-3,-3.8802081E-3,-2.4461204E-3,-2.4285713E-2,-1.8593749E-2,-2.3028646E-3,1.5741853E-4,-1.7777776E-2,-2.05E-2,2.417023E-4,2.0662737E-3,-1.611675E-3,-2.4509785E-4,-9.852941E-3,-1.4722222E-2,1.7212726E-3,2.958429E-3,3.8482759E-3,3.0303032E-3,-4.807692E-3,4.29236E-3,1.9801983E-3,4.75846E-3,2.272729E-4],"categories":[],"categories_nodes":[],"categories_segments":[],"categories_sizes":[],"default_left":[0,0,0,0,0,0,0,0,0,0,0,0,0,0,0,0,0,0,0,0,0,0,0,0,0,0,0,0,0,0,0,0,0,0,0,0,0,0,0,0,0,0,0,0,0,0,0,0,0,0,0,0,0,0,0,0,0,0,0,0,0,0,0,0,0,0,0,0,0,0,0,0,0,0,0,0,0,0,0,0,0,0,0,0,0,0,0,0,0,0,0,0,0,0,0,0,0,0,0,0,0,0,0,0,0,0,0,0,0,0,0,0,0,0,0,0,0,0,0,0,0,0,0],"id":2,"left_children":[1,3,5,7,9,11,13,15,17,19,21,23,25,27,29,31,33,35,37,39,41,43,45,47,49,51,53,55,57,59,61,63,65,67,69,71,73,75,77,79,81,83,85,87,89,91,93,95,97,99,101,103,105,107,109,-1,111,113,115,117,119,121,-1,-1,-1,-1,-1,-1,-1,-1,-1,-1,-1,-1,-1,-1,-1,-1,-1,-1,-1,-1,-1,-1,-1,-1,-1,-1,-1,-1,-1,-1,-1,-1,-1,-1,-1,-1,-1,-1,-1,-1,-1,-1,-1,-1,-1,-1,-1,-1,-1,-1,-1,-1,-1,-1,-1,-1,-1,-1,-1,-1,-1],"loss_changes":[5.974746E2,1.1533978E2,1.0695262E2,1.58237915E1,2.9229843E1,1.7407211E1,8.028076E0,4.2321167E0,6.1011353E0,4.838623E0,7.7723465E0,3.4950237E0,1.0831913E1,2.7349644E0,8.182068E-1,2.7416534E0,1.2528887E0,5.2106323E0,2.24119E0,2.7200317E0,2.6147919E0,2.7422752E0,2.8914013E0,2.4042892E0,1.9143753E0,4.5384684E0,1.6918287E0,2.3844004E0,1.803688E0,6.4868164E-1,5.8496857E-1,2.3511505E0,2.6110382E0,9.754298E-1,6.142857E-1,3.594864E0,4.6901245E0,2.051918E0,8.969183E-1,2.9008446E0,2.5078812E0,1.9250851E0,1.7254348E0,2.3939438E0,1.1074033E0,2.0327473E0,1.6652431E0,1.7206364E0,2.1893811E0,1.4028902E0,1.3125845E0,3.378789E0,1.1539259E0,1.7179316E0,1.8744469E0,0E0,1.1292989E0,1.9292977E0,4.3880844E-1,6.1764264E-1,2.0491791E-1,1.7133331E-1,0E0,0E0,0E0,0E0,0E0,0E0,0E0,0E0,0E0,0E0,0E0,0E0,0E0,0E0,0E0,0E0,0E0,0E0,0E0,0E0,0E0,0E0,0E0,0E0,0E0,0E0,0E0,0E0,0E0,0E0,0E0,0E0,0E0,0E0,0E0,0E0,0E0,0E0,0E0,0E0,0E0,0E0,0E0,0E0,0E0,0E0,0E0,0E0,0E0,0E0,0E0,0E0,0E0,0E0,0E0,0E0,0E0,0E0,0E0,0E0,0E0],"parents":[2147483647,0,0,1,1,2,2,3,3,4,4,5,5,6,6,7,7,8,8,9,9,10,10,11,11,12,12,13,13,14,14,15,15,16,16,17,17,18,18,19,19,20,20,21,21,22,22,23,23,24,24,25,25,26,26,27,27,28,28,29,29,30,30,31,31,32,32,33,33,34,34,35,35,36,36,37,37,38,38,39,39,40,40,41,41,42,42,43,43,44,44,45,45,46,46,47,47,48,48,49,49,50,50,51,51,52,52,53,53,54,54,56,56,57,57,58,58,59,59,60,60,61,61],"right_children":[2,4,6,8,10,12,14,16,18,20,22,24,26,28,30,32,34,36,38,40,42,44,46,48,50,52,54,56,58,60,62,64,66,68,70,72,74,76,78,80,82,84,86,88,90,92,94,96,98,100,102,104,106,108,110,-1,112,114,116,118,120,122,-1,-1,-1,-1,-1,-1,-1,-1,-1,-1,-1,-1,-1,-1,-1,-1,-1,-1,-1,-1,-1,-1,-1,-1,-1,-1,-1,-1,-1,-1,-1,-1,-1,-1,-1,-1,-1,-1,-1,-1,-1,-1,-1,-1,-1,-1,-1,-1,-1,-1,-1,-1,-1,-1,-1,-1,-1,-1,-1,-1,-1],"split_conditions":[5.7E0,9.8E0,1.12E1,1.4E0,1.3E1,1E1,1.44E1,1.3E1,5.75E0,4.3333335E0,3.7E0,5.75E0,8.5E0,1.96E1,1.6985714E1,2.2368422E0,3.9E1,9.9E1,5.1E0,4.103896E0,3.1E1,1.7E1,5E0,7E0,5.3333335E0,8.666667E0,2.8E1,5.2E0,1.0365853E1,1E1,3.51E2,2.3E1,1E0,5E0,2.3E0,5E0,5.6E0,3E0,4.8E0,9E0,2.1E0,4.4E0,1.16E2,1.6E1,3E0,7.1910114E0,1.2E1,1.1E1,1E0,7.4E0,1.1E1,8.6E0,4.1E1,1E1,4E0,-9.4875E-2,1.238E2,8E0,1.4E1,1E1,3.4E1,5.5E1,0E0,-9.025E-2,-9.025E-2,-9.025E-2,-9.025E-2,-9.025E-2,-9.025E-2,-9.025E-2,9.750003E-3,-9.025E-2,-9.025E-2,-9.025E-2,-9.025E-2,-9.025E-2,-9.025E-2,-9.025E-2,-9.025E-2,-9.025E-2,-9.025E-2,-9.025E-2,-9.025E-2,-9.025E-2,-9.025E-2,-9.025E-2,9.750003E-3,-9.025E-2,-9.025E-2,-9.025E-2,-9.025E-2,-9.025E-2,-9.025E-2,-9.025E-2,-9.025E-2,-9.025E-2,-9.025E-2,-9.025E-2,-9.025E-2,-9.025E-2,-9.025E-2,-9.025E-2,-9.025E-2,-9.025E-2,-9.025E-2,4.7500017E-3,-1.0487499E-1,-9.525E-2,4.7500017E-3,5.4750003E-2,-4.8749927E-3,-3.4924925E-3,-5.9875E-2,-1.02825E-1,4.7625005E-2,1.3537501E-1,1.7562501E-1,1.356325E-1,-1.1308E-1,2.25625E-1,1.25625E-1,4.0375E-1,1.2375003E-1],"split_indices":[2,7,2,1,9,9,2,9,12,0,2,12,2,7,12,12,15,21,2,12,15,15,15,9,0,12,9,1,12,4,15,21,14,16,2,15,7,15,7,21,2,2,16,9,1,12,16,5,4,2,3,7,11,7,15,0,18,9,0,15,5,3,0,0,0,0,0,0,0,0,0,0,0,0,0,0,0,0,0,0,0,0,0,0,0,0,0,0,0,0,0,0,0,0,0,0,0,0,0,0,0,0,0,0,0,0,0,0,0,0,0,0,0,0,0,0,0,0,0,0,0,0,0],"split_type":[0,0,0,0,0,0,0,0,0,0,0,0,0,0,0,0,0,0,0,0,0,0,0,0,0,0,0,0,0,0,0,0,0,0,0,0,0,0,0,0,0,0,0,0,0,0,0,0,0,0,0,0,0,0,0,0,0,0,0,0,0,0,0,0,0,0,0,0,0,0,0,0,0,0,0,0,0,0,0,0,0,0,0,0,0,0,0,0,0,0,0,0,0,0,0,0,0,0,0,0,0,0,0,0,0,0,0,0,0,0,0,0,0,0,0,0,0,0,0,0,0,0,0],"sum_hessian":[6.1161E4,1.3972E4,4.7189E4,4.873E3,9.099E3,1.9773E4,2.7416E4,1.563E3,3.31E3,3.152E3,5.947E3,1.266E3,1.8507E4,8.558E3,1.8858E4,1.452E3,1.11E2,2.605E3,7.05E2,2.101E3,1.051E3,1.698E3,4.249E3,3.08E2,9.58E2,9.35E3,9.157E3,3.42E2,8.216E3,6.603E3,1.2255E4,5.74E2,8.78E2,1.05E2,6E0,1.115E3,1.49E3,6.22E2,8.3E1,7.01E2,1.4E3,1.03E3,2.1E1,1.654E3,4.4E1,3.81E3,4.39E2,1.8E2,1.28E2,4.89E2,4.69E2,6.802E3,2.548E3,5.883E3,3.274E3,4E0,3.38E2,2.122E3,6.094E3,9.15E2,5.688E3,1.2254E4,1E0,1.17E2,4.57E2,4.32E2,4.46E2,3E0,1.02E2,5E0,1E0,7.76E2,3.39E2,4.55E2,1.035E3,2.94E2,3.28E2,5E0,7.8E1,3.6E1,6.65E2,8E1,1.32E3,4.31E2,5.99E2,1.7E1,4E0,4.84E2,1.17E3,1.5E1,2.9E1,2.963E3,8.47E2,2.6E1,4.13E2,1.48E2,3.2E1,1.8E1,1.1E2,2.98E2,1.91E2,4.63E2,6E0,3.1E1,6.771E3,2.54E3,8E0,9E0,5.874E3,2.881E3,3.93E2,3.05E2,3.3E1,1.7E1,2.105E3,3.92E3,2.174E3,8.9E2,2.5E1,5.588E3,1E2,1.2233E4,2.1E1],"tree_param":{"num_deleted":"0","num_feature":"22","num_nodes":"123","size_leaf_vector":"1"}},{"base_weights":[-1.23254135E-2,-2.004428E-1,4.0323056E-2,-3.090435E-1,-1.2260723E-1,-1.3384594E-2,7.096625E-2,-3.747427E-1,-2.6152894E-1,-1.8616714E-1,-9.364573E-2,-8.840978E-2,4.10637E-3,3.803087E-2,8.4601395E-2,-4.1361532E-1,-3.0256096E-1,-3.009994E-1,-2.1750489E-1,-2.3288853E-1,-1.3451557E-1,-1.2882476E-1,-5.247967E-2,-1.4256233E-1,-5.8491457E-2,-2.0527655E-2,2.1856988E-2,1.1292002E-2,5.09097E-2,6.412757E-2,8.899909E-2,-3.486943E-1,-4.621089E-1,-4.3765432E-1,-2.6889226E-1,-2.848892E-1,-4.1220656E-1,-2.4586728E-1,-1.8098068E-1,-2.2538152E-1,-5.3666663E-1,-1.2784697E-1,-3.5757574E-1,-1.045031E-1,-1.7841269E-1,-1.296367E-1,-3.1630542E-2,-2.3619401E-1,-1.1439732E-1,-1.5440413E-1,-4.8799578E-2,-1.650199E-2,-2.3738317E-1,1.1591004E-2,3.7940808E-2,-1.9193548E-1,1.5746642E-2,4.4151332E-2,8.085299E-2,-4.7916662E-2,6.5545775E-2,8.243515E-2,9.573612E-2,-2.1314934E-2,-1.3909884E-2,-2.1727672E-2,-2.8176794E-2,-1.8661417E-2,-3.263889E-2,-1.686937E-2,-1.1678082E-2,-1.5863637E-2,-1.101E-2,1.6933138E-10,-2.1625616E-2,-1.583643E-2,-1.0659899E-2,-8.69894E-3,-2.6153846E-2,-2.4193548E-2,-1.0930041E-2,-3.2173913E-2,-8.125E-3,-6.829608E-3,2.9411768E-3,-3.2916665E-2,-8.863636E-3,-6.263982E-3,-2.8631755E-3,-1.3273808E-2,-7.3270886E-3,-3E-2,-5.870841E-3,-4.1140774E-3,-8.9718384E-4,-1.4906831E-2,-7.0833336E-3,-7.216174E-3,-1.9094486E-3,-9.273256E-3,4.7727274E-3,-5.553571E-3,-1.9059252E-3,-1.2928571E-2,-6.763156E-4,-3.181818E-2,-9.484536E-3,-8.316326E-3,7.5804157E-4,1.5544142E-3,3.533698E-3,-1.2075472E-2,4.5000003E-3,-5.058823E-3,9.682715E-4,2.3531944E-3,-5.9917336E-4,1.2500001E-3,4.3417085E-3,-7.241379E-3,4.75E-3,2.7725003E-3,3.852975E-3,2.828829E-3,4.206794E-3,4.792529E-3,-2.2499999E-2],"categories":[],"categories_nodes":[],"categories_segments":[],"categories_sizes":[],"default_left":[0,0,0,0,0,0,0,0,0,0,0,0,0,0,0,0,0,0,0,0,0,0,0,0,0,0,0,0,0,0,0,0,0,0,0,0,0,0,0,0,0,0,0,0,0,0,0,0,0,0,0,0,0,0,0,0,0,0,0,0,0,0,0,0,0,0,0,0,0,0,0,0,0,0,0,0,0,0,0,0,0,0,0,0,0,0,0,0,0,0,0,0,0,0,0,0,0,0,0,0,0,0,0,0,0,0,0,0,0,0,0,0,0,0,0,0,0,0,0,0,0,0,0,0,0,0,0],"id":3,"left_children":[1,3,5,7,9,11,13,15,17,19,21,23,25,27,29,31,33,35,37,39,41,43,45,47,49,51,53,55,57,59,61,63,65,67,69,71,73,75,77,79,81,83,85,87,89,91,93,95,97,99,101,103,105,107,109,111,113,115,117,119,121,123,125,-1,-1,-1,-1,-1,-1,-1,-1,-1,-1,-1,-1,-1,-1,-1,-1,-1,-1,-1,-1,-1,-1,-1,-1,-1,-1,-1,-1,-1,-1,-1,-1,-1,-1,-1,-1,-1,-1,-1,-1,-1,-1,-1,-1,-1,-1,-1,-1,-1,-1,-1,-1,-1,-1,-1,-1,-1,-1,-1,-1,-1,-1,-1,-1],"loss_changes":[6.034743E2,1.1258984E2,7.835294E1,1.726477E1,1.4272629E1,2.269726E1,1.360968E1,6.418213E0,5.5488586E0,5.830414E0,7.719288E0,5.289564E0,6.134024E0,3.0563564E0,1.9244232E0,4.602173E0,3.6120224E0,2.9300232E0,1.5414886E0,2.7843552E0,1.6738338E0,3.4499817E0,3.9531956E0,3.0399742E0,1.9520073E0,5.1248865E0,1.3457534E0,2.616638E0,1.2088156E0,6.060114E-1,7.723541E-1,3.4429321E0,2.1670837E0,2.001606E0,1.5159683E0,3.049385E0,1.7828445E0,1.9210548E0,1.5210419E0,2.0763855E0,1.0943956E0,1.8429337E0,1.6728034E0,1.8890343E0,2.5832767E0,2.9356403E0,1.3420489E0,1.5269766E0,2.0379267E0,1.5155482E0,1.2701554E0,4.152032E0,1.9153218E0,3.1642227E0,7.101946E-1,8.882885E-1,1.1976962E0,8.000574E-1,3.659706E-1,6.7856747E-1,4.3128014E-1,3.8858414E-1,5.866089E-1,0E0,0E0,0E0,0E0,0E0,0E0,0E0,0E0,0E0,0E0,0E0,0E0,0E0,0E0,0E0,0E0,0E0,0E0,0E0,0E0,0E0,0E0,0E0,0E0,0E0,0E0,0E0,0E0,0E0,0E0,0E0,0E0,0E0,0E0,0E0,0E0,0E0,0E0,0E0,0E0,0E0,0E0,0E0,0E0,0E0,0E0,0E0,0E0,0E0,0E0,0E0,0E0,0E0,0E0,0E0,0E0,0E0,0E0,0E0,0E0,0E0,0E0,0E0,0E0],"parents":[2147483647,0,0,1,1,2,2,3,3,4,4,5,5,6,6,7,7,8,8,9,9,10,10,11,11,12,12,13,13,14,14,15,15,16,16,17,17,18,18,19,19,20,20,21,21,22,22,23,23,24,24,25,25,26,26,27,27,28,28,29,29,30,30,31,31,32,32,33,33,34,34,35,35,36,36,37,37,38,38,39,39,40,40,41,41,42,42,43,43,44,44,45,45,46,46,47,47,48,48,49,49,50,50,51,51,52,52,53,53,54,54,55,55,56,56,57,57,58,58,59,59,60,60,61,61,62,62],"right_children":[2,4,6,8,10,12,14,16,18,20,22,24,26,28,30,32,34,36,38,40,42,44,46,48,50,52,54,56,58,60,62,64,66,68,70,72,74,76,78,80,82,84,86,88,90,92,94,96,98,100,102,104,106,108,110,112,114,116,118,120,122,124,126,-1,-1,-1,-1,-1,-1,-1,-1,-1,-1,-1,-1,-1,-1,-1,-1,-1,-1,-1,-1,-1,-1,-1,-1,-1,-1,-1,-1,-1,-1,-1,-1,-1,-1,-1,-1,-1,-1,-1,-1,-1,-1,-1,-1,-1,-1,-1,-1,-1,-1,-1,-1,-1,-1,-1,-1,-1,-1,-1,-1,-1,-1,-1,-1],"split_conditions":[5.4E0,1.0333333E1,1.04E1,3.5454545E0,1.3E1,1.5E1,1.2333333E1,6.6666665E0,7.3333335E0,5.357143E0,1.67E1,1E1,2.11E1,2.5E1,2.83E1,8.3E1,4E0,1E1,5.75E0,3.9E1,1.261E2,3E0,4.904762E0,1E1,4.659091E0,5.2E1,2.8E1,3E0,1.58E1,1.9493588E0,2.02E1,1.6431676E0,1.193E2,8E0,1.9235384E0,5.8125E0,1.8E1,6E0,1.96E1,1.75E0,4.3333335E0,1.1955357E2,3.8E0,1.16183334E2,3E0,1.4E0,1.6E1,1E1,7.8E0,1.204E2,1.1060364E2,1.0666667E1,1E0,4.7777777E0,1.82E2,2.54E1,9E0,6E0,2.7666666E1,2.8E1,1.44E1,1.18E1,2.97E2,-8.57375E-2,-8.57375E-2,-8.57375E-2,-8.57375E-2,-8.57375E-2,-8.57375E-2,-8.57375E-2,-8.57375E-2,-8.57375E-2,-8.57375E-2,-7.57375E-2,-8.57375E-2,-8.57375E-2,-8.57375E-2,-8.57375E-2,-9.23875E-2,-8.57375E-2,-8.57375E-2,-8.57375E-2,-8.57375E-2,-8.57375E-2,1.4262504E-2,-8.57375E-2,-8.57375E-2,-8.57375E-2,-8.57375E-2,-8.57375E-2,-8.57375E-2,-8.57375E-2,-8.57375E-2,-8.57375E-2,-8.57375E-2,-8.57375E-2,-8.57375E-2,-8.57375E-2,-8.57375E-2,-8.57375E-2,1.4262504E-2,-8.57375E-2,-8.57375E-2,-8.57375E-2,-4.0487457E-2,-9.6866585E-2,-8.57375E-2,-9.04875E-2,4.512501E-3,4.238751E-2,9.452501E-2,-1.002375E-1,1.8761875E-1,-9.1309376E-2,3.085624E-2,9.226251E-2,-4.1525024E-3,7.2143756E-2,1.7574376E-1,-4.4005E-2,2.2409375E-1,9.856251E-2,1.7879367E-1,1.5251878E-1,2.3356251E-1,4.8356253E-1,0E0],"split_indices":[1,6,1,12,9,9,12,6,6,12,8,9,8,9,8,21,9,15,12,15,19,15,12,10,12,15,9,5,1,13,1,13,19,15,13,12,16,10,8,12,1,17,1,17,1,1,6,5,1,19,17,6,4,12,16,8,9,15,6,10,1,1,15,0,0,0,0,0,0,0,0,0,0,0,0,0,0,0,0,0,0,0,0,0,0,0,0,0,0,0,0,0,0,0,0,0,0,0,0,0,0,0,0,0,0,0,0,0,0,0,0,0,0,0,0,0,0,0,0,0,0,0,0,0,0,0,0],"split_type":[0,0,0,0,0,0,0,0,0,0,0,0,0,0,0,0,0,0,0,0,0,0,0,0,0,0,0,0,0,0,0,0,0,0,0,0,0,0,0,0,0,0,0,0,0,0,0,0,0,0,0,0,0,0,0,0,0,0,0,0,0,0,0,0,0,0,0,0,0,0,0,0,0,0,0,0,0,0,0,0,0,0,0,0,0,0,0,0,0,0,0,0,0,0,0,0,0,0,0,0,0,0,0,0,0,0,0,0,0,0,0,0,0,0,0,0,0,0,0,0,0,0,0,0,0,0,0],"sum_hessian":[6.093E4,1.3323E4,4.7607E4,5.561E3,7.762E3,1.7295E4,3.0312E4,2.331E3,3.23E3,2.428E3,5.334E3,3.269E3,1.4026E4,8.876E3,2.1436E4,1.512E3,8.19E2,1.7E3,1.53E3,1.273E3,1.155E3,2.875E3,2.459E3,1.162E3,2.107E3,5.874E3,8.152E3,2.886E3,5.99E3,3.793E3,1.7643E4,6.5E2,8.62E2,1.61E2,6.58E2,1.488E3,2.12E2,8.58E2,6.72E2,1.244E3,2.9E1,1.123E3,3.2E1,1.931E3,9.44E2,5.22E2,1.937E3,2.67E2,8.95E2,1.92E2,1.915E3,5.768E3,1.06E2,4.977E3,3.175E3,6.1E1,2.825E3,4.889E3,1.101E3,4.7E1,3.746E3,8.943E3,8.7E3,3.07E2,3.43E2,6.82E2,1.8E2,1.26E2,3.5E1,2.21E2,4.37E2,9.89E2,4.99E2,1E1,2.02E2,2.68E2,5.9E2,6.6E2,1.2E1,3E1,1.214E3,2.2E1,7E0,1.073E3,5E1,1.1E1,2.1E1,1.34E3,5.91E2,2.51E2,6.93E2,1.2E1,5.1E2,4.11E2,1.526E3,1.6E2,1.07E2,6.42E2,2.53E2,1.71E2,2.1E1,2.79E2,1.636E3,6.9E1,5.699E3,1E1,9.6E1,9.7E1,4.88E3,2.627E3,5.48E2,5.2E1,9E0,8.4E1,2.741E3,4.648E3,2.41E2,1.07E2,9.94E2,2.8E1,1.9E1,1.999E3,1.747E3,5.54E2,8.389E3,8.699E3,1E0],"tree_param":{"num_deleted":"0","num_feature":"22","num_nodes":"127","size_leaf_vector":"1"}},{"base_weights":[-1.2154247E-2,-2.0133202E-1,4.074238E-2,-3.109547E-1,-1.2290913E-1,-6.652303E-3,7.5069845E-2,-3.789983E-1,-2.5979152E-1,-1.8510549E-1,-9.469242E-2,-9.9195704E-2,7.2725215E-3,4.1317455E-2,8.612302E-2,-4.7299507E-1,-3.4626272E-1,-2.924578E-1,-2.1085759E-1,-2.1786407E-1,-1.2691866E-1,-1.2743418E-1,-4.7293574E-2,-1.813099E-1,-7.326283E-2,-3.0318212E-2,1.8498844E-2,-2.2045454E-1,4.301569E-2,7.875829E-2,9.467708E-2,-3.9285713E-1,-5.33237E-1,-4.192015E-1,-3.1506848E-1,-3.052931E-1,-1.2928571E-1,-2.2379702E-1,-9.457364E-2,-2.0931803E-1,-4.0923077E-1,-1.348503E-1,4.6153847E-2,-1.1773752E-1,-2.5131577E-1,-7.902648E-2,9.311228E-3,-2.541516E-1,-1.2314285E-1,-1.038858E-1,-1.9972447E-2,-1.5852533E-1,-2.2940394E-2,2.075515E-2,-1.2935323E-1,-5.7777774E-1,-1.2499999E-1,3.0663433E-2,5.8013767E-2,7.037632E-2,8.4114626E-2,9.4780706E-2,-2.2499999E-2,-2.1751152E-2,-1.01E-2,-2.8976744E-2,-2.2689393E-2,-2.5E-3,-2.1423003E-2,-1.2865647E-2,-1.8325688E-2,-1.0926574E-2,-1.6097147E-2,-1.7954545E-2,-4.285714E-3,-1.3230932E-2,-9.739583E-3,-3.516949E-3,-1.625E-2,-1.253021E-2,-8.786585E-3,-2.4339622E-2,-3.0769228E-3,-5.694656E-3,-1.0497238E-2,4.8611113E-3,-2.125E-2,-8.548611E-3,-5.0158584E-3,-1.4917127E-2,-3.4374997E-3,-3.116994E-3,-8.237885E-3,1.6702358E-3,-1.3050312E-3,-1.4657534E-2,-5.254237E-3,-5.73913E-3,-2.9166667E-2,-7.6348037E-3,-4.022248E-3,-8.7707164E-4,-3E-2,-4.539877E-3,-1.781818E-2,-8.4158415E-3,-9.469385E-4,6.587957E-4,2.275527E-3,-1.1212121E-2,-1.84466E-3,-3.3125E-2,2.5000002E-3,4.6428572E-3,-1.2608695E-2,1.6353488E-3,-8.648648E-3,1.0416685E-4,3.0381707E-3,-1.8269228E-3,3.5825402E-3,4.2128474E-3,-1.3333333E-2,4.7442177E-3,-2.2499999E-2],"categories":[],"categories_nodes":[],"categories_segments":[],"categories_sizes":[],"default_left":[0,0,0,0,0,0,0,0,0,0,0,0,0,0,0,0,0,0,0,0,0,0,0,0,0,0,0,0,0,0,0,0,0,0,0,0,0,0,0,0,0,0,0,0,0,0,0,0,0,0,0,0,0,0,0,0,0,0,0,0,0,0,0,0,0,0,0,0,0,0,0,0,0,0,0,0,0,0,0,0,0,0,0,0,0,0,0,0,0,0,0,0,0,0,0,0,0,0,0,0,0,0,0,0,0,0,0,0,0,0,0,0,0,0,0,0,0,0,0,0,0,0,0,0,0],"id":4,"left_children":[1,3,5,7,9,11,13,15,17,19,21,23,25,27,29,31,33,35,37,39,41,43,45,47,49,51,53,55,57,59,61,63,65,67,69,71,73,75,77,79,81,83,85,87,89,91,93,95,97,99,101,103,105,107,109,111,113,115,117,119,121,123,-1,-1,-1,-1,-1,-1,-1,-1,-1,-1,-1,-1,-1,-1,-1,-1,-1,-1,-1,-1,-1,-1,-1,-1,-1,-1,-1,-1,-1,-1,-1,-1,-1,-1,-1,-1,-1,-1,-1,-1,-1,-1,-1,-1,-1,-1,-1,-1,-1,-1,-1,-1,-1,-1,-1,-1,-1,-1,-1,-1,-1,-1,-1],"loss_changes":[6.085257E2,1.14197754E2,7.731754E1,1.919159E1,1.3580048E1,2.5726055E1,1.0278656E1,7.1472473E0,4.9991455E0,4.5794373E0,8.268818E0,5.546728E0,7.323626E0,3.0328646E0,1.3004608E0,2.7402039E0,3.8860474E0,3.931427E0,1.891243E0,2.4410782E0,1.2046309E0,3.7579155E0,3.9165277E0,2.6210575E0,3.2388973E0,3.771406E0,4.460577E0,1.4285355E0,1.2502079E0,4.9521637E-1,5.844879E-1,2.052803E0,1.0097198E0,1.7765808E0,3.5930176E0,2.467743E0,1.3710325E0,1.3018188E0,6.97515E-1,2.0095978E0,1.7229366E0,1.290185E0,9.797008E-1,2.6963234E0,1.9369783E0,1.9882259E0,6.6977674E-1,1.5795269E0,1.2796011E0,1.4304943E0,1.0131757E0,2.875259E0,2.1928864E0,2.4691334E0,1.7551916E0,5.1180553E-1,1.020823E0,1.548702E0,4.6908283E-1,5.964432E-1,3.622017E-1,5.846863E-1,0E0,0E0,0E0,0E0,0E0,0E0,0E0,0E0,0E0,0E0,0E0,0E0,0E0,0E0,0E0,0E0,0E0,0E0,0E0,0E0,0E0,0E0,0E0,0E0,0E0,0E0,0E0,0E0,0E0,0E0,0E0,0E0,0E0,0E0,0E0,0E0,0E0,0E0,0E0,0E0,0E0,0E0,0E0,0E0,0E0,0E0,0E0,0E0,0E0,0E0,0E0,0E0,0E0,0E0,0E0,0E0,0E0,0E0,0E0,0E0,0E0,0E0,0E0],"parents":[2147483647,0,0,1,1,2,2,3,3,4,4,5,5,6,6,7,7,8,8,9,9,10,10,11,11,12,12,13,13,14,14,15,15,16,16,17,17,18,18,19,19,20,20,21,21,22,22,23,23,24,24,25,25,26,26,27,27,28,28,29,29,30,30,31,31,32,32,33,33,34,34,35,35,36,36,37,37,38,38,39,39,40,40,41,41,42,42,43,43,44,44,45,45,46,46,47,47,48,48,49,49,50,50,51,51,52,52,53,53,54,54,55,55,56,56,57,57,58,58,59,59,60,60,61,61],"right_children":[2,4,6,8,10,12,14,16,18,20,22,24,26,28,30,32,34,36,38,40,42,44,46,48,50,52,54,56,58,60,62,64,66,68,70,72,74,76,78,80,82,84,86,88,90,92,94,96,98,100,102,104,106,108,110,112,114,116,118,120,122,124,-1,-1,-1,-1,-1,-1,-1,-1,-1,-1,-1,-1,-1,-1,-1,-1,-1,-1,-1,-1,-1,-1,-1,-1,-1,-1,-1,-1,-1,-1,-1,-1,-1,-1,-1,-1,-1,-1,-1,-1,-1,-1,-1,-1,-1,-1,-1,-1,-1,-1,-1,-1,-1,-1,-1,-1,-1,-1,-1,-1,-1,-1,-1],"split_conditions":[5.4E0,1.0333333E1,1.0724771E1,3.652174E0,1.3E1,1.4E1,1.28E1,4E0,5.75E0,5.985507E0,6.1216216E0,7E0,1.9333334E1,1.1E1,1.98E1,9.8E1,1.67332E0,4.6666665E0,1.4E1,1.1950116E2,1.1118812E1,7E0,1.86E1,5.3333335E0,7.7272725E0,6E0,1.93E2,1E0,2.6666666E1,3E1,5.5E1,5E0,2.75E0,1.0693023E2,8.7E1,6.1E1,6E0,1E0,1E1,9E0,4.3333335E0,2.35E2,1.6666666E1,3E0,1.76E1,2.54E2,1.164E2,1.1797959E2,4.2E1,5.3076925E0,1.326E2,4E0,3.9166667E0,1.2666667E1,2.46E1,9E0,1.104E2,2.94E1,1.09765625E1,1.8708287E0,4E1,3.2E2,-9.834373E-3,-8.1450626E-2,-8.1450626E-2,-8.1450626E-2,-8.1450626E-2,-8.1450626E-2,-8.1450626E-2,-8.1450626E-2,-8.1450626E-2,-8.1450626E-2,-8.1450626E-2,-8.1450626E-2,-8.1450626E-2,-8.1450626E-2,-8.1450626E-2,-8.1450626E-2,-8.1450626E-2,-8.1450626E-2,-8.1450626E-2,-8.1450626E-2,-6.645062E-2,-8.1450626E-2,-8.1450626E-2,1.3799376E-2,-8.6200625E-2,-8.1450626E-2,-8.1450626E-2,-8.1450626E-2,-8.1450626E-2,-8.1450626E-2,-8.1450626E-2,1.3799376E-2,-8.1450626E-2,-8.1450626E-2,-8.1450626E-2,-8.1450626E-2,-8.617203E-2,-8.1450626E-2,-8.1450626E-2,-8.1450626E-2,-9.095063E-2,-8.371313E-2,-8.5496716E-2,-8.371313E-2,-8.1450626E-2,6.536871E-3,8.300562E-2,-8.5986875E-2,-7.640189E-2,-9.107562E-2,3.637994E-1,2.9924378E-2,-8.970063E-2,4.9536873E-2,-1.06656246E-1,6.851884E-3,1.2181187E-1,-1.6943514E-2,1.5766864E-1,2.1716562E-1,-1.2811562E-1,4.441657E-1,0E0],"split_indices":[1,6,12,12,9,9,1,7,12,12,12,9,6,6,1,21,13,0,9,20,12,15,7,0,12,10,15,3,6,10,10,11,12,17,21,21,7,5,11,9,1,21,6,1,7,21,18,17,10,12,18,15,12,0,7,9,18,7,12,13,3,15,0,0,0,0,0,0,0,0,0,0,0,0,0,0,0,0,0,0,0,0,0,0,0,0,0,0,0,0,0,0,0,0,0,0,0,0,0,0,0,0,0,0,0,0,0,0,0,0,0,0,0,0,0,0,0,0,0,0,0,0,0,0,0],"split_type":[0,0,0,0,0,0,0,0,0,0,0,0,0,0,0,0,0,0,0,0,0,0,0,0,0,0,0,0,0,0,0,0,0,0,0,0,0,0,0,0,0,0,0,0,0,0,0,0,0,0,0,0,0,0,0,0,0,0,0,0,0,0,0,0,0,0,0,0,0,0,0,0,0,0,0,0,0,0,0,0,0,0,0,0,0,0,0,0,0,0,0,0,0,0,0,0,0,0,0,0,0,0,0,0,0,0,0,0,0,0,0,0,0,0,0,0,0,0,0,0,0,0,0,0,0],"sum_hessian":[6.0809E4,1.3287E4,4.7522E4,5.54E3,7.747E3,1.9962E4,2.756E4,2.375E3,3.165E3,2.416E3,5.331E3,2.61E3,1.7352E4,6.8E3,2.076E4,6.1E2,1.765E3,1.895E3,1.27E3,1.544E3,8.72E2,3.152E3,2.179E3,6.25E2,1.985E3,3.99E3,1.3362E4,4.3E1,6.757E3,1.1161E4,9.599E3,2.65E2,3.45E2,5.25E2,1.24E3,1.756E3,1.39E2,1.142E3,1.28E2,1.48E3,6.4E1,8.34E2,3.8E1,2.925E3,2.27E2,1.396E3,7.83E2,2.76E2,3.49E2,1.26E3,7.25E2,2.16E2,3.774E3,1.3162E4,2E2,8E0,3.5E1,3.707E3,3.05E3,4.357E3,6.804E3,9.598E3,1E0,2.16E2,4.9E1,2.14E2,1.31E2,1.3E1,5.12E2,5.87E2,6.53E2,2.85E2,1.471E3,2.1E1,1.18E2,4.71E2,6.71E2,1.17E2,1.1E1,6.61E2,8.19E2,5.2E1,1.2E1,6.54E2,1.8E2,3.5E1,3E0,7.19E2,2.206E3,1.8E2,4.7E1,1.17E3,2.26E2,4.66E2,3.17E2,2.18E2,5.8E1,3.44E2,5E0,4.07E2,8.53E2,7.23E2,2E0,1.62E2,5.4E1,1E2,3.674E3,1.0078E4,3.084E3,9.8E1,1.02E2,7E0,1E0,1.3E1,2.2E1,3.671E3,3.6E1,1.43E2,2.907E3,5.1E1,4.306E3,6.802E3,2E0,9.597E3,1E0],"tree_param":{"num_deleted":"0","num_feature":"22","num_nodes":"125","size_leaf_vector":"1"}},{"base_weights":[-1.3534164E-2,-1.9999251E-1,3.8894154E-2,-3.071339E-1,-1.22764744E-1,-9.514166E-3,7.4886195E-2,-3.7892094E-1,-2.534499E-1,-1.5760319E-1,-6.786069E-2,-1.2637614E-1,-1.4461355E-3,5.4948114E-2,8.529675E-2,-4.7205168E-1,-3.461929E-1,-3.0089337E-1,-2.0104918E-1,-2.4482305E-1,-1.4086804E-1,-1.0005114E-1,-8.48256E-3,-1.8385093E-1,-9.261501E-2,-4.0393304E-2,1.04172435E-2,-2.6392957E-2,5.802154E-2,7.49957E-2,9.0233214E-2,-4.3408623E-1,-6.075188E-1,-4.2185038E-1,-3.1556082E-1,-3.383777E-1,-2.642857E-1,-2.4969605E-1,-1.6394009E-1,-1.9933034E-1,-3.085443E-1,-2.3072463E-1,-1.323174E-1,-1.7323688E-1,-7.113328E-2,-1.4354838E-1,-9.999628E-5,-1.5155439E-1,-3.0918366E-1,-1.1390134E-1,-1.8987304E-3,-6.569311E-2,-1.3139367E-2,-1.922809E-3,2.2818888E-2,-2.6071426E-1,-5.414009E-3,3.5511114E-2,6.5507546E-2,-8.214285E-2,7.5744465E-2,9.031511E-2,-2.2499999E-2,-2.2997512E-2,-1.5406976E-2,-3.190678E-2,-1.71875E-2,-1.8965969E-2,-2.7322834E-2,-1.3034257E-2,-1.8325688E-2,-1.735331E-2,-2.8846152E-3,-1.240909E-2,-2.0352941E-2,-2.317073E-2,-1.1755663E-2,-7.475062E-3,-1.6716419E-2,-6.5641026E-3,-1.2539369E-2,-1.34807695E-2,-2.4035087E-2,-4.5263157E-3,-1.4143425E-2,-9.094339E-3,-5.921699E-3,-1.0387244E-2,-1.9999999E-3,-5.212636E-3,-1.2048191E-3,-1.4423077E-2,-1.8918917E-3,8.5170526E-5,-3E-2,-8.742775E-3,2.4390246E-3,-1.7032966E-2,4.375E-3,-6.6050417E-3,1.6000001E-3,-2.125E-2,4.5161307E-4,-2.9516711E-3,-1.2345678E-2,-4.41048E-3,-2.0493938E-4,-8.615383E-4,6.420288E-4,7.3677464E-4,1.8730592E-3,-4.1176467E-3,-2.4583332E-2,2.22561E-3,-2.9801324E-3,-2.125E-2,1.8157546E-3,2.8914378E-3,3.7524917E-3,-2.125E-2,-1.1999998E-3,2.9161077E-3,4.089107E-3,3.2249324E-3,4.556001E-3],"categories":[],"categories_nodes":[],"categories_segments":[],"categories_sizes":[],"default_left":[0,0,0,0,0,0,0,0,0,0,0,0,0,0,0,0,0,0,0,0,0,0,0,0,0,0,0,0,0,0,0,0,0,0,0,0,0,0,0,0,0,0,0,0,0,0,0,0,0,0,0,0,0,0,0,0,0,0,0,0,0,0,0,0,0,0,0,0,0,0,0,0,0,0,0,0,0,0,0,0,0,0,0,0,0,0,0,0,0,0,0,0,0,0,0,0,0,0,0,0,0,0,0,0,0,0,0,0,0,0,0,0,0,0,0,0,0,0,0,0,0,0,0,0,0],"id":5,"left_children":[1,3,5,7,9,11,13,15,17,19,21,23,25,27,29,31,33,35,37,39,41,43,45,47,49,51,53,55,57,59,61,63,65,67,69,71,73,75,77,79,81,83,85,87,89,91,93,95,97,99,101,103,105,107,109,111,113,115,117,119,121,123,-1,-1,-1,-1,-1,-1,-1,-1,-1,-1,-1,-1,-1,-1,-1,-1,-1,-1,-1,-1,-1,-1,-1,-1,-1,-1,-1,-1,-1,-1,-1,-1,-1,-1,-1,-1,-1,-1,-1,-1,-1,-1,-1,-1,-1,-1,-1,-1,-1,-1,-1,-1,-1,-1,-1,-1,-1,-1,-1,-1,-1,-1,-1],"loss_changes":[5.948199E2,1.10457275E2,8.274844E1,2.1458374E1,1.4836235E1,1.909622E1,5.6494293E0,7.1243286E0,7.9023895E0,6.8958817E0,5.7620506E0,2.5210361E0,8.754788E0,2.3382435E0,9.0315247E-1,2.9198456E0,3.975891E0,2.2145233E0,2.7120552E0,2.150322E0,3.0320435E0,4.1251907E0,1.2012475E0,1.9082355E0,1.5948029E0,3.0495691E0,2.2227526E0,1.6748815E0,1.5154724E0,6.89003E-1,5.756378E-1,1.444664E0,8.5471725E-1,2.484932E0,3.4442978E0,1.9943542E0,1.8624916E0,1.9417763E0,2.0854816E0,1.5357761E0,1.9881992E0,2.4965096E0,2.4848595E0,2.5342407E0,2.1831322E0,9.38854E-1,1.0828857E0,1.8103857E0,1.2534246E0,1.7806444E0,7.345755E-1,2.7539883E0,1.4459022E0,1.6457071E0,8.5684395E-1,1.1129133E0,8.52159E-1,8.484733E-1,4.90839E-1,5.479714E-1,6.028099E-1,2.4536133E-1,0E0,0E0,0E0,0E0,0E0,0E0,0E0,0E0,0E0,0E0,0E0,0E0,0E0,0E0,0E0,0E0,0E0,0E0,0E0,0E0,0E0,0E0,0E0,0E0,0E0,0E0,0E0,0E0,0E0,0E0,0E0,0E0,0E0,0E0,0E0,0E0,0E0,0E0,0E0,0E0,0E0,0E0,0E0,0E0,0E0,0E0,0E0,0E0,0E0,0E0,0E0,0E0,0E0,0E0,0E0,0E0,0E0,0E0,0E0,0E0,0E0,0E0,0E0],"parents":[2147483647,0,0,1,1,2,2,3,3,4,4,5,5,6,6,7,7,8,8,9,9,10,10,11,11,12,12,13,13,14,14,15,15,16,16,17,17,18,18,19,19,20,20,21,21,22,22,23,23,24,24,25,25,26,26,27,27,28,28,29,29,30,30,31,31,32,32,33,33,34,34,35,35,36,36,37,37,38,38,39,39,40,40,41,41,42,42,43,43,44,44,45,45,46,46,47,47,48,48,49,49,50,50,51,51,52,52,53,53,54,54,55,55,56,56,57,57,58,58,59,59,60,60,61,61],"right_children":[2,4,6,8,10,12,14,16,18,20,22,24,26,28,30,32,34,36,38,40,42,44,46,48,50,52,54,56,58,60,62,64,66,68,70,72,74,76,78,80,82,84,86,88,90,92,94,96,98,100,102,104,106,108,110,112,114,116,118,120,122,124,-1,-1,-1,-1,-1,-1,-1,-1,-1,-1,-1,-1,-1,-1,-1,-1,-1,-1,-1,-1,-1,-1,-1,-1,-1,-1,-1,-1,-1,-1,-1,-1,-1,-1,-1,-1,-1,-1,-1,-1,-1,-1,-1,-1,-1,-1,-1,-1,-1,-1,-1,-1,-1,-1,-1,-1,-1,-1,-1,-1,-1,-1,-1],"split_conditions":[5.4E0,1.0333333E1,1.12E1,3.652174E0,1.67E1,1.3E1,1.48E1,4E0,3.6E0,2.5E0,7.1910114E0,5.8125E0,6.7E0,8.8E0,1.6985714E1,1.195E2,1.67332E0,1.1420168E2,7.3333335E0,1.5E1,9.8E0,1.6E1,3.6E0,1.5E1,1.17663475E2,1.9666666E1,2.3666666E1,1.4333333E1,1.0365853E1,6.766129E0,4.5333332E1,1.167E2,1.253E2,8.7E0,8.5E1,5.3197746E0,2.69E2,1.2E0,5.495453E0,1.1356356E2,1.216E2,6E0,2E0,6.5E0,5E0,1.114E2,8.455768E0,1.1892683E2,1.1E1,8.8E0,7.4E0,2.8E1,4.6E0,8.4E0,1.0072917E1,1.6E1,1.149E2,7E0,1.152E2,2.44E1,2.8666666E1,1.018E2,-1.2823916E-2,-7.7378094E-2,-7.7378094E-2,-7.7378094E-2,-7.7378094E-2,-7.7378094E-2,-7.7378094E-2,-7.7378094E-2,-7.7378094E-2,-7.7378094E-2,-7.7378094E-2,-7.7378094E-2,-7.7378094E-2,-7.7378094E-2,-7.7378094E-2,-7.7378094E-2,-7.7378094E-2,-7.7378094E-2,-7.7378094E-2,-7.7378094E-2,-7.7378094E-2,-7.7378094E-2,-7.7378094E-2,-7.7378094E-2,-7.7378094E-2,-7.7378094E-2,-7.7378094E-2,-7.7378094E-2,-7.7378094E-2,-7.7378094E-2,-7.7378094E-2,3.3594014E-3,-7.7378094E-2,-7.7378094E-2,2.2621905E-2,-7.7378094E-2,1.2273504E-1,-7.7378094E-2,1.1682376E-2,-7.7378094E-2,7.000347E-3,-7.7378094E-2,-7.7378094E-2,-8.403997E-2,-3.6289968E-2,-4.378997E-2,5.8593987E-3,6.816286E-3,5.0750036E-2,-9.5765345E-2,-9.2550166E-2,9.093378E-2,-2.5098607E-2,-8.5740976E-2,4.33741E-2,1.11948036E-1,1.5131985E-1,-1.3159935E-1,-4.081E-2,1.2298175E-1,2.1795736E-1,2.610261E-1,3.871761E-1],"split_indices":[1,6,2,12,8,6,2,7,2,2,12,12,2,1,12,19,13,17,6,11,7,6,2,8,20,6,6,6,12,12,6,19,19,8,21,13,21,1,13,20,18,11,3,2,3,18,13,17,3,1,7,11,2,12,12,7,19,6,19,7,6,18,0,0,0,0,0,0,0,0,0,0,0,0,0,0,0,0,0,0,0,0,0,0,0,0,0,0,0,0,0,0,0,0,0,0,0,0,0,0,0,0,0,0,0,0,0,0,0,0,0,0,0,0,0,0,0,0,0,0,0,0,0,0,0],"split_type":[0,0,0,0,0,0,0,0,0,0,0,0,0,0,0,0,0,0,0,0,0,0,0,0,0,0,0,0,0,0,0,0,0,0,0,0,0,0,0,0,0,0,0,0,0,0,0,0,0,0,0,0,0,0,0,0,0,0,0,0,0,0,0,0,0,0,0,0,0,0,0,0,0,0,0,0,0,0,0,0,0,0,0,0,0,0,0,0,0,0,0,0,0,0,0,0,0,0,0,0,0,0,0,0,0,0,0,0,0,0,0,0,0,0,0,0,0,0,0,0,0,0,0,0,0],"sum_hessian":[6.0845E4,1.3353E4,4.7492E4,5.592E3,7.761E3,2.0253E4,2.7239E4,2.39E3,3.202E3,4.747E3,3.014E3,1.307E3,1.8946E4,9.346E3,1.7893E4,6.18E2,1.772E3,1.678E3,1.524E3,7.62E2,3.985E3,1.954E3,1.06E3,4.82E2,8.25E2,4.423E3,1.4523E4,3.4E2,9.006E3,5.802E3,1.2091E4,4.86E2,1.32E2,5.07E2,1.265E3,8.25E2,8.53E2,6.57E2,8.67E2,4.47E2,3.15E2,3.44E2,3.641E3,5.52E2,1.402E3,6.1E1,9.99E2,3.85E2,9.7E1,6.68E2,1.57E2,2.293E3,2.13E3,7.28E3,7.243E3,2.7E1,3.13E2,2.249E3,6.757E3,2.7E1,5.775E3,1.209E4,1E0,4.01E2,8.5E1,1.17E2,1.5E1,3.81E2,1.26E2,6.12E2,6.53E2,8E2,2.5E1,7.69E2,8.4E1,4E1,6.17E2,8.01E2,6.6E1,1.94E2,2.53E2,2.59E2,5.6E1,9.4E1,2.5E2,7.94E2,2.847E3,4.38E2,1.14E2,8.22E2,5.8E2,2.5E1,3.6E1,9.97E2,2E0,3.45E2,4E1,9E1,7E0,5.94E2,7.4E1,3E0,1.54E2,2.213E3,8E1,2.28E2,1.902E3,3.574E3,3.706E3,4.668E3,2.575E3,1.6E1,1.1E1,1.63E2,1.5E2,3E0,2.246E3,3.748E3,3.009E3,3E0,2.4E1,1.489E3,4.286E3,3.68E2,1.1722E4],"tree_param":{"num_deleted":"0","num_feature":"22","num_nodes":"125","size_leaf_vector":"1"}},{"base_weights":[-1.3687156E-2,-2.1534815E-1,3.4747005E-2,-3.1877765E-1,-1.4595053E-1,-1.3628452E-2,7.3358424E-2,-4.2084837E-1,-2.8760308E-1,-2.2095115E-1,-1.0900463E-1,-7.784333E-2,5.01477E-3,5.447695E-2,8.4371924E-2,-4.481527E-1,-3.4478113E-1,-3.2538092E-1,-2.2272727E-1,-2.634432E-1,-1.6092783E-1,-1.7825143E-1,-8.04406E-2,-1.4408748E-1,-4.9753834E-2,-6.9110654E-2,1.2077892E-2,3.1962544E-2,6.171691E-2,7.524128E-2,9.2382096E-2,-5.188596E-1,-4.1982904E-1,-3.0132157E-1,-4.7887322E-1,-3.8406658E-1,-2.9128346E-1,-4.403846E-1,-2.1378775E-1,-3.844086E-1,-2.4415253E-1,-1.553125E-1,-6.363636E-1,-1.7106037E-1,-5.333333E-1,-9.470361E-2,-3.9292357E-4,-3.068493E-1,-1.1534136E-1,-9.087866E-2,-2.7976977E-2,-5.0666666E-1,-6.4564764E-2,1.6416566E-2,-4.6572763E-2,-1.9210525E-1,3.5469204E-2,1.241611E-2,6.3711986E-2,7.546446E-2,-1.3333333E-1,9.248995E-2,-2.2499999E-2,-1.1136363E-2,-2.7391303E-2,-1.9751552E-2,-2.660194E-2,-2.122093E-2,-1.1232394E-2,-7.916667E-3,-2.6749998E-2,-1.744391E-2,-2.4151376E-2,-1.5623472E-2,-8.874459E-3,-4.05E-2,-1.7209303E-2,-7.970183E-3,-1.2061915E-2,-2.2598425E-2,-1.175E-2,-1.8878505E-2,-1.1531658E-2,-9.71979E-3,-4.884615E-3,-4E-2,3.3333336E-3,-1.43951615E-2,-7.959514E-3,-3.159091E-2,-4.1666664E-3,-6.882291E-3,-3.6720794E-3,2.4703576E-4,-3.3749998E-2,-1.6633166E-2,-2.3809522E-3,-2.2115385E-2,-5.413934E-3,-4.18717E-3,-1.1465517E-2,-3.5686274E-3,-2.876252E-4,-3E-2,3.3333336E-3,-5.138721E-3,-7.131535E-4,-9.245283E-3,8.5796975E-4,-7.2955973E-3,-1.455347E-3,-2.3214284E-3,-2.7272725E-2,2.8738843E-3,1.1253282E-3,-1.6118418E-3,2.9251704E-3,3.0040226E-3,4.191242E-3,3.656976E-3,4.71219E-3,-3E-2,4.2857146E-3,4.6298914E-3,-2.2499999E-2],"categories":[],"categories_nodes":[],"categories_segments":[],"categories_sizes":[],"default_left":[0,0,0,0,0,0,0,0,0,0,0,0,0,0,0,0,0,0,0,0,0,0,0,0,0,0,0,0,0,0,0,0,0,0,0,0,0,0,0,0,0,0,0,0,0,0,0,0,0,0,0,0,0,0,0,0,0,0,0,0,0,0,0,0,0,0,0,0,0,0,0,0,0,0,0,0,0,0,0,0,0,0,0,0,0,0,0,0,0,0,0,0,0,0,0,0,0,0,0,0,0,0,0,0,0,0,0,0,0,0,0,0,0,0,0,0,0,0,0,0,0,0,0,0,0],"id":6,"left_children":[1,3,5,7,9,11,13,15,17,19,21,23,25,27,29,31,33,35,37,39,41,43,45,47,49,51,53,55,57,59,61,63,65,67,69,71,73,75,77,79,81,83,85,87,89,91,93,95,97,99,101,103,105,107,109,111,113,115,117,119,121,123,-1,-1,-1,-1,-1,-1,-1,-1,-1,-1,-1,-1,-1,-1,-1,-1,-1,-1,-1,-1,-1,-1,-1,-1,-1,-1,-1,-1,-1,-1,-1,-1,-1,-1,-1,-1,-1,-1,-1,-1,-1,-1,-1,-1,-1,-1,-1,-1,-1,-1,-1,-1,-1,-1,-1,-1,-1,-1,-1,-1,-1,-1,-1],"loss_changes":[5.960852E2,8.4787415E1,9.191766E1,1.4977631E1,1.9580505E1,2.615142E1,5.6864014E0,2.146759E0,8.843811E0,5.910507E0,9.365181E0,9.138493E0,8.864653E0,1.6419163E0,1.2570877E0,1.4083405E0,1.5864944E0,4.484497E0,2.5170517E0,3.0913773E0,2.4908047E0,3.4426956E0,3.835003E0,6.8096485E0,3.089859E0,2.897204E0,3.9343011E0,1.9365664E0,7.496891E-1,3.8626862E-1,5.7992554E-1,1.833744E0,1.4176407E0,2.0471497E0,1.1926441E0,2.7600708E0,3.457138E0,1.5701456E0,1.8888435E0,1.7712746E0,2.0413208E0,2.1429157E0,1.318788E0,1.8376236E0,1.14394E0,2.5929642E0,1.8347731E0,1.4496574E0,2.8271332E0,1.1611519E0,2.178268E0,8.426666E-1,2.8027472E0,2.1557684E0,1.8435707E0,1.9307158E0,6.888182E-1,6.1515015E-1,5.30571E-1,3.4562302E-1,9.714285E-1,5.8013916E-1,0E0,0E0,0E0,0E0,0E0,0E0,0E0,0E0,0E0,0E0,0E0,0E0,0E0,0E0,0E0,0E0,0E0,0E0,0E0,0E0,0E0,0E0,0E0,0E0,0E0,0E0,0E0,0E0,0E0,0E0,0E0,0E0,0E0,0E0,0E0,0E0,0E0,0E0,0E0,0E0,0E0,0E0,0E0,0E0,0E0,0E0,0E0,0E0,0E0,0E0,0E0,0E0,0E0,0E0,0E0,0E0,0E0,0E0,0E0,0E0,0E0,0E0,0E0],"parents":[2147483647,0,0,1,1,2,2,3,3,4,4,5,5,6,6,7,7,8,8,9,9,10,10,11,11,12,12,13,13,14,14,15,15,16,16,17,17,18,18,19,19,20,20,21,21,22,22,23,23,24,24,25,25,26,26,27,27,28,28,29,29,30,30,31,31,32,32,33,33,34,34,35,35,36,36,37,37,38,38,39,39,40,40,41,41,42,42,43,43,44,44,45,45,46,46,47,47,48,48,49,49,50,50,51,51,52,52,53,53,54,54,55,55,56,56,57,57,58,58,59,59,60,60,61,61],"right_children":[2,4,6,8,10,12,14,16,18,20,22,24,26,28,30,32,34,36,38,40,42,44,46,48,50,52,54,56,58,60,62,64,66,68,70,72,74,76,78,80,82,84,86,88,90,92,94,96,98,100,102,104,106,108,110,112,114,116,118,120,122,124,-1,-1,-1,-1,-1,-1,-1,-1,-1,-1,-1,-1,-1,-1,-1,-1,-1,-1,-1,-1,-1,-1,-1,-1,-1,-1,-1,-1,-1,-1,-1,-1,-1,-1,-1,-1,-1,-1,-1,-1,-1,-1,-1,-1,-1,-1,-1,-1,-1,-1,-1,-1,-1,-1,-1,-1,-1,-1,-1,-1,-1,-1,-1],"split_conditions":[1.5E1,9.4E0,1.12E1,4.4E0,1E1,5.9E0,1.51E1,4E0,4.8421054E0,5.8125E0,3.7E0,1.6E1,1.4E1,1.0365853E1,2.02E1,2.6666667E0,8E0,1.8708287E0,1.3333334E0,5E0,2.1E1,7E1,7.6E0,3.3E0,4.6E0,1.3333334E0,5E0,1E1,1.7E1,4.3E1,4.6333332E1,1.10116104E2,2.280351E0,1.124E2,4.185185E0,7.6E0,1.1814634E2,4.8E0,8.5E0,4.494441E0,1.8E0,6E0,8E0,1.1E1,1.32E1,4.3333335E0,2.03E2,7.6666665E0,1E1,2.59E1,1.82E1,1.3333333E1,8.020409E0,1.2666667E1,6.2168674E0,1.208E2,8.357615E0,1.26E1,2E1,2.1524822E1,4.3666668E1,3.2E2,-1.2182713E-2,-7.3509194E-2,-7.3509194E-2,-7.3509194E-2,-7.3509194E-2,-7.3509194E-2,-7.3509194E-2,-7.3509194E-2,-7.3509194E-2,-7.3509194E-2,-7.3509194E-2,-7.3509194E-2,-7.3509194E-2,-7.3509194E-2,-7.3509194E-2,-7.3509194E-2,-7.3509194E-2,-7.3509194E-2,-7.3509194E-2,-7.3509194E-2,-7.3509194E-2,-7.3509194E-2,-7.3509194E-2,-7.51886E-2,1.2231638E-1,-7.3509194E-2,-7.3509194E-2,-7.3509194E-2,-7.3509194E-2,-7.3509194E-2,-7.3509194E-2,5.0465446E-3,-9.395396E-2,-7.3509194E-2,-7.3509194E-2,-7.3509194E-2,-7.3509194E-2,-7.3509194E-2,-7.3509194E-2,-7.3509194E-2,-3.542234E-2,-7.435227E-2,2.4811406E-2,-7.51886E-2,-7.34842E-2,-8.2575865E-2,8.399528E-3,-8.734562E-2,-1.0811658E-2,-8.281603E-2,-8.826445E-2,8.168664E-2,3.358039E-2,-1.1302946E-2,1.14956155E-1,1.11928724E-1,1.5408564E-1,1.916673E-1,3.4988055E-1,-6.909052E-2,1.916673E-1,4.1781732E-1,-1.9358803E-2],"split_indices":[7,7,2,7,9,2,2,12,12,12,2,9,9,12,1,6,15,13,2,10,5,15,2,2,1,0,15,9,9,6,6,17,13,19,12,7,17,7,8,13,1,5,1,9,8,0,15,12,6,8,7,6,12,6,12,18,12,2,3,12,6,15,0,0,0,0,0,0,0,0,0,0,0,0,0,0,0,0,0,0,0,0,0,0,0,0,0,0,0,0,0,0,0,0,0,0,0,0,0,0,0,0,0,0,0,0,0,0,0,0,0,0,0,0,0,0,0,0,0,0,0,0,0,0,0],"split_type":[0,0,0,0,0,0,0,0,0,0,0,0,0,0,0,0,0,0,0,0,0,0,0,0,0,0,0,0,0,0,0,0,0,0,0,0,0,0,0,0,0,0,0,0,0,0,0,0,0,0,0,0,0,0,0,0,0,0,0,0,0,0,0,0,0,0,0,0,0,0,0,0,0,0,0,0,0,0,0,0,0,0,0,0,0,0,0,0,0,0,0,0,0,0,0,0,0,0,0,0,0,0,0,0,0,0,0,0,0,0,0,0,0,0,0,0,0,0,0,0,0,0,0,0,0],"sum_hessian":[6.1027E4,1.1818E4,4.9209E4,4.744E3,7.074E3,2.1843E4,2.7366E4,1.107E3,3.637E3,2.333E3,4.741E3,4.914E3,1.6929E4,1.0084E4,1.7282E4,8.11E2,2.96E2,2.296E3,1.341E3,1.364E3,9.69E2,1.383E3,3.358E3,1.462E3,3.452E3,1.472E3,1.5457E4,2.455E3,7.629E3,8.081E3,9.201E3,2.27E2,5.84E2,2.26E2,7E1,8.4E2,1.456E3,5.1E1,1.29E3,1.85E2,1.179E3,9.59E2,1E1,1.357E3,2.6E1,2.85E3,5.08E2,2.18E2,1.244E3,1.194E3,2.258E3,1.4E1,1.458E3,1.4393E4,1.064E3,3.7E1,2.418E3,2.97E2,7.332E3,8.073E3,8E0,9.2E3,1E0,2.1E1,2.06E2,4.82E2,1.02E2,8.5E1,1.41E2,1.1E1,5.9E1,6.23E2,2.17E2,1.226E3,2.3E2,9E0,4.2E1,4.35E2,8.55E2,1.26E2,5.9E1,1.06E2,1.073E3,5.7E2,3.89E2,8E0,2E0,1.23E2,1.234E3,2.1E1,5E0,9.42E2,1.908E3,5.05E2,3E0,1.98E2,2E1,2.5E1,1.219E3,1.137E3,5.7E1,7.64E2,1.494E3,1.2E1,2E0,8.28E2,6.3E2,5.2E1,1.4341E4,1.58E2,9.06E2,2.7E1,1E1,8.95E2,1.523E3,1.51E2,1.46E2,6.214E3,1.118E3,7.188E3,8.85E2,2E0,6E0,9.199E3,1E0],"tree_param":{"num_deleted":"0","num_feature":"22","num_nodes":"125","size_leaf_vector":"1"}},{"base_weights":[-1.5557996E-2,-2.5236583E-1,2.6192917E-2,-3.5583973E-1,-1.8743762E-1,-5.860404E-2,5.4765843E-2,-4.0447298E-1,-2.68542E-1,-2.6838708E-1,-1.5207267E-1,-1.3769999E-1,-3.4994524E-2,2.6435921E-2,7.764245E-2,-4.8401898E-1,-3.7332514E-1,-3.6972788E-1,-2.3756449E-1,-3.8716576E-1,-2.5358787E-1,-2.0034781E-1,-1.1387362E-1,-1.9939332E-1,-1.0730616E-1,-7.794712E-2,-1.4797481E-2,-2.161629E-2,3.1067472E-2,6.606426E-2,8.678977E-2,-4.5117646E-1,-6.162602E-1,-3.2973298E-1,-4.175373E-1,-4.8804346E-1,-3.142857E-1,-7.118644E-2,-2.4807903E-1,-6.461538E-1,-3.167785E-1,-2.4223693E-1,-3.4782606E-1,-2.370909E-1,-1.6648167E-1,-1.374347E-1,-2.5757572E-2,-5.1666662E-2,-2.0870967E-1,-1.704044E-1,-8.3866574E-2,-1.316959E-1,-5.8449805E-2,-5.6603767E-2,-3.7345127E-3,-7.804877E-2,-8.495142E-3,2.056703E-2,4.9832247E-2,3.5792023E-2,6.895554E-2,8.6872235E-2,-2.2499999E-2,-2.3066131E-2,4.1666682E-4,-2.1860464E-2,-3.5185184E-2,-1.9694323E-2,-1.522651E-2,-2.2184683E-2,-1.4460431E-2,-2.5738636E-2,4E-3,-8.84058E-3,-1.911111E-2,-2.5999999E-2,-1.4545453E-3,-1.454241E-2,-1.03125E-2,3.3333336E-3,-3.4324326E-2,-1.980198E-2,-7.346939E-3,-1.9672131E-2,-1.1747497E-2,-2.0041665E-2,-9.404762E-3,-1.4939024E-2,-1.0525862E-2,-1.0158415E-2,-5.969773E-3,-9.729966E-3,-5.43913E-3,-2.6874999E-2,-8.351646E-4,-1.076923E-2,-3.1249982E-4,-1.0768805E-2,1.1111113E-3,-8.024344E-3,-3.181818E-2,-8.293839E-3,-3.5027799E-3,-1.0620805E-2,-4.4175624E-3,-4.0943525E-3,-1.0494504E-3,-5.0945375E-3,-1.6997906E-3,-2.8229663E-3,1.5889628E-4,-1.4030611E-3,-9.184782E-3,1.3425945E-4,-4.2675156E-3,5.8870186E-4,1.4648555E-3,-1.165644E-3,2.5995276E-3,-7.2E-3,2.067248E-3,-2.2499999E-2,3.4533874E-3,4.3477356E-3,-2.2499999E-2],"categories":[],"categories_nodes":[],"categories_segments":[],"categories_sizes":[],"default_left":[0,0,0,0,0,0,0,0,0,0,0,0,0,0,0,0,0,0,0,0,0,0,0,0,0,0,0,0,0,0,0,0,0,0,0,0,0,0,0,0,0,0,0,0,0,0,0,0,0,0,0,0,0,0,0,0,0,0,0,0,0,0,0,0,0,0,0,0,0,0,0,0,0,0,0,0,0,0,0,0,0,0,0,0,0,0,0,0,0,0,0,0,0,0,0,0,0,0,0,0,0,0,0,0,0,0,0,0,0,0,0,0,0,0,0,0,0,0,0,0,0,0,0,0,0],"id":7,"left_children":[1,3,5,7,9,11,13,15,17,19,21,23,25,27,29,31,33,35,37,39,41,43,45,47,49,51,53,55,57,59,61,63,65,67,69,71,73,75,77,79,81,83,85,87,89,91,93,95,97,99,101,103,105,107,109,111,113,115,117,119,121,123,-1,-1,-1,-1,-1,-1,-1,-1,-1,-1,-1,-1,-1,-1,-1,-1,-1,-1,-1,-1,-1,-1,-1,-1,-1,-1,-1,-1,-1,-1,-1,-1,-1,-1,-1,-1,-1,-1,-1,-1,-1,-1,-1,-1,-1,-1,-1,-1,-1,-1,-1,-1,-1,-1,-1,-1,-1,-1,-1,-1,-1,-1,-1],"loss_changes":[6.022598E2,6.1272034E1,1.2547293E2,1.4831543E1,1.6025085E1,2.4368713E1,2.5101158E1,5.4139404E0,3.8678894E0,2.8989182E0,7.183792E0,5.6038895E0,8.719979E0,3.85223E0,2.2638092E0,2.4668121E0,2.9980316E0,1.7751579E0,1.6774979E0,3.2042236E0,1.5406113E0,2.1070251E0,4.5306835E0,1.3503532E0,2.9614487E0,3.3614845E0,3.1628375E0,1.1263156E0,3.1092272E0,8.2569885E-1,5.6884E-1,2.3815994E0,1.6181259E0,1.212326E0,2.570404E0,1.4380531E0,1.8283386E0,1.0995624E0,1.5697861E0,1.1670151E0,1.9475965E0,1.4049454E0,1.287775E0,1.2895432E0,1.5321636E0,2.8009071E0,2.13168E0,4.4478524E-1,1.436512E0,2.4117832E0,1.6522293E0,2.9726973E0,2.071187E0,1.4616604E0,1.9715273E0,1.5105007E0,1.0622823E0,7.7673244E-1,8.952255E-1,8.3160865E-1,5.339813E-1,5.689926E-1,0E0,0E0,0E0,0E0,0E0,0E0,0E0,0E0,0E0,0E0,0E0,0E0,0E0,0E0,0E0,0E0,0E0,0E0,0E0,0E0,0E0,0E0,0E0,0E0,0E0,0E0,0E0,0E0,0E0,0E0,0E0,0E0,0E0,0E0,0E0,0E0,0E0,0E0,0E0,0E0,0E0,0E0,0E0,0E0,0E0,0E0,0E0,0E0,0E0,0E0,0E0,0E0,0E0,0E0,0E0,0E0,0E0,0E0,0E0,0E0,0E0,0E0,0E0],"parents":[2147483647,0,0,1,1,2,2,3,3,4,4,5,5,6,6,7,7,8,8,9,9,10,10,11,11,12,12,13,13,14,14,15,15,16,16,17,17,18,18,19,19,20,20,21,21,22,22,23,23,24,24,25,25,26,26,27,27,28,28,29,29,30,30,31,31,32,32,33,33,34,34,35,35,36,36,37,37,38,38,39,39,40,40,41,41,42,42,43,43,44,44,45,45,46,46,47,47,48,48,49,49,50,50,51,51,52,52,53,53,54,54,55,55,56,56,57,57,58,58,59,59,60,60,61,61],"right_children":[2,4,6,8,10,12,14,16,18,20,22,24,26,28,30,32,34,36,38,40,42,44,46,48,50,52,54,56,58,60,62,64,66,68,70,72,74,76,78,80,82,84,86,88,90,92,94,96,98,100,102,104,106,108,110,112,114,116,118,120,122,124,-1,-1,-1,-1,-1,-1,-1,-1,-1,-1,-1,-1,-1,-1,-1,-1,-1,-1,-1,-1,-1,-1,-1,-1,-1,-1,-1,-1,-1,-1,-1,-1,-1,-1,-1,-1,-1,-1,-1,-1,-1,-1,-1,-1,-1,-1,-1,-1,-1,-1,-1,-1,-1,-1,-1,-1,-1,-1,-1,-1,-1,-1,-1],"split_conditions":[1.3E1,7.3333335E0,7.8E0,4.59375E0,4.185185E0,4.4E0,1.33E1,1E0,1.4E0,1.4E0,1E1,1.5E1,1.7E1,1.6E1,1.81E1,1.192E2,1E0,1.128125E2,2.3E1,5E0,1.8E1,5.985507E0,8.145162E0,9E0,3E0,5.357143E0,1.7666666E1,1E1,1.12E1,1.02047615E1,4.6333332E1,1.3E1,1.1625026E2,3.6666667E0,1.204E2,1.0428572E1,1.1502542E2,3.3333333E0,5.985507E0,4.3E0,1.17E2,1.032E2,1.2E1,3.4E0,4.6E0,1.0333333E1,1.4E0,1.3666667E1,9.613793E0,3E1,1.1E1,1.2E1,1.165E2,5.660606E0,4.8421054E0,2.7E1,1.7E1,1E0,1.8666666E1,9.6E0,1.3333333E1,5.5E1,-1.1573577E-2,-6.983373E-2,-4.983373E-2,-6.983373E-2,-6.983373E-2,-6.983373E-2,-6.983373E-2,-6.983373E-2,-6.983373E-2,-6.983373E-2,3.0166268E-2,-6.983373E-2,-6.983373E-2,-6.983373E-2,-6.983373E-2,-6.983373E-2,-6.983373E-2,3.0166268E-2,-6.983373E-2,-6.983373E-2,-6.983373E-2,-6.983373E-2,-6.983373E-2,-6.983373E-2,-6.983373E-2,-6.983373E-2,-6.983373E-2,-6.983373E-2,-6.983373E-2,-6.983373E-2,-6.983373E-2,-6.983373E-2,-6.983373E-2,-6.983373E-2,-6.974323E-2,-6.983373E-2,-2.6595395E-3,-6.983373E-2,-6.983373E-2,-6.983373E-2,-6.983373E-2,-6.983373E-2,-6.983373E-2,-6.983373E-2,-6.9749765E-2,-6.983373E-2,-6.983373E-2,-7.173808E-2,3.0454658E-3,-7.142916E-2,-7.880536E-2,1.0970928E-3,-5.898579E-2,5.9170574E-3,4.0835332E-2,-6.2566996E-3,8.152548E-2,-1.0217031E-1,7.885634E-2,-9.12294E-2,1.5213083E-1,3.4692642E-1,-4.113139E-2],"split_indices":[6,6,2,12,12,2,2,1,1,1,9,9,9,9,2,19,14,17,16,9,11,12,12,16,1,12,6,9,2,12,6,9,20,6,18,12,17,6,12,8,18,18,6,2,1,6,1,6,12,11,10,9,19,12,12,10,5,14,6,1,6,10,0,0,0,0,0,0,0,0,0,0,0,0,0,0,0,0,0,0,0,0,0,0,0,0,0,0,0,0,0,0,0,0,0,0,0,0,0,0,0,0,0,0,0,0,0,0,0,0,0,0,0,0,0,0,0,0,0,0,0,0,0,0,0],"split_type":[0,0,0,0,0,0,0,0,0,0,0,0,0,0,0,0,0,0,0,0,0,0,0,0,0,0,0,0,0,0,0,0,0,0,0,0,0,0,0,0,0,0,0,0,0,0,0,0,0,0,0,0,0,0,0,0,0,0,0,0,0,0,0,0,0,0,0,0,0,0,0,0,0,0,0,0,0,0,0,0,0,0,0,0,0,0,0,0,0,0,0,0,0,0,0,0,0,0,0,0,0,0,0,0,0,0,0,0,0,0,0,0,0,0,0,0,0,0,0,0,0,0,0,0,0],"sum_hessian":[6.0913E4,9.129E3,5.1784E4,3.518E3,5.611E3,1.3051E4,3.8733E4,2.257E3,1.261E3,1.704E3,3.907E3,2.999E3,1.0052E4,1.7305E4,2.1428E4,6.31E2,1.626E3,2.93E2,9.68E2,1.86E2,1.518E3,1.724E3,2.183E3,9.88E2,2.011E3,3.214E3,6.838E3,1.521E3,1.5784E4,9.461E3,1.1967E4,5.09E2,1.22E2,8.23E2,8.03E2,9.1E1,2.02E2,5.8E1,9.1E2,3.8E1,1.48E2,1.358E3,1.6E2,8.24E2,9E2,1.722E3,4.61E2,5.9E1,9.29E2,5.43E2,1.468E3,8.54E2,2.36E3,1.43E3,5.408E3,2.86E2,1.235E3,1.0122E4,5.662E3,8.26E2,8.635E3,1.1966E4,1E0,4.98E2,1.1E1,4.2E1,8E1,2.28E2,5.95E2,6.65E2,1.38E2,8.7E1,4E0,6.8E1,1.34E2,4E0,5.4E1,4.47E2,4.63E2,2E0,3.6E1,1E2,4.8E1,6E1,1.298E3,1.19E2,4.1E1,2.45E2,5.79E2,5.04E2,3.96E2,5.73E2,1.149E3,7E0,4.54E2,1.2E1,4.7E1,9.03E2,2.6E1,5.33E2,1E1,2.1E2,1.258E3,2.97E2,5.57E2,1.451E3,9.09E2,4.75E2,9.55E2,6.26E2,4.782E3,1.95E2,9.1E1,1.079E3,1.56E2,5.044E3,5.078E3,1.62E2,5.5E3,2.4E1,8.02E2,1E0,8.634E3,1.1965E4,1E0],"tree_param":{"num_deleted":"0","num_feature":"22","num_nodes":"125","size_leaf_vector":"1"}},{"base_weights":[-1.4803824E-2,-2.1631493E-1,3.2541998E-2,-3.2073802E-1,-1.3148119E-1,-1.3456209E-2,6.954061E-2,-4.071713E-1,-2.7658832E-1,-1.9921513E-1,-9.686468E-2,-1.0466115E-1,1.0629938E-3,5.638149E-2,8.540928E-2,-4.4071308E-1,-3.3315217E-1,-3.362857E-1,-2.503336E-1,-1.7289442E-1,-2.9106027E-1,-8.2063615E-2,-2.069721E-1,-1.7457446E-1,-7.3106416E-2,-3.2237988E-2,1.3418948E-2,-5.1635075E-3,5.886195E-2,8.5488684E-2,-2.2499999E-2,-4.556489E-1,-3.1985292E-1,-4.3377775E-1,-2.6310974E-1,-4.5668447E-1,-3.0983797E-1,-2.9632074E-1,-2.1374159E-1,-2.1666665E-1,-1.1568894E-1,-2.6959458E-1,-5.342105E-1,-1.2297994E-1,-4.62694E-2,-3.956989E-1,-1.6365853E-1,-2.2328518E-1,-1.0439276E-1,-9.753178E-2,-2.9466663E-2,-8.044579E-2,-2.0784216E-2,-6.7203734E-3,2.5099741E-2,-2.7407408E-1,7.927932E-3,2.7963528E-2,6.113225E-2,4.4673543E-2,8.6461514E-2,-1.5954545E-2,-2.35395E-2,-1.8024193E-2,4.6153846E-3,-1.3913043E-2,-2.4968153E-2,-1.0340425E-2,-2.0053191E-2,-1.7938932E-2,-3.368421E-2,-1.8108107E-2,-1.3133188E-2,-1.1166667E-2,-1.6915051E-2,-5.3666662E-3,-1.1348739E-2,-1.0573857E-2,-2.7500002E-2,-2.199074E-3,-7.2683394E-3,-2.201923E-2,-1.2315522E-2,-2.9428571E-2,3.7500001E-3,-7.416751E-3,-4.476821E-3,-1.2285714E-2,-2.1344877E-3,-2.6666665E-2,-8.648648E-3,-6.9859154E-3,-1.5625E-2,-2.4482759E-2,-1.0408745E-2,-4.587766E-3,-2.4583332E-2,-4.661597E-3,-1.6956521E-2,-3.9484124E-3,-2.204407E-4,-3.2077765E-3,-8.060606E-3,-3.6429607E-3,-5.2176404E-4,-2.8849923E-4,-2.0416668E-2,1.5299136E-3,-8.019322E-4,-2.4705881E-2,4.545455E-3,1.5647924E-3,-2.8571428E-3,-7.046069E-4,2.6494346E-3,3.105912E-3,-5.8333314E-4,-1.7142856E-2,2.7017544E-3,4.0318305E-3,4.6490463E-3],"categories":[],"categories_nodes":[],"categories_segments":[],"categories_sizes":[],"default_left":[0,0,0,0,0,0,0,0,0,0,0,0,0,0,0,0,0,0,0,0,0,0,0,0,0,0,0,0,0,0,0,0,0,0,0,0,0,0,0,0,0,0,0,0,0,0,0,0,0,0,0,0,0,0,0,0,0,0,0,0,0,0,0,0,0,0,0,0,0,0,0,0,0,0,0,0,0,0,0,0,0,0,0,0,0,0,0,0,0,0,0,0,0,0,0,0,0,0,0,0,0,0,0,0,0,0,0,0,0,0,0,0,0,0,0,0,0,0,0,0,0],"id":8,"left_children":[1,3,5,7,9,11,13,15,17,19,21,23,25,27,29,31,33,35,37,39,41,43,45,47,49,51,53,55,57,59,-1,61,63,65,67,69,71,73,75,77,79,81,83,85,87,89,91,93,95,97,99,101,103,105,107,109,111,113,115,117,119,-1,-1,-1,-1,-1,-1,-1,-1,-1,-1,-1,-1,-1,-1,-1,-1,-1,-1,-1,-1,-1,-1,-1,-1,-1,-1,-1,-1,-1,-1,-1,-1,-1,-1,-1,-1,-1,-1,-1,-1,-1,-1,-1,-1,-1,-1,-1,-1,-1,-1,-1,-1,-1,-1,-1,-1,-1,-1,-1,-1],"loss_changes":[5.82162E2,1.0279736E2,8.409033E1,1.9742004E1,1.5003281E1,2.9168774E1,5.713455E0,4.215332E0,5.3184204E0,5.185829E0,6.8962364E0,6.660675E0,7.819511E0,2.2860832E0,5.661087E-1,2.0312653E0,3.7764015E0,3.2019882E0,3.971939E0,4.196697E0,2.3665047E0,5.473257E0,4.038805E0,3.190178E0,2.2206287E0,2.8380923E0,3.260875E0,2.0475404E0,1.0079384E0,4.8892975E-1,0E0,2.064209E0,2.3107939E0,2.155964E0,2.4646282E0,3.7312088E0,2.037529E0,3.1723251E0,1.8611145E0,1.5339546E0,1.5535202E0,1.6571846E0,1.302598E0,1.4664135E0,1.4152522E0,2.7586403E0,1.4172897E0,2.1278763E0,1.8489237E0,1.3573074E0,9.299543E-1,1.2882586E0,2.239533E0,1.940057E0,1.9849496E0,2.213349E0,8.457039E-1,1.0395148E0,9.630699E-1,1.0742415E0,4.5279694E-1,0E0,0E0,0E0,0E0,0E0,0E0,0E0,0E0,0E0,0E0,0E0,0E0,0E0,0E0,0E0,0E0,0E0,0E0,0E0,0E0,0E0,0E0,0E0,0E0,0E0,0E0,0E0,0E0,0E0,0E0,0E0,0E0,0E0,0E0,0E0,0E0,0E0,0E0,0E0,0E0,0E0,0E0,0E0,0E0,0E0,0E0,0E0,0E0,0E0,0E0,0E0,0E0,0E0,0E0,0E0,0E0,0E0,0E0,0E0,0E0],"parents":[2147483647,0,0,1,1,2,2,3,3,4,4,5,5,6,6,7,7,8,8,9,9,10,10,11,11,12,12,13,13,14,14,15,15,16,16,17,17,18,18,19,19,20,20,21,21,22,22,23,23,24,24,25,25,26,26,27,27,28,28,29,29,31,31,32,32,33,33,34,34,35,35,36,36,37,37,38,38,39,39,40,40,41,41,42,42,43,43,44,44,45,45,46,46,47,47,48,48,49,49,50,50,51,51,52,52,53,53,54,54,55,55,56,56,57,57,58,58,59,59,60,60],"right_children":[2,4,6,8,10,12,14,16,18,20,22,24,26,28,30,32,34,36,38,40,42,44,46,48,50,52,54,56,58,60,-1,62,64,66,68,70,72,74,76,78,80,82,84,86,88,90,92,94,96,98,100,102,104,106,108,110,112,114,116,118,120,-1,-1,-1,-1,-1,-1,-1,-1,-1,-1,-1,-1,-1,-1,-1,-1,-1,-1,-1,-1,-1,-1,-1,-1,-1,-1,-1,-1,-1,-1,-1,-1,-1,-1,-1,-1,-1,-1,-1,-1,-1,-1,-1,-1,-1,-1,-1,-1,-1,-1,-1,-1,-1,-1,-1,-1,-1,-1,-1,-1],"split_conditions":[5.1E0,1E1,1.12E1,2.1E0,3.3E0,1.3E1,1.78E1,1.6666666E0,3.652174E0,4E0,5E0,4E0,6.9E0,1.7E1,5.5E1,1E1,4.9E0,1.67332E0,8E0,1.7E1,1.93E2,1.7E1,1.02E1,6.925373E0,8.020409E0,1.3E1,2.2E1,6.821429E0,9E0,1.01E2,-3.9074816E-2,2.3E1,2.71E2,2E0,1.78E2,1.1659717E2,8E0,8.5E0,2.3E1,2.31E2,2E0,2E0,3.2E0,4.4E0,8.2E0,8E0,4.4E1,3.5454545E0,7E0,1.288E2,7.1E0,4E0,5.1059604E0,4.2E1,4E0,7E0,1.181E2,1.1272727E1,5.5E1,2.1E1,2.19E1,-6.634205E-2,-6.634205E-2,-6.634205E-2,4.8657957E-2,-6.634205E-2,-6.634205E-2,-6.634205E-2,-6.634205E-2,-6.634205E-2,-6.634205E-2,-6.634205E-2,-6.634205E-2,-6.634205E-2,-6.634205E-2,-6.634205E-2,-6.634205E-2,-6.634205E-2,-6.8357274E-2,-6.634205E-2,-6.634205E-2,-6.634205E-2,-6.634205E-2,-6.634205E-2,3.3657957E-2,-6.634205E-2,-6.634205E-2,-6.741673E-2,-6.634205E-2,-6.852535E-2,-6.634205E-2,-6.634205E-2,-6.678482E-2,-6.634205E-2,-6.634205E-2,-6.634205E-2,-8.1563525E-2,-6.634205E-2,-7.056096E-2,-6.634205E-2,-2.249688E-2,-6.634205E-2,-6.9017045E-2,-6.8604544E-2,-3.319604E-2,-3.4492537E-3,-1.0410209E-1,3.8776666E-2,-6.5353634E-3,-1.1711549E-1,1.11096166E-1,3.5604652E-2,-4.0377915E-2,-1.4898068E-2,6.95745E-2,1.2101697E-1,-6.1828378E-3,-1.9304536E-1,2.4669519E-1,2.6697698E-1,4.2958012E-1],"split_indices":[2,9,2,2,2,9,2,0,12,15,15,0,2,9,10,11,8,13,10,9,15,9,8,12,12,11,9,12,0,18,0,21,21,0,21,20,11,8,16,16,15,12,2,2,8,11,15,12,3,18,2,15,12,11,15,3,19,12,15,10,12,0,0,0,0,0,0,0,0,0,0,0,0,0,0,0,0,0,0,0,0,0,0,0,0,0,0,0,0,0,0,0,0,0,0,0,0,0,0,0,0,0,0,0,0,0,0,0,0,0,0,0,0,0,0,0,0,0,0,0,0],"split_type":[0,0,0,0,0,0,0,0,0,0,0,0,0,0,0,0,0,0,0,0,0,0,0,0,0,0,0,0,0,0,0,0,0,0,0,0,0,0,0,0,0,0,0,0,0,0,0,0,0,0,0,0,0,0,0,0,0,0,0,0,0,0,0,0,0,0,0,0,0,0,0,0,0,0,0,0,0,0,0,0,0,0,0,0,0,0,0,0,0,0,0,0,0,0,0,0,0,0,0,0,0,0,0,0,0,0,0,0,0,0,0,0,0,0,0,0,0,0,0,0,0],"sum_hessian":[6.1017E4,1.1608E4,4.9409E4,5.202E3,6.406E3,2.2026E4,2.7383E4,1.756E3,3.446E3,2.165E3,4.241E3,3.024E3,1.9002E4,1.4972E4,1.2411E4,1.205E3,5.51E2,1.049E3,2.397E3,1.685E3,4.8E2,3.74E3,5.01E2,9.39E2,2.085E3,5.142E3,1.386E4,5.8E2,1.4392E4,1.241E4,1E0,1.07E3,1.35E2,2.24E2,3.27E2,1.86E2,8.63E2,1.059E3,1.338E3,9.53E2,7.32E2,4.43E2,3.7E1,1.744E3,1.996E3,9.2E1,4.09E2,5.53E2,3.86E2,1.336E3,7.49E2,9.86E2,4.156E3,5.088E3,8.772E3,2.6E1,5.54E2,9.86E2,1.3406E4,2.9E2,1.212E4,1.09E2,9.61E2,1.23E2,1.2E1,6.8E1,1.56E2,2.34E2,9.3E1,1.3E2,5.6E1,4.06E2,4.57E2,3.89E2,6.7E2,1.49E2,1.189E3,9.4E2,1.3E1,2.15E2,5.17E2,5.1E1,3.92E2,3.4E1,3E0,9.9E2,7.54E2,3.4E1,1.962E3,5.6E1,3.6E1,3.54E2,5.5E1,2.8E1,5.25E2,3.75E2,1.1E1,1.314E3,2.2E1,2.51E2,4.98E2,8.22E2,1.64E2,6.88E2,3.468E3,5.077E3,1.1E1,7.738E3,1.034E3,1.6E1,1E1,4.08E2,1.46E2,3.68E2,6.18E2,1.3227E4,1.79E2,6E0,2.84E2,6.408E3,5.712E3],"tree_param":{"num_deleted":"0","num_feature":"22","num_nodes":"121","size_leaf_vector":"1"}},{"base_weights":[-1.7222555E-2,-2.2121704E-1,3.1094672E-2,-3.1844607E-1,-1.2933932E-1,-3.2708492E-2,5.6722738E-2,-4.0314433E-1,-2.743912E-1,-2.4898446E-1,-1.09955534E-1,-1.1783365E-1,-1.3658786E-2,3.1568397E-2,7.75889E-2,-4.5837379E-1,-3.6204118E-1,-3.2808542E-1,-2.468472E-1,-1.9793458E-1,-3.6342412E-1,-1.5483716E-1,-7.9552814E-2,-2.9834253E-1,-1.0419958E-1,-7.370316E-2,-5.4593706E-3,-8.3737016E-2,3.369281E-2,6.900839E-2,8.71347E-2,-3.8993055E-1,-4.9422717E-1,-3.207581E-1,-4.0195033E-1,-2.559292E-1,-3.8585714E-1,-3.9374998E-1,-2.3766623E-1,-1.7702447E-1,-4.1176468E-1,-4.0320855E-1,-2.535211E-1,-1.4781529E-1,-3.4133333E-1,-7.2069906E-2,-2.0828402E-1,-7.941176E-2,-3.466216E-1,-1.6949151E-1,-8.565333E-2,-5.6010447E-2,-1.5767634E-1,-3.9305175E-3,-1.7282608E-1,-3.272727E-1,-5.2140072E-2,6.177028E-3,3.9302453E-2,6.910401E-2,-2.2499999E-2,8.724316E-2,-2.2499999E-2,-2.0674158E-2,-4.3181814E-3,-3.0485436E-2,-2.3287356E-2,-1.8312342E-2,-1.0221519E-2,-3.533333E-2,-1.9645454E-2,-1.4365591E-2,-5.4455446E-3,-2.0935673E-2,-1.4707446E-2,-2.1737289E-2,-1E-2,-1.1617712E-2,-2.352941E-2,-1.1750973E-2,-6.1090905E-3,-2.465909E-2,4.375E-3,-4.5454544E-3,-2.1016948E-2,-1.8875001E-2,-4.53125E-3,-7.7585294E-3,-9.545453E-4,-2.6710525E-2,-6.973684E-3,-5.600165E-3,-2.1917007E-3,-5.5232556E-3,-1.5297619E-2,-2.0625E-2,1.1111113E-3,-2.19375E-2,-1.173913E-2,-1.2146118E-2,-5.878594E-3,-4.686951E-3,-1.197603E-4,-4.5206486E-3,-3.1847117E-4,-2.875E-2,-6.760869E-3,-1.8281533E-3,1.209249E-4,-1.9354839E-2,-3.1451609E-3,4.5000003E-3,-2.4375E-2,-1.9308942E-3,-1.625E-2,4.2475916E-5,3.8858696E-3,2.103548E-3,9.465497E-5,1.671687E-3,3.5152507E-3,1.5966388E-3,4.398308E-3],"categories":[],"categories_nodes":[],"categories_segments":[],"categories_sizes":[],"default_left":[0,0,0,0,0,0,0,0,0,0,0,0,0,0,0,0,0,0,0,0,0,0,0,0,0,0,0,0,0,0,0,0,0,0,0,0,0,0,0,0,0,0,0,0,0,0,0,0,0,0,0,0,0,0,0,0,0,0,0,0,0,0,0,0,0,0,0,0,0,0,0,0,0,0,0,0,0,0,0,0,0,0,0,0,0,0,0,0,0,0,0,0,0,0,0,0,0,0,0,0,0,0,0,0,0,0,0,0,0,0,0,0,0,0,0,0,0,0,0,0,0,0,0],"id":9,"left_children":[1,3,5,7,9,11,13,15,17,19,21,23,25,27,29,31,33,35,37,39,41,43,45,47,49,51,53,55,57,59,61,63,65,67,69,71,73,75,77,79,81,83,85,87,89,91,93,95,97,99,101,103,105,107,109,111,113,115,117,119,-1,121,-1,-1,-1,-1,-1,-1,-1,-1,-1,-1,-1,-1,-1,-1,-1,-1,-1,-1,-1,-1,-1,-1,-1,-1,-1,-1,-1,-1,-1,-1,-1,-1,-1,-1,-1,-1,-1,-1,-1,-1,-1,-1,-1,-1,-1,-1,-1,-1,-1,-1,-1,-1,-1,-1,-1,-1,-1,-1,-1,-1,-1],"loss_changes":[6.013783E2,1.0433417E2,8.066388E1,2.1068665E1,1.3908562E1,2.2923077E1,1.846997E1,4.2380676E0,5.445862E0,4.817932E0,7.046364E0,6.33078E0,5.6874714E0,3.9120827E0,1.5695724E0,1.8293304E0,1.7114105E0,5.170349E0,3.2431183E0,2.5248814E0,1.0214958E0,2.6838913E0,2.9576817E0,1.8856049E0,2.897747E0,2.053339E0,2.6005878E0,2.2067864E0,2.4186325E0,5.3406906E-1,5.6954193E-1,2.023426E0,1.4821777E0,2.8566742E0,1.2761765E0,2.5755196E0,1.9860764E0,1.0568333E0,2.774765E0,1.660183E0,2.1162367E0,9.622059E-1,1.3996825E0,1.9039116E0,2.8455505E0,3.2852974E0,1.5807977E0,1.1601715E0,1.4219131E0,1.9958782E0,1.2620258E0,1.9599519E0,2.1810594E0,2.0874727E0,2.1425488E0,2.2502048E0,9.3569297E-1,1.0118394E0,1.3480663E0,4.3178558E-1,0E0,3.611374E-1,0E0,0E0,0E0,0E0,0E0,0E0,0E0,0E0,0E0,0E0,0E0,0E0,0E0,0E0,0E0,0E0,0E0,0E0,0E0,0E0,0E0,0E0,0E0,0E0,0E0,0E0,0E0,0E0,0E0,0E0,0E0,0E0,0E0,0E0,0E0,0E0,0E0,0E0,0E0,0E0,0E0,0E0,0E0,0E0,0E0,0E0,0E0,0E0,0E0,0E0,0E0,0E0,0E0,0E0,0E0,0E0,0E0,0E0,0E0,0E0,0E0],"parents":[2147483647,0,0,1,1,2,2,3,3,4,4,5,5,6,6,7,7,8,8,9,9,10,10,11,11,12,12,13,13,14,14,15,15,16,16,17,17,18,18,19,19,20,20,21,21,22,22,23,23,24,24,25,25,26,26,27,27,28,28,29,29,30,30,31,31,32,32,33,33,34,34,35,35,36,36,37,37,38,38,39,39,40,40,41,41,42,42,43,43,44,44,45,45,46,46,47,47,48,48,49,49,50,50,51,51,52,52,53,53,54,54,55,55,56,56,57,57,58,58,59,59,61,61],"right_children":[2,4,6,8,10,12,14,16,18,20,22,24,26,28,30,32,34,36,38,40,42,44,46,48,50,52,54,56,58,60,62,64,66,68,70,72,74,76,78,80,82,84,86,88,90,92,94,96,98,100,102,104,106,108,110,112,114,116,118,120,-1,122,-1,-1,-1,-1,-1,-1,-1,-1,-1,-1,-1,-1,-1,-1,-1,-1,-1,-1,-1,-1,-1,-1,-1,-1,-1,-1,-1,-1,-1,-1,-1,-1,-1,-1,-1,-1,-1,-1,-1,-1,-1,-1,-1,-1,-1,-1,-1,-1,-1,-1,-1,-1,-1,-1,-1,-1,-1,-1,-1,-1,-1],"split_conditions":[5.1E0,1.1E1,8.9E0,2.2E0,9.4E0,1.3E1,1.42E1,4.4E0,6E0,4E0,3.7E0,8.6E0,1.5E1,1E1,2E1,9.6E1,1.4E2,8.7E0,1.4142135E0,1.2E1,8E0,1.4E1,9E0,8.2E1,6E0,4E0,1.94E2,7E0,2E1,5.4E1,3.51E2,4E0,2.6E0,3E0,1.09279526E2,3.7E0,5E0,9E0,2.9E1,6E0,1.7E1,1.0841745E2,1.1391983E2,1.1E1,1E0,1.7E1,3.847077E0,1.8708287E0,9E1,4.6E1,1.86E2,6.2E0,2E0,5.9E0,1.68E1,1.63E1,3.7E1,1.1935714E2,5E0,1.18E1,-3.712107E-2,2.7E1,-4.9086034E-2,-6.3024946E-2,-6.3024946E-2,-6.3024946E-2,-6.3024946E-2,-6.3024946E-2,-6.3024946E-2,-6.3024946E-2,-6.3024946E-2,-6.3024946E-2,-6.3024946E-2,-6.3024946E-2,-6.3024946E-2,-6.3024946E-2,-6.3024946E-2,-6.3024946E-2,-6.3024946E-2,-6.3024946E-2,-6.3024946E-2,-6.3024946E-2,8.697506E-2,-6.299934E-2,-6.3024946E-2,-6.3024946E-2,-6.3024946E-2,-6.3024946E-2,-6.3024946E-2,-6.3024946E-2,-6.3024946E-2,-6.3024946E-2,-6.3024946E-2,-6.3024946E-2,-6.3024946E-2,-6.3024946E-2,6.97506E-3,-6.3024946E-2,-6.3024946E-2,-6.3024946E-2,-6.3024946E-2,-6.3024946E-2,-6.294223E-2,-6.468224E-2,-2.0058567E-2,-6.674244E-2,-6.694474E-2,-6.468224E-2,1.0534449E-3,-7.2085634E-2,-7.8186825E-2,3.0329777E-2,-7.12315E-2,-6.437345E-2,-1.3691656E-1,1.5178055E-4,5.3187292E-2,6.747518E-2,4.7130953E-3,6.504736E-2,1.6539235E-1,2.05127E-1,3.662313E-1],"split_indices":[2,9,2,2,7,9,2,7,10,15,2,7,7,9,2,21,21,8,13,11,10,15,15,21,9,15,15,10,10,10,15,5,7,4,17,2,5,9,15,10,9,20,17,3,14,9,13,13,16,16,16,1,3,2,8,8,10,17,15,1,0,7,0,0,0,0,0,0,0,0,0,0,0,0,0,0,0,0,0,0,0,0,0,0,0,0,0,0,0,0,0,0,0,0,0,0,0,0,0,0,0,0,0,0,0,0,0,0,0,0,0,0,0,0,0,0,0,0,0,0,0,0,0],"split_type":[0,0,0,0,0,0,0,0,0,0,0,0,0,0,0,0,0,0,0,0,0,0,0,0,0,0,0,0,0,0,0,0,0,0,0,0,0,0,0,0,0,0,0,0,0,0,0,0,0,0,0,0,0,0,0,0,0,0,0,0,0,0,0,0,0,0,0,0,0,0,0,0,0,0,0,0,0,0,0,0,0,0,0,0,0,0,0,0,0,0,0,0,0,0,0,0,0,0,0,0,0,0,0,0,0,0,0,0,0,0,0,0,0,0,0,0,0,0,0,0,0,0,0],"sum_hessian":[6.1012E4,1.1683E4,4.9329E4,5.675E3,6.008E3,1.4136E4,3.5193E4,1.939E3,3.736E3,8.36E2,5.172E3,2.584E3,1.1552E4,1.5958E4,1.9235E4,8.23E2,1.116E3,1.263E3,2.473E3,5.8E2,2.56E2,2.087E3,3.085E3,1.8E2,2.404E3,1.387E3,1.0165E4,2.88E2,1.567E4,1.0134E4,9.101E3,2.87E2,5.36E2,5.53E2,5.63E2,5.64E2,6.99E2,1.43E2,2.33E3,5.3E2,5E1,1.86E2,7E1,2.013E3,7.4E1,2.917E3,1.68E2,3.3E1,1.47E2,5.3E2,1.874E3,1.147E3,2.4E2,1.0074E4,9.1E1,3.2E1,2.56E2,2.654E3,1.3016E4,1.0133E4,1E0,9.1E3,1E0,2.66E2,2.1E1,1.02E2,4.34E2,3.96E2,1.57E2,1.4E1,5.49E2,4.64E2,1E2,5.12E2,1.87E2,1.17E2,2.6E1,2.28E3,5E1,2.56E2,2.74E2,4.3E1,7E0,1E1,1.76E2,3.9E1,3.1E1,1.904E3,1.09E2,3.7E1,3.7E1,1.207E3,1.71E3,8.5E1,8.3E1,7E0,2.6E1,7.9E1,6.8E1,2.18E2,3.12E2,1.708E3,1.66E2,6.77E2,4.7E2,1.1E1,2.29E2,1.64E3,8.434E3,3E1,6.1E1,9E0,2.3E1,2.45E2,1.1E1,2.471E3,1.83E2,1.2119E4,8.97E2,3.31E2,9.802E3,1.18E2,8.982E3],"tree_param":{"num_deleted":"0","num_feature":"22","num_nodes":"123","size_leaf_vector":"1"}},{"base_weights":[-1.879291E-2,-2.2000843E-1,2.9696591E-2,-3.2009032E-1,-1.445776E-1,-1.3681463E-2,6.443639E-2,-3.771752E-1,-2.6617086E-1,-1.7948839E-1,-8.785409E-2,-7.7388875E-2,3.555456E-3,4.123699E-2,7.416186E-2,-4.5234984E-1,-3.4320045E-1,-3.003117E-1,-2.1216878E-1,-2.4673332E-1,-1.4184053E-1,-1.0422946E-1,-2.3032626E-2,-1.3857041E-1,-5.0724186E-2,-9.166666E-2,8.956418E-3,-8.275858E-3,4.4052925E-2,6.863084E-2,9.0952985E-2,-4.9127907E-1,-3.705179E-1,-3.5911906E-1,-2.5078738E-1,-3.9431137E-1,-2.753737E-1,-4.0249997E-1,-2.0418367E-1,-5.2452826E-1,-2.3639502E-1,-1.20966226E-1,-2.2206147E-1,-1.4407988E-1,-8.356669E-2,-1.559322E-1,-6.0475124E-3,-3.240876E-1,-1.18559115E-1,-9.623188E-2,-2.9398458E-2,-6.8888885E-1,-8.569869E-2,1.0789527E-2,-9.081632E-2,-1.381818E-1,1.0498691E-2,-3.2E-1,4.428572E-2,6.8760365E-2,-3.2E-1,9.1161035E-2,-2.2499999E-2,-2.4853228E-2,4.166667E-3,-2.875E-2,-1.5775E-2,-1.8813776E-2,-1.426259E-2,-2.525E-2,-1.1404255E-2,-2.0244649E-2,4.375E-3,-1.0677817E-2,-1.6242897E-2,-1.3703704E-2,-3.1071428E-2,-6.196808E-3,-1.1147541E-2,-2.7450979E-2,3.3333336E-3,-1.1612003E-2,-2.96875E-2,-7.8008473E-3,-3.871983E-3,-1.8010205E-2,-9.594298E-3,-1.0177419E-2,-4.8341835E-3,-5.3653214E-3,-1.70068E-3,1.9444445E-3,-1.1785714E-2,1.6816163E-4,-1.1944444E-2,-1.4008621E-2,-2.7045453E-2,-1.7205883E-2,-5.6149517E-3,-1E-2,-3.8794081E-3,-1.3576307E-3,-1.5882352E-2,-3.9375E-2,2.5000002E-3,-8.899521E-3,-2.9166664E-3,-6.011937E-4,8.6097774E-4,-8.4999995E-3,-1.3939393E-3,-1.5681818E-2,-1.0294116E-3,-3.9726025E-3,1.5857607E-3,-3E-2,3.3333336E-3,2.2550712E-3,-1.306818E-3,3.1496163E-3,3.7886915E-3,3.3333336E-3,-3E-2,-1.9999999E-3,4.5778058E-3],"categories":[],"categories_nodes":[],"categories_segments":[],"categories_sizes":[],"default_left":[0,0,0,0,0,0,0,0,0,0,0,0,0,0,0,0,0,0,0,0,0,0,0,0,0,0,0,0,0,0,0,0,0,0,0,0,0,0,0,0,0,0,0,0,0,0,0,0,0,0,0,0,0,0,0,0,0,0,0,0,0,0,0,0,0,0,0,0,0,0,0,0,0,0,0,0,0,0,0,0,0,0,0,0,0,0,0,0,0,0,0,0,0,0,0,0,0,0,0,0,0,0,0,0,0,0,0,0,0,0,0,0,0,0,0,0,0,0,0,0,0,0,0,0,0],"id":10,"left_children":[1,3,5,7,9,11,13,15,17,19,21,23,25,27,29,31,33,35,37,39,41,43,45,47,49,51,53,55,57,59,61,63,65,67,69,71,73,75,77,79,81,83,85,87,89,91,93,95,97,99,101,103,105,107,109,111,113,115,117,119,121,123,-1,-1,-1,-1,-1,-1,-1,-1,-1,-1,-1,-1,-1,-1,-1,-1,-1,-1,-1,-1,-1,-1,-1,-1,-1,-1,-1,-1,-1,-1,-1,-1,-1,-1,-1,-1,-1,-1,-1,-1,-1,-1,-1,-1,-1,-1,-1,-1,-1,-1,-1,-1,-1,-1,-1,-1,-1,-1,-1,-1,-1,-1,-1],"loss_changes":[5.9539825E2,8.9412476E1,7.4103386E1,1.5572754E1,1.336882E1,2.4015049E1,6.15786E0,6.155792E0,4.7704163E0,1.0554794E1,2.7330227E0,7.5903378E0,8.853313E0,1.1252441E0,1.7805252E0,2.2581787E0,2.4196167E0,3.6514587E0,1.4665108E0,4.183899E0,4.4676514E0,1.681736E0,1.1751177E0,5.2072506E0,3.1463938E0,3.234291E0,2.9803264E0,1.0623834E0,6.6114426E-1,7.5070953E-1,5.771942E-1,1.7568207E0,2.6423836E0,1.7340393E0,1.3507032E0,1.7382736E0,3.818596E0,9.543266E-1,1.4482613E0,8.0399513E-1,2.0121002E0,3.2405796E0,2.2360783E0,1.9561462E0,1.5926943E0,9.2621744E-1,1.0153339E0,1.1529312E0,1.7644997E0,1.9868164E0,1.42269E0,6.9513893E-1,2.3030634E0,2.3468199E0,1.4604464E0,1.1283208E0,7.296362E-1,5.813333E-1,4.3947315E-1,5.806732E-1,5.813333E-1,2.5047684E-1,0E0,0E0,0E0,0E0,0E0,0E0,0E0,0E0,0E0,0E0,0E0,0E0,0E0,0E0,0E0,0E0,0E0,0E0,0E0,0E0,0E0,0E0,0E0,0E0,0E0,0E0,0E0,0E0,0E0,0E0,0E0,0E0,0E0,0E0,0E0,0E0,0E0,0E0,0E0,0E0,0E0,0E0,0E0,0E0,0E0,0E0,0E0,0E0,0E0,0E0,0E0,0E0,0E0,0E0,0E0,0E0,0E0,0E0,0E0,0E0,0E0,0E0,0E0],"parents":[2147483647,0,0,1,1,2,2,3,3,4,4,5,5,6,6,7,7,8,8,9,9,10,10,11,11,12,12,13,13,14,14,15,15,16,16,17,17,18,18,19,19,20,20,21,21,22,22,23,23,24,24,25,25,26,26,27,27,28,28,29,29,30,30,31,31,32,32,33,33,34,34,35,35,36,36,37,37,38,38,39,39,40,40,41,41,42,42,43,43,44,44,45,45,46,46,47,47,48,48,49,49,50,50,51,51,52,52,53,53,54,54,55,55,56,56,57,57,58,58,59,59,60,60,61,61],"right_children":[2,4,6,8,10,12,14,16,18,20,22,24,26,28,30,32,34,36,38,40,42,44,46,48,50,52,54,56,58,60,62,64,66,68,70,72,74,76,78,80,82,84,86,88,90,92,94,96,98,100,102,104,106,108,110,112,114,116,118,120,122,124,-1,-1,-1,-1,-1,-1,-1,-1,-1,-1,-1,-1,-1,-1,-1,-1,-1,-1,-1,-1,-1,-1,-1,-1,-1,-1,-1,-1,-1,-1,-1,-1,-1,-1,-1,-1,-1,-1,-1,-1,-1,-1,-1,-1,-1,-1,-1,-1,-1,-1,-1,-1,-1,-1,-1,-1,-1,-1,-1,-1,-1,-1,-1],"split_conditions":[1.5E1,9.333333E0,1.12E1,2.6E0,5.1E0,5.8E0,1.42E1,4E0,4.3E0,1.1E1,7.8E0,1.6E1,1.2E1,1.7E1,2.37E1,2E0,4E0,3E0,1.4E0,1.3333334E0,4E0,1.1270359E2,1.12E1,3E0,4.3333335E0,3E0,1.8E1,1.5E1,8.944272E-1,2.77E2,4.5333332E1,3.5071356E0,1.12169044E2,1.17655556E2,1.094E2,1.1E1,3E0,1.3333334E0,1.1143321E2,2.8E1,3.2E1,1.7E1,9.4E0,5E0,6.2E0,1.115E2,1.13E1,1.198E2,5E0,1.6E1,3.8E1,9.8E0,6E0,1.9333334E1,8.4E0,1.1326667E2,2E0,2.8E1,3.6E1,1.85E1,1.57E1,2.5E1,-5.078547E-2,-5.9873696E-2,4.0126305E-2,-5.9873696E-2,-5.9873696E-2,-5.9873696E-2,-5.9873696E-2,-5.9873696E-2,-5.9873696E-2,-5.9873696E-2,4.0126305E-2,-5.9873696E-2,-5.9873696E-2,-5.9873696E-2,-5.9873696E-2,-5.9873696E-2,-5.9873696E-2,-5.9873696E-2,9.0126306E-2,-5.9873696E-2,-5.9873696E-2,-5.9873696E-2,-5.9873696E-2,-5.9873696E-2,-5.9873696E-2,-5.9873696E-2,-6.1448127E-2,-5.9873696E-2,-5.9873696E-2,1.4148481E-2,-6.1967086E-2,2.8733683E-3,-9.522306E-2,-5.9873696E-2,-5.9873696E-2,-5.9873696E-2,-5.9873696E-2,-5.9873696E-2,-5.9873696E-2,-5.9873696E-2,-7.285682E-2,-6.424274E-2,4.1964468E-1,-6.1037548E-2,-6.1469126E-2,-2.9606977E-2,1.2238975E-2,-7.865333E-2,-4.5248788E-2,-9.831106E-2,-3.482149E-2,-3.8948935E-2,5.9236623E-2,-1.3159952E-1,7.328903E-2,7.627916E-2,-2.8885111E-2,1.2902932E-1,2.4791971E-1,3.273611E-1,-1.578989E-1,-1.4210548E-1,4.3978953E-1],"split_indices":[7,6,2,2,2,2,2,7,2,9,2,9,9,9,2,5,4,9,1,2,15,20,7,2,1,10,15,10,13,15,6,13,20,17,17,5,15,0,17,10,10,9,7,3,1,19,2,19,10,6,10,1,9,6,2,17,15,6,15,2,2,7,0,0,0,0,0,0,0,0,0,0,0,0,0,0,0,0,0,0,0,0,0,0,0,0,0,0,0,0,0,0,0,0,0,0,0,0,0,0,0,0,0,0,0,0,0,0,0,0,0,0,0,0,0,0,0,0,0,0,0,0,0,0,0],"split_type":[0,0,0,0,0,0,0,0,0,0,0,0,0,0,0,0,0,0,0,0,0,0,0,0,0,0,0,0,0,0,0,0,0,0,0,0,0,0,0,0,0,0,0,0,0,0,0,0,0,0,0,0,0,0,0,0,0,0,0,0,0,0,0,0,0,0,0,0,0,0,0,0,0,0,0,0,0,0,0,0,0,0,0,0,0,0,0,0,0,0,0,0,0,0,0,0,0,0,0,0,0,0,0,0,0,0,0,0,0,0,0,0,0,0,0,0,0,0,0,0,0,0,0,0,0],"sum_hessian":[6.1022E4,1.1849E4,4.9173E4,5.091E3,6.758E3,2.1868E4,2.7305E4,2.47E3,2.621E3,4.182E3,2.576E3,4.656E3,1.7212E4,8.067E3,1.9238E4,7.65E2,1.705E3,1.603E3,1.018E3,1.499E3,2.683E3,2.056E3,5.2E2,1.412E3,3.244E3,9.23E2,1.6289E4,4.34E2,7.633E3,1.4475E4,4.763E3,5.15E2,2.5E2,1.452E3,2.53E2,3.33E2,1.27E3,3.9E1,9.79E2,5.2E1,1.447E3,2.131E3,5.52E2,7E2,1.356E3,5.8E1,4.62E2,1.36E2,1.276E3,1.034E3,2.21E3,8E0,9.15E2,1.5996E4,2.93E2,5.4E1,3.8E2,4E0,7.629E3,1.4471E4,4E0,4.762E3,1E0,5.1E2,5E0,5.1E1,1.99E2,1.175E3,2.77E2,1.9E1,2.34E2,3.26E2,7E0,5.67E2,7.03E2,2.6E1,1.3E1,1.87E2,7.92E2,5E1,2E0,1.432E3,1.5E1,1.179E3,9.52E2,9.7E1,4.55E2,3.09E2,3.91E2,9.16E2,4.4E2,1.7E1,4.1E1,4.45E2,1.7E1,1.15E2,2.1E1,3.3E1,1.243E3,1.56E2,8.78E2,2.194E3,1.6E1,7E0,1E0,2.08E2,7.07E2,3.517E3,1.2479E4,1.29E2,1.64E2,2.1E1,3.3E1,7.2E1,3.08E2,2E0,2E0,7.542E3,8.7E1,7.946E3,6.525E3,2E0,2E0,1.4E1,4.748E3],"tree_param":{"num_deleted":"0","num_feature":"22","num_nodes":"125","size_leaf_vector":"1"}},{"base_weights":[-1.8697169E-2,-2.093629E-1,3.002061E-2,-3.163237E-1,-1.3575609E-1,-2.6782256E-2,5.541806E-2,-4.2955574E-1,-2.8464067E-1,-2.1140684E-1,-9.977915E-2,-1.0733306E-1,-1.1119072E-2,2.9507449E-2,7.2013505E-2,-5.0366664E-1,-4.0136814E-1,-3.253477E-1,-2.3184454E-1,-2.5412002E-1,-1.8093862E-1,-1.8292929E-1,-7.9133265E-2,-2.4438901E-1,-8.035276E-2,-7.5762704E-2,-5.099165E-4,-2.9611613E-3,3.5565425E-2,6.0654476E-2,8.10768E-2,-5.783333E-1,-3.8842973E-1,-3.7774342E-1,-4.9556962E-1,-3.6875957E-1,-3.071655E-1,-2.6265058E-1,-1.9692117E-1,-2.8175485E-1,-1.7857142E-1,-5.0666666E-1,-1.7724288E-1,-2.4152173E-1,-1.3182673E-1,-9.8661356E-2,-3.5150524E-2,-5.863636E-1,-2.2394736E-1,-1.7657343E-1,-6.463553E-2,-2.2201835E-1,-6.612515E-2,-8.884615E-2,1.671895E-3,-2.102564E-1,1.0385794E-3,2.1865962E-2,4.3808974E-2,-1.2578579E-3,6.1751515E-2,8.116312E-2,-2.2499999E-2,-2.96E-2,-4.1666664E-3,-2.0695653E-2,4.2857146E-3,-2.3521505E-2,-1.698052E-2,-1.111111E-3,-2.6033333E-2,-2.2394737E-2,-1.6778016E-2,-1.3846618E-2,-1.7006665E-2,-1.5971897E-2,-1.0616016E-2,-5.467626E-3,-1.0734421E-2,-2.4558824E-2,-1.3547445E-2,-1.492647E-2,-6.8341703E-3,-1.2222222E-2,-3.857143E-2,-1.1618257E-2,-8.26702E-3,-5.6875E-3,-1.3385827E-2,-1.3317308E-2,-4.9415887E-3,-1.1069182E-2,-4.556792E-3,-2.422535E-3,2.5454548E-3,-4.125E-2,-1.3636363E-2,-7.25E-3,-1.4676617E-2,-1.522388E-2,-6.8409084E-3,1.8103451E-3,-3.7839543E-3,-3.0499998E-2,-9.0499995E-3,-6.7137093E-3,-2.7067137E-3,-3.6546183E-3,-2.0416668E-2,-3.003472E-3,1.7041035E-4,6.2500016E-4,-2.65625E-2,-1.6503495E-3,9.824161E-4,-6.833333E-3,1.1507649E-3,-1.51513295E-5,2.3010673E-3,-8.653846E-3,1.6044778E-3,1.418651E-3,3.1871658E-3,3.7728522E-3,4.447221E-3],"categories":[],"categories_nodes":[],"categories_segments":[],"categories_sizes":[],"default_left":[0,0,0,0,0,0,0,0,0,0,0,0,0,0,0,0,0,0,0,0,0,0,0,0,0,0,0,0,0,0,0,0,0,0,0,0,0,0,0,0,0,0,0,0,0,0,0,0,0,0,0,0,0,0,0,0,0,0,0,0,0,0,0,0,0,0,0,0,0,0,0,0,0,0,0,0,0,0,0,0,0,0,0,0,0,0,0,0,0,0,0,0,0,0,0,0,0,0,0,0,0,0,0,0,0,0,0,0,0,0,0,0,0,0,0,0,0,0,0,0,0,0,0,0,0],"id":11,"left_children":[1,3,5,7,9,11,13,15,17,19,21,23,25,27,29,31,33,35,37,39,41,43,45,47,49,51,53,55,57,59,61,63,65,67,69,71,73,75,77,79,81,83,85,87,89,91,93,95,97,99,101,103,105,107,109,111,113,115,117,119,121,123,-1,-1,-1,-1,-1,-1,-1,-1,-1,-1,-1,-1,-1,-1,-1,-1,-1,-1,-1,-1,-1,-1,-1,-1,-1,-1,-1,-1,-1,-1,-1,-1,-1,-1,-1,-1,-1,-1,-1,-1,-1,-1,-1,-1,-1,-1,-1,-1,-1,-1,-1,-1,-1,-1,-1,-1,-1,-1,-1,-1,-1,-1,-1],"loss_changes":[5.659642E2,9.7582825E1,7.001319E1,1.8009155E1,1.9975113E1,1.8917727E1,1.4418297E1,2.1020203E0,8.418091E0,3.0344238E0,8.536449E0,9.006718E0,8.61036E0,2.5758152E0,2.0995865E0,2.3566666E0,1.6020966E0,1.6461487E0,1.8030472E0,2.0019646E0,1.5774689E0,2.9324417E0,3.4252567E0,2.6718884E0,3.0752373E0,2.480217E0,2.0789666E0,1.7082205E0,1.2453613E0,6.1652374E-1,5.576019E-1,1.1683617E0,1.497488E0,2.1270065E0,1.865406E0,1.5652771E0,1.4776306E0,2.541645E0,1.2398758E0,1.4917526E0,1.2957926E0,8.5282564E-1,8.6108017E-1,1.5091457E0,2.3305006E0,2.5325127E0,1.4091899E0,1.4215913E0,2.0449867E0,1.4126129E0,1.9583254E0,1.6242561E0,1.3508625E0,1.2787683E0,1.1287224E0,2.7952719E0,1.2817457E0,7.589408E-1,6.7232513E-1,9.165796E-1,5.9109116E-1,4.979477E-1,0E0,0E0,0E0,0E0,0E0,0E0,0E0,0E0,0E0,0E0,0E0,0E0,0E0,0E0,0E0,0E0,0E0,0E0,0E0,0E0,0E0,0E0,0E0,0E0,0E0,0E0,0E0,0E0,0E0,0E0,0E0,0E0,0E0,0E0,0E0,0E0,0E0,0E0,0E0,0E0,0E0,0E0,0E0,0E0,0E0,0E0,0E0,0E0,0E0,0E0,0E0,0E0,0E0,0E0,0E0,0E0,0E0,0E0,0E0,0E0,0E0,0E0,0E0],"parents":[2147483647,0,0,1,1,2,2,3,3,4,4,5,5,6,6,7,7,8,8,9,9,10,10,11,11,12,12,13,13,14,14,15,15,16,16,17,17,18,18,19,19,20,20,21,21,22,22,23,23,24,24,25,25,26,26,27,27,28,28,29,29,30,30,31,31,32,32,33,33,34,34,35,35,36,36,37,37,38,38,39,39,40,40,41,41,42,42,43,43,44,44,45,45,46,46,47,47,48,48,49,49,50,50,51,51,52,52,53,53,54,54,55,55,56,56,57,57,58,58,59,59,60,60,61,61],"right_children":[2,4,6,8,10,12,14,16,18,20,22,24,26,28,30,32,34,36,38,40,42,44,46,48,50,52,54,56,58,60,62,64,66,68,70,72,74,76,78,80,82,84,86,88,90,92,94,96,98,100,102,104,106,108,110,112,114,116,118,120,122,124,-1,-1,-1,-1,-1,-1,-1,-1,-1,-1,-1,-1,-1,-1,-1,-1,-1,-1,-1,-1,-1,-1,-1,-1,-1,-1,-1,-1,-1,-1,-1,-1,-1,-1,-1,-1,-1,-1,-1,-1,-1,-1,-1,-1,-1,-1,-1,-1,-1,-1,-1,-1,-1,-1,-1,-1,-1,-1,-1,-1,-1,-1,-1],"split_conditions":[1.54E1,9.333333E0,9.3E0,4.4E0,3.7E0,1.5E1,1.37E1,1E0,2.8E0,1.2E1,9E0,4.4E0,4.9E0,6E0,1.85E1,3.3333333E0,1.178875E2,1.5165751E0,4.3E0,3.6742346E0,9.78E1,5.1E0,6.2E0,1.09E1,7E0,2.4E0,4E0,1.3E1,2.5333334E1,8E0,4.6333332E1,6E0,1.254E2,1.11954025E2,1.098E2,5E0,8.7E0,1.13608696E2,1.1131169E2,1.2E0,1E1,3E0,9.6E0,1.072E2,1.101E2,9.4E0,9E0,3.2863352E0,7.5E1,1.2666667E1,2.4494898E0,1.6E1,1.6333334E1,2.6E1,1.5E1,2.14E1,7.7E1,1.006E2,4E0,1.4333333E1,1.18E1,2.37E1,-4.8246194E-2,-5.688001E-2,-5.688001E-2,-5.688001E-2,4.3119993E-2,-5.688001E-2,-5.688001E-2,-5.688001E-2,-5.688001E-2,-5.688001E-2,-5.688001E-2,-5.688001E-2,-5.688001E-2,-5.688001E-2,-5.688001E-2,-5.688001E-2,-5.688001E-2,-5.688001E-2,-5.688001E-2,-5.688001E-2,-5.688001E-2,-5.688001E-2,-5.688001E-2,-5.688001E-2,-5.688001E-2,-5.688001E-2,-5.688001E-2,-5.688001E-2,-5.688001E-2,-5.688001E-2,-5.688001E-2,-5.9029378E-2,1.7655674E-2,-5.688001E-2,-5.688001E-2,-5.688001E-2,-5.688001E-2,-5.688001E-2,-5.7968672E-2,2.036494E-2,-5.8309376E-2,-5.688001E-2,-5.688001E-2,-5.688001E-2,-5.688001E-2,-6.2098403E-2,-7.469868E-2,-6.2423617E-2,1.4474593E-3,-2.7894566E-2,-6.903382E-2,-1.6251897E-2,2.7226627E-2,-9.694635E-2,3.668249E-2,-7.830979E-3,7.4897006E-2,-8.396237E-2,5.0516624E-2,7.279596E-2,1.36595E-1,2.3552373E-1,4.1780004E-1],"split_indices":[7,6,2,7,2,9,2,2,1,9,9,2,2,3,2,6,17,13,2,13,18,2,1,8,9,2,1,6,6,16,6,9,18,17,18,6,8,17,17,2,7,13,7,18,19,7,1,13,16,6,13,9,6,7,6,8,16,19,5,0,1,2,0,0,0,0,0,0,0,0,0,0,0,0,0,0,0,0,0,0,0,0,0,0,0,0,0,0,0,0,0,0,0,0,0,0,0,0,0,0,0,0,0,0,0,0,0,0,0,0,0,0,0,0,0,0,0,0,0,0,0,0,0,0,0],"split_type":[0,0,0,0,0,0,0,0,0,0,0,0,0,0,0,0,0,0,0,0,0,0,0,0,0,0,0,0,0,0,0,0,0,0,0,0,0,0,0,0,0,0,0,0,0,0,0,0,0,0,0,0,0,0,0,0,0,0,0,0,0,0,0,0,0,0,0,0,0,0,0,0,0,0,0,0,0,0,0,0,0,0,0,0,0,0,0,0,0,0,0,0,0,0,0,0,0,0,0,0,0,0,0,0,0,0,0,0,0,0,0,0,0,0,0,0,0,0,0,0,0,0,0,0,0],"sum_hessian":[6.0928E4,1.2399E4,4.8529E4,5.053E3,7.346E3,1.4994E4,3.3535E4,1.102E3,3.951E3,2.366E3,4.98E3,2.44E3,1.2554E4,1.3094E4,2.0441E4,2.99E2,8.03E2,2.228E3,1.723E3,9.82E2,1.384E3,9.89E2,3.991E3,4E2,2.04E3,1.769E3,1.0785E4,2.059E3,1.1035E4,9.075E3,1.1366E4,1.79E2,1.2E2,6.46E2,1.57E2,6.52E2,1.576E3,9.12E2,8.11E2,7.17E2,2.65E2,1.4E1,1.37E3,4.59E2,5.3E2,2.763E3,1.228E3,2.1E1,3.79E2,2.85E2,1.755E3,1.08E2,1.661E3,2.59E2,1.0526E4,3.8E1,2.021E3,4.147E3,6.888E3,1.58E2,8.917E3,1.1365E4,1E0,1.74E2,5E0,1.14E2,6E0,1.85E2,4.61E2,8E0,1.49E2,1.89E2,4.63E2,8.27E2,7.49E2,4.26E2,4.86E2,1.38E2,6.73E2,3.3E1,6.84E2,6.7E1,1.98E2,8E0,6E0,2.4E2,1.13E3,7.9E1,3.8E2,1.03E2,4.27E2,1.58E2,2.605E3,1.064E3,1.64E2,1.1E1,1E1,1.79E2,2E2,6.6E1,2.19E2,1.73E2,1.582E3,9E0,9.9E1,2.47E2,1.414E3,2.48E2,1.1E1,2.87E2,1.0239E4,2.3E1,1.5E1,7.14E2,1.307E3,2.9E1,4.118E3,3.29E2,6.559E3,2.5E1,1.33E2,5.03E2,8.414E3,6.563E3,4.802E3],"tree_param":{"num_deleted":"0","num_feature":"22","num_nodes":"125","size_leaf_vector":"1"}},{"base_weights":[-1.9700095E-2,-2.1830875E-1,2.6570491E-2,-3.695395E-1,-1.5984128E-1,-2.6508253E-2,5.6386877E-2,-4.22573E-1,-3.3485624E-1,-2.2506553E-1,-1.22009106E-1,-1.08649164E-1,-9.275614E-3,3.9707635E-2,7.734653E-2,-4.4895718E-1,-3.540616E-1,-2.8756544E-1,-3.6506328E-1,-1.956749E-1,-2.8998944E-1,-1.5962422E-1,-8.506957E-2,-2.1567877E-1,-8.678362E-2,-2.6592E-2,9.619214E-3,-1.8704152E-2,4.2543966E-2,7.136632E-2,8.647578E-2,-4.248331E-1,-5.570552E-1,-3.6314285E-1,4.375E-3,-3.160066E-1,-1.7735848E-1,-4.184991E-1,-3.1451875E-1,-2.59469E-1,-1.7214285E-1,-2.7293843E-1,-4.5168537E-1,-1.5365377E-1,-4.6199998E-1,-1.7230392E-1,-6.9227345E-2,-2.3946784E-1,-6.575342E-2,-1.09005295E-1,-4.313725E-2,-4.854809E-2,-9.990851E-3,1.1564922E-2,-2.1311474E-1,-1.847826E-1,-8.796891E-3,3.42938E-2,5.334065E-2,7.148074E-2,-2.2499999E-2,8.665346E-2,-2.2499999E-2,-2.1623109E-2,-8.260869E-3,-2.9886363E-2,-1.8593749E-2,-1.49147725E-2,-2.1314286E-2,-1.1781915E-2,-1.7565632E-2,-1.3132529E-2,-4.155844E-3,-1.9696651E-2,-2.6822915E-2,-2.0034246E-2,-1.434829E-2,-2.484375E-2,-1.2237827E-2,-8.397899E-3,-2.5833333E-2,-1.5614367E-2,-1.048048E-2,-6.0714283E-3,-2.5328947E-2,-1.087344E-2,-6.783392E-3,-2.85E-2,-1.4285713E-2,-6.464646E-3,-1.4241071E-2,-4.1534244E-3,-5.0233625E-4,-1.1449772E-2,-2.7500002E-2,-6.349205E-4,-1.8181818E-2,-2.3333332E-2,-5.3518624E-3,-5.7038832E-3,-1.0498487E-3,-2.9435335E-3,9.786495E-5,-2.002117E-5,-3.3545308E-3,-1.6785715E-2,6.130655E-4,2.6086958E-3,-1.8205127E-2,4.545455E-3,-1.3194444E-2,-2.7994774E-4,-2.0833334E-2,5.0772645E-4,1.9148547E-3,-4.8387097E-3,2.698719E-3,2.6207166E-3,3.7434082E-3,-8.75E-3,4.341323E-3],"categories":[],"categories_nodes":[],"categories_segments":[],"categories_sizes":[],"default_left":[0,0,0,0,0,0,0,0,0,0,0,0,0,0,0,0,0,0,0,0,0,0,0,0,0,0,0,0,0,0,0,0,0,0,0,0,0,0,0,0,0,0,0,0,0,0,0,0,0,0,0,0,0,0,0,0,0,0,0,0,0,0,0,0,0,0,0,0,0,0,0,0,0,0,0,0,0,0,0,0,0,0,0,0,0,0,0,0,0,0,0,0,0,0,0,0,0,0,0,0,0,0,0,0,0,0,0,0,0,0,0,0,0,0,0,0,0,0,0,0,0],"id":12,"left_children":[1,3,5,7,9,11,13,15,17,19,21,23,25,27,29,31,33,35,37,39,41,43,45,47,49,51,53,55,57,59,61,63,65,67,-1,69,71,73,75,77,79,81,83,85,87,89,91,93,95,97,99,101,103,105,107,109,111,113,115,117,-1,119,-1,-1,-1,-1,-1,-1,-1,-1,-1,-1,-1,-1,-1,-1,-1,-1,-1,-1,-1,-1,-1,-1,-1,-1,-1,-1,-1,-1,-1,-1,-1,-1,-1,-1,-1,-1,-1,-1,-1,-1,-1,-1,-1,-1,-1,-1,-1,-1,-1,-1,-1,-1,-1,-1,-1,-1,-1,-1,-1],"loss_changes":[5.607637E2,1.0189014E2,7.8326744E1,5.7702637E0,2.0495361E1,2.5197807E1,1.107547E1,2.1312866E0,2.677765E0,5.7669373E0,7.3034515E0,7.2056694E0,4.8151855E0,2.924797E0,7.604523E-1,2.1390228E0,1.463314E0,2.338646E0,3.068924E0,3.1138687E0,2.493187E0,4.637291E0,3.6627731E0,1.8495789E0,2.483078E0,2.7984815E0,3.05256E0,1.3442974E0,1.4974728E0,5.3866196E-1,5.683098E-1,1.4120331E0,1.0053749E0,1.3059692E0,0E0,1.636734E0,1.2562218E0,1.4490967E0,1.3403587E0,1.8518372E0,2.1335793E0,2.0800858E0,1.5519657E0,2.90765E0,7.8908634E-1,1.937686E0,1.8438396E0,1.3407154E0,1.1490878E0,1.1459618E0,1.35935E0,1.7236853E0,2.3952243E0,1.6916838E0,2.4623733E0,1.0272012E0,1.0059233E0,9.219122E-1,6.986389E-1,5.443497E-1,0E0,2.6651E-1,0E0,0E0,0E0,0E0,0E0,0E0,0E0,0E0,0E0,0E0,0E0,0E0,0E0,0E0,0E0,0E0,0E0,0E0,0E0,0E0,0E0,0E0,0E0,0E0,0E0,0E0,0E0,0E0,0E0,0E0,0E0,0E0,0E0,0E0,0E0,0E0,0E0,0E0,0E0,0E0,0E0,0E0,0E0,0E0,0E0,0E0,0E0,0E0,0E0,0E0,0E0,0E0,0E0,0E0,0E0,0E0,0E0,0E0,0E0],"parents":[2147483647,0,0,1,1,2,2,3,3,4,4,5,5,6,6,7,7,8,8,9,9,10,10,11,11,12,12,13,13,14,14,15,15,16,16,17,17,18,18,19,19,20,20,21,21,22,22,23,23,24,24,25,25,26,26,27,27,28,28,29,29,30,30,31,31,32,32,33,33,35,35,36,36,37,37,38,38,39,39,40,40,41,41,42,42,43,43,44,44,45,45,46,46,47,47,48,48,49,49,50,50,51,51,52,52,53,53,54,54,55,55,56,56,57,57,58,58,59,59,61,61],"right_children":[2,4,6,8,10,12,14,16,18,20,22,24,26,28,30,32,34,36,38,40,42,44,46,48,50,52,54,56,58,60,62,64,66,68,-1,70,72,74,76,78,80,82,84,86,88,90,92,94,96,98,100,102,104,106,108,110,112,114,116,118,-1,120,-1,-1,-1,-1,-1,-1,-1,-1,-1,-1,-1,-1,-1,-1,-1,-1,-1,-1,-1,-1,-1,-1,-1,-1,-1,-1,-1,-1,-1,-1,-1,-1,-1,-1,-1,-1,-1,-1,-1,-1,-1,-1,-1,-1,-1,-1,-1,-1,-1,-1,-1,-1,-1,-1,-1,-1,-1,-1,-1],"split_conditions":[5.1E0,7.3333335E0,9.9E0,1.4E0,1.2E1,1.4666667E1,1.675E1,5E0,3E0,4E0,4E0,9E0,2.2333334E1,1.8666666E1,2.3E1,1.201E2,1.274E2,4E0,1.1386463E2,2.6E0,1.9E1,2.7E1,2E0,7E0,7E0,6.9E0,1.99E2,3.6666667E0,1.33E1,5.4E1,4.5333332E1,1.228E2,1.262E2,1E0,4.596399E-2,8.8E1,3.1E0,1.182E2,2.2E1,3.3333334E-1,2.3E1,1.15354965E2,1.09E2,2.5E0,1E0,2.3E1,2.1333334E1,1.1988061E2,1.5E2,1.8E0,5.2E0,1.56E2,4E0,2E0,2.4E1,4.3333335E0,3.3E1,6E0,1.4142135E0,1.084E2,-4.8546232E-2,1.54E1,-4.5833874E-2,-5.403601E-2,-5.403601E-2,-5.403601E-2,-5.403601E-2,-5.403601E-2,-5.403601E-2,-5.403601E-2,-5.403601E-2,-5.403601E-2,-5.403601E-2,-5.403601E-2,-5.403601E-2,-5.403601E-2,-5.403601E-2,-5.403601E-2,-5.403601E-2,-5.403601E-2,-5.403601E-2,-5.403601E-2,-5.403601E-2,-5.403601E-2,-5.403601E-2,-5.403601E-2,-5.403601E-2,-5.403601E-2,-5.403601E-2,-5.403601E-2,-5.403601E-2,-5.403601E-2,-5.3706944E-2,-5.403601E-2,-5.703601E-2,-5.403601E-2,-5.7461787E-2,-5.7536013E-2,-5.403601E-2,-5.398878E-2,-5.395315E-2,-5.6300934E-2,6.2186155E-3,-1.9006622E-4,-6.897609E-2,-6.732209E-2,7.0428746E-3,3.178334E-2,-8.6282216E-2,1.3473731E-2,-7.633939E-2,-3.918011E-3,-1.3289282E-1,2.5196576E-2,5.8947932E-2,-7.700452E-2,9.776827E-2,1.6586109E-1,2.1894701E-1,-2.2868251E-2,3.7374756E-1],"split_indices":[2,6,2,1,6,6,2,6,15,15,2,6,6,6,2,19,18,3,20,2,11,15,3,4,3,2,15,0,2,10,6,18,18,0,0,21,2,18,16,0,11,20,18,2,14,10,6,20,16,1,1,16,15,0,11,1,11,3,13,19,0,1,0,0,0,0,0,0,0,0,0,0,0,0,0,0,0,0,0,0,0,0,0,0,0,0,0,0,0,0,0,0,0,0,0,0,0,0,0,0,0,0,0,0,0,0,0,0,0,0,0,0,0,0,0,0,0,0,0,0,0],"split_type":[0,0,0,0,0,0,0,0,0,0,0,0,0,0,0,0,0,0,0,0,0,0,0,0,0,0,0,0,0,0,0,0,0,0,0,0,0,0,0,0,0,0,0,0,0,0,0,0,0,0,0,0,0,0,0,0,0,0,0,0,0,0,0,0,0,0,0,0,0,0,0,0,0,0,0,0,0,0,0,0,0,0,0,0,0,0,0,0,0,0,0,0,0,0,0,0,0,0,0,0,0,0,0,0,0,0,0,0,0,0,0,0,0,0,0,0,0,0,0,0,0],"sum_hessian":[6.1019E4,1.1529E4,4.949E4,3.213E3,8.316E3,1.7801E4,3.1689E4,1.266E3,1.947E3,3.051E3,5.265E3,3.086E3,1.4715E4,1.7648E4,1.4041E4,9.1E2,3.56E2,7.63E2,1.184E3,2.103E3,9.48E2,2.607E3,2.658E3,5.22E2,2.564E3,7.678E3,7.037E3,8.17E2,1.6831E4,8.489E3,5.552E3,7.48E2,1.62E2,3.49E2,7E0,6.05E2,1.58E2,5.72E2,6.12E2,5.64E2,1.539E3,8.6E2,8.8E1,2.558E3,4.9E1,4.07E2,2.251E3,4.5E2,7.2E1,1.698E3,8.66E2,3.305E3,4.373E3,6.977E3,6E1,4.5E1,7.72E2,9.543E3,7.288E3,8.488E3,1E0,5.551E3,1E0,7.26E2,2.2E1,1.31E2,3.1E1,1.75E2,1.74E2,1.87E2,4.18E2,8.2E1,7.6E1,4.77E2,9.5E1,1.45E2,4.67E2,3.1E1,5.33E2,1.522E3,1.7E1,5.28E2,3.32E2,1.3E1,7.5E1,5.6E2,1.998E3,2.9E1,2E1,2.96E2,1.11E2,1.824E3,4.27E2,4.37E2,1.3E1,6.2E1,1E1,8E0,1.69E3,2.05E2,6.61E2,2.744E3,5.61E2,3.745E3,6.28E2,1.3E1,6.964E3,2.2E1,3.8E1,1E1,3.5E1,7.67E2,5E0,1.358E3,8.185E3,3E1,7.258E3,1.283E3,7.205E3,3E0,5.548E3],"tree_param":{"num_deleted":"0","num_feature":"22","num_nodes":"121","size_leaf_vector":"1"}},{"base_weights":[-2.037064E-2,-2.1988143E-1,2.6644534E-2,-3.2956874E-1,-1.4598906E-1,-3.3141784E-2,5.1353443E-2,-4.088947E-1,-2.9103294E-1,-2.2529319E-1,-9.9840865E-2,-1.1966904E-1,-1.3617848E-2,2.5412275E-2,6.760367E-2,-4.6804634E-1,-3.698704E-1,-3.4081772E-1,-2.4894981E-1,-3.399103E-1,-2.1425512E-1,-1.6389132E-1,-7.7385694E-2,-1.4622292E-1,-5.397653E-2,-5.8532625E-2,-1.727464E-3,5.827461E-3,3.633839E-2,5.7762228E-2,8.1106454E-2,-4.9284402E-1,-2.3499998E-1,-2.9536784E-1,-4.1803572E-1,-2.9073825E-1,-3.9370528E-1,-2.0431034E-1,-2.8881505E-1,-4.9242422E-1,-2.7405062E-1,-1.9393028E-1,-2.641902E-1,-2.4773413E-1,-1.2946978E-1,-7.361848E-2,-2.8771928E-1,-3.6481482E-1,-1.3972825E-1,-2.6999998E-1,-4.5121945E-2,-1.1502808E-1,-3.559225E-2,-4.33274E-2,3.9770682E-3,-6.4080454E-2,1.1262573E-2,2.3887457E-2,4.4737354E-2,5.9388466E-2,3.8356201E-3,6.309932E-2,8.37622E-2,-1.0689655E-2,-2.5377175E-2,-2.8888887E-2,-8.557692E-3,-1.0552632E-2,-1.9185392E-2,-2.2832079E-2,-1.6018517E-2,-1.2317813E-2,-1.8829366E-2,-2.4816325E-2,-1.687912E-2,-1.1282991E-2,-4.5801527E-3,-1.7417721E-2,-1.2102161E-2,-7.8125E-3,-2.9411763E-2,-1.046729E-2,-2.0096153E-2,-9.472716E-3,-2.014706E-2,-1.3786708E-2,1.1111113E-3,-1.0652921E-2,-2.4390243E-2,-5.706737E-3,-1.690909E-2,-4.629283E-3,-2.7267039E-3,-1.7099999E-2,4.375E-3,-2.9807692E-2,-7.241379E-3,-6.8749995E-3,-2.8888887E-2,-2.7500002E-2,-1.1764704E-3,-1.8670437E-3,-1.078125E-2,-1.4326923E-2,-5.068078E-3,-1.2837008E-3,-8.239999E-3,-1.9999999E-3,-2.05E-2,2.9481153E-4,-5.2464786E-3,-5.3086416E-3,1.6509437E-3,8.9930836E-4,-1.7277485E-3,-6.222222E-3,1.2910732E-3,3.2839002E-4,2.4285412E-3,-2.0253162E-3,3.0020853E-3,-1.1851852E-2,1.1504426E-3,1.9348272E-3,4.0339236E-3,2.6500002E-3,4.248353E-3],"categories":[],"categories_nodes":[],"categories_segments":[],"categories_sizes":[],"default_left":[0,0,0,0,0,0,0,0,0,0,0,0,0,0,0,0,0,0,0,0,0,0,0,0,0,0,0,0,0,0,0,0,0,0,0,0,0,0,0,0,0,0,0,0,0,0,0,0,0,0,0,0,0,0,0,0,0,0,0,0,0,0,0,0,0,0,0,0,0,0,0,0,0,0,0,0,0,0,0,0,0,0,0,0,0,0,0,0,0,0,0,0,0,0,0,0,0,0,0,0,0,0,0,0,0,0,0,0,0,0,0,0,0,0,0,0,0,0,0,0,0,0,0,0,0,0,0],"id":13,"left_children":[1,3,5,7,9,11,13,15,17,19,21,23,25,27,29,31,33,35,37,39,41,43,45,47,49,51,53,55,57,59,61,63,65,67,69,71,73,75,77,79,81,83,85,87,89,91,93,95,97,99,101,103,105,107,109,111,113,115,117,119,121,123,125,-1,-1,-1,-1,-1,-1,-1,-1,-1,-1,-1,-1,-1,-1,-1,-1,-1,-1,-1,-1,-1,-1,-1,-1,-1,-1,-1,-1,-1,-1,-1,-1,-1,-1,-1,-1,-1,-1,-1,-1,-1,-1,-1,-1,-1,-1,-1,-1,-1,-1,-1,-1,-1,-1,-1,-1,-1,-1,-1,-1,-1,-1,-1,-1],"loss_changes":[5.7245996E2,9.428662E1,7.296478E1,1.4199463E1,2.5434662E1,2.439938E1,1.4730614E1,3.356369E0,6.5272827E0,3.163437E0,6.3142395E0,4.6304436E0,6.294258E0,2.8804665E0,2.850647E0,3.37471E0,3.1994095E0,3.7074432E0,2.9911652E0,2.1049786E0,2.3196259E0,3.260849E0,2.5611649E0,2.6364822E0,1.4549325E0,3.1932049E0,2.2118845E0,1.8328762E0,9.0256405E-1,1.0900307E0,4.277954E-1,2.1270294E0,1.2142141E0,2.652584E0,1.9651642E0,2.7457962E0,3.8582764E0,1.933197E0,2.4303284E0,2.0338974E0,1.2231464E0,1.4803772E0,2.2312927E0,2.6515198E0,2.5570955E0,1.1543636E0,1.1908536E0,2.661808E0,1.7165604E0,2.0574121E0,9.7105074E-1,1.6398487E0,2.2461057E0,1.3549557E0,1.7138691E0,1.4258312E0,1.3791838E0,1.0023986E0,7.5455475E-1,7.899246E-1,1.6911361E0,4.979267E-1,2.8790283E-1,0E0,0E0,0E0,0E0,0E0,0E0,0E0,0E0,0E0,0E0,0E0,0E0,0E0,0E0,0E0,0E0,0E0,0E0,0E0,0E0,0E0,0E0,0E0,0E0,0E0,0E0,0E0,0E0,0E0,0E0,0E0,0E0,0E0,0E0,0E0,0E0,0E0,0E0,0E0,0E0,0E0,0E0,0E0,0E0,0E0,0E0,0E0,0E0,0E0,0E0,0E0,0E0,0E0,0E0,0E0,0E0,0E0,0E0,0E0,0E0,0E0,0E0,0E0,0E0],"parents":[2147483647,0,0,1,1,2,2,3,3,4,4,5,5,6,6,7,7,8,8,9,9,10,10,11,11,12,12,13,13,14,14,15,15,16,16,17,17,18,18,19,19,20,20,21,21,22,22,23,23,24,24,25,25,26,26,27,27,28,28,29,29,30,30,31,31,32,32,33,33,34,34,35,35,36,36,37,37,38,38,39,39,40,40,41,41,42,42,43,43,44,44,45,45,46,46,47,47,48,48,49,49,50,50,51,51,52,52,53,53,54,54,55,55,56,56,57,57,58,58,59,59,60,60,61,61,62,62],"right_children":[2,4,6,8,10,12,14,16,18,20,22,24,26,28,30,32,34,36,38,40,42,44,46,48,50,52,54,56,58,60,62,64,66,68,70,72,74,76,78,80,82,84,86,88,90,92,94,96,98,100,102,104,106,108,110,112,114,116,118,120,122,124,126,-1,-1,-1,-1,-1,-1,-1,-1,-1,-1,-1,-1,-1,-1,-1,-1,-1,-1,-1,-1,-1,-1,-1,-1,-1,-1,-1,-1,-1,-1,-1,-1,-1,-1,-1,-1,-1,-1,-1,-1,-1,-1,-1,-1,-1,-1,-1,-1,-1,-1,-1,-1,-1,-1,-1,-1,-1,-1,-1,-1,-1,-1,-1,-1],"split_conditions":[5.1E0,9.8E0,9E0,1.4E0,1.3E1,1.3E1,1.33E1,2.2368422E0,3.8333333E0,2.1E0,3.3E0,8.08421E0,5.9242425E0,9.028571E0,2.0013762E1,1E1,1.37E2,9.8E1,3E0,1E1,4E0,1.6E1,6.7E1,3.5454545E0,3E0,1.62E1,1.54E1,1.4E1,1.13E2,1.1E1,1.82E1,1.053E2,2E0,1E0,1E0,5E0,5.6E0,4.4E0,1.1339532E2,1.3333334E0,1.178E2,7.496666E0,6.4E0,1.68E1,8E0,1.9E1,2.49E2,1.134E2,1.12E1,1.17E2,1.25E2,1.0982435E2,5E0,2.5E1,1.8E1,8.08421E0,4E0,7.6E0,5E0,1E0,9.680851E0,1.5E1,1.024E2,-5.133421E-2,-5.133421E-2,-5.133421E-2,-5.133421E-2,-5.133421E-2,-5.133421E-2,-5.133421E-2,-5.133421E-2,-5.133421E-2,-5.133421E-2,-5.133421E-2,-5.133421E-2,-5.133421E-2,-5.133421E-2,-5.133421E-2,-5.133421E-2,-5.133421E-2,-5.133421E-2,-5.133421E-2,-5.133421E-2,-5.133421E-2,-5.133421E-2,-5.133421E-2,1.8665796E-2,-5.133421E-2,-5.133421E-2,-5.133421E-2,-5.133421E-2,-5.133421E-2,-5.133421E-2,-5.2419003E-2,9.868794E-2,-5.133421E-2,-5.133421E-2,-5.133421E-2,-7.425075E-2,-6.229494E-2,-1.6334208E-2,-5.133421E-2,-5.5800088E-2,-5.5826224E-2,-5.3374913E-2,-5.497533E-2,-6.735333E-2,-5.27954E-2,-8.660074E-2,3.3835655E-3,-6.722074E-2,-5.916511E-2,1.7543487E-2,1.4112355E-2,-2.3995928E-2,-7.479359E-2,3.292813E-2,4.886495E-3,8.204858E-2,-1.3795132E-2,1.2517057E-1,-9.9086314E-2,3.119865E-2,1.449365E-1,2.0799966E-1,2.1363182E-1,3.282227E-1],"split_indices":[2,7,1,1,9,9,2,12,12,2,2,12,12,12,12,9,21,21,15,11,15,9,15,12,9,7,7,9,19,15,1,19,11,14,5,15,7,2,20,2,18,13,1,7,15,9,21,18,2,21,19,20,15,11,15,12,15,2,4,15,12,4,18,0,0,0,0,0,0,0,0,0,0,0,0,0,0,0,0,0,0,0,0,0,0,0,0,0,0,0,0,0,0,0,0,0,0,0,0,0,0,0,0,0,0,0,0,0,0,0,0,0,0,0,0,0,0,0,0,0,0,0,0,0,0,0,0],"split_type":[0,0,0,0,0,0,0,0,0,0,0,0,0,0,0,0,0,0,0,0,0,0,0,0,0,0,0,0,0,0,0,0,0,0,0,0,0,0,0,0,0,0,0,0,0,0,0,0,0,0,0,0,0,0,0,0,0,0,0,0,0,0,0,0,0,0,0,0,0,0,0,0,0,0,0,0,0,0,0,0,0,0,0,0,0,0,0,0,0,0,0,0,0,0,0,0,0,0,0,0,0,0,0,0,0,0,0,0,0,0,0,0,0,0,0,0,0,0,0,0,0,0,0,0,0,0,0],"sum_hessian":[6.1028E4,1.1638E4,4.939E4,4.683E3,6.955E3,1.4443E4,3.4947E4,1.528E3,3.155E3,2.557E3,4.398E3,2.658E3,1.1785E4,1.3461E4,2.1486E4,6.03E2,9.25E2,1.442E3,1.713E3,2.22E2,2.335E3,1.14E3,3.258E3,1.892E3,7.66E2,2.466E3,9.319E3,4.821E3,8.64E3,1.2431E4,9.055E3,5.44E2,5.9E1,3.66E2,5.59E2,7.44E2,6.98E2,8.11E2,9.02E2,6.5E1,1.57E2,1.663E3,6.72E2,3.3E2,8.1E2,3.202E3,5.6E1,5.3E1,1.839E3,2.9E1,7.37E2,7.11E2,1.755E3,1.123E3,8.196E3,3.47E2,4.474E3,3.482E3,5.158E3,1.2067E4,3.64E2,1.167E3,7.888E3,2.8E1,5.16E2,8E0,5.1E1,1.89E2,1.77E2,3.98E2,1.61E2,4.93E2,2.51E2,2.44E2,4.54E2,6.81E2,1.3E2,3.94E2,5.08E2,1.5E1,5E1,1.06E2,5.1E1,1.63E3,3.3E1,6.46E2,2.6E1,2.9E2,4E1,7.56E2,5.4E1,1.604E3,1.598E3,4.9E1,7E0,2.5E1,2.8E1,1.831E3,8E0,1.3E1,1.6E1,7.06E2,3.1E1,5.1E1,6.6E2,1.631E3,1.24E2,1.114E3,9E0,8.055E3,1.41E2,2.42E2,1.05E2,3.902E3,5.72E2,4.4E1,3.438E3,4.71E2,4.687E3,7.8E1,1.1989E4,2.6E1,3.38E2,4.9E2,6.77E2,2.99E2,7.589E3],"tree_param":{"num_deleted":"0","num_feature":"22","num_nodes":"127","size_leaf_vector":"1"}},{"base_weights":[-1.7733501E-2,-2.4006644E-1,1.9363414E-2,-3.3459878E-1,-1.7743716E-1,-6.2130842E-2,4.227322E-2,-4.084597E-1,-2.9285392E-1,-2.6505727E-1,-1.5083106E-1,-1.1749851E-1,-3.9154544E-2,1.1285054E-2,6.2045176E-2,-3.9060524E-1,-5.4013604E-1,-3.401869E-1,-2.3946615E-1,-2.3656249E-1,-3.6806083E-1,-1.9934306E-1,-1.2580766E-1,-9.6698105E-2,-2.111293E-1,-9.2180215E-2,-2.2590552E-2,-3.4790415E-2,1.6688913E-2,5.034023E-2,7.9266235E-2,-4.5399448E-1,-3.591946E-1,-5.534722E-1,3.7500001E-3,-2.6764092E-1,-3.8941345E-1,-3.5163933E-1,-2.244612E-1,-2.5508904E-1,-1.52E-1,