{"learner":{"attributes":{"best_iteration":"143","best_score":"1.0691646929018204","scikit_learn":"{\"_estimator_type\": \"regressor\"}"},"feature_names":["PTS_ROLL_3","PTS_ROLL_5","PTS_ROLL_10","PTS_LAG_1","PTS_LAG_2","PTS_LAG_3","MIN_ROLL_3","MIN_ROLL_5","MIN_ROLL_10","MIN_LAG_1","MIN_LAG_2","MIN_LAG_3","PTS_SEASON_AVG","PTS_STD_5","IS_HOME","DAYS_REST","GAME_NUM","OPP_DEF_AVG","OPP_DEF_ROLL_5","OPP_DEF_ROLL_10","OPP_DEF_REG","OPP_GAMES_PLAYED"],"feature_types":["float","float","float","float","float","float","float","float","float","float","float","float","float","float","int","float","int","float","float","float","float","int"],"gradient_booster":{"model":{"cats":{"enc":[],"feature_segments":[],"sorted_idx":[]},"gbtree_model_param":{"num_parallel_tree":"1","num_trees":"174"},"iteration_indptr":[0,1,2,3,4,5,6,7,8,9,10,11,12,13,14,15,16,17,18,19,20,21,22,23,24,25,26,27,28,29,30,31,32,33,34,35,36,37,38,39,40,41,42,43,44,45,46,47,48,49,50,51,52,53,54,55,56,57,58,59,60,61,62,63,64,65,66,67,68,69,70,71,72,73,74,75,76,77,78,79,80,81,82,83,84,85,86,87,88,89,90,91,92,93,94,95,96,97,98,99,100,101,102,103,104,105,106,107,108,109,110,111,112,113,114,115,116,117,118,119,120,121,122,123,124,125,126,127,128,129,130,131,132,133,134,135,136,137,138,139,140,141,142,143,144,145,146,147,148,149,150,151,152,153,154,155,156,157,158,159,160,161,162,163,164,165,166,167,168,169,170,171,172,173,174],"tree_info":[0,0,0,0,0,0,0,0,0,0,0,0,0,0,0,0,0,0,0,0,0,0,0,0,0,0,0,0,0,0,0,0,0,0,0,0,0,0,0,0,0,0,0,0,0,0,0,0,0,0,0,0,0,0,0,0,0,0,0,0,0,0,0,0,0,0,0,0,0,0,0,0,0,0,0,0,0,0,0,0,0,0,0,0,0,0,0,0,0,0,0,0,0,0,0,0,0,0,0,0,0,0,0,0,0,0,0,0,0,0,0,0,0,0,0,0,0,0,0,0,0,0,0,0,0,0,0,0,0,0,0,0,0,0,0,0,0,0,0,0,0,0,0,0,0,0,0,0,0,0,0,0,0,0,0,0,0,0,0,0,0,0,0,0,0,0,0,0,0,0,0,0,0,0],"trees":[{"base_weights":[-1.2211757E-2,-6.7934826E-2,3.1563798E-1,-8.482384E-2,3.9222542E-2,1.9662173E-1,4.6642873E-1,-9.336354E-2,-5.507637E-2,5.414318E-3,1.1070802E-1,1.6654152E-1,3.1932512E-1,4.1217124E-1,6.3392484E-1,-9.438722E-2,-6.5684736E-2,-6.2415574E-2,-1.7515175E-2,-1.551583E-2,2.60673E-2,7.125954E-2,1.7711265E-1,1.0708022E-1,2.0155129E-1,2.1471569E-1,3.648529E-1,3.4280485E-1,4.3847227E-1,4.7921345E-1,6.683739E-1,-9.6103035E-2,-8.342411E-2,-6.645421E-2,2.2499999E-2,-6.643856E-2,-3.1947285E-2,-2.5285834E-2,5.3048756E-2,-2.5445985E-2,2.2444867E-2,1.0008102E-3,5.0323077E-2,5.837136E-2,2.0725805E-1,1.4730111E-1,3.167785E-1,6.283889E-2,1.3932319E-1,1.7568748E-1,2.4655735E-1,1.3037035E-1,2.824242E-1,3.1363633E-1,4.7123286E-1,2.982857E-1,4.2060807E-1,4.4476688E-1,1.4130433E-1,4.2246374E-1,6.5853655E-1,5.2661866E-1,6.979782E-1,-4.8068264E-3,4.166666E-3,-4.1819187E-3,2.2499999E-2,1.3333333E-2,-3.3599373E-3,-3.6994354E-3,-2.6491438E-3,-1.6920744E-3,3E-2,4.307691E-3,-1.5179211E-3,1.9496843E-3,2.0833334E-2,-2.5506567E-3,-2.6685512E-4,1.1199999E-2,5.894725E-4,-5.394008E-4,4.738805E-3,5.427508E-3,1.7061845E-3,1.1155367E-3,5.32918E-3,2.7272725E-2,8.64035E-3,4.2449655E-3,9.631448E-3,1.1283783E-2,2.006579E-2,2.782323E-3,1.5882352E-2,1.7099999E-2,6.330445E-3,8.0173025E-3,1.3714953E-2,1.2499884E-4,1.2871004E-2,3.9252327E-3,1.5862068E-2,-4.615386E-3,1.5620914E-2,1.0884145E-2,1.8260868E-2,1.4883719E-2,2.5536722E-2,4.528301E-3,1.6046511E-2,8.863635E-3,2.1927273E-2,1.42399985E-2,2.2732558E-2,3.3749998E-2,4.4186036E-3,1.6402438E-2,2.7543858E-2,3.7794117E-2,8.124999E-3,8.666666E-3,2.8239999E-2,3.4961056E-2,-2.5000006E-3],"categories":[],"categories_nodes":[],"categories_segments":[],"categories_sizes":[],"default_left":[0,0,0,0,0,0,0,0,0,0,0,0,0,0,0,0,0,0,0,0,0,0,0,0,0,0,0,0,0,0,0,0,0,0,0,0,0,0,0,0,0,0,0,0,0,0,0,0,0,0,0,0,0,0,0,0,0,0,0,0,0,0,0,0,0,0,0,0,0,0,0,0,0,0,0,0,0,0,0,0,0,0,0,0,0,0,0,0,0,0,0,0,0,0,0,0,0,0,0,0,0,0,0,0,0,0,0,0,0,0,0,0,0,0,0,0,0,0,0,0,0,0,0,0,0],"id":0,"left_children":[1,3,5,7,9,11,13,15,17,19,21,23,25,27,29,31,33,35,37,39,41,43,45,47,49,51,53,55,57,59,61,63,65,67,-1,69,71,73,75,77,79,81,83,85,87,89,91,93,95,97,99,101,103,105,107,109,111,113,115,117,119,121,123,-1,-1,-1,-1,-1,-1,-1,-1,-1,-1,-1,-1,-1,-1,-1,-1,-1,-1,-1,-1,-1,-1,-1,-1,-1,-1,-1,-1,-1,-1,-1,-1,-1,-1,-1,-1,-1,-1,-1,-1,-1,-1,-1,-1,-1,-1,-1,-1,-1,-1,-1,-1,-1,-1,-1,-1,-1,-1,-1,-1,-1,-1],"loss_changes":[1.1185831E3,9.471649E1,1.5954279E2,1.1479492E1,1.7221497E1,1.830188E1,3.5390625E1,9.890137E-1,2.7793064E0,2.0921588E0,5.980938E0,8.296989E0,4.579521E0,5.260895E0,4.785553E0,6.2905884E-1,5.282898E-1,1.032032E0,9.06083E-1,9.067722E-1,1.481055E0,2.5066376E0,3.5007706E0,2.1067028E0,2.8830566E0,1.6707392E0,3.557129E0,2.7148056E0,3.953247E0,1.5332108E0,2.9099426E0,1.8395996E-1,5.6233406E-1,3.2918644E-1,0E0,7.531433E-1,1.2005823E0,8.4319776E-1,8.2190335E-1,9.796536E-1,1.0690383E0,1.3265177E0,1.1640313E0,2.2820945E0,1.3504934E0,1.9749384E0,1.0569687E0,1.1314213E0,2.1650982E0,2.376564E0,2.4251442E0,1.2835412E0,1.8833942E0,2.2071075E0,1.3493919E0,2.44038E0,1.2142372E0,3.1940613E0,1.2398357E0,1.4924183E0,1.8569374E0,1.7770615E0,6.328125E-1,0E0,0E0,0E0,0E0,0E0,0E0,0E0,0E0,0E0,0E0,0E0,0E0,0E0,0E0,0E0,0E0,0E0,0E0,0E0,0E0,0E0,0E0,0E0,0E0,0E0,0E0,0E0,0E0,0E0,0E0,0E0,0E0,0E0,0E0,0E0,0E0,0E0,0E0,0E0,0E0,0E0,0E0,0E0,0E0,0E0,0E0,0E0,0E0,0E0,0E0,0E0,0E0,0E0,0E0,0E0,0E0,0E0,0E0,0E0,0E0,0E0,0E0],"parents":[2147483647,0,0,1,1,2,2,3,3,4,4,5,5,6,6,7,7,8,8,9,9,10,10,11,11,12,12,13,13,14,14,15,15,16,16,17,17,18,18,19,19,20,20,21,21,22,22,23,23,24,24,25,25,26,26,27,27,28,28,29,29,30,30,31,31,32,32,33,33,35,35,36,36,37,37,38,38,39,39,40,40,41,41,42,42,43,43,44,44,45,45,46,46,47,47,48,48,49,49,50,50,51,51,52,52,53,53,54,54,55,55,56,56,57,57,58,58,59,59,60,60,61,61,62,62],"right_children":[2,4,6,8,10,12,14,16,18,20,22,24,26,28,30,32,34,36,38,40,42,44,46,48,50,52,54,56,58,60,62,64,66,68,-1,70,72,74,76,78,80,82,84,86,88,90,92,94,96,98,100,102,104,106,108,110,112,114,116,118,120,122,124,-1,-1,-1,-1,-1,-1,-1,-1,-1,-1,-1,-1,-1,-1,-1,-1,-1,-1,-1,-1,-1,-1,-1,-1,-1,-1,-1,-1,-1,-1,-1,-1,-1,-1,-1,-1,-1,-1,-1,-1,-1,-1,-1,-1,-1,-1,-1,-1,-1,-1,-1,-1,-1,-1,-1,-1,-1,-1,-1,-1,-1,-1],"split_conditions":[2.02E1,1.57E1,2.40125E1,1.16E1,1.8891891E1,2.48E1,2.9438356E1,1.3333333E1,1.5697369E1,1.76E1,1.166E2,2.0205883E1,1.1258868E2,1.11E2,2.86E1,1.1E1,2.71E2,1.7666666E1,1.238E2,1.7125925E1,1.1386463E2,2.3571428E1,2.1E1,1.131E2,2.2142857E1,2.5666666E1,2.2965986E1,1.5E2,1.2E1,1.214E2,1.1098742E2,3.98E1,2.6333334E1,2E0,1.5E-1,1.3181034E1,4E1,3.2E1,3.5E1,1.07E2,5E0,3.9E1,2E0,1.88E1,7.7E1,1.81E1,2.2E1,2.52E2,3.4E1,1.209E2,8E0,3.8E1,1.09185E2,3.46E1,1.1377215E2,2.21E1,3.08E1,2E1,1.121E2,1.4E2,1.253E2,3.18E1,5E1,-5.5E-1,3E-1,-3.5E-1,2.5E-1,5E-2,-2E-1,-2.5E-1,-1E-1,-5E-2,2E-1,2.2499993E-1,-5E-2,1.049998E-1,4E-1,-1E-1,0E0,2.999999E-1,7.499944E-2,0E0,1.5E-1,2E-1,1E-1,1E-1,2.5E-1,3.9499998E-1,2.5E-1,1.5E-1,3E-1,3E-1,4.5000002E-1,1.5E-1,5.8E-1,5.499999E-1,2.5E-1,3E-1,3.7999973E-1,1.9999981E-1,4E-1,1.6499987E-1,5E-1,0E0,4.5000002E-1,3.5E-1,4.5000002E-1,6.5000004E-1,5.5E-1,2.699999E-1,5.5E-1,5.0999993E-1,6.5000004E-1,5.2499986E-1,6E-1,8E-1,2.5E-1,6E-1,6.1499995E-1,8.399997E-1,9.5E-1,5.25E-1,7.7499986E-1,8E-1,0E0],"split_indices":[2,2,12,2,12,2,12,12,12,1,19,12,20,19,2,0,16,0,18,12,20,12,1,19,12,0,12,16,15,18,17,7,0,9,0,12,4,16,8,16,4,9,15,1,16,2,4,16,16,19,16,9,17,7,17,2,7,1,19,16,19,7,0,0,0,0,0,0,0,0,0,0,0,0,0,0,0,0,0,0,0,0,0,0,0,0,0,0,0,0,0,0,0,0,0,0,0,0,0,0,0,0,0,0,0,0,0,0,0,0,0,0,0,0,0,0,0,0,0,0,0,0,0,0,0],"split_type":[0,0,0,0,0,0,0,0,0,0,0,0,0,0,0,0,0,0,0,0,0,0,0,0,0,0,0,0,0,0,0,0,0,0,0,0,0,0,0,0,0,0,0,0,0,0,0,0,0,0,0,0,0,0,0,0,0,0,0,0,0,0,0,0,0,0,0,0,0,0,0,0,0,0,0,0,0,0,0,0,0,0,0,0,0,0,0,0,0,0,0,0,0,0,0,0,0,0,0,0,0,0,0,0,0,0,0,0,0,0,0,0,0,0,0,0,0,0,0,0,0,0,0,0,0],"sum_hessian":[6.1227E4,5.2333E4,8.894E3,4.5208E4,7.125E3,4.972E3,3.922E3,3.5123E4,1.0085E4,4.838E3,2.287E3,3.995E3,9.77E2,2.965E3,9.57E2,3.3868E4,1.255E3,8.436E3,1.649E3,2.403E3,2.435E3,1.436E3,8.51E2,1.482E3,2.513E3,2.98E2,6.79E2,8.19E2,2.146E3,1.77E2,7.8E2,2.9278E4,4.59E3,1.254E3,1E0,7.451E3,9.85E2,1.486E3,1.63E2,1.905E3,4.98E2,1.198E3,1.237E3,1.313E3,1.23E2,7.03E2,1.48E2,6.26E2,8.56E2,1.599E3,9.14E2,1.34E2,1.64E2,4.61E2,2.18E2,5.24E2,2.95E2,2.101E3,4.5E1,1.37E2,4E1,1.38E2,6.42E2,2.9273E4,5E0,4.589E3,1E0,2E0,1.252E3,4.77E3,2.681E3,9.83E2,2E0,6.4E1,1.422E3,1.58E2,5E0,8.38E2,1.067E3,2.4E1,4.74E2,1.065E3,1.33E2,2.68E2,9.69E2,7.52E2,5.61E2,1E1,1.13E2,2.97E2,4.06E2,7.3E1,7.5E1,6.1E2,1.6E1,4.9E1,8.07E2,1.386E3,2.13E2,3.9E1,8.75E2,1.06E2,2.8E1,1.2E1,1.52E2,1.63E2,2.98E2,4.2E1,1.76E2,5.2E1,4.72E2,2.1E1,2.74E2,1.24E2,1.977E3,3E0,4.2E1,8.1E1,5.6E1,3.3E1,7E0,1.4E1,1.24E2,6.41E2,1E0],"tree_param":{"num_deleted":"0","num_feature":"22","num_nodes":"125","size_leaf_vector":"1"}},{"base_weights":[-8.574027E-3,-6.270225E-2,3.1214973E-1,-8.362986E-2,3.3372555E-2,1.967369E-1,4.5875835E-1,-8.963304E-2,-3.881218E-2,-1.4713176E-3,1.03849865E-1,1.6526446E-1,3.2601035E-1,4.0259117E-1,6.316842E-1,-9.4595246E-2,-7.0616804E-2,-5.25688E-2,-1.8567275E-2,-2.0223776E-2,2.214593E-2,1.0081484E-1,4.8749998E-1,1.0155508E-1,2.030096E-1,2.4797842E-1,3.741176E-1,3.7309724E-1,4.5575812E-1,4.6628568E-1,6.681701E-1,-9.4628416E-2,2.2499999E-2,-7.086476E-2,3E-2,-5.5808447E-2,7.7027E-2,4.2499998E-1,-1.9424133E-2,-2.377439E-2,9.900988E-2,1.1967259E-2,7.511208E-2,2.947366E-2,1.20507464E-1,4E-2,2.8124997E-1,-2.8282851E-2,1.1078926E-1,1.6527091E-1,2.3890194E-1,1.6038959E-1,3.0871558E-1,3.2024997E-1,4.8214284E-1,3.2751265E-1,4.2213655E-1,4.6734074E-1,2.3518516E-1,2.0869564E-1,5.0196075E-1,5.719178E-1,6.893819E-1,-4.8725787E-3,-4.4624032E-3,-3.6741816E-3,-1.6568641E-3,-3.2258872E-3,-1.8181831E-3,-2.1621634E-3,9.6052615E-3,-2.5000006E-3,3E-2,8.421051E-3,-1.058593E-3,-1.2274487E-3,2.0833334E-2,2.55E-2,2.6630422E-3,-1.3411776E-3,1.032121E-3,6.219999E-3,6.091359E-4,1.2576208E-3,1.5499999E-2,5.090532E-3,9.841101E-3,-4.285715E-3,2.55E-2,7.0588225E-3,-3.1325314E-3,1.0296609E-2,5.09098E-3,5.2416343E-3,9.110525E-3,2.92E-2,1.1590726E-2,9.219858E-3,-4.6428586E-3,-4.375001E-3,1.6113743E-2,4.594594E-3,1.7129121E-2,2.939759E-2,2.004386E-2,1.7300831E-2,1.0896551E-2,3.0852271E-2,2.0036539E-2,2.2115126E-2,2.7119342E-2,5.6578936E-3,2.4705881E-2,-4.5833346E-3,2.4583332E-2,2.7298385E-2,1.5166665E-2,5.499999E-3,3.007299E-2,3.492373E-2,2.7261904E-2],"categories":[],"categories_nodes":[],"categories_segments":[],"categories_sizes":[],"default_left":[0,0,0,0,0,0,0,0,0,0,0,0,0,0,0,0,0,0,0,0,0,0,0,0,0,0,0,0,0,0,0,0,0,0,0,0,0,0,0,0,0,0,0,0,0,0,0,0,0,0,0,0,0,0,0,0,0,0,0,0,0,0,0,0,0,0,0,0,0,0,0,0,0,0,0,0,0,0,0,0,0,0,0,0,0,0,0,0,0,0,0,0,0,0,0,0,0,0,0,0,0,0,0,0,0,0,0,0,0,0,0,0,0,0,0,0,0,0,0,0,0],"id":1,"left_children":[1,3,5,7,9,11,13,15,17,19,21,23,25,27,29,31,33,35,37,39,41,43,45,47,49,51,53,55,57,59,61,63,-1,65,-1,67,69,71,73,75,77,79,81,83,85,-1,87,89,91,93,95,97,99,101,103,105,107,109,111,113,115,117,119,-1,-1,-1,-1,-1,-1,-1,-1,-1,-1,-1,-1,-1,-1,-1,-1,-1,-1,-1,-1,-1,-1,-1,-1,-1,-1,-1,-1,-1,-1,-1,-1,-1,-1,-1,-1,-1,-1,-1,-1,-1,-1,-1,-1,-1,-1,-1,-1,-1,-1,-1,-1,-1,-1,-1,-1,-1,-1],"loss_changes":[1.0597733E3,1.0501929E2,1.4906403E2,1.1535767E1,2.2943779E1,2.002037E1,3.7450623E1,3.562317E0,1.41047E0,2.7697854E0,3.5499725E0,9.526123E0,3.529747E0,4.429199E0,5.421417E0,5.8425903E-1,1.344677E0,1.2709703E0,7.881673E-1,1.4781611E0,1.4913992E0,4.3066635E0,1.3218746E0,1.7763758E0,3.3360138E0,1.9241638E0,3.30793E0,4.0911865E0,2.5521698E0,1.5034103E0,1.190094E0,4.4683838E-1,0E0,7.710991E-1,0E0,4.9622154E-1,1.0325036E0,3.6249995E-1,6.762568E-1,1.1653935E0,1.8718793E0,7.822815E-1,1.3818233E0,7.983311E-1,3.4100838E0,0E0,1.3868036E0,5.8541477E-1,1.1575775E0,1.2278862E0,2.983078E0,9.534168E-1,1.1993847E0,2.008438E0,1.4496346E0,1.921875E0,3.5410614E0,1.618454E0,1.6503153E0,1.9999276E0,1.1717644E0,1.9261513E0,4.46167E-1,0E0,0E0,0E0,0E0,0E0,0E0,0E0,0E0,0E0,0E0,0E0,0E0,0E0,0E0,0E0,0E0,0E0,0E0,0E0,0E0,0E0,0E0,0E0,0E0,0E0,0E0,0E0,0E0,0E0,0E0,0E0,0E0,0E0,0E0,0E0,0E0,0E0,0E0,0E0,0E0,0E0,0E0,0E0,0E0,0E0,0E0,0E0,0E0,0E0,0E0,0E0,0E0,0E0,0E0,0E0,0E0,0E0,0E0],"parents":[2147483647,0,0,1,1,2,2,3,3,4,4,5,5,6,6,7,7,8,8,9,9,10,10,11,11,12,12,13,13,14,14,15,15,16,16,17,17,18,18,19,19,20,20,21,21,22,22,23,23,24,24,25,25,26,26,27,27,28,28,29,29,30,30,31,31,33,33,35,35,36,36,37,37,38,38,39,39,40,40,41,41,42,42,43,43,44,44,46,46,47,47,48,48,49,49,50,50,51,51,52,52,53,53,54,54,55,55,56,56,57,57,58,58,59,59,60,60,61,61,62,62],"right_children":[2,4,6,8,10,12,14,16,18,20,22,24,26,28,30,32,34,36,38,40,42,44,46,48,50,52,54,56,58,60,62,64,-1,66,-1,68,70,72,74,76,78,80,82,84,86,-1,88,90,92,94,96,98,100,102,104,106,108,110,112,114,116,118,120,-1,-1,-1,-1,-1,-1,-1,-1,-1,-1,-1,-1,-1,-1,-1,-1,-1,-1,-1,-1,-1,-1,-1,-1,-1,-1,-1,-1,-1,-1,-1,-1,-1,-1,-1,-1,-1,-1,-1,-1,-1,-1,-1,-1,-1,-1,-1,-1,-1,-1,-1,-1,-1,-1,-1,-1,-1,-1],"split_conditions":[2.02E1,1.47E1,2.40125E1,1.3014778E1,1.7981482E1,2.48E1,2.9438356E1,1.03E1,1.4E1,1.675E1,2.5857143E1,2.0205883E1,1.1305825E2,2.72E1,2.86E1,4.4E1,2.6E1,1.9822222E1,1.6E1,4.1E1,2.5E1,1.092E2,1.088E2,2.88E1,1.1373264E2,2.5E1,2.2965986E1,1.148E2,7E0,1.6E1,1.1098742E2,7.3333335E0,5.6750005E-1,2.2E1,1.1025E0,2.96E1,1.1441993E2,1E1,1.9235384E0,3.9E1,2.83E1,2.86E1,1.5823529E1,2.6333334E1,2.1524822E1,7.875E-1,6.1073728E0,1.114627E2,3.4E1,3.24E1,1.13822716E2,5E0,2.9E1,3.9749215E0,2.3571428E1,4E0,4.7E1,1.94E2,1.98E2,1.196E2,3.4E1,3.1E1,4.5E1,-6.2250006E-1,-4.2250004E-1,-2.7250004E-1,-1.4750047E-1,-1.9499998E-1,-1.4499998E-1,-9.750004E-2,2.709499E-1,-7.3999995E-1,1.5249996E-1,2.9499984E-1,-8.75E-2,-5.0375294E-2,2.5E-1,5.4999995E-1,1.5249999E-1,-4.4999983E-2,5E-2,2.899997E-1,4.4999983E-2,4.4999983E-2,3.3749998E-1,1.9424988E-1,3.3404997E-1,-6.25E-2,7.774999E-1,2.525E-1,-6.25E-2,2.8249988E-1,2.308995E-1,2.3140001E-1,2.8100002E-1,8.324999E-1,3.809E-1,3.32E-1,-2.8249968E-2,-2.0824996E-1,4.7024974E-1,3.4399992E-1,4.2749998E-1,5.5749995E-1,4.7250006E-1,5.2250004E-1,4.9374983E-1,6.7E-1,5.7E-1,6.7E-1,6.1925E-1,2.7999994E-1,7.32E-1,-9.075E-2,5.6759995E-1,6.999998E-1,5.199999E-1,4.2375E-1,7.762498E-1,7.6000005E-1,9.4E-1],"split_indices":[2,2,12,12,12,2,12,2,3,2,12,12,20,2,2,3,0,12,9,9,3,18,18,7,20,3,12,18,15,4,17,0,0,3,0,7,17,0,13,4,8,7,12,0,12,0,13,20,16,8,20,15,9,13,12,15,21,16,16,18,3,7,4,0,0,0,0,0,0,0,0,0,0,0,0,0,0,0,0,0,0,0,0,0,0,0,0,0,0,0,0,0,0,0,0,0,0,0,0,0,0,0,0,0,0,0,0,0,0,0,0,0,0,0,0,0,0,0,0,0,0],"split_type":[0,0,0,0,0,0,0,0,0,0,0,0,0,0,0,0,0,0,0,0,0,0,0,0,0,0,0,0,0,0,0,0,0,0,0,0,0,0,0,0,0,0,0,0,0,0,0,0,0,0,0,0,0,0,0,0,0,0,0,0,0,0,0,0,0,0,0,0,0,0,0,0,0,0,0,0,0,0,0,0,0,0,0,0,0,0,0,0,0,0,0,0,0,0,0,0,0,0,0,0,0,0,0,0,0,0,0,0,0,0,0,0,0,0,0,0,0,0,0,0,0],"sum_hessian":[6.1044E4,5.223E4,8.814E3,4.2888E4,9.342E3,4.933E3,3.881E3,3.7821E4,5.067E3,6.252E3,3.09E3,3.969E3,9.64E2,2.932E3,9.49E2,2.9991E4,7.83E3,3.016E3,2.051E3,3.485E3,2.767E3,3.067E3,2.3E1,1.478E3,2.491E3,3.7E2,5.94E2,1.891E3,1.041E3,1.74E2,7.75E2,2.999E4,1E0,7.828E3,2E0,2.943E3,7.3E1,3E0,2.048E3,3.385E3,1E2,2.322E3,4.45E2,6.64E2,2.403E3,8E0,1.5E1,9.8E1,1.38E3,1.217E3,1.274E3,1.53E2,2.17E2,3.99E2,1.95E2,9.84E2,9.07E2,9.88E2,5.3E1,2.2E1,1.52E2,1.45E2,6.3E2,1.9658E4,1.0332E4,7.319E3,5.09E2,2.031E3,9.12E2,3.6E1,3.7E1,1E0,2E0,1.8E1,2.03E3,3.38E3,5E0,9E0,9.1E1,4.24E2,1.898E3,2.49E2,1.96E2,6.55E2,9E0,1.932E3,4.71E2,6E0,9E0,1.6E1,8.2E1,1.17E2,1.263E3,2.68E2,9.49E2,2.4E1,1.25E3,1.4E2,1.3E1,7E0,2.1E2,3.6E1,3.63E2,8.2E1,1.13E2,8.4E2,1.44E2,8.7E1,8.2E2,7.46E2,2.42E2,3.7E1,1.6E1,1.1E1,1.1E1,1.23E2,2.9E1,9E0,1.36E2,5.89E2,4.1E1],"tree_param":{"num_deleted":"0","num_feature":"22","num_nodes":"121","size_leaf_vector":"1"}},{"base_weights":[-1.1937174E-2,-6.2109675E-2,2.9413742E-1,-8.412913E-2,3.1439107E-2,1.7231508E-1,3.9712876E-1,-9.1525E-2,-5.310137E-2,-2.0191683E-3,9.864781E-2,1.5262687E-1,2.8637928E-1,3.4464952E-1,6.0763437E-1,-9.290176E-2,-6.1523203E-2,-6.5150015E-2,-3.4522355E-2,-1.820998E-2,2.032026E-2,8.261341E-2,1.7543551E-1,1.0498846E-1,1.8258344E-1,3.3333104E-3,3.012704E-1,2.7682224E-1,3.7740266E-1,4.679775E-1,6.398406E-1,-9.33975E-2,-5.3753052E-2,-6.778673E-2,-7.04249E-4,-6.5524906E-2,3.2E-1,-3.9278515E-2,2.0077197E-2,-2.217209E-2,1.1517855E-1,1.0445836E-2,7.1271904E-2,8.002918E-2,4.9411762E-1,2.4742244E-2,2.0564851E-1,8.981721E-2,2.1677417E-1,-3.0508498E-2,1.887506E-1,-5.769233E-2,3.2E-1,2.8496093E-1,5.025E-1,1.0714263E-2,2.828308E-1,3.2144192E-1,4.1833216E-1,3.749998E-2,4.8538008E-1,5.5204916E-1,6.805882E-1,-4.671407E-3,2.2499999E-2,-4.367471E-3,-1.5524206E-3,2.2499999E-2,-3.424709E-3,3E-2,-6.7857263E-4,-3.2943324E-3,9.999999E-3,-3.3333343E-3,3E-2,-2.734037E-3,-1.0450529E-3,4.8582876E-4,1.0769229E-2,-2.092473E-3,-3.1009736E-4,2.1153835E-3,1.3714286E-2,2.5292959E-3,-3.525065E-5,2.4937645E-3,1.1160714E-2,3.360761E-3,7.424593E-3,3.857143E-2,1.3636363E-2,3.157883E-4,3E-2,7.97183E-3,1.6814515E-2,-1.1792465E-3,5.0622593E-3,-1.1111123E-3,1.3255812E-2,4.761904E-3,-4.8717964E-3,8.644887E-3,1.3081232E-2,-4.800001E-3,2.2499999E-2,3E-2,-3.3333343E-3,1.2083332E-2,1.9858155E-2,3.1833332E-2,4.5454535E-3,3E-2,-2.8846166E-3,1.5014822E-2,9.234971E-3,3.874999E-3,1.653061E-2,1.9654308E-2,2.3645373E-2,-4.285715E-3,2.2499999E-2,3.3875E-2,2.1174243E-2,6.9230758E-3,2.864224E-2,3.4623217E-2,1.775E-2],"categories":[],"categories_nodes":[],"categories_segments":[],"categories_sizes":[],"default_left":[0,0,0,0,0,0,0,0,0,0,0,0,0,0,0,0,0,0,0,0,0,0,0,0,0,0,0,0,0,0,0,0,0,0,0,0,0,0,0,0,0,0,0,0,0,0,0,0,0,0,0,0,0,0,0,0,0,0,0,0,0,0,0,0,0,0,0,0,0,0,0,0,0,0,0,0,0,0,0,0,0,0,0,0,0,0,0,0,0,0,0,0,0,0,0,0,0,0,0,0,0,0,0,0,0,0,0,0,0,0,0,0,0,0,0,0,0,0,0,0,0,0,0,0,0,0,0],"id":2,"left_children":[1,3,5,7,9,11,13,15,17,19,21,23,25,27,29,31,33,35,37,39,41,43,45,47,49,51,53,55,57,59,61,63,65,67,69,71,73,75,77,79,81,83,85,87,89,91,93,95,97,99,101,103,105,107,109,111,113,115,117,119,121,123,125,-1,-1,-1,-1,-1,-1,-1,-1,-1,-1,-1,-1,-1,-1,-1,-1,-1,-1,-1,-1,-1,-1,-1,-1,-1,-1,-1,-1,-1,-1,-1,-1,-1,-1,-1,-1,-1,-1,-1,-1,-1,-1,-1,-1,-1,-1,-1,-1,-1,-1,-1,-1,-1,-1,-1,-1,-1,-1,-1,-1,-1,-1,-1,-1],"loss_changes":[9.392542E2,1.08248E2,1.0800836E2,9.756439E0,2.2516308E1,8.822388E0,5.1347717E1,1.4130249E0,1.8310986E0,2.4186528E0,4.0830917E0,4.7886734E0,2.4436188E0,8.199707E0,3.883545E0,6.3235474E-1,5.7517385E-1,7.3815536E-1,8.3800983E-1,2.051548E0,1.4130176E0,2.8901749E0,2.6082745E0,2.1903248E0,2.7221603E0,5.982052E-1,1.665165E0,1.9492569E0,5.6328735E0,1.3152733E0,2.3179626E0,5.8184814E-1,3.1232166E-1,5.322957E-1,1.1057153E0,4.898796E-1,5.813333E-1,8.3839464E-1,5.2199525E-1,1.1832075E0,1.2869545E0,1.0541242E0,1.4713473E0,2.3928833E0,8.333082E-1,1.024408E0,2.8321686E0,1.4914427E0,1.7966967E0,5.058174E-1,2.2756882E0,5.488615E-1,5.813333E-1,2.3911667E0,2.1509924E0,1.1633242E0,1.9909592E0,2.3635101E0,1.8132935E0,4.4517857E-1,1.7465057E0,2.019287E0,1.7262115E0,0E0,0E0,0E0,0E0,0E0,0E0,0E0,0E0,0E0,0E0,0E0,0E0,0E0,0E0,0E0,0E0,0E0,0E0,0E0,0E0,0E0,0E0,0E0,0E0,0E0,0E0,0E0,0E0,0E0,0E0,0E0,0E0,0E0,0E0,0E0,0E0,0E0,0E0,0E0,0E0,0E0,0E0,0E0,0E0,0E0,0E0,0E0,0E0,0E0,0E0,0E0,0E0,0E0,0E0,0E0,0E0,0E0,0E0,0E0,0E0,0E0,0E0,0E0,0E0],"parents":[2147483647,0,0,1,1,2,2,3,3,4,4,5,5,6,6,7,7,8,8,9,9,10,10,11,11,12,12,13,13,14,14,15,15,16,16,17,17,18,18,19,19,20,20,21,21,22,22,23,23,24,24,25,25,26,26,27,27,28,28,29,29,30,30,31,31,32,32,33,33,34,34,35,35,36,36,37,37,38,38,39,39,40,40,41,41,42,42,43,43,44,44,45,45,46,46,47,47,48,48,49,49,50,50,51,51,52,52,53,53,54,54,55,55,56,56,57,57,58,58,59,59,60,60,61,61,62,62],"right_children":[2,4,6,8,10,12,14,16,18,20,22,24,26,28,30,32,34,36,38,40,42,44,46,48,50,52,54,56,58,60,62,64,66,68,70,72,74,76,78,80,82,84,86,88,90,92,94,96,98,100,102,104,106,108,110,112,114,116,118,120,122,124,126,-1,-1,-1,-1,-1,-1,-1,-1,-1,-1,-1,-1,-1,-1,-1,-1,-1,-1,-1,-1,-1,-1,-1,-1,-1,-1,-1,-1,-1,-1,-1,-1,-1,-1,-1,-1,-1,-1,-1,-1,-1,-1,-1,-1,-1,-1,-1,-1,-1,-1,-1,-1,-1,-1,-1,-1,-1,-1,-1,-1,-1,-1,-1,-1],"split_conditions":[2.04E1,1.45E1,2.2965986E1,1.14E1,1.7981482E1,2.51E1,2.9438356E1,1.2816326E1,1.3181034E1,1.675E1,1.212E2,2.0013762E1,2.14E1,2.42E1,2.86E1,1.36E1,3.5E1,3.5E1,1.8642857E1,4.1E1,2.5E1,2.5857143E1,2.8E1,2.7E1,2.86E1,1.79E2,3.18E1,9E0,1.132811E2,1.92E1,1.1255994E2,4.4E1,2.7E1,2E0,1E0,3.4E1,1.6E1,1.4E1,2.4E1,1.3827434E1,1.76E1,2E0,1.222E2,2.1E1,1.088E2,3.1E1,2.1333334E1,1.046E2,2.1E1,2.0682539E1,1.21E2,2.7E1,1.6333334E1,1.94E2,2.52E2,2.0666666E1,4E0,1.3E1,2.9666666E1,2.34E1,2.54E1,9E0,5.1E1,-4.9137506E-1,5.391251E-1,-2.6137495E-1,-1.02875195E-1,3.1975004E-1,-2.2197512E-1,8.311251E-1,-8.024999E-2,-2.2387505E-1,6.161249E-1,-7.90125E-1,1.047375E0,-1.4025001E-1,-6.01264E-2,1.0499959E-2,6.7687476E-1,-1.3498126E-1,-4.2481232E-2,1.6337492E-1,2.84875E-1,9.6449964E-2,-1.8999921E-3,9.775E-2,4.169999E-1,1.2528753E-1,2.277875E-1,7.48125E-1,7.720999E-1,3.2787513E-2,6.2528753E-1,2.3278752E-1,4.3439397E-1,-4.9045097E-2,1.7927498E-1,1.1385562E-1,3.6260796E-1,2.2638045E-1,-7.231747E-2,2.7945483E-1,3.6315504E-1,-8.928752E-2,3.7515002E-1,4.61125E-1,-4.88875E-1,3.5398751E-1,4.2347494E-1,4.0612498E-1,4.6920115E-1,3.2594997E-1,-2.904501E-2,4.4737497E-1,3.5551223E-1,1.8089993E-1,4.9637508E-1,5.438749E-1,6.365E-1,-7.0380025E-2,2.8425008E-1,5.229999E-1,6.749999E-1,7.374374E-1,7.2235006E-1,7.2200006E-1,9.129999E-1],"split_indices":[2,2,12,2,12,2,12,12,12,2,18,12,1,2,2,1,9,3,12,9,3,12,9,0,7,16,1,16,20,1,20,3,9,11,15,4,4,3,4,12,1,15,18,1,18,5,12,18,3,12,18,5,0,16,21,0,15,4,0,2,2,16,4,0,0,0,0,0,0,0,0,0,0,0,0,0,0,0,0,0,0,0,0,0,0,0,0,0,0,0,0,0,0,0,0,0,0,0,0,0,0,0,0,0,0,0,0,0,0,0,0,0,0,0,0,0,0,0,0,0,0,0,0,0,0,0,0],"split_type":[0,0,0,0,0,0,0,0,0,0,0,0,0,0,0,0,0,0,0,0,0,0,0,0,0,0,0,0,0,0,0,0,0,0,0,0,0,0,0,0,0,0,0,0,0,0,0,0,0,0,0,0,0,0,0,0,0,0,0,0,0,0,0,0,0,0,0,0,0,0,0,0,0,0,0,0,0,0,0,0,0,0,0,0,0,0,0,0,0,0,0,0,0,0,0,0,0,0,0,0,0,0,0,0,0,0,0,0,0,0,0,0,0,0,0,0,0,0,0,0,0,0,0,0,0,0,0],"sum_hessian":[6.1161E4,5.2548E4,8.613E3,4.2536E4,1.0012E4,3.947E3,4.666E3,3.4347E4,8.189E3,6.685E3,3.327E3,3.368E3,5.79E2,3.737E3,9.29E2,3.2838E4,1.509E3,4.966E3,3.223E3,3.876E3,2.809E3,2.754E3,5.73E2,1.302E3,2.066E3,2.9E1,5.5E2,1.22E3,2.517E3,1.77E2,7.52E2,3.2426E4,4.12E2,1.368E3,1.41E2,4.962E3,4E0,2.965E3,2.58E2,3.765E3,1.11E2,2.354E3,4.55E2,2.738E3,1.6E1,9.6E1,4.77E2,1.148E3,1.54E2,5.8E1,2.008E3,2.5E1,4E0,5.11E2,3.9E1,2.7E1,1.193E3,1.067E3,1.45E3,7E0,1.7E2,2.43E2,5.09E2,3.2425E4,1E0,1.65E2,2.47E2,1E0,1.367E3,2E0,1.39E2,4.956E3,6E0,2E0,2E0,1.612E3,1.353E3,2.46E2,1.2E1,1.686E3,2.079E3,7.7E1,3.4E1,5.11E2,1.843E3,4E2,5.5E1,2.308E3,4.3E2,6E0,1E1,9.4E1,2E0,3.54E2,1.23E2,1.05E2,1.043E3,2.6E1,1.28E2,2E1,3.8E1,1.652E3,3.56E2,2.4E1,1E0,2E0,2E0,3.71E2,1.4E2,2.9E1,1E1,2E0,2.5E1,1.011E3,1.82E2,3.9E1,1.028E3,9.97E2,4.53E2,6E0,1E0,3.9E1,1.31E2,1.2E1,2.31E2,4.9E2,1.9E1],"tree_param":{"num_deleted":"0","num_feature":"22","num_nodes":"127","size_leaf_vector":"1"}},{"base_weights":[-1.2867037E-2,-6.319948E-2,2.590522E-1,-8.319879E-2,2.0413075E-2,1.6511175E-1,3.9807138E-1,-8.814623E-2,-4.1986987E-2,8.389127E-3,1.5409033E-1,9.772284E-2,2.0351021E-1,3.416203E-1,5.664241E-1,-9.585508E-2,-7.951141E-2,-4.2757403E-2,2.7272725E-1,-6.8331193E-3,5.924688E-2,6.411147E-2,2.0225139E-1,2.9303792E-3,1.1210935E-1,1.7681645E-1,2.7839828E-1,3.1675622E-1,4.025301E-1,5.0921345E-1,6.1447877E-1,-9.590598E-2,2.2499999E-2,-8.3483785E-2,-6.809126E-2,-6.3276015E-2,-3.3902697E-2,-4.166668E-3,5.833333E-1,-2.3429228E-2,2.3283798E-2,3.733331E-2,9.30825E-2,3.1441025E-2,1.8983048E-1,1.74382E-1,3.3932582E-1,2.1874997E-1,-1.046514E-2,9.248274E-2,1.9475216E-1,1.0955282E-1,1.9192287E-1,2.3297043E-1,3.726384E-1,2.8255594E-1,3.539959E-1,4.1120687E-1,1.0526293E-2,3.749998E-2,5.1666665E-1,2.6071426E-1,6.334012E-1,-4.940302E-3,-4.717964E-3,-4.230113E-3,-3.1625198E-3,-4.0766047E-3,-3.0038839E-3,-3.1998516E-3,2.2499999E-2,2.125E-2,-1.7241947E-3,-2.5000006E-3,3.6E-2,-2.0605265E-3,-2.9243744E-4,8.2092796E-4,3.9272713E-3,-2.3529425E-3,2.439892E-3,4.2379173E-3,2.3055555E-2,9.85294E-3,1.2754984E-4,2.7272725E-2,5.3061214E-3,9.330985E-3,-4.7500012E-3,3.5416656E-3,2.1590909E-2,-4.375001E-3,2.3333332E-2,2.7027016E-3,-2.9391905E-3,3.4240235E-3,7.0649884E-3,1.6901407E-2,7.838827E-3,3.9275754E-3,9.589552E-3,8.5014505E-3,1.1465087E-2,8.917111E-3,1.5388888E-2,1.6329113E-2,2.6056338E-2,1.1731748E-2,1.7014463E-2,1.2047871E-2,1.902408E-2,2.2428315E-2,1.6392155E-2,-4.687501E-3,2.125E-2,-4.285715E-3,2.2499999E-2,2.6695544E-2,1.5142857E-2,3.6111102E-3,2.7272725E-2,2.4444444E-2,3.265734E-2],"categories":[],"categories_nodes":[],"categories_segments":[],"categories_sizes":[],"default_left":[0,0,0,0,0,0,0,0,0,0,0,0,0,0,0,0,0,0,0,0,0,0,0,0,0,0,0,0,0,0,0,0,0,0,0,0,0,0,0,0,0,0,0,0,0,0,0,0,0,0,0,0,0,0,0,0,0,0,0,0,0,0,0,0,0,0,0,0,0,0,0,0,0,0,0,0,0,0,0,0,0,0,0,0,0,0,0,0,0,0,0,0,0,0,0,0,0,0,0,0,0,0,0,0,0,0,0,0,0,0,0,0,0,0,0,0,0,0,0,0,0,0,0],"id":3,"left_children":[1,3,5,7,9,11,13,15,17,19,21,23,25,27,29,31,33,35,37,39,41,43,45,47,49,51,53,55,57,59,61,63,-1,65,67,69,71,-1,73,75,77,79,81,83,85,87,89,91,93,95,97,99,101,103,105,107,109,111,113,115,117,119,121,-1,-1,-1,-1,-1,-1,-1,-1,-1,-1,-1,-1,-1,-1,-1,-1,-1,-1,-1,-1,-1,-1,-1,-1,-1,-1,-1,-1,-1,-1,-1,-1,-1,-1,-1,-1,-1,-1,-1,-1,-1,-1,-1,-1,-1,-1,-1,-1,-1,-1,-1,-1,-1,-1,-1,-1,-1,-1,-1,-1],"loss_changes":[8.3393994E2,8.597752E1,1.242218E2,8.456024E0,1.595144E1,1.468045E1,3.6272156E1,2.45813E0,1.0903678E0,7.0507646E0,3.53615E0,2.814415E0,7.183319E0,4.2280884E0,2.3318787E0,5.8677673E-1,7.872009E-1,8.043604E-1,1.2651515E0,3.5043092E0,1.5521064E0,1.1728257E0,1.976984E0,7.9153645E-1,2.8886108E0,2.6920013E0,3.9759827E0,2.5070496E0,2.8187714E0,1.5451508E0,3.302414E0,7.8445435E-2,0E0,2.8800964E-1,4.8151588E-1,5.2359533E-1,8.4226465E-1,0E0,5.553334E-1,1.4127278E0,9.437566E-1,1.2358798E0,2.4852653E0,1.0951941E0,1.6984622E0,1.4847231E0,2.179595E0,1.255625E0,8.074874E-1,1.6893158E0,1.8132668E0,1.2392845E0,1.7442398E0,2.5727844E0,1.9293251E0,2.885994E0,2.8303757E0,2.381836E0,8.610198E-1,4.4517857E-1,1.4532013E0,1.4634018E0,1.0817566E0,0E0,0E0,0E0,0E0,0E0,0E0,0E0,0E0,0E0,0E0,0E0,0E0,0E0,0E0,0E0,0E0,0E0,0E0,0E0,0E0,0E0,0E0,0E0,0E0,0E0,0E0,0E0,0E0,0E0,0E0,0E0,0E0,0E0,0E0,0E0,0E0,0E0,0E0,0E0,0E0,0E0,0E0,0E0,0E0,0E0,0E0,0E0,0E0,0E0,0E0,0E0,0E0,0E0,0E0,0E0,0E0,0E0,0E0,0E0,0E0],"parents":[2147483647,0,0,1,1,2,2,3,3,4,4,5,5,6,6,7,7,8,8,9,9,10,10,11,11,12,12,13,13,14,14,15,15,16,16,17,17,18,18,19,19,20,20,21,21,22,22,23,23,24,24,25,25,26,26,27,27,28,28,29,29,30,30,31,31,33,33,34,34,35,35,36,36,38,38,39,39,40,40,41,41,42,42,43,43,44,44,45,45,46,46,47,47,48,48,49,49,50,50,51,51,52,52,53,53,54,54,55,55,56,56,57,57,58,58,59,59,60,60,61,61,62,62],"right_children":[2,4,6,8,10,12,14,16,18,20,22,24,26,28,30,32,34,36,38,40,42,44,46,48,50,52,54,56,58,60,62,64,-1,66,68,70,72,-1,74,76,78,80,82,84,86,88,90,92,94,96,98,100,102,104,106,108,110,112,114,116,118,120,122,-1,-1,-1,-1,-1,-1,-1,-1,-1,-1,-1,-1,-1,-1,-1,-1,-1,-1,-1,-1,-1,-1,-1,-1,-1,-1,-1,-1,-1,-1,-1,-1,-1,-1,-1,-1,-1,-1,-1,-1,-1,-1,-1,-1,-1,-1,-1,-1,-1,-1,-1,-1,-1,-1,-1,-1,-1,-1,-1,-1],"split_conditions":[1.96E1,1.44E1,2.436E1,1.3181034E1,2.28E1,2E1,2.9438356E1,7.2E0,3.83E1,1.7125925E1,1.123E2,2.88E1,2.2965986E1,2.82E1,1.1353333E2,4.6E1,1.16E1,2.4E1,1.78E2,1.76E1,1.158E2,3.2E1,2.66E2,3.04959E0,1.195E2,1.084E2,2.6E1,2.6257143E1,4.1666668E1,1.006E2,2.7E1,4.659091E0,2.3193741E-2,1.2333333E1,2.6E1,3.1E1,1.49E1,-3.0737495E-2,1E0,1.34E1,3.9E1,2.83E1,4.3E1,1.415E1,1.053E2,2.94E1,3.3E1,2.57E1,2.0443396E1,2.1333334E1,6.4E1,3.57E1,3.5666668E1,1.49E2,1.198E2,3.53E1,1.093E2,3E0,1.197E2,3.18E1,5E0,1.214E2,3.27E1,-6.6680634E-1,-5.168063E-1,-3.5768119E-1,-1.9770984E-1,-2.868062E-1,-1.868062E-1,-1.893813E-1,1.1926241E-1,3.483487E-1,-9.035724E-2,-1.20976925E-1,2.8652307E-1,-1.2816517E-1,-1.9272126E-2,2.5612546E-2,1.2193441E-1,-1.1179381E-1,1.052676E-1,1.4551982E-1,7.783226E-1,2.494272E-1,2.5614714E-2,3.009689E-1,5.0596946E-1,3.1699124E-1,-1.25601785E-2,1.6503476E-1,4.3495122E-1,-2.46025E-1,4.289856E-1,7.6023094E-2,-5.1212855E-2,1.22798026E-1,2.0197879E-1,4.343854E-1,2.6364812E-1,1.7531703E-1,3.3098015E-1,2.9342565E-1,3.0697727E-1,2.950693E-1,4.1913128E-1,4.7383997E-1,7.098961E-1,3.6936876E-1,4.644424E-1,4.1680628E-1,4.6941382E-1,6.617137E-1,4.6383435E-1,-6.194387E-2,3.7417498E-1,-1.4117432E-2,8.632012E-2,6.363201E-1,3.6111003E-1,1.8375485E-1,1.3337001E0,5.7089996E-1,7.3590004E-1],"split_indices":[12,1,12,12,1,1,12,1,8,12,19,8,12,1,17,9,1,9,16,1,19,5,21,13,19,18,1,12,6,19,9,12,0,12,9,4,8,0,5,12,9,8,10,12,19,1,10,8,12,12,16,8,6,21,18,8,19,15,19,1,15,19,8,0,0,0,0,0,0,0,0,0,0,0,0,0,0,0,0,0,0,0,0,0,0,0,0,0,0,0,0,0,0,0,0,0,0,0,0,0,0,0,0,0,0,0,0,0,0,0,0,0,0,0,0,0,0,0,0,0,0,0,0],"split_type":[0,0,0,0,0,0,0,0,0,0,0,0,0,0,0,0,0,0,0,0,0,0,0,0,0,0,0,0,0,0,0,0,0,0,0,0,0,0,0,0,0,0,0,0,0,0,0,0,0,0,0,0,0,0,0,0,0,0,0,0,0,0,0,0,0,0,0,0,0,0,0,0,0,0,0,0,0,0,0,0,0,0,0,0,0,0,0,0,0,0,0,0,0,0,0,0,0,0,0,0,0,0,0,0,0,0,0,0,0,0,0,0,0,0,0,0,0,0,0,0,0,0,0],"sum_hessian":[6.093E4,5.1414E4,9.516E3,4.149E4,9.924E3,5.68E3,3.836E3,3.7042E4,4.448E3,9.106E3,8.18E2,2.063E3,3.617E3,2.875E3,9.61E2,1.9565E4,1.7477E4,4.438E3,1E1,7.009E3,2.097E3,2.86E2,5.32E2,2.72E2,1.791E3,2.669E3,9.48E2,2.046E3,8.29E2,4.44E2,5.17E2,1.9564E4,1E0,1.2962E4,4.515E3,1.336E3,3.102E3,5E0,5E0,4.519E3,2.49E3,1.274E3,8.23E2,2.28E2,5.8E1,4.44E2,8.8E1,1.5E1,2.57E2,1.449E3,3.42E2,4.91E2,2.178E3,6.42E2,3.06E2,1.071E3,9.75E2,8.11E2,1.8E1,7E0,4.37E2,2.7E1,4.9E2,6.783E3,1.2781E4,1.228E4,6.82E2,1.683E3,2.832E3,1.335E3,1E0,3E0,3.099E3,1E0,4E0,2.246E3,2.273E3,2.216E3,2.74E2,1.52E2,1.122E3,8.06E2,1.7E1,3.3E1,1.95E2,1E1,4.8E1,4.25E2,1.9E1,2.3E1,6.5E1,7E0,8E0,1.1E2,1.47E2,9.73E2,4.76E2,7E1,2.72E2,3.58E2,1.33E2,1.377E3,8.01E2,3.73E2,2.69E2,2.36E2,7E1,5.88E2,4.83E2,1.87E2,7.88E2,5.57E2,2.54E2,1.5E1,3E0,6E0,1E0,4.03E2,3.4E1,1.7E1,1E1,6.2E1,4.28E2],"tree_param":{"num_deleted":"0","num_feature":"22","num_nodes":"123","size_leaf_vector":"1"}},{"base_weights":[-1.586748E-2,-6.464391E-2,2.2510499E-1,-8.172236E-2,1.0990638E-2,1.3858634E-1,3.6986157E-1,-8.762383E-2,-4.971991E-2,-7.774664E-4,1.5585712E-1,8.005661E-2,1.75292E-1,3.065134E-1,5.5912405E-1,-9.0819865E-2,-6.936853E-2,-5.9174858E-2,-2.936277E-2,-3.0403689E-2,1.9410823E-2,1.11724116E-1,2.2744359E-1,4.3447647E-2,1.1115267E-1,1.5221623E-1,2.4661808E-1,2.874947E-1,3.933723E-1,2.22222E-2,5.636172E-1,-9.4927005E-2,-8.4135026E-2,-6.988233E-2,1.5833332E-1,-6.739764E-2,-3.9316263E-2,-3.8382642E-2,9.635393E-3,-3.7964214E-2,1.7363993E-2,2.0241102E-3,3.6864713E-2,1.0350465E-1,5.3749996E-1,4.133333E-1,1.8873872E-1,1.6974787E-1,2.8655522E-2,7.510092E-2,1.5606058E-1,1.2853274E-1,1.9072436E-1,2.2082838E-1,4.307692E-1,2.8078774E-1,4.8799998E-1,4.031809E-1,-4.545456E-3,2.2499999E-2,-4.375001E-3,5.2943087E-1,6.243323E-1,-4.749061E-3,2.2499999E-2,-4.232109E-3,-7.738107E-4,-3.5656795E-3,5.4944935E-4,2.0833334E-2,-4.285715E-3,-3.3979968E-3,6.6666654E-3,-2.0872653E-3,7.8124986E-3,-1.6677665E-3,-4.6099303E-3,1.4782608E-2,-4.2817797E-4,-1.9654839E-3,4.2424235E-3,-2.0151252E-4,6.0365843E-3,-1.9824826E-4,4.224137E-3,8.1948517E-4,2.93927E-3,1.1235838E-4,6.485293E-3,3.142857E-2,-2.5000006E-3,2.6406249E-2,6.0714274E-3,6.934523E-3,1.690909E-2,6.4356425E-3,1.8947368E-2,2.7333215E-4,4.6481467E-3,1.2285713E-2,3.3286307E-3,4.685989E-3,9.445875E-3,5.1601552E-3,9.269365E-3,2.815533E-3,1.0199028E-2,8.015694E-3,1.4387499E-2,-4.375001E-3,2.3227273E-2,9.770114E-3,1.4582715E-2,2.7109373E-2,7.916666E-3,1.0603447E-2,2.13565E-2,2.6879137E-2,3.749999E-3,1.8499998E-2,3.2353897E-2],"categories":[],"categories_nodes":[],"categories_segments":[],"categories_sizes":[],"default_left":[0,0,0,0,0,0,0,0,0,0,0,0,0,0,0,0,0,0,0,0,0,0,0,0,0,0,0,0,0,0,0,0,0,0,0,0,0,0,0,0,0,0,0,0,0,0,0,0,0,0,0,0,0,0,0,0,0,0,0,0,0,0,0,0,0,0,0,0,0,0,0,0,0,0,0,0,0,0,0,0,0,0,0,0,0,0,0,0,0,0,0,0,0,0,0,0,0,0,0,0,0,0,0,0,0,0,0,0,0,0,0,0,0,0,0,0,0,0,0,0,0],"id":4,"left_children":[1,3,5,7,9,11,13,15,17,19,21,23,25,27,29,31,33,35,37,39,41,43,45,47,49,51,53,55,57,59,61,63,65,67,69,71,73,75,77,79,81,83,85,87,89,91,93,95,97,99,101,103,105,107,109,111,113,115,-1,-1,-1,117,119,-1,-1,-1,-1,-1,-1,-1,-1,-1,-1,-1,-1,-1,-1,-1,-1,-1,-1,-1,-1,-1,-1,-1,-1,-1,-1,-1,-1,-1,-1,-1,-1,-1,-1,-1,-1,-1,-1,-1,-1,-1,-1,-1,-1,-1,-1,-1,-1,-1,-1,-1,-1,-1,-1,-1,-1,-1,-1],"loss_changes":[7.147617E2,6.532837E1,1.2815839E2,7.7877197E0,1.588378E1,1.3754898E1,4.5736145E1,2.0260315E0,1.2351112E0,5.15504E0,2.1861172E0,2.8092823E0,6.4440384E0,4.6296387E0,2.3009644E0,8.058014E-1,6.1873055E-1,7.137165E-1,7.1795726E-1,1.2621517E0,1.555491E0,1.4667134E0,1.8358154E0,2.119335E0,2.1512756E0,2.6914444E0,4.468857E0,3.035324E0,2.4734802E0,4.6180555E-1,1.6433716E0,5.849304E-1,3.9178467E-1,6.007042E-1,7.9226196E-1,3.5907173E-1,6.178976E-1,4.4522572E-1,2.0013309E0,5.01698E-1,1.0575709E0,1.269038E0,1.1471343E0,1.1352224E0,4.5946455E-1,1.4437413E0,1.6135163E0,9.7278094E-1,1.519042E0,1.0647388E0,1.1990013E0,2.6407433E0,2.0055275E0,3.3758888E0,2.0887527E0,2.0631561E0,1.2539387E0,2.2116318E0,0E0,0E0,0E0,2.2379303E0,1.7101135E0,0E0,0E0,0E0,0E0,0E0,0E0,0E0,0E0,0E0,0E0,0E0,0E0,0E0,0E0,0E0,0E0,0E0,0E0,0E0,0E0,0E0,0E0,0E0,0E0,0E0,0E0,0E0,0E0,0E0,0E0,0E0,0E0,0E0,0E0,0E0,0E0,0E0,0E0,0E0,0E0,0E0,0E0,0E0,0E0,0E0,0E0,0E0,0E0,0E0,0E0,0E0,0E0,0E0,0E0,0E0,0E0,0E0,0E0],"parents":[2147483647,0,0,1,1,2,2,3,3,4,4,5,5,6,6,7,7,8,8,9,9,10,10,11,11,12,12,13,13,14,14,15,15,16,16,17,17,18,18,19,19,20,20,21,21,22,22,23,23,24,24,25,25,26,26,27,27,28,28,29,29,30,30,31,31,32,32,33,33,34,34,35,35,36,36,37,37,38,38,39,39,40,40,41,41,42,42,43,43,44,44,45,45,46,46,47,47,48,48,49,49,50,50,51,51,52,52,53,53,54,54,55,55,56,56,57,57,61,61,62,62],"right_children":[2,4,6,8,10,12,14,16,18,20,22,24,26,28,30,32,34,36,38,40,42,44,46,48,50,52,54,56,58,60,62,64,66,68,70,72,74,76,78,80,82,84,86,88,90,92,94,96,98,100,102,104,106,108,110,112,114,116,-1,-1,-1,118,120,-1,-1,-1,-1,-1,-1,-1,-1,-1,-1,-1,-1,-1,-1,-1,-1,-1,-1,-1,-1,-1,-1,-1,-1,-1,-1,-1,-1,-1,-1,-1,-1,-1,-1,-1,-1,-1,-1,-1,-1,-1,-1,-1,-1,-1,-1,-1,-1,-1,-1,-1,-1,-1,-1,-1,-1,-1,-1],"split_conditions":[1.9067568E1,1.44E1,2.436E1,1.1952381E1,2.28E1,2E1,2.9438356E1,1.08E1,3.1E1,1.3827434E1,2.6E1,1.72E1,2.2965986E1,3.4E1,1.92E1,7E0,3.2E1,1.48E1,1.5945946E1,2.4E1,1.76E1,1.3E2,5.2249403E0,7.1E1,1.1453532E2,1.1532138E2,3.82E1,1.2026109E2,4.6E1,5.683309E0,1.172E2,4.3E1,9.757049E0,1.21E2,7E0,3.5333332E1,1.31E2,1.1927041E2,3.9E1,1.2637246E1,1.0014989E1,2.6E1,1.141215E2,1.094E2,2.5E1,2.9E1,1.16502464E2,1.9E1,1.1671472E2,2.9664793E0,3.14E1,3.58E1,3.7416575E0,1.1420168E2,2.28E1,1.06E2,1.284E2,2.5333334E1,-1.1790345E-1,2.3822156E-1,-7.3368074E-3,1.6E1,2.8E1,-5.4096603E-1,3.485779E-1,-3.7642214E-1,-5.4148477E-2,-2.5334102E-1,2.6284074E-2,5.215091E-1,-1.2746592E-1,-1.9079101E-1,1.3286667E-1,-8.92491E-2,1.878486E-1,-8.583937E-2,-2.5612843E-1,2.5316066E-1,-3.710818E-2,-1.1627312E-1,7.264572E-2,-1.2842354E-2,1.2710075E-1,-1.4413834E-3,1.3285916E-1,2.3709675E-2,1.3531904E-1,3.619175E-2,2.386704E-1,6.767454E-1,-3.4885836E-1,4.9473363E-1,8.046645E-2,2.9357955E-1,3.632035E-1,1.8117198E-1,4.7569558E-1,2.334048E-2,1.20383166E-1,4.114785E-1,9.738385E-2,1.727703E-1,3.1212398E-1,2.0172682E-1,2.9162845E-1,1.9763401E-1,3.2812592E-1,2.859803E-1,4.1489416E-1,-7.616711E-2,5.3193647E-1,4.0075937E-1,4.4583488E-1,7.0344174E-1,2.0670426E-1,3.6389428E-1,5.420603E-1,6.045041E-1,4.626204E-1,7.040666E-1,6.49105E-1],"split_indices":[12,1,12,12,1,1,12,1,9,12,0,1,12,3,1,3,3,12,12,3,1,18,13,21,17,20,7,20,11,13,18,6,13,17,5,6,18,17,21,13,13,3,20,18,0,5,20,0,20,13,7,7,13,17,1,18,18,0,0,0,0,15,9,0,0,0,0,0,0,0,0,0,0,0,0,0,0,0,0,0,0,0,0,0,0,0,0,0,0,0,0,0,0,0,0,0,0,0,0,0,0,0,0,0,0,0,0,0,0,0,0,0,0,0,0,0,0,0,0,0,0],"split_type":[0,0,0,0,0,0,0,0,0,0,0,0,0,0,0,0,0,0,0,0,0,0,0,0,0,0,0,0,0,0,0,0,0,0,0,0,0,0,0,0,0,0,0,0,0,0,0,0,0,0,0,0,0,0,0,0,0,0,0,0,0,0,0,0,0,0,0,0,0,0,0,0,0,0,0,0,0,0,0,0,0,0,0,0,0,0,0,0,0,0,0,0,0,0,0,0,0,0,0,0,0,0,0,0,0,0,0,0,0,0,0,0,0,0,0,0,0,0,0,0,0],"sum_hessian":[6.0809E4,5.0573E4,1.0236E4,4.1257E4,9.316E3,6.408E3,3.828E3,3.4832E4,6.425E3,8.617E3,6.99E2,2.471E3,3.937E3,2.87E3,9.58E2,2.9639E4,5.193E3,4.386E3,2.039E3,3.492E3,5.125E3,4.34E2,2.65E2,1.136E3,1.335E3,2.977E3,9.6E2,2.358E3,5.12E2,8E0,9.5E2,1.8351E4,1.1288E4,5.182E3,1.1E1,3.1E3,1.286E3,1.656E3,3.83E2,3.015E3,4.77E2,2.568E3,2.557E3,4.27E2,7E0,4.4E1,2.21E2,1.18E2,1.018E3,7.42E2,5.93E2,1.846E3,1.131E3,8.44E2,1.16E2,2.284E3,7.4E1,5.02E2,1E1,1E0,7E0,6.14E2,3.36E2,1.835E4,1E0,1.1205E4,8.3E1,5.092E3,9E1,5E0,6E0,3.092E3,8E0,1.271E3,1.5E1,1.516E3,1.4E2,2.2E1,3.61E2,2.983E3,3.2E1,3.96E2,8.1E1,2.395E3,1.73E2,1.323E3,1.234E3,8.8E1,3.39E2,6E0,1E0,3.1E1,1.3E1,1.67E2,5.4E1,1E2,1.8E1,7.49E2,2.69E2,3.4E1,7.08E2,2.06E2,3.87E2,1.279E3,5.67E2,1.02E2,1.029E3,4.45E2,3.99E2,7E0,1.09E2,2.6E2,2.024E3,6.3E1,1.1E1,5.7E1,4.45E2,6.03E2,1.1E1,2.9E1,3.07E2],"tree_param":{"num_deleted":"0","num_feature":"22","num_nodes":"121","size_leaf_vector":"1"}},{"base_weights":[-1.7199183E-2,-6.0958955E-2,2.4711324E-1,-8.084737E-2,2.395032E-2,1.6326202E-1,3.6226308E-1,-9.0039074E-2,-5.6422915E-2,-4.4609904E-3,7.117139E-2,1.2200128E-1,2.2856402E-1,3.1451884E-1,5.6205416E-1,-9.3852505E-2,-8.0202535E-2,-6.566447E-2,-4.1987628E-2,-2.4709871E-2,1.0918372E-2,4.7702104E-2,1.1128912E-1,8.9105316E-2,1.4901958E-1,2.0913014E-1,3.2753164E-1,2.2800657E-1,3.3687365E-1,1.5499997E-1,5.7316715E-1,-9.586848E-2,-8.7608516E-2,-8.188778E-2,-4.155127E-2,-7.431492E-2,-5.4213323E-2,-4.260082E-2,5.2E-1,-4.5642227E-2,-4.6187923E-3,1.0222072E-2,4.1666666E-1,5.8191262E-2,-4.5188308E-2,9.5534936E-2,2.1069516E-1,3.4285476E-3,1.0140262E-1,1.0445466E-1,1.7696029E-1,1.7477556E-1,2.8405508E-1,3.4551492E-1,-3.1250022E-2,7.238093E-2,2.6003975E-1,2.6971427E-1,3.561568E-1,4.8571426E-1,-2.1428594E-2,4.0821916E-1,5.9196717E-1,-4.799211E-3,1.1764695E-3,1.1764695E-3,-4.397112E-3,-4.100354E-3,2.2499999E-2,-2.870092E-3,6.451612E-3,-3.7278857E-3,2.2499999E-2,-4.6579815E-3,-2.4908504E-3,-2.6371244E-3,-1.3365506E-3,-2.5000006E-3,3.3749998E-2,2.125E-2,-2.3524917E-3,8.5133297E-4,-1.7041535E-3,-4.641825E-4,1.1328659E-3,3.3749998E-2,-3.3333343E-3,2.8007596E-3,2.55E-2,2.2499999E-2,-2.4579845E-3,4.0369253E-3,8.736558E-3,4.3956037E-3,1.6185565E-2,2.0833334E-2,-5.588247E-4,3.3749998E-2,4.9710493E-3,3.5520822E-3,9.85465E-3,-2.3255931E-4,9.233098E-3,7.406165E-3,1.1409213E-2,1.383466E-2,3.857143E-2,1.2008928E-2,2.0289473E-2,-4.666668E-3,2.2499999E-2,-9.523821E-4,1.0232557E-2,2.083332E-3,1.3814102E-2,1.1471321E-2,1.984E-2,1.70413E-2,2.1134328E-2,3.6E-2,-3.3333343E-3,-4.615386E-3,2.2499999E-2,4.999989E-4,2.3203125E-2,6.6666654E-3,2.9892026E-2],"categories":[],"categories_nodes":[],"categories_segments":[],"categories_sizes":[],"default_left":[0,0,0,0,0,0,0,0,0,0,0,0,0,0,0,0,0,0,0,0,0,0,0,0,0,0,0,0,0,0,0,0,0,0,0,0,0,0,0,0,0,0,0,0,0,0,0,0,0,0,0,0,0,0,0,0,0,0,0,0,0,0,0,0,0,0,0,0,0,0,0,0,0,0,0,0,0,0,0,0,0,0,0,0,0,0,0,0,0,0,0,0,0,0,0,0,0,0,0,0,0,0,0,0,0,0,0,0,0,0,0,0,0,0,0,0,0,0,0,0,0,0,0,0,0,0,0],"id":5,"left_children":[1,3,5,7,9,11,13,15,17,19,21,23,25,27,29,31,33,35,37,39,41,43,45,47,49,51,53,55,57,59,61,63,65,67,69,71,73,75,77,79,81,83,85,87,89,91,93,95,97,99,101,103,105,107,109,111,113,115,117,119,121,123,125,-1,-1,-1,-1,-1,-1,-1,-1,-1,-1,-1,-1,-1,-1,-1,-1,-1,-1,-1,-1,-1,-1,-1,-1,-1,-1,-1,-1,-1,-1,-1,-1,-1,-1,-1,-1,-1,-1,-1,-1,-1,-1,-1,-1,-1,-1,-1,-1,-1,-1,-1,-1,-1,-1,-1,-1,-1,-1,-1,-1,-1,-1,-1,-1],"loss_changes":[7.0377527E2,8.815938E1,8.3392944E1,9.490692E0,1.3293013E1,1.3452225E1,3.455429E1,1.1451721E0,1.5404663E0,1.9269935E0,3.4990826E0,2.713543E0,3.6550598E0,5.6109924E0,3.0821838E0,2.7027893E-1,5.562477E-1,6.944256E-1,1.5790858E0,1.1230878E0,9.8937356E-1,2.2923336E0,2.1300735E0,1.4599333E0,2.0771484E0,4.1228333E0,2.049652E0,3.007185E0,2.927887E0,1.1773573E0,1.8732605E0,2.3339844E-1,2.0289993E-1,5.5921555E-1,9.834949E-1,5.4452705E-1,5.155268E-1,7.251024E-1,4.755E-1,8.865187E-1,8.704953E-1,8.520757E-1,7.9416656E-1,2.0478835E0,4.9213466E-1,1.3768454E0,2.5664425E0,1.0608449E0,1.3105211E0,2.0010562E0,1.4457245E0,1.5519371E0,1.6092529E0,1.8136215E0,5.200417E-1,1.2736921E0,1.7725677E0,2.5969696E0,1.7030945E0,9.539046E-1,5.0934064E-1,1.6187248E0,1.563446E0,0E0,0E0,0E0,0E0,0E0,0E0,0E0,0E0,0E0,0E0,0E0,0E0,0E0,0E0,0E0,0E0,0E0,0E0,0E0,0E0,0E0,0E0,0E0,0E0,0E0,0E0,0E0,0E0,0E0,0E0,0E0,0E0,0E0,0E0,0E0,0E0,0E0,0E0,0E0,0E0,0E0,0E0,0E0,0E0,0E0,0E0,0E0,0E0,0E0,0E0,0E0,0E0,0E0,0E0,0E0,0E0,0E0,0E0,0E0,0E0,0E0,0E0,0E0,0E0],"parents":[2147483647,0,0,1,1,2,2,3,3,4,4,5,5,6,6,7,7,8,8,9,9,10,10,11,11,12,12,13,13,14,14,15,15,16,16,17,17,18,18,19,19,20,20,21,21,22,22,23,23,24,24,25,25,26,26,27,27,28,28,29,29,30,30,31,31,32,32,33,33,34,34,35,35,36,36,37,37,38,38,39,39,40,40,41,41,42,42,43,43,44,44,45,45,46,46,47,47,48,48,49,49,50,50,51,51,52,52,53,53,54,54,55,55,56,56,57,57,58,58,59,59,60,60,61,61,62,62],"right_children":[2,4,6,8,10,12,14,16,18,20,22,24,26,28,30,32,34,36,38,40,42,44,46,48,50,52,54,56,58,60,62,64,66,68,70,72,74,76,78,80,82,84,86,88,90,92,94,96,98,100,102,104,106,108,110,112,114,116,118,120,122,124,126,-1,-1,-1,-1,-1,-1,-1,-1,-1,-1,-1,-1,-1,-1,-1,-1,-1,-1,-1,-1,-1,-1,-1,-1,-1,-1,-1,-1,-1,-1,-1,-1,-1,-1,-1,-1,-1,-1,-1,-1,-1,-1,-1,-1,-1,-1,-1,-1,-1,-1,-1,-1,-1,-1,-1,-1,-1,-1,-1,-1,-1,-1,-1,-1],"split_conditions":[2.04E1,1.45E1,2.51E1,1.03E1,1.7444445E1,2.2378788E1,3.0742647E1,9E0,1.4E1,1.6E1,1.165E2,3.38E1,1.212E2,2.2965986E1,2.68E1,7.4E0,1.3014778E1,1.2033557E1,2.04E1,1.144E2,4.9E1,2.69E2,2.2142857E1,1.078E2,2.0013762E1,2.5483051E1,1.2296581E2,1.091E2,1.098E2,9.8E1,1.7E1,3.4333332E1,1.052E2,3.8E1,1.24E1,4.3333332E1,2.27E1,1.38E1,2.3E1,5.75E0,1.191E2,1.63E1,2.1333334E1,2.5857143E1,7E0,2.6E1,3.2E1,9.62E1,1.066E2,2.26E2,1.0805807E2,2.42E1,4.1333332E1,1.1544444E2,3.9E1,3.6E1,3.23E1,3.4E1,2.8333334E1,2.8E1,3.4E1,3.2333332E1,1.006E2,-5.6391776E-1,3.1944793E-2,6.8126105E-2,-3.4010106E-1,-3.4010106E-1,4.9543363E-1,-2.1990769E-1,3.4448233E-1,-2.4067393E-1,2.4954061E-1,-2.5279328E-1,-1.23960234E-1,-1.507589E-1,-8.658295E-2,-4.7439814E-1,2.8255892E-1,1.204732E-1,-9.534547E-2,2.718821E-2,-7.801934E-2,-3.3314135E-2,5.2128125E-2,1.1334896E-1,-2.7018404E-1,1.1766892E-1,6.649563E-1,7.032672E-1,-5.813542E-2,1.3958459E-1,2.1911688E-1,3.332374E-1,3.0444446E-1,2.8094122E-1,-1.9682989E-2,3.4060508E-1,1.8895389E-1,1.6952513E-1,2.2611645E-1,2.3124987E-2,2.7670434E-1,2.7822468E-1,3.6608008E-1,4.3110433E-1,7.2116727E-1,3.5959682E-1,4.6533012E-1,-7.432434E-2,4.826317E-2,-9.946382E-3,3.5674778E-1,9.061649E-2,3.575358E-1,4.241929E-1,4.9451622E-1,4.68752E-1,6.076575E-1,8.7824976E-1,-3.212537E-1,-2.9078875E-2,8.334799E-1,4.1887972E-1,6.512272E-1,6.188798E-1,6.684338E-1],"split_indices":[2,2,2,2,12,12,12,3,3,0,19,8,18,12,2,2,12,12,1,18,11,21,12,19,12,12,17,19,18,21,21,6,17,3,1,6,8,1,3,12,19,2,0,12,11,4,8,18,17,21,17,1,6,17,6,6,8,3,12,3,6,6,19,0,0,0,0,0,0,0,0,0,0,0,0,0,0,0,0,0,0,0,0,0,0,0,0,0,0,0,0,0,0,0,0,0,0,0,0,0,0,0,0,0,0,0,0,0,0,0,0,0,0,0,0,0,0,0,0,0,0,0,0,0,0,0,0],"split_type":[0,0,0,0,0,0,0,0,0,0,0,0,0,0,0,0,0,0,0,0,0,0,0,0,0,0,0,0,0,0,0,0,0,0,0,0,0,0,0,0,0,0,0,0,0,0,0,0,0,0,0,0,0,0,0,0,0,0,0,0,0,0,0,0,0,0,0,0,0,0,0,0,0,0,0,0,0,0,0,0,0,0,0,0,0,0,0,0,0,0,0,0,0,0,0,0,0,0,0,0,0,0,0,0,0,0,0,0,0,0,0,0,0,0,0,0,0,0,0,0,0,0,0,0,0,0,0],"sum_hessian":[6.0845E4,5.2203E4,8.642E3,4.2296E4,9.907E3,5.002E3,3.64E3,3.0729E4,1.1567E4,6.186E3,3.721E3,3.067E3,1.935E3,2.94E3,7E2,2.2138E4,8.591E3,7.05E3,4.517E3,2.67E3,3.516E3,2.349E3,1.372E3,1.385E3,1.682E3,1.62E3,3.15E2,6.06E2,2.334E3,1.9E1,6.81E2,1.6724E4,5.414E3,8.231E3,3.6E2,4.013E3,3.037E3,4.513E3,4E0,1.307E3,1.363E3,3.511E3,5E0,2.111E3,2.38E2,1.186E3,1.86E2,1.74E2,1.211E3,6.5E2,1.032E3,1.113E3,5.07E2,3E2,1.5E1,1.04E2,5.02E2,5.24E2,1.81E3,6E0,1.3E1,7.2E1,6.09E2,1.6708E4,1.6E1,1.6E1,5.398E3,8.23E3,1E0,3.3E2,3E1,4.012E3,1E0,3.06E2,2.731E3,2.752E3,1.761E3,1E0,3E0,3E0,1.304E3,7.86E2,5.77E2,1.367E3,2.144E3,3E0,2E0,2.102E3,9E0,1E0,2.37E2,1.001E3,1.85E2,9E1,9.6E1,5E0,1.69E2,3E0,1.208E3,4.79E2,1.71E2,4.2E1,9.9E2,7.45E2,3.68E2,5.01E2,6E0,1.11E2,1.89E2,1.4E1,1E0,6.2E1,4.2E1,3.5E1,4.67E2,4E2,1.24E2,1.476E3,3.34E2,4E0,2E0,1.2E1,1E0,9E0,6.3E1,8E0,6.01E2],"tree_param":{"num_deleted":"0","num_feature":"22","num_nodes":"127","size_leaf_vector":"1"}},{"base_weights":[-1.8199867E-2,-6.0977764E-2,2.125956E-1,-8.2384996E-2,6.7437296E-3,1.3371244E-1,3.258616E-1,-9.1615066E-2,-6.657193E-2,-1.6337857E-2,6.0794357E-2,1.08900994E-1,2.0749114E-1,2.7499154E-1,4.8335075E-1,-9.169537E-2,3E-2,-7.223036E-2,-4.2934027E-2,-2.7719375E-2,2.1322044E-2,5.8550466E-2,5.1666665E-1,9.633808E-2,1.8711337E-1,1.1325299E-1,2.2742072E-1,2.5916663E-1,3.6418918E-1,3.62605E-1,5.227019E-1,-9.365885E-2,-8.2461424E-2,-7.2397515E-2,3E-2,-5.0503686E-2,-1.55372135E-2,-4.783525E-2,-1.6526438E-2,1.1170824E-2,7.1386404E-2,4.1549016E-2,1.0943598E-1,1.6249998E-1,7.272727E-1,8.929953E-2,1.8093523E-1,4.5777777E-1,1.6412637E-1,7.6063804E-2,2.2419353E-1,1.888357E-1,2.71719E-1,1.8083331E-1,2.7209622E-1,2.4636361E-1,4.01791E-1,1.3666664E-1,3.933014E-1,5.5701107E-1,4.1468924E-1,-4.6853675E-3,1.3333333E-2,-4.320619E-3,-3.5830492E-3,-3.6315937E-3,9.090908E-3,-3.6159435E-3,-2.0200682E-3,2.2499999E-2,-8.526502E-4,-3.3193794E-3,-1.8879547E-3,-1.1384627E-3,7.59942E-4,-9.4129675E-4,1.1854349E-3,1.0136985E-2,1.7602984E-3,1.775E-2,1.9624624E-3,-3.018869E-3,5.9827575E-3,-4.000001E-3,2.125E-2,-2.5000006E-3,4.05E-2,-8.544316E-4,4.7263904E-3,1.063291E-2,-1.1904879E-4,1.0434782E-2,3.434783E-2,2.6736099E-3,1.0202531E-2,3E-2,3.3602137E-3,5.9782597E-3,2.4705881E-2,9.991582E-3,-4.411776E-4,1.4499999E-2,4.7115376E-3,7.966867E-3,2.1034483E-2,1.4011713E-2,6.1061936E-3,-1.3333345E-3,1.4322916E-2,1.2238805E-2,2.1970259E-2,-4.3478375E-4,2.6874999E-2,2.6319444E-2,1.6050724E-2,2.8280372E-2,-4.375001E-3,-4.285715E-3,2.1637427E-2],"categories":[],"categories_nodes":[],"categories_segments":[],"categories_sizes":[],"default_left":[0,0,0,0,0,0,0,0,0,0,0,0,0,0,0,0,0,0,0,0,0,0,0,0,0,0,0,0,0,0,0,0,0,0,0,0,0,0,0,0,0,0,0,0,0,0,0,0,0,0,0,0,0,0,0,0,0,0,0,0,0,0,0,0,0,0,0,0,0,0,0,0,0,0,0,0,0,0,0,0,0,0,0,0,0,0,0,0,0,0,0,0,0,0,0,0,0,0,0,0,0,0,0,0,0,0,0,0,0,0,0,0,0,0,0,0,0,0,0],"id":6,"left_children":[1,3,5,7,9,11,13,15,17,19,21,23,25,27,29,31,-1,33,35,37,39,41,43,45,47,49,51,53,55,57,59,61,63,65,-1,67,69,71,73,75,77,79,81,83,85,87,89,91,93,95,97,99,101,103,105,107,109,111,113,115,117,-1,-1,-1,-1,-1,-1,-1,-1,-1,-1,-1,-1,-1,-1,-1,-1,-1,-1,-1,-1,-1,-1,-1,-1,-1,-1,-1,-1,-1,-1,-1,-1,-1,-1,-1,-1,-1,-1,-1,-1,-1,-1,-1,-1,-1,-1,-1,-1,-1,-1,-1,-1,-1,-1,-1,-1,-1,-1],"loss_changes":[6.0253906E2,7.464134E1,8.522107E1,5.703705E0,1.5429745E1,1.0277931E1,3.1248077E1,1.4267731E0,1.9258919E0,3.7155E0,3.7556057E0,4.121563E0,2.631794E0,4.088028E0,4.3481445E0,4.4003296E-1,0E0,1.3507881E0,5.7740355E-1,1.4978456E0,1.0217297E0,3.1825829E0,1.224432E0,2.1464844E0,3.5459328E0,1.0102677E0,1.9433823E0,2.5030975E0,1.8681374E0,1.596899E0,2.429779E0,3.8078308E-1,1.789608E-1,7.0627975E-1,0E0,4.783969E-1,4.3459612E-1,4.4221497E-1,8.476256E-1,6.3003033E-1,1.6039326E0,1.977817E0,1.6072178E0,5.4325E-1,7.47818E-1,1.867754E0,1.6171703E0,2.4254293E0,2.3658571E0,8.323411E-1,1.6919065E0,1.3645134E0,1.7280312E0,1.7891092E0,2.6032257E0,1.2118168E0,1.870945E0,1.7526556E0,1.8417053E0,3.0524292E0,1.6366291E0,0E0,0E0,0E0,0E0,0E0,0E0,0E0,0E0,0E0,0E0,0E0,0E0,0E0,0E0,0E0,0E0,0E0,0E0,0E0,0E0,0E0,0E0,0E0,0E0,0E0,0E0,0E0,0E0,0E0,0E0,0E0,0E0,0E0,0E0,0E0,0E0,0E0,0E0,0E0,0E0,0E0,0E0,0E0,0E0,0E0,0E0,0E0,0E0,0E0,0E0,0E0,0E0,0E0,0E0,0E0,0E0,0E0,0E0],"parents":[2147483647,0,0,1,1,2,2,3,3,4,4,5,5,6,6,7,7,8,8,9,9,10,10,11,11,12,12,13,13,14,14,15,15,17,17,18,18,19,19,20,20,21,21,22,22,23,23,24,24,25,25,26,26,27,27,28,28,29,29,30,30,31,31,32,32,33,33,35,35,36,36,37,37,38,38,39,39,40,40,41,41,42,42,43,43,44,44,45,45,46,46,47,47,48,48,49,49,50,50,51,51,52,52,53,53,54,54,55,55,56,56,57,57,58,58,59,59,60,60],"right_children":[2,4,6,8,10,12,14,16,18,20,22,24,26,28,30,32,-1,34,36,38,40,42,44,46,48,50,52,54,56,58,60,62,64,66,-1,68,70,72,74,76,78,80,82,84,86,88,90,92,94,96,98,100,102,104,106,108,110,112,114,116,118,-1,-1,-1,-1,-1,-1,-1,-1,-1,-1,-1,-1,-1,-1,-1,-1,-1,-1,-1,-1,-1,-1,-1,-1,-1,-1,-1,-1,-1,-1,-1,-1,-1,-1,-1,-1,-1,-1,-1,-1,-1,-1,-1,-1,-1,-1,-1,-1,-1,-1,-1,-1,-1,-1,-1,-1,-1,-1],"split_conditions":[1.97E1,1.31E1,2.40125E1,8.6E0,1.7125925E1,2.4E1,2.9438356E1,3.9E1,1.2920213E1,1.675E1,2.5857143E1,1.209E2,3.34E1,2.92E1,2.92E1,7.4E0,3.4815407E-1,2.6333334E1,1.5945946E1,2.8E1,2.5E1,1.16719696E2,3.1E1,2.7333334E1,2E1,1.185E2,1.146573E2,1.083E2,1.1173418E2,2.9333334E1,3.7E1,3.1E1,2.7E1,1.9E1,9.916997E-1,1.119E2,2.6666667E0,1.32E1,1.5697369E1,1.1205556E2,1.73E1,1.1E1,2.4666666E1,1.9E1,1.4E1,2.7E1,3.74E1,2.0013762E1,1.8157206E1,1.014E2,3E1,2.92E1,1.253E2,3.1666666E1,7E0,2.78E1,5.263079E0,1.198E2,2.5E1,4.3E1,3.2403703E0,-5.039182E-1,2.134637E-1,-3.73096E-1,-2.4691267E-1,-2.4598408E-1,1.9595566E-1,-2.0798218E-1,-1.0798216E-1,1.1785316E-2,-5.710743E-2,-1.5955777E-1,-9.9703245E-2,-6.0157448E-2,1.51144555E-2,-7.4774744E-3,4.3644812E-2,1.2893862E-1,5.0650608E-2,3.6007276E-1,7.080875E-2,-1.9344229E-1,1.9846363E-1,-4.0631294E-3,1.1342058E-1,-3.7624034E-1,6.4160055E-1,-7.079516E-2,1.769254E-1,2.8747433E-1,4.0605783E-2,2.4477391E-1,5.526465E-1,1.5614733E-1,3.114012E-1,4.5877048E-1,1.6994606E-1,3.5180512E-1,4.1829488E-1,2.88001E-1,9.98372E-2,3.5921785E-1,2.6949203E-1,2.6398847E-1,5.7560235E-1,4.4031903E-1,3.217139E-1,-2.6338478E-3,5.489647E-1,4.3283126E-1,6.2406725E-1,1.4193602E-1,1.1484399E0,6.5027684E-1,4.0132642E-1,5.8365816E-1,-6.6771984E-2,-9.580326E-3,5.399235E-1],"split_indices":[2,2,12,2,12,2,12,7,12,2,12,19,8,2,2,2,0,0,12,9,3,17,9,0,2,19,17,19,17,6,7,3,9,1,0,19,0,1,12,17,2,10,6,3,0,6,7,12,12,18,3,2,19,0,15,1,13,18,3,9,13,0,0,0,0,0,0,0,0,0,0,0,0,0,0,0,0,0,0,0,0,0,0,0,0,0,0,0,0,0,0,0,0,0,0,0,0,0,0,0,0,0,0,0,0,0,0,0,0,0,0,0,0,0,0,0,0,0,0],"split_type":[0,0,0,0,0,0,0,0,0,0,0,0,0,0,0,0,0,0,0,0,0,0,0,0,0,0,0,0,0,0,0,0,0,0,0,0,0,0,0,0,0,0,0,0,0,0,0,0,0,0,0,0,0,0,0,0,0,0,0,0,0,0,0,0,0,0,0,0,0,0,0,0,0,0,0,0,0,0,0,0,0,0,0,0,0,0,0,0,0,0,0,0,0,0,0,0,0,0,0,0,0,0,0,0,0,0,0,0,0,0,0,0,0,0,0,0,0,0,0],"sum_hessian":[6.1027E4,5.1485E4,9.542E3,3.9119E4,1.2366E4,5.626E3,3.916E3,2.4698E4,1.4421E4,8.666E3,3.7E3,4.212E3,1.414E3,2.962E3,9.54E2,2.4696E4,2E0,1.1634E4,2.787E3,6.655E3,2.011E3,3.683E3,1.7E1,3.631E3,5.81E2,2.48E2,1.166E3,2.519E3,4.43E2,2.37E2,7.17E2,2.0358E4,4.338E3,1.1632E4,2E0,2.183E3,6.04E2,2.378E3,4.277E3,1.673E3,3.38E2,2.762E3,9.21E2,7E0,1E1,3.354E3,2.77E2,4.4E1,5.37E2,1.87E2,6.1E1,6.26E2,5.4E2,3.59E2,2.16E3,1.09E2,3.34E2,2.9E1,2.08E2,5.41E2,1.76E2,2.0356E4,2E0,3.171E3,1.167E3,1.1622E4,1E1,6.89E2,1.494E3,1E0,6.03E2,8.35E2,1.543E3,3.574E3,7.03E2,4.93E2,1.18E3,7.2E1,2.66E2,1.9E1,2.743E3,5.2E1,8.69E2,4E0,3E0,1E0,9E0,1.57E2,3.197E3,2.36E2,4.1E1,2.2E1,2.2E1,1.43E2,3.94E2,2E0,1.85E2,4.5E1,1.6E1,5.93E2,3.3E1,4.89E2,5.1E1,3.31E2,2.8E1,2.048E3,1.12E2,1.4E1,9.5E1,6.6E1,2.68E2,2.2E1,7E0,7.1E1,1.37E2,5.34E2,7E0,6E0,1.7E2],"tree_param":{"num_deleted":"0","num_feature":"22","num_nodes":"119","size_leaf_vector":"1"}},{"base_weights":[-1.9704854E-2,-5.9382714E-2,2.1173301E-1,-7.8712836E-2,1.7741293E-2,1.7855252E-1,4.830072E-1,-8.751473E-2,-5.4163653E-2,2.0519103E-4,8.564748E-2,1.1990035E-1,2.447989E-1,3.518987E-1,5.2462584E-1,-9.3086965E-2,-7.658383E-2,-6.134219E-2,-3.3439513E-2,-1.6525185E-2,2.3582153E-2,6.9879495E-2,1.5465993E-1,8.212136E-2,1.4878558E-1,1.8806341E-1,2.715357E-1,3.0594593E-1,5.0566036E-1,3.6589146E-1,5.5749583E-1,-9.313563E-2,2.6666665E-1,-8.001125E-2,-5.517485E-2,-6.1578132E-2,3E-2,-3.6663033E-2,6.0638275E-2,-3.4715775E-2,-1.9746886E-3,-1.0657432E-3,4.711536E-2,1.4793812E-1,6.006449E-2,1.7391281E-2,1.829787E-1,5.2139618E-2,1.1029722E-1,1.358519E-1,2.095923E-1,1.6607328E-1,2.7336064E-1,2.3880354E-1,3.025443E-1,3.4782585E-2,3.4233126E-1,-3.7500008E-3,5.42E-1,4.43617E-1,1.5277776E-1,5.105085E-1,5.9999996E-1,-4.7488515E-3,-4.217775E-3,2.2499999E-2,-2.5000006E-3,-4.0060626E-3,2.2499999E-2,-3.2603317E-3,-1.1866989E-9,-3.201491E-3,-4.4077254E-4,3.437499E-3,-1.926658E-3,2.3333332E-2,8.7209186E-4,-3.2224543E-3,-1.3055234E-3,-8.868072E-4,7.434503E-4,-2.0658803E-4,1.2749999E-2,8.0729155E-3,2.0262988E-3,1.3486842E-2,3.4453769E-3,2.7493339E-3,1.1063828E-2,1.2083332E-2,-1.4655184E-3,7.518381E-3,1.663793E-2,1.4284526E-5,4.285713E-3,6.355827E-3,1.1718632E-4,4.0264414E-3,7.527295E-3,1.2393442E-2,5.221238E-3,6.262886E-3,1.1457219E-2,2.7884616E-2,1.1917807E-2,1.1032709E-2,1.7648809E-2,1.3261138E-2,1.817347E-2,2.125E-2,-2.2500013E-3,1.8978871E-2,4.318181E-3,1.9259257E-2,3.4791667E-2,2.589041E-2,8.863635E-3,2.3214275E-3,2.3333332E-2,2.8838027E-2,2.2305194E-2,3.2805428E-2,2.3010751E-2],"categories":[],"categories_nodes":[],"categories_segments":[],"categories_sizes":[],"default_left":[0,0,0,0,0,0,0,0,0,0,0,0,0,0,0,0,0,0,0,0,0,0,0,0,0,0,0,0,0,0,0,0,0,0,0,0,0,0,0,0,0,0,0,0,0,0,0,0,0,0,0,0,0,0,0,0,0,0,0,0,0,0,0,0,0,0,0,0,0,0,0,0,0,0,0,0,0,0,0,0,0,0,0,0,0,0,0,0,0,0,0,0,0,0,0,0,0,0,0,0,0,0,0,0,0,0,0,0,0,0,0,0,0,0,0,0,0,0,0,0,0,0,0],"id":7,"left_children":[1,3,5,7,9,11,13,15,17,19,21,23,25,27,29,31,33,35,37,39,41,43,45,47,49,51,53,55,57,59,61,63,65,67,69,71,-1,73,75,77,79,81,83,85,87,89,91,93,95,97,99,101,103,105,107,109,111,-1,113,115,117,119,121,-1,-1,-1,-1,-1,-1,-1,-1,-1,-1,-1,-1,-1,-1,-1,-1,-1,-1,-1,-1,-1,-1,-1,-1,-1,-1,-1,-1,-1,-1,-1,-1,-1,-1,-1,-1,-1,-1,-1,-1,-1,-1,-1,-1,-1,-1,-1,-1,-1,-1,-1,-1,-1,-1,-1,-1,-1,-1,-1,-1],"loss_changes":[5.593834E2,7.752382E1,8.0157776E1,8.979614E0,1.2410603E1,3.0840897E1,5.1137085E0,1.8569489E0,1.6308365E0,3.2403064E0,2.3168259E0,4.5885086E0,5.607071E0,1.5198841E0,3.630951E0,3.7965393E-1,7.542343E-1,1.3088112E0,8.5923934E-1,1.2780813E0,2.0046825E0,1.3265066E0,1.5400677E0,1.539319E0,1.849575E0,2.2016907E0,2.4986877E0,1.8133717E0,1.1590014E0,2.0690289E0,9.0597534E-1,3.1959534E-1,1.9666666E-1,5.5553055E-1,7.915082E-1,1.0535717E0,0E0,5.4142165E-1,1.6405244E0,5.4740214E-1,7.1281505E-1,1.3270906E0,1.3255556E0,1.8488226E0,1.2566705E0,7.297914E-1,1.5569592E0,1.545963E0,1.7100964E0,1.59095E0,1.652729E0,2.429737E0,2.295576E0,2.4853745E0,2.8527374E0,7.3517394E-1,1.5212307E0,0E0,9.3814373E-1,1.765686E0,1.1800791E0,1.0014496E0,2.152954E0,0E0,0E0,0E0,0E0,0E0,0E0,0E0,0E0,0E0,0E0,0E0,0E0,0E0,0E0,0E0,0E0,0E0,0E0,0E0,0E0,0E0,0E0,0E0,0E0,0E0,0E0,0E0,0E0,0E0,0E0,0E0,0E0,0E0,0E0,0E0,0E0,0E0,0E0,0E0,0E0,0E0,0E0,0E0,0E0,0E0,0E0,0E0,0E0,0E0,0E0,0E0,0E0,0E0,0E0,0E0,0E0,0E0,0E0,0E0,0E0],"parents":[2147483647,0,0,1,1,2,2,3,3,4,4,5,5,6,6,7,7,8,8,9,9,10,10,11,11,12,12,13,13,14,14,15,15,16,16,17,17,18,18,19,19,20,20,21,21,22,22,23,23,24,24,25,25,26,26,27,27,28,28,29,29,30,30,31,31,32,32,33,33,34,34,35,35,37,37,38,38,39,39,40,40,41,41,42,42,43,43,44,44,45,45,46,46,47,47,48,48,49,49,50,50,51,51,52,52,53,53,54,54,55,55,56,56,58,58,59,59,60,60,61,61,62,62],"right_children":[2,4,6,8,10,12,14,16,18,20,22,24,26,28,30,32,34,36,38,40,42,44,46,48,50,52,54,56,58,60,62,64,66,68,70,72,-1,74,76,78,80,82,84,86,88,90,92,94,96,98,100,102,104,106,108,110,112,-1,114,116,118,120,122,-1,-1,-1,-1,-1,-1,-1,-1,-1,-1,-1,-1,-1,-1,-1,-1,-1,-1,-1,-1,-1,-1,-1,-1,-1,-1,-1,-1,-1,-1,-1,-1,-1,-1,-1,-1,-1,-1,-1,-1,-1,-1,-1,-1,-1,-1,-1,-1,-1,-1,-1,-1,-1,-1,-1,-1,-1,-1,-1,-1],"split_conditions":[2.02E1,1.42E1,2.9438356E1,1.03E1,1.9413794E1,2.2965986E1,2.92E1,7.4E0,1.3484536E1,1.675E1,1.212E2,2.19E1,2.42E1,1.189E2,1.1092523E2,4.7E1,1.5E1,3.9E1,2.5E1,1.3827434E1,1.1380851E2,4.8E1,2.8E1,2.0205883E1,3.9E1,2.6257143E1,1.13967125E2,2.99E1,2.2E1,1.1072547E2,7.5E1,9E0,4.8E0,4.2E1,1.22E1,1.244E2,2.714389E-1,1E1,2.6E1,1.096E2,1.145E2,4.0333332E1,8E0,2.0205883E1,2.46789E1,1.3E1,2.1E1,3.2666668E1,3.9E1,1.09E2,3.9E1,1.15379974E2,1.1081445E2,1.171E2,2.82E1,2.68E1,3.6666668E1,-4.294596E-2,7.9E1,1.122E2,1.129E2,3.18E1,3.8E1,-5.10526E-1,-3.7994394E-1,6.445389E-2,-1.0979002E0,-2.96214E-1,3.3074638E-1,-2.1075039E-1,1.063954E-2,-1.8679492E-1,-6.2080245E-2,1.395404E-1,-9.315081E-2,6.523682E-1,9.12984E-2,-1.3179271E-1,-7.7337265E-2,-3.9737202E-2,1.7303327E-2,-4.8284484E-3,2.543776E-1,1.8082355E-1,9.2006505E-2,3.825904E-1,1.8968196E-1,1.1942374E-1,4.4786453E-1,5.512553E-1,-4.7475852E-2,2.0297861E-1,3.8436148E-1,2.3883112E-2,1.3775465E-1,1.802086E-1,1.3700581E-2,1.921591E-1,2.5956213E-1,3.272021E-1,2.680302E-1,2.3004618E-1,3.585814E-1,5.1317257E-1,4.3337306E-1,3.539048E-1,4.2974243E-1,3.862788E-1,5.6836915E-1,2.5622818E-1,-2.5238326E-2,4.2785603E-1,1.8798444E-1,7.418873E-1,6.4282703E-1,6.122765E-1,5.141053E-1,3.1169516E-1,8.147131E-1,5.610547E-1,5.570393E-1,5.5858606E-1,5.104043E-1],"split_indices":[2,2,12,2,12,12,2,2,12,2,18,2,2,19,17,9,3,5,4,12,17,16,9,12,9,12,20,8,1,20,16,3,1,6,1,19,0,16,10,18,19,6,4,12,12,4,1,6,9,18,10,20,20,19,1,8,8,0,16,18,19,1,11,0,0,0,0,0,0,0,0,0,0,0,0,0,0,0,0,0,0,0,0,0,0,0,0,0,0,0,0,0,0,0,0,0,0,0,0,0,0,0,0,0,0,0,0,0,0,0,0,0,0,0,0,0,0,0,0,0,0,0,0],"split_type":[0,0,0,0,0,0,0,0,0,0,0,0,0,0,0,0,0,0,0,0,0,0,0,0,0,0,0,0,0,0,0,0,0,0,0,0,0,0,0,0,0,0,0,0,0,0,0,0,0,0,0,0,0,0,0,0,0,0,0,0,0,0,0,0,0,0,0,0,0,0,0,0,0,0,0,0,0,0,0,0,0,0,0,0,0,0,0,0,0,0,0,0,0,0,0,0,0,0,0,0,0,0,0,0,0,0,0,0,0,0,0,0,0,0,0,0,0,0,0,0,0,0,0],"sum_hessian":[6.0913E4,5.1999E4,8.914E3,4.1578E4,1.0421E4,7.944E3,9.7E2,3.0603E4,1.0975E4,8.283E3,2.138E3,4.215E3,3.729E3,2.36E2,7.34E2,2.0265E4,1.0338E4,8.15E3,2.825E3,4.828E3,3.455E3,1.742E3,3.96E2,1.828E3,2.387E3,1.197E3,2.532E3,1.84E2,5.2E1,1.28E2,6.06E2,2.0263E4,2E0,8.909E3,1.429E3,8.148E3,2E0,2.732E3,9.3E1,2.145E3,2.683E3,1.688E3,1.767E3,1.93E2,1.549E3,6.8E1,3.28E2,8.87E2,9.41E2,1.971E3,4.16E2,9.54E2,2.43E2,1.236E3,1.296E3,2.2E1,1.62E2,3E0,4.9E1,9.3E1,3.5E1,2.94E2,3.12E2,1.6742E4,3.521E3,1E0,1E0,8.908E3,1E0,1.209E3,2.2E2,7.786E3,3.62E2,4.7E1,2.685E3,8E0,8.5E1,4.8E2,1.665E3,1.386E3,1.297E3,1.669E3,1.9E1,9.5E1,1.672E3,7.5E1,1.18E2,1.503E3,4.6E1,1.1E1,5.7E1,2.71E2,5.7E1,3.49E2,5.38E2,8.14E2,1.27E2,4.15E2,1.556E3,3.04E2,1.12E2,5.81E2,3.73E2,2.5E1,2.18E2,1.069E3,1.67E2,8.07E2,4.89E2,3E0,1.9E1,1.41E2,2.1E1,2.6E1,2.3E1,7.2E1,2.1E1,2.7E1,8E0,1.41E2,1.53E2,2.2E2,9.2E1],"tree_param":{"num_deleted":"0","num_feature":"22","num_nodes":"123","size_leaf_vector":"1"}},{"base_weights":[-2.0956134E-2,-6.2350005E-2,1.7763418E-1,-7.952306E-2,-3.2709285E-3,1.04520224E-1,2.7269942E-1,-9.01982E-2,-6.513681E-2,-2.9835189E-2,2.1254627E-2,8.186128E-2,1.7022948E-1,2.2770624E-1,4.052677E-1,-9.2734374E-2,-8.184424E-2,-6.955276E-2,-4.2664256E-2,-3.237561E-2,6.985292E-2,8.563143E-3,6.1451703E-2,4.687699E-2,1.0073041E-1,1.5186654E-1,2.5617975E-1,1.9280142E-1,2.6078764E-1,3.1649745E-1,4.5045748E-1,-9.563462E-2,-8.902973E-2,-8.593684E-2,-5.4331888E-2,-6.9691986E-2,3E-2,-4.469587E-2,7.9999976E-2,-3.272593E-2,3E-2,-1.0989035E-2,2.2826084E-1,7.4604596E-4,4.7983848E-2,-3.0057827E-2,7.409781E-2,3.8394038E-2,2.2083332E-1,7.42197E-2,1.3398741E-1,1.13660455E-1,2.08498E-1,5.3666663E-1,2.1974787E-1,1.9938534E-1,-7.317075E-2,2.3847824E-1,3.4262732E-1,1.8099998E-1,3.613559E-1,3.6796534E-1,4.8523363E-1,-4.7864947E-3,-2.2500013E-3,-3.507974E-3,-4.5088986E-3,-4.327242E-3,3.6111102E-3,-3.3333346E-3,2.0253153E-3,-3.8665049E-3,-3.0547518E-3,-1.5453699E-3,-2.6784637E-3,2.5999999E-2,1.219511E-3,-2.4951422E-3,-1.0946123E-3,3E-2,-1.5730349E-3,2.0192308E-2,-1.1353266E-9,-6.1369984E-4,6.53187E-4,1.9902221E-3,1.2413792E-2,-4.2361123E-3,4.4117527E-4,3.5396428E-3,2.0416666E-2,-2.8925631E-3,2.345814E-3,3.970587E-3,1.6923076E-2,2.8086407E-3,5.88486E-3,3.5945263E-3,8.121419E-3,9.758453E-3,4.1332105E-3,1.1463675E-2,-2.3076935E-3,3.4166668E-2,1.4615384E-2,1.7142856E-2,7.993827E-3,5.863453E-3,1.0703407E-2,2.2499999E-2,-4.8750015E-3,6.840908E-3,1.287683E-2,-4.375001E-3,1.7554644E-2,1.8947368E-2,6.6463402E-3,1.1475409E-2,1.9702127E-2,1.4475307E-2,2.7214287E-2,2.4499055E-2,2.857142E-3],"categories":[],"categories_nodes":[],"categories_segments":[],"categories_sizes":[],"default_left":[0,0,0,0,0,0,0,0,0,0,0,0,0,0,0,0,0,0,0,0,0,0,0,0,0,0,0,0,0,0,0,0,0,0,0,0,0,0,0,0,0,0,0,0,0,0,0,0,0,0,0,0,0,0,0,0,0,0,0,0,0,0,0,0,0,0,0,0,0,0,0,0,0,0,0,0,0,0,0,0,0,0,0,0,0,0,0,0,0,0,0,0,0,0,0,0,0,0,0,0,0,0,0,0,0,0,0,0,0,0,0,0,0,0,0,0,0,0,0,0,0,0,0],"id":8,"left_children":[1,3,5,7,9,11,13,15,17,19,21,23,25,27,29,31,33,35,37,39,41,43,45,47,49,51,53,55,57,59,61,63,65,67,69,71,-1,73,75,77,-1,79,81,83,85,87,89,91,93,95,97,99,101,103,105,107,109,111,113,115,117,119,121,-1,-1,-1,-1,-1,-1,-1,-1,-1,-1,-1,-1,-1,-1,-1,-1,-1,-1,-1,-1,-1,-1,-1,-1,-1,-1,-1,-1,-1,-1,-1,-1,-1,-1,-1,-1,-1,-1,-1,-1,-1,-1,-1,-1,-1,-1,-1,-1,-1,-1,-1,-1,-1,-1,-1,-1,-1,-1,-1,-1],"loss_changes":[5.016048E2,5.122931E1,7.3126526E1,6.002304E0,7.410181E0,8.846519E0,2.7196045E1,4.6817017E-1,1.6511307E0,1.385006E0,3.0165627E0,2.9176407E0,2.3680038E0,3.8964996E0,4.502762E0,1.764679E-1,5.851135E-1,1.3403397E0,6.864004E-1,1.1993017E0,1.7441252E0,1.3854314E0,1.6443505E0,2.2832255E0,2.524849E0,2.7003593E0,2.6104527E0,2.9337425E0,3.1170883E0,2.3294106E0,2.0160522E0,4.221344E-2,1.5780258E-1,4.4454575E-1,7.993412E-1,9.0979004E-1,0E0,3.282013E-1,1.0883902E0,9.8946095E-1,0E0,1.1571009E0,1.8436456E0,6.020549E-1,1.2089894E0,3.6844617E-1,1.3485703E0,1.218288E0,1.1708543E0,1.2503719E0,2.238329E0,1.8888178E0,2.687584E0,8.754368E-1,1.6994152E0,1.9365692E0,5.6573784E-1,2.6384811E0,1.3889084E0,9.012232E-1,1.180912E0,3.0380688E0,1.0593033E0,0E0,0E0,0E0,0E0,0E0,0E0,0E0,0E0,0E0,0E0,0E0,0E0,0E0,0E0,0E0,0E0,0E0,0E0,0E0,0E0,0E0,0E0,0E0,0E0,0E0,0E0,0E0,0E0,0E0,0E0,0E0,0E0,0E0,0E0,0E0,0E0,0E0,0E0,0E0,0E0,0E0,0E0,0E0,0E0,0E0,0E0,0E0,0E0,0E0,0E0,0E0,0E0,0E0,0E0,0E0,0E0,0E0,0E0,0E0,0E0],"parents":[2147483647,0,0,1,1,2,2,3,3,4,4,5,5,6,6,7,7,8,8,9,9,10,10,11,11,12,12,13,13,14,14,15,15,16,16,17,17,18,18,19,19,20,20,21,21,22,22,23,23,24,24,25,25,26,26,27,27,28,28,29,29,30,30,31,31,32,32,33,33,34,34,35,35,37,37,38,38,39,39,41,41,42,42,43,43,44,44,45,45,46,46,47,47,48,48,49,49,50,50,51,51,52,52,53,53,54,54,55,55,56,56,57,57,58,58,59,59,60,60,61,61,62,62],"right_children":[2,4,6,8,10,12,14,16,18,20,22,24,26,28,30,32,34,36,38,40,42,44,46,48,50,52,54,56,58,60,62,64,66,68,70,72,-1,74,76,78,-1,80,82,84,86,88,90,92,94,96,98,100,102,104,106,108,110,112,114,116,118,120,122,-1,-1,-1,-1,-1,-1,-1,-1,-1,-1,-1,-1,-1,-1,-1,-1,-1,-1,-1,-1,-1,-1,-1,-1,-1,-1,-1,-1,-1,-1,-1,-1,-1,-1,-1,-1,-1,-1,-1,-1,-1,-1,-1,-1,-1,-1,-1,-1,-1,-1,-1,-1,-1,-1,-1,-1,-1,-1,-1,-1],"split_conditions":[1.9E1,1.31E1,2.4E1,8E0,1.55E1,2.2378788E1,2.8333334E1,2.2E1,1.3014778E1,2.8E1,1.9067568E1,1.84E1,1.212E2,1.13967125E2,2.92E1,4.9E0,9.142858E0,2.6333334E1,2.6E1,4E1,1.186E2,2.4E1,2.85E1,2.8E1,1.153E2,2.46789E1,1.216E2,1.4E1,3.3E1,3.2E1,1.12680725E2,1.6E1,1.15E1,1.0733127E1,2.82E1,2.6E1,9.5145446E-1,1.42E2,2.6E1,2.8E1,1.7736311E-1,1.3666667E1,1.47E1,5.80517E0,1.242E2,1.132E2,2.5483051E1,1.05E2,1.12791985E2,3.7E1,5.4589376E0,7.1E1,5E0,3E0,5.683309E0,1.073E2,2.9E1,3.34E1,2.4E1,4.5E1,1.092E2,3E0,5.5E1,-5.7749957E-1,-2.609468E-1,-3.8570616E-1,-4.0295583E-1,-3.534467E-1,2.1470919E-1,-2.777939E-1,2.0322613E-2,-2.8412658E-1,-1.9469249E-1,-7.469721E-2,-1.2213232E-1,6.197497E-1,1.4459847E-1,-1.1789256E-1,-3.8613025E-2,1.19752884E-1,-8.366257E-2,4.690295E-1,1.302717E-1,-3.368925E-2,1.8484112E-2,6.794857E-2,2.9387894E-1,-5.483986E-2,5.6193877E-2,1.3486843E-1,5.582654E-1,-8.702054E-2,1.0777173E-1,1.7381787E-1,4.541702E-1,1.2874386E-1,2.1911882E-1,1.6445626E-1,2.5272393E-1,3.0501246E-1,1.693065E-1,3.6313215E-1,-3.0883485E-2,5.876624E-1,9.434597E-1,3.1924427E-1,3.8981536E-1,2.3181896E-1,3.3440155E-1,5.4630663E-2,-1.401888E-1,2.6231682E-1,4.029963E-1,-4.712658E-2,4.1612965E-1,6.691758E-1,2.530686E-1,4.7655687E-1,4.860808E-1,4.8559508E-1,4.8549423E-1,5.3086305E-1,2.61158E-2],"split_indices":[2,2,2,2,2,12,12,9,12,3,12,12,18,20,2,2,12,0,4,4,18,3,8,0,19,12,18,15,3,11,20,3,8,13,8,9,0,21,10,9,0,0,2,13,19,18,12,18,20,10,13,16,15,15,13,19,11,8,10,16,18,15,3,0,0,0,0,0,0,0,0,0,0,0,0,0,0,0,0,0,0,0,0,0,0,0,0,0,0,0,0,0,0,0,0,0,0,0,0,0,0,0,0,0,0,0,0,0,0,0,0,0,0,0,0,0,0,0,0,0,0,0,0],"split_type":[0,0,0,0,0,0,0,0,0,0,0,0,0,0,0,0,0,0,0,0,0,0,0,0,0,0,0,0,0,0,0,0,0,0,0,0,0,0,0,0,0,0,0,0,0,0,0,0,0,0,0,0,0,0,0,0,0,0,0,0,0,0,0,0,0,0,0,0,0,0,0,0,0,0,0,0,0,0,0,0,0,0,0,0,0,0,0,0,0,0,0,0,0,0,0,0,0,0,0,0,0,0,0,0,0,0,0,0,0,0,0,0,0,0,0,0,0,0,0,0,0,0,0],"sum_hessian":[6.1017E4,5.0493E4,1.0524E4,3.9121E4,1.1372E4,5.95E3,4.574E3,2.2454E4,1.6667E4,5.459E3,5.913E3,4.426E3,1.524E3,3.417E3,1.157E3,1.7217E4,5.237E3,1.3928E4,2.739E3,5.324E3,1.35E2,4.495E3,1.418E3,1.552E3,2.874E3,1.258E3,2.66E2,1.666E3,1.751E3,3.93E2,7.64E2,9.643E3,7.574E3,4.557E3,6.8E2,1.3926E4,2E0,2.695E3,4.4E1,5.322E3,2E0,9E1,4.5E1,3.752E3,7.43E2,1.72E2,1.246E3,1.481E3,7.1E1,1.601E3,1.273E3,7.53E2,5.05E2,2.9E1,2.37E2,1.626E3,4E1,1.379E3,3.72E2,9.9E1,2.94E2,2.3E2,5.34E2,9.624E3,1.9E1,4.38E2,7.136E3,4.54E3,1.7E1,6.02E2,7.8E1,7.37E3,6.556E3,1.057E3,1.638E3,4E0,4E1,2.057E3,3.265E3,2E0,8.8E1,2.5E1,2E1,1.824E3,1.928E3,7.15E2,2.8E1,7.1E1,1.01E2,1.235E3,1.1E1,1.2E2,1.361E3,3.3E1,3.8E1,1.133E3,4.68E2,4.01E2,8.72E2,2.06E2,5.47E2,4.67E2,3.8E1,1.7E1,1.2E1,7.6E1,1.61E2,2.48E2,1.378E3,1E0,3.9E1,2.19E2,1.16E3,7E0,3.65E2,1.8E1,8.1E1,6E1,2.34E2,1.61E2,6.9E1,5.28E2,6E0],"tree_param":{"num_deleted":"0","num_feature":"22","num_nodes":"123","size_leaf_vector":"1"}},{"base_weights":[-2.1523306E-2,-6.004202E-2,1.7362297E-1,-7.791537E-2,-6.279407E-4,1.2617338E-1,3.0513877E-1,-8.825651E-2,-6.0255725E-2,-2.0191228E-2,3.8315125E-2,8.597469E-2,1.7655486E-1,2.3782273E-1,3.830632E-1,-8.833653E-2,3E-2,-6.038847E-2,3E-2,-2.893153E-2,-2.3831802E-8,1.64881E-2,6.440109E-2,7.639508E-2,1.2787956E-1,1.4647962E-1,2.1380723E-1,2.604492E-1,1.8073168E-1,3.1564102E-1,4.137278E-1,-9.170812E-2,-8.102744E-2,-7.186443E-2,-5.4294504E-2,-4.399848E-2,-1.5389971E-2,-4.113809E-3,1.0804595E-1,-4.780879E-2,2.4986798E-2,7.1103305E-2,-7.469882E-2,1.4532848E-2,8.2206964E-2,1.3654889E-1,-4.8275874E-3,1.320933E-1,2.437768E-1,2.0036441E-1,4.119565E-1,2.0703968E-1,3.227176E-1,2.3918365E-1,9.337347E-2,3.9790574E-1,2.3549998E-1,7.2272724E-1,4.049757E-1,-4.588341E-3,2.2499999E-2,-4.350205E-3,-3.7470981E-3,-3.602913E-3,2.2499999E-2,2.0833334E-2,-2.7293905E-3,-3.5456743E-3,-1.9416371E-3,-7.99793E-4,2.125E-2,-5.128829E-4,3.1842093E-3,1.5166665E-2,2.5861952E-4,1.3333333E-2,-2.5702824E-3,3E-2,1.203165E-3,2.0914273E-3,5.077472E-3,3.749999E-3,-4.9305568E-3,2.6223657E-4,3.3749998E-2,4.228343E-3,-2.9411777E-3,7.2089746E-3,-4.7916677E-3,5.006578E-3,8.065295E-3,2.083332E-3,1.3964646E-2,-1.309525E-3,1.0368143E-2,3.2258064E-2,1.4435482E-2,3.6036025E-3,1.2015765E-2,3.499999E-3,1.6957013E-2,-4.615386E-3,1.2832616E-2,1.3592221E-3,9.921874E-3,4.687499E-3,2.1164773E-2,8.964284E-3,1.8032787E-2,-3.3333343E-3,4.025E-2,1.913767E-2,2.4603657E-2],"categories":[],"categories_nodes":[],"categories_segments":[],"categories_sizes":[],"default_left":[0,0,0,0,0,0,0,0,0,0,0,0,0,0,0,0,0,0,0,0,0,0,0,0,0,0,0,0,0,0,0,0,0,0,0,0,0,0,0,0,0,0,0,0,0,0,0,0,0,0,0,0,0,0,0,0,0,0,0,0,0,0,0,0,0,0,0,0,0,0,0,0,0,0,0,0,0,0,0,0,0,0,0,0,0,0,0,0,0,0,0,0,0,0,0,0,0,0,0,0,0,0,0,0,0,0,0,0,0,0,0,0,0],"id":9,"left_children":[1,3,5,7,9,11,13,15,17,19,21,23,25,27,29,31,-1,33,-1,35,37,39,41,43,45,47,49,51,53,55,57,59,61,63,65,67,69,71,73,75,77,79,81,83,85,87,-1,89,91,93,95,97,99,101,103,105,107,109,111,-1,-1,-1,-1,-1,-1,-1,-1,-1,-1,-1,-1,-1,-1,-1,-1,-1,-1,-1,-1,-1,-1,-1,-1,-1,-1,-1,-1,-1,-1,-1,-1,-1,-1,-1,-1,-1,-1,-1,-1,-1,-1,-1,-1,-1,-1,-1,-1,-1,-1,-1,-1,-1,-1],"loss_changes":[4.5863196E2,5.4111603E1,6.2727142E1,7.1483154E0,8.979227E0,1.4957634E1,1.389357E1,1.4134674E0,1.3044357E0,1.384464E0,2.2428613E0,1.6417217E0,3.643509E0,1.8040237E0,2.4206696E0,6.0128784E-1,0E0,1.0079079E0,0E0,1.1163864E0,1.0543019E0,1.1744009E0,1.6787491E0,1.2036095E0,1.4996748E0,2.5125427E0,3.8144302E0,3.3387299E0,2.0712318E0,2.477478E0,1.9925385E0,5.7855225E-1,2.7738953E-1,5.397091E-1,1.3286915E0,3.5748816E-1,7.7659434E-1,9.524485E-1,1.7462529E0,2.9762018E-1,9.929124E-1,1.5225544E0,3.0450633E-1,1.7693291E0,1.0243912E0,1.3189068E0,0E0,1.464674E0,1.6608753E0,2.1807823E0,2.4579744E0,2.470766E0,1.9310532E0,1.4424171E0,1.1489836E0,1.4353008E0,1.3424482E0,1.4824705E0,1.4065247E0,0E0,0E0,0E0,0E0,0E0,0E0,0E0,0E0,0E0,0E0,0E0,0E0,0E0,0E0,0E0,0E0,0E0,0E0,0E0,0E0,0E0,0E0,0E0,0E0,0E0,0E0,0E0,0E0,0E0,0E0,0E0,0E0,0E0,0E0,0E0,0E0,0E0,0E0,0E0,0E0,0E0,0E0,0E0,0E0,0E0,0E0,0E0,0E0,0E0,0E0,0E0,0E0,0E0,0E0],"parents":[2147483647,0,0,1,1,2,2,3,3,4,4,5,5,6,6,7,7,8,8,9,9,10,10,11,11,12,12,13,13,14,14,15,15,17,17,19,19,20,20,21,21,22,22,23,23,24,24,25,25,26,26,27,27,28,28,29,29,30,30,31,31,32,32,33,33,34,34,35,35,36,36,37,37,38,38,39,39,40,40,41,41,42,42,43,43,44,44,45,45,47,47,48,48,49,49,50,50,51,51,52,52,53,53,54,54,55,55,56,56,57,57,58,58],"right_children":[2,4,6,8,10,12,14,16,18,20,22,24,26,28,30,32,-1,34,-1,36,38,40,42,44,46,48,50,52,54,56,58,60,62,64,66,68,70,72,74,76,78,80,82,84,86,88,-1,90,92,94,96,98,100,102,104,106,108,110,112,-1,-1,-1,-1,-1,-1,-1,-1,-1,-1,-1,-1,-1,-1,-1,-1,-1,-1,-1,-1,-1,-1,-1,-1,-1,-1,-1,-1,-1,-1,-1,-1,-1,-1,-1,-1,-1,-1,-1,-1,-1,-1,-1,-1,-1,-1,-1,-1,-1,-1,-1,-1,-1,-1],"split_conditions":[1.93E1,1.31E1,2.64E1,8.6E0,1.675E1,2.26E1,2.92E1,3.86E1,4.2E1,1.55E1,1.14530266E2,1.1752904E2,3.52E1,3.3E1,1.1262712E2,6.5E0,3.1319293E-1,2.3E1,9.038817E-1,1.4E1,3.65E1,2.82E1,4.1E1,2.6E1,2.33E2,3.8E1,2.2E2,1.33E2,1.46E2,3.58E1,1.12617645E2,4.7E1,2.1E1,1.76E1,1.34E1,6E0,3.7E1,2.6E1,1.12533455E2,3E0,1E1,3.19E1,2.8E1,2.17E2,1.4E1,1E1,-4.8089486E-2,2.4E1,1.1156815E2,1.2E1,3.57E1,2.1E1,3.1E1,3.2E1,2.06E2,2.7E1,3E0,2E1,3.46E1,-4.587551E-1,7.890358E-2,-3.5125563E-1,-2.6580378E-1,-2.4162559E-1,1.5992919E-1,1.0878334E0,-1.580123E-1,-1.7220737E-1,-9.207802E-2,-3.0449528E-2,2.6205006E-1,-2.7160693E-2,1.414575E-1,1.6454019E-1,1.7450012E-2,4.4648077E-2,-7.81079E-2,3.3891305E-1,5.0161805E-2,7.5969234E-2,1.6267283E-1,1.064502E-1,-1.11919165E-1,2.0727893E-2,6.3623184E-1,1.5143597E-1,-1.10055946E-1,2.6306492E-1,-8.3873205E-2,2.0361395E-1,2.8892645E-1,1.568897E-1,3.9858612E-1,-3.9904907E-2,3.0174032E-1,6.7438364E-1,4.413169E-1,1.3156311E-1,3.8865507E-1,1.8566042E-1,3.7371537E-1,-4.1366607E-2,4.5910907E-1,1.9770646E-1,4.253233E-1,1.2414348E-1,4.998177E-1,4.1387606E-1,4.6100855E-1,-2.4528103E-1,9.619605E-1,4.971562E-1,6.40105E-1],"split_indices":[2,2,2,2,2,2,2,7,3,2,20,20,7,5,20,2,0,9,0,3,8,8,11,9,16,9,16,16,16,7,17,9,9,1,8,3,5,4,20,5,10,8,10,15,15,15,0,5,20,3,8,4,7,11,16,10,15,3,1,0,0,0,0,0,0,0,0,0,0,0,0,0,0,0,0,0,0,0,0,0,0,0,0,0,0,0,0,0,0,0,0,0,0,0,0,0,0,0,0,0,0,0,0,0,0,0,0,0,0,0,0,0,0],"split_type":[0,0,0,0,0,0,0,0,0,0,0,0,0,0,0,0,0,0,0,0,0,0,0,0,0,0,0,0,0,0,0,0,0,0,0,0,0,0,0,0,0,0,0,0,0,0,0,0,0,0,0,0,0,0,0,0,0,0,0,0,0,0,0,0,0,0,0,0,0,0,0,0,0,0,0,0,0,0,0,0,0,0,0,0,0,0,0,0,0,0,0,0,0,0,0,0,0,0,0,0,0,0,0,0,0,0,0,0,0,0,0,0,0],"sum_hessian":[6.1012E4,5.0955E4,1.0057E4,3.9171E4,1.1784E4,7.392E3,2.665E3,2.4702E4,1.4469E4,7.844E3,3.94E3,4.113E3,3.279E3,1.432E3,1.233E3,2.47E4,2E0,1.4467E4,2E0,5.474E3,2.37E3,2.146E3,1.794E3,3.35E3,7.63E2,1.817E3,1.462E3,1.023E3,4.09E2,3.89E2,8.44E2,1.6895E4,7.805E3,5.014E3,9.453E3,2.59E3,2.884E3,2.284E3,8.6E1,2.5E2,1.896E3,1.712E3,8.2E1,2.88E2,3.062E3,7.35E2,2.8E1,1.585E3,2.32E2,1.371E3,9.1E1,5.53E2,4.7E2,2.44E2,1.65E2,1.9E2,1.99E2,2.1E1,8.23E2,1.6894E4,1E0,3.931E3,3.874E3,5.013E3,1E0,5E0,9.448E3,4.15E2,2.175E3,2.881E3,3E0,2.095E3,1.89E2,2.9E1,5.7E1,2E0,2.48E2,2E0,1.894E3,8.74E2,8.38E2,1.1E1,7.1E1,2.85E2,3E0,3.012E3,5E1,7.12E2,2.3E1,7.59E2,8.26E2,3.5E1,1.97E2,4.1E1,1.33E3,3E1,6.1E1,1.1E2,4.43E2,2.9E1,4.41E2,1.2E1,2.32E2,1.02E2,6.3E1,1.5E1,1.75E2,1.39E2,6E1,2E0,1.9E1,6.6E2,1.63E2],"tree_param":{"num_deleted":"0","num_feature":"22","num_nodes":"113","size_leaf_vector":"1"}},{"base_weights":[-2.3355152E-2,-5.9077546E-2,1.5684427E-1,-7.5953364E-2,-2.8082954E-3,8.347016E-2,2.1890654E-1,-8.616215E-2,-5.849072E-2,-2.2179658E-2,3.582163E-2,5.8485415E-2,1.1475168E-1,1.9148536E-1,3.1682006E-1,-8.624193E-2,3E-2,-6.437677E-2,-3.9293103E-2,-4.0898982E-2,-1.2363731E-2,1.401212E-2,6.196076E-2,5.3855397E-2,1.9186044E-1,9.1715455E-2,1.4662789E-1,1.6093822E-1,2.2057611E-1,2.878661E-1,3.5949892E-1,-9.350428E-2,-8.141118E-2,-7.364593E-2,-5.7594266E-2,-3.9846767E-2,3E-2,3.024689E-2,-4.543661E-2,-7.8756504E-2,-9.769442E-3,-3.4912743E-2,2.5272807E-2,6.811161E-2,-4.0196102E-2,3.3633195E-2,8.173994E-2,-2.3072765E-8,2.9464284E-1,7.15476E-2,1.3904493E-1,1.8230382E-1,6.45038E-2,1.4893733E-1,2.3145694E-1,1.2751089E-1,2.313425E-1,3.7365267E-1,2.61343E-1,3.1249978E-2,3.7004307E-1,-4.7069285E-3,-3.6409409E-3,-4.197781E-3,-3.4948045E-3,-3.714657E-3,2.564091E-4,-3.4383875E-3,-2.3284706E-3,-2.310432E-3,-4.615397E-4,2.125E-2,1.0062881E-3,-2.845166E-3,-8.882919E-4,-4.6540895E-3,-5.7142973E-4,1.3636363E-2,-5.198634E-4,1.6E-2,-1.9647367E-3,-4.8809536E-3,1.4147047E-3,2.862465E-3,7.2248797E-3,2.2499999E-2,-2.4752486E-3,9.256756E-3,1.2718647E-3,3.3749998E-2,3.9693182E-3,3E-2,-3.1034495E-3,2.4772726E-2,7.999999E-3,1.4782608E-2,3.2579452E-3,6.5198853E-3,3.6E-2,8.317929E-3,1.6271187E-2,-2.500001E-3,4.9751233E-3,9.064792E-3,6.076209E-3,9.015543E-3,1.5954545E-2,1.6346153E-2,5.0735283E-3,2.0410959E-2,1.12188645E-2,2.036184E-2,1.5624989E-3,1.2634507E-2,3E-2,-4.5833346E-3,1.6E-2,1.9462101E-2,1.1160714E-2],"categories":[],"categories_nodes":[],"categories_segments":[],"categories_sizes":[],"default_left":[0,0,0,0,0,0,0,0,0,0,0,0,0,0,0,0,0,0,0,0,0,0,0,0,0,0,0,0,0,0,0,0,0,0,0,0,0,0,0,0,0,0,0,0,0,0,0,0,0,0,0,0,0,0,0,0,0,0,0,0,0,0,0,0,0,0,0,0,0,0,0,0,0,0,0,0,0,0,0,0,0,0,0,0,0,0,0,0,0,0,0,0,0,0,0,0,0,0,0,0,0,0,0,0,0,0,0,0,0,0,0,0,0,0,0,0,0,0,0],"id":10,"left_children":[1,3,5,7,9,11,13,15,17,19,21,23,25,27,29,31,-1,33,35,37,39,41,43,45,47,49,51,53,55,57,59,61,63,65,67,69,-1,71,73,75,77,79,81,83,85,87,89,91,93,95,97,99,101,103,105,107,109,111,113,115,117,-1,-1,-1,-1,-1,-1,-1,-1,-1,-1,-1,-1,-1,-1,-1,-1,-1,-1,-1,-1,-1,-1,-1,-1,-1,-1,-1,-1,-1,-1,-1,-1,-1,-1,-1,-1,-1,-1,-1,-1,-1,-1,-1,-1,-1,-1,-1,-1,-1,-1,-1,-1,-1,-1,-1,-1,-1,-1],"loss_changes":[3.9282376E2,4.8360504E1,4.5956528E1,6.9793243E0,8.794237E0,3.6103516E0,1.4623077E1,1.4051971E0,1.6310844E0,1.4376864E0,2.2367024E0,1.5798035E0,1.4948196E0,3.7634277E0,1.3731995E0,8.5964966E-1,0E0,6.912689E-1,1.2255831E0,8.704419E-1,8.838661E-1,1.1804183E0,1.1243463E0,1.401329E0,1.6959097E0,1.1307201E0,2.5079155E0,1.7334213E0,2.161827E0,1.5337601E0,1.6463051E0,1.2262726E-1,4.2931366E-1,2.385273E-1,7.8432465E-1,6.6044426E-1,0E0,6.386927E-1,8.0205727E-1,1.8508291E-1,8.796977E-1,6.362195E-1,6.4918065E-1,1.3889909E0,4.8772085E-1,1.7895393E0,1.4069262E0,1.1917242E0,1.4348474E0,1.183394E0,1.694531E0,1.31283E0,1.0549351E0,1.5640106E0,1.2960701E0,1.1559689E0,2.3218536E0,1.9076576E0,1.4630051E0,5.972084E-1,1.2211151E0,0E0,0E0,0E0,0E0,0E0,0E0,0E0,0E0,0E0,0E0,0E0,0E0,0E0,0E0,0E0,0E0,0E0,0E0,0E0,0E0,0E0,0E0,0E0,0E0,0E0,0E0,0E0,0E0,0E0,0E0,0E0,0E0,0E0,0E0,0E0,0E0,0E0,0E0,0E0,0E0,0E0,0E0,0E0,0E0,0E0,0E0,0E0,0E0,0E0,0E0,0E0,0E0,0E0,0E0,0E0,0E0,0E0,0E0],"parents":[2147483647,0,0,1,1,2,2,3,3,4,4,5,5,6,6,7,7,8,8,9,9,10,10,11,11,12,12,13,13,14,14,15,15,17,17,18,18,19,19,20,20,21,21,22,22,23,23,24,24,25,25,26,26,27,27,28,28,29,29,30,30,31,31,32,32,33,33,34,34,35,35,37,37,38,38,39,39,40,40,41,41,42,42,43,43,44,44,45,45,46,46,47,47,48,48,49,49,50,50,51,51,52,52,53,53,54,54,55,55,56,56,57,57,58,58,59,59,60,60],"right_children":[2,4,6,8,10,12,14,16,18,20,22,24,26,28,30,32,-1,34,36,38,40,42,44,46,48,50,52,54,56,58,60,62,64,66,68,70,-1,72,74,76,78,80,82,84,86,88,90,92,94,96,98,100,102,104,106,108,110,112,114,116,118,-1,-1,-1,-1,-1,-1,-1,-1,-1,-1,-1,-1,-1,-1,-1,-1,-1,-1,-1,-1,-1,-1,-1,-1,-1,-1,-1,-1,-1,-1,-1,-1,-1,-1,-1,-1,-1,-1,-1,-1,-1,-1,-1,-1,-1,-1,-1,-1,-1,-1,-1,-1,-1,-1,-1,-1,-1,-1],"split_conditions":[1.93E1,1.31E1,2.3E1,8.6E0,1.675E1,1.153E2,2.92E1,3.9E1,1.5E1,2.8E1,1.14530266E2,1.2637246E1,2.13E1,1.1402087E2,3.19E1,4.6E0,2.9753333E-1,2.3E1,3.9E1,2.2E1,1.043E2,2.88E1,6E0,2.13E1,3.1333334E1,3.5E1,3.7E1,1.171E2,2.18E1,3.3E1,2.5333334E1,2.8E1,2.7E1,2.7E1,1.07E1,1.1760129E2,8.586877E-1,3E0,1.52E1,7.8294315E0,9E0,1E0,2.2E1,1.233E2,5E0,1.6E1,5E0,1.0666667E1,2.24E1,7E0,2.91E2,3.6666668E1,1.8E1,1.1156815E2,3.6333332E1,2.32E1,1.1425487E2,2.71E2,4.7E1,1.185E2,4.3E1,-4.83914E-1,-4.0111676E-1,-3.4717438E-1,-2.3291484E-1,-2.392112E-1,9.4508834E-2,-2.0489605E-1,-1.3936606E-1,-1.4373817E-1,-1.860453E-2,5.828953E-1,1.1691357E-2,-1.2976925E-1,-5.0217588E-2,-1.4034949E-1,-1.4852563E-2,6.260408E-1,-2.1852193E-2,2.890524E-1,-4.4437956E-2,-2.610277E-1,5.0762713E-2,1.0035868E-1,2.1834238E-1,5.2521802E-2,-4.9700063E-2,2.9628736E-1,4.7185857E-2,4.345294E-1,1.835775E-1,4.0428734E-1,-3.732539E-2,7.022645E-1,1.8039575E-1,4.898572E-1,1.188794E-1,2.1547388E-1,8.630722E-1,2.1777378E-1,4.536836E-1,-5.2253045E-2,2.3220026E-1,3.224134E-1,2.308958E-1,2.3906706E-1,4.0339896E-1,3.771114E-1,2.3062609E-1,6.022999E-1,3.6050636E-1,5.333841E-1,3.7945935E-1,4.7138143E-1,6.4376897E-1,-6.878098E-2,9.458132E-2,4.6756744E-1,4.414928E-1],"split_indices":[2,2,2,2,2,19,2,7,3,9,20,13,2,20,2,2,0,9,3,21,19,7,15,2,6,7,10,19,1,10,0,9,9,4,2,20,0,5,2,13,10,15,9,19,4,21,5,0,1,4,21,6,5,20,6,2,20,21,3,19,3,0,0,0,0,0,0,0,0,0,0,0,0,0,0,0,0,0,0,0,0,0,0,0,0,0,0,0,0,0,0,0,0,0,0,0,0,0,0,0,0,0,0,0,0,0,0,0,0,0,0,0,0,0,0,0,0,0,0],"split_type":[0,0,0,0,0,0,0,0,0,0,0,0,0,0,0,0,0,0,0,0,0,0,0,0,0,0,0,0,0,0,0,0,0,0,0,0,0,0,0,0,0,0,0,0,0,0,0,0,0,0,0,0,0,0,0,0,0,0,0,0,0,0,0,0,0,0,0,0,0,0,0,0,0,0,0,0,0,0,0,0,0,0,0,0,0,0,0,0,0,0,0,0,0,0,0,0,0,0,0,0,0,0,0,0,0,0,0,0,0,0,0,0,0,0,0,0,0,0,0],"sum_hessian":[6.1022E4,5.0927E4,1.0095E4,3.9177E4,1.175E4,4.627E3,5.468E3,2.4721E4,1.4456E4,7.826E3,3.924E3,2.574E3,2.053E3,4.274E3,1.194E3,2.4719E4,2E0,1.1062E4,3.394E3,2.691E3,5.135E3,2.14E3,1.784E3,2.489E3,8.5E1,1.194E3,8.59E2,2.088E3,2.186E3,7.16E2,4.78E2,9.867E3,1.4852E4,4.67E3,6.392E3,3.392E3,2E0,1.61E2,2.53E3,1.92E2,4.943E3,4E2,1.74E3,1.683E3,1.01E2,1.444E3,1.045E3,3E1,5.5E1,8.39E2,3.55E2,5.98E2,2.61E2,1.787E3,3.01E2,2.28E2,1.958E3,1.66E2,5.5E2,1.5E1,4.63E2,9.57E3,2.97E2,1.2159E4,2.693E3,4.632E3,3.8E1,3.172E3,3.22E3,2.808E3,5.84E2,3E0,1.58E2,1.788E3,7.42E2,1.58E2,3.4E1,1E1,4.933E3,4E0,3.96E2,4.1E1,1.699E3,1.475E3,2.08E2,1E0,1E2,7.3E1,1.371E3,3E0,1.042E3,2E0,2.8E1,2.1E1,3.4E1,2.2E1,8.17E2,3.51E2,4E0,5.4E2,5.8E1,6.1E1,2E2,8.17E2,9.7E2,1.92E2,1.09E2,2.5E1,2.03E2,7.2E1,1.886E3,1.51E2,1.5E1,5.38E2,1.2E1,1.1E1,4E0,4.08E2,5.5E1],"tree_param":{"num_deleted":"0","num_feature":"22","num_nodes":"119","size_leaf_vector":"1"}},{"base_weights":[-2.3532333E-2,-5.9553392E-2,1.4160019E-1,-7.543039E-2,-3.1227479E-3,8.524175E-2,2.1998683E-1,-8.781208E-2,-5.984614E-2,-1.5780754E-2,2.823676E-2,6.0885932E-2,1.0969369E-1,1.8651314E-1,3.1155735E-1,-9.43505E-2,-8.345459E-2,-6.489074E-2,-4.1292615E-2,3.1329665E-2,-1.9332258E-2,-6.4156447E-3,3.839539E-2,4.3816835E-2,1.07910246E-1,9.908619E-2,1.5053761E-1,1.7254165E-1,2.2179891E-1,4.5116276E-1,2.947802E-1,-9.481545E-2,-7.2580665E-2,-8.352989E-2,2.2499999E-2,-7.2536394E-2,-5.4248046E-2,-4.180197E-2,3E-2,2.2634484E-2,4.5454544E-1,-4.5568585E-2,-1.4170663E-2,-1.4934138E-2,1.5999998E-1,1.163634E-2,5.200739E-2,-1.347947E-4,6.4223036E-2,8.663727E-2,1.9401196E-1,1.02915786E-1,-1.4457854E-2,9.52646E-2,2.1774742E-1,6.506847E-2,1.7942348E-1,2.6221716E-1,1.8591267E-1,5.0277776E-1,1.772727E-1,2.1945286E-1,3.2683244E-1,-4.5612133E-3,-4.8482576E-3,-4.1040475E-3,2.499999E-3,-4.1928557E-3,5.4347713E-4,-3.632972E-3,2.2499999E-2,-4.03621E-3,-2.4499695E-3,-2.4223828E-3,-8.159281E-4,1.5499999E-2,8.5848937E-4,3.75E-2,4.166666E-3,-2.350967E-3,1.2499999E-2,-8.731463E-4,9.229379E-4,8.653845E-3,-1.1170225E-3,1.8666666E-2,-1.1353266E-9,1.0689654E-2,2.132987E-4,1.2797981E-3,3.876062E-3,-3.228034E-4,1.5333332E-2,2.7948522E-3,6.136363E-3,4.2120754E-3,3E-2,8.209459E-3,2.0249998E-2,-2.019232E-3,5.299915E-3,2.0833334E-2,-2.3717962E-3,2.1999998E-2,3.999999E-3,3.4482646E-4,1.1999999E-2,3.181818E-2,9.191165E-4,9.180364E-3,1.8939382E-3,1.725146E-2,1.0459558E-2,4.49704E-3,1.1681546E-2,3.15625E-2,1.9672131E-2,-4.500001E-3,1.8461538E-2,1.2517856E-2,2.099999E-3,9.859154E-3,1.6981266E-2],"categories":[],"categories_nodes":[],"categories_segments":[],"categories_sizes":[],"default_left":[0,0,0,0,0,0,0,0,0,0,0,0,0,0,0,0,0,0,0,0,0,0,0,0,0,0,0,0,0,0,0,0,0,0,0,0,0,0,0,0,0,0,0,0,0,0,0,0,0,0,0,0,0,0,0,0,0,0,0,0,0,0,0,0,0,0,0,0,0,0,0,0,0,0,0,0,0,0,0,0,0,0,0,0,0,0,0,0,0,0,0,0,0,0,0,0,0,0,0,0,0,0,0,0,0,0,0,0,0,0,0,0,0,0,0,0,0,0,0,0,0,0,0],"id":11,"left_children":[1,3,5,7,9,11,13,15,17,19,21,23,25,27,29,31,33,35,37,39,41,43,45,47,49,51,53,55,57,59,61,63,65,67,-1,69,71,73,-1,75,77,79,81,83,85,87,89,91,93,95,97,99,101,103,105,107,109,111,113,115,117,119,121,-1,-1,-1,-1,-1,-1,-1,-1,-1,-1,-1,-1,-1,-1,-1,-1,-1,-1,-1,-1,-1,-1,-1,-1,-1,-1,-1,-1,-1,-1,-1,-1,-1,-1,-1,-1,-1,-1,-1,-1,-1,-1,-1,-1,-1,-1,-1,-1,-1,-1,-1,-1,-1,-1,-1,-1,-1,-1,-1,-1],"loss_changes":[3.624293E2,4.481427E1,4.8183334E1,7.5270996E0,4.360532E0,3.7744522E0,1.3928406E1,6.1183167E-1,1.6152077E0,1.3099959E0,1.1122806E0,2.550147E0,1.357193E0,1.6103134E0,2.724472E0,8.1085205E-2,5.622635E-1,1.1018066E0,1.2330222E0,2.0099978E0,9.8495054E-1,1.0188161E0,8.8924336E-1,2.0960302E0,1.5345907E0,1.0959511E0,2.3976498E0,1.7633896E0,1.3219337E0,1.7345238E0,2.5648117E0,5.68161E-2,2.207104E-1,4.043274E-1,0E0,5.409508E-1,7.860546E-1,6.25144E-1,0E0,8.4110427E-1,1.1439395E0,5.245948E-1,6.537863E-1,9.549225E-1,1.1946669E0,1.2283125E0,1.0889907E0,1.4409966E0,7.705598E-1,7.8701496E-1,9.843092E-1,1.0798836E0,1.1998302E0,1.85395E0,1.3730927E0,3.8823504E0,1.3284531E0,1.8687305E0,2.2871094E0,1.2686653E0,1.1619442E0,1.7937384E0,1.2001877E0,0E0,0E0,0E0,0E0,0E0,0E0,0E0,0E0,0E0,0E0,0E0,0E0,0E0,0E0,0E0,0E0,0E0,0E0,0E0,0E0,0E0,0E0,0E0,0E0,0E0,0E0,0E0,0E0,0E0,0E0,0E0,0E0,0E0,0E0,0E0,0E0,0E0,0E0,0E0,0E0,0E0,0E0,0E0,0E0,0E0,0E0,0E0,0E0,0E0,0E0,0E0,0E0,0E0,0E0,0E0,0E0,0E0,0E0,0E0,0E0],"parents":[2147483647,0,0,1,1,2,2,3,3,4,4,5,5,6,6,7,7,8,8,9,9,10,10,11,11,12,12,13,13,14,14,15,15,16,16,17,17,18,18,19,19,20,20,21,21,22,22,23,23,24,24,25,25,26,26,27,27,28,28,29,29,30,30,31,31,32,32,33,33,35,35,36,36,37,37,39,39,40,40,41,41,42,42,43,43,44,44,45,45,46,46,47,47,48,48,49,49,50,50,51,51,52,52,53,53,54,54,55,55,56,56,57,57,58,58,59,59,60,60,61,61,62,62],"right_children":[2,4,6,8,10,12,14,16,18,20,22,24,26,28,30,32,34,36,38,40,42,44,46,48,50,52,54,56,58,60,62,64,66,68,-1,70,72,74,-1,76,78,80,82,84,86,88,90,92,94,96,98,100,102,104,106,108,110,112,114,116,118,120,122,-1,-1,-1,-1,-1,-1,-1,-1,-1,-1,-1,-1,-1,-1,-1,-1,-1,-1,-1,-1,-1,-1,-1,-1,-1,-1,-1,-1,-1,-1,-1,-1,-1,-1,-1,-1,-1,-1,-1,-1,-1,-1,-1,-1,-1,-1,-1,-1,-1,-1,-1,-1,-1,-1,-1,-1,-1,-1,-1,-1],"split_conditions":[1.88E1,1.31E1,2.4E1,7.8E0,1.675E1,2.11E1,2.92E1,4.3E0,1.5E1,2E1,2.9E1,1.16582275E2,2.5666666E1,1.181E2,1.078E2,1.2E1,3.1E1,1.04E1,2.6333334E1,3.65E1,2.56E1,1.238E2,1.72E1,1.8333334E1,3.8E1,3.9333332E1,1.154E2,3.15E1,1.207E2,1.8E2,1.1271795E2,4.1E1,1.1E1,3.4333332E1,2.3598824E-1,4.2E1,1.9E1,1.1716923E2,8.157533E-1,2.0736442E0,1.56E1,3.8E1,3.6333332E1,2.408319E0,1.4E1,1.047E2,1E0,2.24E1,1.192E2,3.8E1,3E1,2.1E1,1.3E1,1.8E1,1.9E1,1.2E1,1.218E2,7.7E1,7.8E1,3.54E1,2.9666666E1,1.143241E1,3E1,-4.854385E-1,-5.0899124E-1,-3.7480113E-1,2.1134007E-1,-3.245554E-1,5.8950283E-2,-2.3869173E-1,2.8265667E-1,-2.2568046E-1,-1.3480657E-1,-1.4754343E-1,-3.9032955E-2,6.5300274E-1,1.639212E-2,3.082516E-1,1.0461769E-1,-1.2188816E-1,1.16252236E-1,-3.7778918E-2,4.9726065E-2,3.1679094E-1,-2.9024586E-2,5.5795395E-1,8.7408535E-2,4.104418E-1,1.8707804E-2,5.1829506E-2,1.5767701E-1,-4.6144105E-3,2.6387954E-1,1.0010932E-1,2.2572608E-1,1.7845535E-1,1.6744843E-1,2.0367377E-1,7.7753276E-1,-4.136541E-2,2.0886302E-1,6.904994E-1,-3.7064776E-2,3.6087328E-1,1.6961072E-1,3.5079617E-2,3.8478446E-1,7.8540015E-1,9.0407774E-2,3.0038914E-1,1.893207E-1,4.232521E-1,2.9341447E-1,3.080657E-1,2.8969273E-1,6.866526E-1,4.1439208E-1,-8.288672E-2,8.529046E-1,4.6065846E-1,2.1291164E-1,4.6346363E-1,4.53531E-1],"split_indices":[2,2,2,2,2,2,2,2,3,16,7,17,0,19,19,4,3,2,0,8,7,19,1,0,9,6,18,8,19,16,17,16,3,6,0,6,9,17,0,13,1,9,6,13,4,19,14,1,19,3,3,9,4,4,3,3,18,16,16,7,0,13,9,0,0,0,0,0,0,0,0,0,0,0,0,0,0,0,0,0,0,0,0,0,0,0,0,0,0,0,0,0,0,0,0,0,0,0,0,0,0,0,0,0,0,0,0,0,0,0,0,0,0,0,0,0,0,0,0,0,0,0,0],"split_type":[0,0,0,0,0,0,0,0,0,0,0,0,0,0,0,0,0,0,0,0,0,0,0,0,0,0,0,0,0,0,0,0,0,0,0,0,0,0,0,0,0,0,0,0,0,0,0,0,0,0,0,0,0,0,0,0,0,0,0,0,0,0,0,0,0,0,0,0,0,0,0,0,0,0,0,0,0,0,0,0,0,0,0,0,0,0,0,0,0,0,0,0,0,0,0,0,0,0,0,0,0,0,0,0,0,0,0,0,0,0,0,0,0,0,0,0,0,0,0,0,0,0,0],"sum_hessian":[6.0928E4,5.0018E4,1.091E4,3.9035E4,1.0983E4,6.348E3,4.562E3,2.175E4,1.7285E4,7.825E3,3.158E3,3.182E3,3.166E3,3.343E3,1.219E3,8.69E3,1.306E4,1.3588E4,3.697E3,5.48E2,7.277E3,7.16E2,2.442E3,2.336E3,8.46E2,2.516E3,6.5E2,2.399E3,9.44E2,1.28E2,1.091E3,8.505E3,1.85E2,1.3059E4,1E0,7.904E3,5.684E3,3.695E3,2E0,5.38E2,1E1,1.195E3,6.082E3,6.82E2,3.4E1,8.24E2,1.618E3,7.41E2,1.595E3,6.8E2,1.66E2,2.434E3,8.2E1,3.58E2,2.92E2,1.45E2,2.254E3,4.41E2,5.03E2,1.07E2,2.1E1,3.28E2,7.63E2,3.201E3,5.304E3,1.72E2,1.3E1,1.3014E4,4.5E1,7.903E3,1E0,9.38E2,4.746E3,2.93E3,7.65E2,9E0,5.29E2,5E0,5E0,1.19E3,5E0,5.525E3,5.57E2,2.5E1,6.57E2,1.4E1,2E1,2.8E1,7.96E2,7.96E2,8.22E2,7.27E2,1.4E1,1.398E3,1.97E2,6.78E2,2E0,1.47E2,1.9E1,5.1E1,2.383E3,5E0,7.7E1,1.4E1,3.44E2,2.8E1,2.64E2,1E1,1.35E2,2.189E3,6.5E1,1.7E2,2.71E2,1.68E2,3.35E2,4.7E1,6E1,9E0,1.2E1,2.79E2,4.9E1,7E1,6.93E2],"tree_param":{"num_deleted":"0","num_feature":"22","num_nodes":"123","size_leaf_vector":"1"}},{"base_weights":[-2.4449384E-2,-5.6460336E-2,1.4191122E-1,-7.40012E-2,4.7284825E-4,9.028699E-2,2.0109001E-1,-8.396575E-2,-5.5701364E-2,-1.600715E-2,3.1339347E-2,7.453462E-2,1.3393112E-1,1.7605202E-1,2.9354507E-1,-8.82518E-2,-7.554674E-2,-6.1978657E-2,-4.0645026E-2,-1.6431052E-2,3.5555553E-1,2.6229069E-2,1.1155376E-1,4.093491E-2,9.776901E-2,1.0999998E-1,1.7855668E-1,1.8075502E-1,-1.0000024E-2,2.1148145E-1,3.2446957E-1,-8.9041375E-2,-6.368823E-2,-7.566084E-2,2.2499999E-2,-6.2160797E-2,1.9999997E-1,-4.109389E-2,4.2499998E-1,-2.4385344E-2,1.6236231E-3,3.6E-2,-4.000001E-3,1.7749998E-1,2.4673639E-2,9.876031E-2,4.0999997E-1,9.87854E-2,3.021688E-2,9.193252E-2,2.3440857E-1,6.690474E-2,1.4663948E-1,6.285714E-1,1.716075E-1,1.4388296E-1,1.9803837E-1,-4.8837224E-3,6.874998E-2,1.1854836E-1,2.8843534E-1,3.418351E-1,1.4769228E-1,-4.5978124E-3,-4.220811E-3,7.0588225E-3,-3.5196093E-3,-3.9694477E-3,-3.3612498E-3,-3.3910815E-3,-2.7188503E-3,3E-2,-4.000001E-3,-2.1623007E-3,1.2403089E-3,-2.5000006E-3,3E-2,-1.3813128E-3,1.755318E-3,4.2083324E-3,-1.3578744E-4,2.7272718E-3,3.3125E-2,2.7299516E-3,8.186263E-4,5.7366057E-3,-4.7368435E-3,2.6874999E-2,-3.3333343E-3,1.7954545E-2,3.6504415E-3,7.685258E-4,4.8163254E-3,4.867978E-3,-4.910726E-4,1.3511904E-2,-4.500001E-3,4.1778963E-3,-2.9000014E-3,9.218749E-3,2.5357131E-3,-2.5000006E-3,3.75E-2,3.142857E-2,8.224101E-3,6.356915E-3,1.1510988E-2,5.0333324E-3,1.0222518E-2,-2.8000013E-3,9.791666E-3,-4.7222236E-3,7.6635503E-3,2.2499999E-2,1.1084905E-2,1.6267007E-2,2.5446428E-2,3.7499988E-3,2.0357143E-2],"categories":[],"categories_nodes":[],"categories_segments":[],"categories_sizes":[],"default_left":[0,0,0,0,0,0,0,0,0,0,0,0,0,0,0,0,0,0,0,0,0,0,0,0,0,0,0,0,0,0,0,0,0,0,0,0,0,0,0,0,0,0,0,0,0,0,0,0,0,0,0,0,0,0,0,0,0,0,0,0,0,0,0,0,0,0,0,0,0,0,0,0,0,0,0,0,0,0,0,0,0,0,0,0,0,0,0,0,0,0,0,0,0,0,0,0,0,0,0,0,0,0,0,0,0,0,0,0,0,0,0,0,0,0,0,0,0,0,0],"id":12,"left_children":[1,3,5,7,9,11,13,15,17,19,21,23,25,27,29,31,33,35,37,39,41,43,45,47,49,51,53,55,57,59,61,63,65,67,-1,69,71,73,75,77,79,-1,-1,81,83,85,87,89,91,93,95,97,99,101,103,105,107,-1,109,111,113,115,117,-1,-1,-1,-1,-1,-1,-1,-1,-1,-1,-1,-1,-1,-1,-1,-1,-1,-1,-1,-1,-1,-1,-1,-1,-1,-1,-1,-1,-1,-1,-1,-1,-1,-1,-1,-1,-1,-1,-1,-1,-1,-1,-1,-1,-1,-1,-1,-1,-1,-1,-1,-1,-1,-1,-1,-1],"loss_changes":[3.2496155E2,5.1105316E1,3.0065002E1,7.1290283E0,6.1321287E0,3.606945E0,1.0566711E1,9.072418E-1,1.3012886E0,1.2436838E0,1.7170901E0,3.015625E0,1.4690685E0,3.1623077E0,2.408249E0,3.197174E-1,5.468025E-1,4.7690964E-1,8.664665E-1,1.1275389E0,1.4862221E0,9.2408013E-1,9.1786575E-1,9.78544E-1,1.8015213E0,1.4270697E0,1.4088411E0,2.2166214E0,6.2810755E-1,1.8967285E0,2.119896E0,2.1133423E-1,7.3234653E-1,2.6355743E-1,0E0,4.2495346E-1,8.32E-1,5.767422E-1,3.6249995E-1,1.05177E0,8.605886E-1,0E0,0E0,2.349182E0,9.6966004E-1,7.587707E-1,6.435832E-1,1.6310997E0,1.3107682E0,1.212532E0,1.1052971E0,8.7847257E-1,1.7679644E0,6.142857E-1,1.4562788E0,1.6014557E0,1.4753494E0,0E0,7.719417E-1,9.315392E-1,1.4852457E0,1.6066666E0,1.1953683E0,0E0,0E0,0E0,0E0,0E0,0E0,0E0,0E0,0E0,0E0,0E0,0E0,0E0,0E0,0E0,0E0,0E0,0E0,0E0,0E0,0E0,0E0,0E0,0E0,0E0,0E0,0E0,0E0,0E0,0E0,0E0,0E0,0E0,0E0,0E0,0E0,0E0,0E0,0E0,0E0,0E0,0E0,0E0,0E0,0E0,0E0,0E0,0E0,0E0,0E0,0E0,0E0,0E0,0E0,0E0,0E0],"parents":[2147483647,0,0,1,1,2,2,3,3,4,4,5,5,6,6,7,7,8,8,9,9,10,10,11,11,12,12,13,13,14,14,15,15,16,16,17,17,18,18,19,19,20,20,21,21,22,22,23,23,24,24,25,25,26,26,27,27,28,28,29,29,30,30,31,31,32,32,33,33,35,35,36,36,37,37,38,38,39,39,40,40,43,43,44,44,45,45,46,46,47,47,48,48,49,49,50,50,51,51,52,52,53,53,54,54,55,55,56,56,58,58,59,59,60,60,61,61,62,62],"right_children":[2,4,6,8,10,12,14,16,18,20,22,24,26,28,30,32,34,36,38,40,42,44,46,48,50,52,54,56,58,60,62,64,66,68,-1,70,72,74,76,78,80,-1,-1,82,84,86,88,90,92,94,96,98,100,102,104,106,108,-1,110,112,114,116,118,-1,-1,-1,-1,-1,-1,-1,-1,-1,-1,-1,-1,-1,-1,-1,-1,-1,-1,-1,-1,-1,-1,-1,-1,-1,-1,-1,-1,-1,-1,-1,-1,-1,-1,-1,-1,-1,-1,-1,-1,-1,-1,-1,-1,-1,-1,-1,-1,-1,-1,-1,-1,-1,-1,-1,-1],"split_conditions":[1.95E1,1.31E1,2.4E1,8.8E0,1.675E1,2.26E1,2.99E1,6.5E0,1.4E1,3.9E1,1.235E2,1.129E2,1.166E2,1.4E1,1.12300575E2,7.049823E0,4.1E1,4.0666668E1,1.96E1,1.55E1,2.9E1,4E0,1.1777097E1,4.4E1,1.261E2,1.05E2,1E0,1.1262712E2,1.93E2,1E0,2.22E2,4.6666665E0,1.5E1,2.4E1,2.6852378E-1,1.08E1,1.09E1,3.8E1,1.17E1,1.242E2,1.5E1,2.4627791E-1,-3.9796296E-1,1.172E2,2E0,4.1E1,2.2E1,3.04959E0,2.4333334E1,2.33E2,1.219444E2,1.21E2,1.138E2,1.3E1,1.167E2,3.5E1,2.18E1,-9.3435615E-2,1.13079865E2,2.4E1,1.078E2,4.4E1,1.211E2,-4.477713E-1,-3.447128E-1,2.8903458E-1,-2.9246312E-1,-2.8807113E-1,-2.1644469E-1,-1.9794427E-1,-1.4557649E-1,9.599409E-2,-3.7670746E-1,-1.2979257E-1,5.204106E-2,-6.320779E-1,2.3322745E-1,-6.57507E-2,1.1818631E-1,2.1216868E-1,-3.5652926E-3,2.3843182E-2,5.4947674E-1,8.349045E-2,3.9435755E-2,1.671805E-1,-1.5513773E-1,3.7001935E-1,-3.050688E-1,1.9902898E-1,1.4371137E-1,4.2184632E-2,1.4390033E-1,1.7715646E-1,-3.477228E-2,3.843336E-1,-6.944885E-2,1.7089278E-1,-4.317698E-2,3.3307216E-1,1.8240383E-1,-1.3129174E0,2.8680488E-1,9.4486016E-1,2.944775E-1,2.3803079E-1,3.1306404E-1,2.3920543E-1,3.3509544E-1,-1.5577208E-1,1.0335745E-1,-8.934509E-2,3.3798096E-1,5.0715697E-1,3.95551E-1,4.4136176E-1,5.302002E-1,1.3034473E-1,6.30772E-1],"split_indices":[2,2,2,2,2,2,2,2,3,4,19,19,19,15,20,13,6,6,1,2,11,4,13,21,19,16,15,20,15,14,16,0,21,6,0,1,2,11,2,19,16,0,0,18,15,11,4,13,0,16,20,21,19,0,19,3,1,0,20,21,19,5,19,0,0,0,0,0,0,0,0,0,0,0,0,0,0,0,0,0,0,0,0,0,0,0,0,0,0,0,0,0,0,0,0,0,0,0,0,0,0,0,0,0,0,0,0,0,0,0,0,0,0,0,0,0,0,0,0],"split_type":[0,0,0,0,0,0,0,0,0,0,0,0,0,0,0,0,0,0,0,0,0,0,0,0,0,0,0,0,0,0,0,0,0,0,0,0,0,0,0,0,0,0,0,0,0,0,0,0,0,0,0,0,0,0,0,0,0,0,0,0,0,0,0,0,0,0,0,0,0,0,0,0,0,0,0,0,0,0,0,0,0,0,0,0,0,0,0,0,0,0,0,0,0,0,0,0,0,0,0,0,0,0,0,0,0,0,0,0,0,0,0,0,0,0,0,0,0,0,0],"sum_hessian":[6.1019E4,5.1173E4,9.846E3,3.912E4,1.2053E4,5.26E3,4.586E3,2.5326E4,1.3794E4,7.858E3,4.195E3,3.867E3,1.393E3,3.611E3,9.75E2,1.6776E4,8.55E3,9.733E3,4.061E3,7.85E3,8E0,3.945E3,2.5E2,1.582E3,2.285E3,9.09E2,4.84E2,3.522E3,8.9E1,2.69E2,7.06E2,1.6251E4,5.25E2,8.549E3,1E0,9.727E3,6E0,4.058E3,3E0,5.449E3,2.401E3,4E0,4E0,3.9E1,3.906E3,2.41E2,9E0,2.46E2,1.336E3,2.193E3,9.2E1,4.19E2,4.9E2,6E0,4.78E2,1.127E3,2.395E3,4.2E1,4.7E1,1.23E2,1.46E2,6.42E2,6.4E1,9.957E3,6.294E3,1.6E1,5.09E2,5.923E3,2.626E3,5.627E3,4.1E3,2E0,4E0,3.93E3,1.28E2,1E0,2E0,5.168E3,2.81E2,1.19E2,2.282E3,3.2E1,7E0,8.47E2,3.059E3,2.23E2,1.8E1,7E0,2E0,2.1E1,2.25E2,1.092E3,2.44E2,2.082E3,1.11E2,8.3E1,9E0,3.7E2,4.9E1,3.51E2,1.39E2,1E0,5E0,6E0,4.72E2,9.46E2,1.81E2,1.49E2,2.246E3,2.4E1,2.3E1,1.7E1,1.06E2,4.1E1,1.05E2,5.87E2,5.5E1,5.1E1,1.3E1],"tree_param":{"num_deleted":"0","num_feature":"22","num_nodes":"119","size_leaf_vector":"1"}},{"base_weights":[-2.4952095E-2,-5.978062E-2,1.110334E-1,-7.611797E-2,-2.2144435E-2,7.223471E-2,2.0756936E-1,-8.495582E-2,-6.2037062E-2,-3.7325963E-2,-1.5076421E-3,4.9011E-2,1.2504609E-1,1.785514E-1,3.240845E-1,-8.7323815E-2,-6.8202965E-2,-7.364124E-2,-5.2185006E-2,-5.2965987E-2,-2.836737E-2,-1.3721389E-2,2.517873E-2,3.1699155E-2,7.866254E-2,1.00709654E-1,1.5740101E-1,1.6142854E-1,2.1176468E-1,3.158571E-1,4.0909093E-2,-9.243792E-2,-8.312377E-2,3.0769208E-2,-6.969342E-2,-8.110012E-2,-6.5494455E-2,-5.3781055E-2,5.6310657E-2,-5.409892E-2,2.4166664E-1,-3.7289634E-2,-1.2545011E-2,-5.169494E-2,-1.0293017E-2,5.9716836E-2,2.453445E-3,2.1253747E-3,4.110282E-2,4.2532124E-2,1.0752175E-1,1.08514965E-1,-3.855424E-2,-6.3333355E-2,1.6310677E-1,1.567961E-1,3.8918915E-1,2.8999996E-1,1.9243588E-1,3.2390028E-1,1.0526293E-2,-4.4015455E-3,-4.7380696E-3,-4.1999384E-3,-3.222959E-3,-8.1081194E-4,3E-2,-3.5722905E-3,5.454534E-4,-4.0706987E-3,2.2499999E-2,1.3333333E-2,-3.290942E-3,-2.7138146E-3,1.0769229E-2,8.045965E-4,1.2941176E-2,-3.0415992E-3,-1.4374045E-3,-4.375001E-3,3.6E-2,-2.0966285E-3,3.0448707E-3,7.392015E-4,-1.2388405E-3,-2.9683008E-3,1.4374998E-2,1.2222222E-2,-5.4378476E-4,2.7784964E-3,2.9166667E-2,-2.981042E-4,6.249999E-3,-5.70514E-4,3.3641965E-3,7.6849066E-4,2.7531304E-3,2.0198994E-3,1.7142856E-2,3.5857793E-3,7.2447318E-3,4.9291034E-3,1.0542634E-2,2.2499999E-2,-2.500001E-3,-4.82143E-3,1.3333333E-2,8.725585E-3,2.7727261E-3,8.16227E-3,2.7027016E-3,3.0588234E-2,9.523808E-3,4.8387083E-3,1.6281249E-2,7.896475E-3,1.1987767E-2,1.1181101E-2,1.731115E-2,-4.6428586E-3,1.2499999E-2],"categories":[],"categories_nodes":[],"categories_segments":[],"categories_sizes":[],"default_left":[0,0,0,0,0,0,0,0,0,0,0,0,0,0,0,0,0,0,0,0,0,0,0,0,0,0,0,0,0,0,0,0,0,0,0,0,0,0,0,0,0,0,0,0,0,0,0,0,0,0,0,0,0,0,0,0,0,0,0,0,0,0,0,0,0,0,0,0,0,0,0,0,0,0,0,0,0,0,0,0,0,0,0,0,0,0,0,0,0,0,0,0,0,0,0,0,0,0,0,0,0,0,0,0,0,0,0,0,0,0,0,0,0,0,0,0,0,0,0,0,0],"id":13,"left_children":[1,3,5,7,9,11,13,15,17,19,21,23,25,27,29,31,33,35,37,39,41,43,45,47,49,51,53,55,57,59,-1,61,63,65,67,69,71,73,75,77,79,81,83,85,87,89,91,93,95,97,99,101,103,105,107,109,111,113,115,117,119,-1,-1,-1,-1,-1,-1,-1,-1,-1,-1,-1,-1,-1,-1,-1,-1,-1,-1,-1,-1,-1,-1,-1,-1,-1,-1,-1,-1,-1,-1,-1,-1,-1,-1,-1,-1,-1,-1,-1,-1,-1,-1,-1,-1,-1,-1,-1,-1,-1,-1,-1,-1,-1,-1,-1,-1,-1,-1,-1,-1],"loss_changes":[2.890506E2,2.9872665E1,4.6593628E1,4.210785E0,4.607932E0,1.0882526E1,1.2002274E1,8.1967163E-1,1.4901543E0,1.185812E0,2.0325851E0,3.163682E0,2.118801E0,1.5911789E0,2.6278152E0,3.8391113E-1,3.8302326E-1,3.5916138E-1,1.2274742E0,1.0428419E0,7.604456E-1,5.564098E-1,1.5366646E0,1.0833974E0,2.3654728E0,1.6890287E0,1.4738197E0,1.933094E0,1.4095078E0,1.7156677E0,0E0,7.575226E-2,1.5822601E-1,1.0528066E0,3.6011028E-1,5.5786705E-1,3.2700443E-1,9.406662E-1,8.347504E-1,5.2294827E-1,1.9524165E0,1.5735011E0,6.505474E-1,9.381725E-1,5.8524454E-1,1.6547551E0,1.2197347E0,8.3069557E-1,1.0610299E0,6.341342E-1,1.6797295E0,1.4714508E0,4.866265E-1,3.5335714E-1,1.3813801E0,1.2196617E0,1.5199332E0,1.2763872E0,1.2357368E0,1.4492264E0,4.9360904E-1,0E0,0E0,0E0,0E0,0E0,0E0,0E0,0E0,0E0,0E0,0E0,0E0,0E0,0E0,0E0,0E0,0E0,0E0,0E0,0E0,0E0,0E0,0E0,0E0,0E0,0E0,0E0,0E0,0E0,0E0,0E0,0E0,0E0,0E0,0E0,0E0,0E0,0E0,0E0,0E0,0E0,0E0,0E0,0E0,0E0,0E0,0E0,0E0,0E0,0E0,0E0,0E0,0E0,0E0,0E0,0E0,0E0,0E0,0E0,0E0],"parents":[2147483647,0,0,1,1,2,2,3,3,4,4,5,5,6,6,7,7,8,8,9,9,10,10,11,11,12,12,13,13,14,14,15,15,16,16,17,17,18,18,19,19,20,20,21,21,22,22,23,23,24,24,25,25,26,26,27,27,28,28,29,29,31,31,32,32,33,33,34,34,35,35,36,36,37,37,38,38,39,39,40,40,41,41,42,42,43,43,44,44,45,45,46,46,47,47,48,48,49,49,50,50,51,51,52,52,53,53,54,54,55,55,56,56,57,57,58,58,59,59,60,60],"right_children":[2,4,6,8,10,12,14,16,18,20,22,24,26,28,30,32,34,36,38,40,42,44,46,48,50,52,54,56,58,60,-1,62,64,66,68,70,72,74,76,78,80,82,84,86,88,90,92,94,96,98,100,102,104,106,108,110,112,114,116,118,120,-1,-1,-1,-1,-1,-1,-1,-1,-1,-1,-1,-1,-1,-1,-1,-1,-1,-1,-1,-1,-1,-1,-1,-1,-1,-1,-1,-1,-1,-1,-1,-1,-1,-1,-1,-1,-1,-1,-1,-1,-1,-1,-1,-1,-1,-1,-1,-1,-1,-1,-1,-1,-1,-1,-1,-1,-1,-1,-1,-1],"split_conditions":[1.78E1,1.13E1,2.46789E1,7.7906976E0,1.45E1,2.26E1,3.0742647E1,2.7E1,2.2E1,2.6E1,1.6659899E1,2.0443396E1,3.56E1,1.166E2,4.6E1,4.2E0,6E0,8.1E0,1.6337662E1,1.295E2,1.34E1,1.0997682E2,1.26E2,1.102E2,1.136E2,8E0,1.3255814E1,2.48E2,2E0,1.2077049E2,2.9454476E-1,8.3E1,1.19932205E2,8.136338E0,1.288E2,2.6E1,2E0,3.9E1,1.26E1,1.4E1,1.9E1,1.244E2,1E1,1.196E2,1.0727273E2,2.22E1,1.1939866E2,3.8E1,1.86E1,4.5E1,6.8774996E0,2.40125E1,2.48E1,3.4E1,4.2E1,6E0,2.92E2,1.9E1,8.264381E0,2E0,4E1,-4.1303954E-1,-4.693803E-1,-3.292268E-1,-3.022114E-1,4.9487567E-3,4.3085195E-2,-2.4928048E-1,7.2077416E-2,-2.7704427E-1,4.429722E-2,1.2409373E-1,-2.1327162E-1,-1.5868145E-1,2.0592657E-1,2.0584106E-2,3.842267E-1,-1.4357036E-1,-8.346621E-2,-1.5596981E-1,6.21184E-1,-1.1113911E-1,1.532868E-1,3.4740727E-2,-5.329701E-2,-1.0554377E-1,1.7387839E-1,7.745409E-2,-2.2849143E-2,7.984187E-2,6.449675E-1,-6.303437E-3,2.3529075E-1,-1.373412E-2,5.4791372E-2,3.9570425E-2,9.3307145E-2,9.1598E-2,3.4515962E-1,1.4174135E-1,2.0824054E-1,1.904822E-1,3.2604668E-1,3.197184E-2,-2.6810039E-2,-8.854848E-2,4.2518903E-2,2.4814764E-1,7.6745026E-2,3.115861E-1,2.0491114E-1,7.385177E-1,2.11964E-1,2.68544E-1,4.744481E-1,2.7553514E-1,3.4543696E-1,2.6672253E-1,4.181006E-1,-1.9540649E-2,1.8518536E0],"split_indices":[2,2,12,12,2,2,12,9,9,9,12,12,7,19,11,1,16,2,12,19,12,20,21,19,18,15,12,16,15,17,0,21,17,13,18,4,11,7,1,1,4,19,5,18,17,1,20,9,1,9,13,12,7,5,11,15,21,4,13,15,5,0,0,0,0,0,0,0,0,0,0,0,0,0,0,0,0,0,0,0,0,0,0,0,0,0,0,0,0,0,0,0,0,0,0,0,0,0,0,0,0,0,0,0,0,0,0,0,0,0,0,0,0,0,0,0,0,0,0,0,0],"split_type":[0,0,0,0,0,0,0,0,0,0,0,0,0,0,0,0,0,0,0,0,0,0,0,0,0,0,0,0,0,0,0,0,0,0,0,0,0,0,0,0,0,0,0,0,0,0,0,0,0,0,0,0,0,0,0,0,0,0,0,0,0,0,0,0,0,0,0,0,0,0,0,0,0,0,0,0,0,0,0,0,0,0,0,0,0,0,0,0,0,0,0,0,0,0,0,0,0,0,0,0,0,0,0,0,0,0,0,0,0,0,0,0,0,0,0,0,0,0,0,0,0],"sum_hessian":[6.1028E4,4.8585E4,1.2443E4,3.3878E4,1.4707E4,8.877E3,3.566E3,2.0811E4,1.3067E4,8.473E3,6.234E3,6.167E3,2.71E3,2.857E3,7.09E2,1.823E4,2.581E3,5.997E3,7.07E3,3.084E3,5.389E3,4.277E3,1.957E3,3.895E3,2.272E3,1.549E3,1.161E3,1.889E3,9.68E2,6.99E2,1E1,8.211E3,1.0019E4,3.8E1,2.543E3,3.126E3,2.871E3,6.968E3,1.02E2,3.073E3,1.1E1,3.445E3,1.944E3,3.53E2,3.924E3,7.76E2,1.181E3,9.4E2,2.955E3,1.01E3,1.262E3,1.467E3,8.2E1,2.9E1,1.132E3,1.853E3,3.6E1,1.89E2,7.79E2,6.81E2,1.8E1,2.848E3,5.363E3,9.567E3,4.52E2,3.6E1,2E0,2.489E3,5.4E1,3.125E3,1E0,2E0,2.869E3,6.956E3,1.2E1,8.6E1,1.6E1,2.427E3,6.46E2,7E0,4E0,3.29E3,1.55E2,6.01E2,1.343E3,3.46E2,7E0,8E0,3.916E3,7.71E2,5E0,1.106E3,7.5E1,7.79E2,1.61E2,1.04E3,1.915E3,1.004E3,6E0,6.46E2,6.16E2,1.339E3,1.28E2,1E0,8.1E1,2.7E1,2E0,1.023E3,1.09E2,1.743E3,1.1E2,1.6E1,2E1,3E1,1.59E2,4.53E2,3.26E2,1.26E2,5.55E2,1.3E1,5E0],"tree_param":{"num_deleted":"0","num_feature":"22","num_nodes":"121","size_leaf_vector":"1"}},{"base_weights":[-2.5174918E-2,-5.347469E-2,1.2603135E-1,-7.049678E-2,-1.6056909E-3,8.271042E-2,1.8407099E-1,-7.632667E-2,-4.0054653E-2,-2.0251298E-2,3.0512083E-2,7.216537E-2,1.3540302E-1,1.607768E-1,2.5915635E-1,-8.60362E-2,-6.6927105E-2,-5.9783325E-2,-3.339779E-2,-2.5575144E-2,1.7334646E-2,1.9286973E-2,8.738619E-2,5.052491E-2,9.354976E-2,1.4717644E-1,-1.1594227E-2,1.8065743E-1,1.2061359E-1,8.450702E-2,2.726164E-1,-8.609792E-2,2.2499999E-2,-7.3763885E-2,-5.7311412E-2,-6.039543E-2,2.2499999E-2,4.2499998E-1,-3.378468E-2,-2.777537E-2,5.478721E-2,1.4357913E-2,3.0999997E-1,-3.2026381E-3,3.3797443E-2,4.680849E-2,1.365994E-1,4.7090158E-2,2.6388887E-1,8.1961356E-2,1.5976673E-1,1.3452227E-1,2.9545453E-1,-3.69231E-2,3.2E-1,1.520182E-1,2.583333E-1,1.3575613E-1,5.2355997E-2,5.1723905E-3,4.0714285E-1,3.9619046E-1,2.56015E-1,-4.401952E-3,-3.7377202E-3,-3.4948324E-3,-4.0827296E-3,-2.931368E-3,8.264451E-4,6.9230758E-3,-3.100901E-3,3E-2,-2.5000006E-3,-2.0538883E-3,-7.0349884E-4,-2.4983576E-3,-1.0721661E-3,7.770259E-4,9.756097E-3,-5.33218E-4,2.4282285E-3,2.9166667E-2,-4.000001E-3,-2.9894995E-4,2.3333332E-2,6.0016103E-4,2.8690675E-3,-4.82143E-3,2.840908E-3,2.1578947E-2,5.9574456E-3,1.5333332E-2,2.2664273E-3,3.6E-2,9.218749E-3,3.1286755E-3,6.2561566E-3,1.0373442E-2,2.330096E-3,1.8803406E-3,7.5635263E-3,-4.444446E-3,1.7499998E-2,1.3333333E-2,-2.5396838E-3,3E-2,-3.3333343E-3,6.1831144E-3,9.30316E-3,3.2812502E-2,1.2313296E-2,5.3796284E-3,9.187897E-3,6.6860453E-3,-7.0754834E-4,-4.8275874E-3,5.1666657E-3,3.0499998E-2,-4.000001E-3,6.7307684E-3,2.3812499E-2,1.1395129E-2,1.5584904E-2],"categories":[],"categories_nodes":[],"categories_segments":[],"categories_sizes":[],"default_left":[0,0,0,0,0,0,0,0,0,0,0,0,0,0,0,0,0,0,0,0,0,0,0,0,0,0,0,0,0,0,0,0,0,0,0,0,0,0,0,0,0,0,0,0,0,0,0,0,0,0,0,0,0,0,0,0,0,0,0,0,0,0,0,0,0,0,0,0,0,0,0,0,0,0,0,0,0,0,0,0,0,0,0,0,0,0,0,0,0,0,0,0,0,0,0,0,0,0,0,0,0,0,0,0,0,0,0,0,0,0,0,0,0,0,0,0,0,0,0,0,0,0,0],"id":14,"left_children":[1,3,5,7,9,11,13,15,17,19,21,23,25,27,29,31,33,35,37,39,41,43,45,47,49,51,53,55,57,59,61,63,-1,65,67,69,-1,71,73,75,77,79,81,83,85,87,89,91,93,95,97,99,101,103,105,107,109,111,113,115,117,119,121,-1,-1,-1,-1,-1,-1,-1,-1,-1,-1,-1,-1,-1,-1,-1,-1,-1,-1,-1,-1,-1,-1,-1,-1,-1,-1,-1,-1,-1,-1,-1,-1,-1,-1,-1,-1,-1,-1,-1,-1,-1,-1,-1,-1,-1,-1,-1,-1,-1,-1,-1,-1,-1,-1,-1,-1,-1,-1,-1,-1],"loss_changes":[2.6119037E2,4.5395172E1,2.4180176E1,6.8671417E0,7.6090755E0,3.052948E0,7.1504364E0,2.9592743E0,8.154087E-1,1.6090615E0,2.9778113E0,2.1216927E0,1.5904541E0,2.4862137E0,2.2619247E0,5.673218E-1,1.0812759E0,5.167718E-1,8.400955E-1,1.2466555E0,8.64993E-1,1.2724878E0,1.5292673E0,1.6628737E0,1.7594833E0,1.5551434E0,5.9134007E-1,4.6301193E0,1.0709314E0,1.8152239E0,1.7490234E0,3.4519196E-1,0E0,2.8867722E-1,6.681385E-1,5.145221E-1,0E0,3.6249995E-1,6.684356E-1,9.621892E-1,1.0324103E0,8.4703106E-1,1.1126667E0,1.9987158E0,1.2174745E0,